{
    "in_shape": [
        null,
        null,
        2
    ],
    "layers": [
        {
            "type": "lstm",
            "activation": "",
            "shape": [
                null,
                null,
                16
            ],
            "weights": [
                [
                    [
                        -0.18774527311325073,
                        0.21054968237876892,
                        0.0851902887225151,
                        0.07619024068117142,
                        -0.4002741575241089,
                        0.22268818318843842,
                        0.08208915591239929,
                        -0.17277415096759796,
                        -0.9640231132507324,
                        -0.05433570593595505,
                        -0.15330496430397034,
                        1.9244799613952637,
                        -0.09982916712760925,
                        0.0756145641207695,
                        0.2169053554534912,
                        0.22930164635181427,
                        0.46831652522087097,
                        0.17213812470436096,
                        -0.6590365171432495,
                        0.19895699620246887,
                        -0.7579793334007263,
                        0.30250084400177,
                        -0.06000469624996185,
                        0.14573794603347778,
                        -1.083754539489746,
                        -0.21902711689472198,
                        -0.35947293043136597,
                        1.5217305421829224,
                        -0.004830967169255018,
                        -0.09289507567882538,
                        0.05925945192575455,
                        0.15693381428718567,
                        0.06843560934066772,
                        0.02994050271809101,
                        0.5820398330688477,
                        1.943084716796875,
                        -0.019801056012511253,
                        0.3941044509410858,
                        -0.6639513969421387,
                        1.1365671157836914,
                        0.5842438340187073,
                        0.5362188220024109,
                        -3.060849905014038,
                        0.6464670300483704,
                        -0.20271100103855133,
                        -0.6077664494514465,
                        -0.06578884273767471,
                        -0.06868304312229156,
                        -0.7466673851013184,
                        -0.336262047290802,
                        -0.06557850539684296,
                        0.09819144010543823,
                        -0.35924410820007324,
                        -1.51064932346344,
                        -0.060397837311029434,
                        -0.06926210969686508,
                        -0.5997308492660522,
                        -0.17222648859024048,
                        0.5532444715499878,
                        0.5079411268234253,
                        0.23627841472625732,
                        0.5116389989852905,
                        -0.11168362945318222,
                        -0.5291825532913208
                    ],
                    [
                        -0.16706040501594543,
                        -0.22065073251724243,
                        0.4095355272293091,
                        0.7072115540504456,
                        -0.7255000472068787,
                        -0.4690170884132385,
                        0.3221118450164795,
                        0.9165184497833252,
                        -0.34305477142333984,
                        0.2250227928161621,
                        2.199202537536621,
                        -0.16270354390144348,
                        0.49454551935195923,
                        -0.2770928740501404,
                        0.46661555767059326,
                        -0.3920748829841614,
                        0.5245442986488342,
                        0.11748232692480087,
                        0.36412230134010315,
                        -0.440718412399292,
                        0.458721399307251,
                        0.9744781255722046,
                        -0.04471435770392418,
                        -0.9779285788536072,
                        0.4766717255115509,
                        0.28083980083465576,
                        0.09126480668783188,
                        0.2203017622232437,
                        0.0568227581679821,
                        0.26419293880462646,
                        0.05615285784006119,
                        0.5720414519309998,
                        -0.2171446681022644,
                        -0.35395264625549316,
                        -0.08556805551052094,
                        0.9613561630249023,
                        -0.2510489523410797,
                        -0.2386724054813385,
                        -0.5979430079460144,
                        -0.10417578369379044,
                        -0.05615408346056938,
                        0.013764406554400921,
                        -0.10385402292013168,
                        0.31964167952537537,
                        -0.22890838980674744,
                        -0.07977958023548126,
                        0.027874043211340904,
                        0.1575045883655548,
                        0.3316879868507385,
                        0.13801974058151245,
                        0.34726470708847046,
                        0.6057541370391846,
                        0.5751510262489319,
                        0.2585870623588562,
                        0.5093168020248413,
                        -0.5865935683250427,
                        0.18204224109649658,
                        0.289420485496521,
                        0.9593620300292969,
                        -0.18550759553909302,
                        -0.3871781527996063,
                        -0.025966469198465347,
                        0.7143564224243164,
                        0.15204834938049316
                    ]
                ],
                [
                    [
                        -0.023254631087183952,
                        -0.029820682480931282,
                        0.5189446210861206,
                        -0.3055702745914459,
                        0.01046752743422985,
                        -0.14510522782802582,
                        -0.14969593286514282,
                        1.342130184173584,
                        -0.3215623199939728,
                        0.07606729120016098,
                        0.07877194136381149,
                        0.001708749565295875,
                        -0.21483436226844788,
                        -0.577981173992157,
                        -0.20238643884658813,
                        0.1582348793745041,
                        0.33630508184432983,
                        0.2056763470172882,
                        0.15223461389541626,
                        -0.11765848845243454,
                        0.19805045425891876,
                        0.0948282778263092,
                        -0.29922783374786377,
                        0.056910376995801926,
                        0.5092065930366516,
                        0.09004005789756775,
                        0.0809558629989624,
                        -0.16324365139007568,
                        0.2871758043766022,
                        0.1318286806344986,
                        0.032034412026405334,
                        -0.029789989814162254,
                        0.12795031070709229,
                        -0.08620627969503403,
                        0.10234636813402176,
                        1.0167185068130493,
                        0.1721290498971939,
                        -0.15709081292152405,
                        0.21802356839179993,
                        -0.7117817997932434,
                        -0.03929827734827995,
                        -0.23327183723449707,
                        -0.14247387647628784,
                        0.09468641877174377,
                        0.5940738916397095,
                        -0.16601376235485077,
                        0.3125341534614563,
                        -0.22771085798740387,
                        0.7896503806114197,
                        0.024065693840384483,
                        0.21739208698272705,
                        -0.21832525730133057,
                        0.1602795124053955,
                        -0.05606946721673012,
                        -0.16131643950939178,
                        -0.9124603271484375,
                        0.3981999158859253,
                        0.04730606451630592,
                        -0.9300811290740967,
                        0.2683992087841034,
                        0.1163841113448143,
                        -0.13722379505634308,
                        0.7354223728179932,
                        -0.026635436341166496
                    ],
                    [
                        -0.2921442985534668,
                        -0.13110320270061493,
                        0.5431565642356873,
                        -0.2572345733642578,
                        -0.29406437277793884,
                        0.008945862762629986,
                        -0.1616743803024292,
                        -0.2919621765613556,
                        -0.3192986249923706,
                        -0.1306837797164917,
                        -0.4423934817314148,
                        -0.2253725230693817,
                        0.04653880000114441,
                        -0.05668501928448677,
                        0.0735861137509346,
                        0.08217275887727737,
                        -0.09615389257669449,
                        -0.2763959467411041,
                        0.5319976806640625,
                        0.014272533357143402,
                        0.14911974966526031,
                        -0.12722057104110718,
                        0.035972751677036285,
                        0.11717412620782852,
                        0.08475111424922943,
                        -0.09142106771469116,
                        -0.4179214537143707,
                        -0.2065843641757965,
                        -0.0016213422641158104,
                        -0.05882161483168602,
                        0.1287405788898468,
                        -0.3896920382976532,
                        -0.11033955216407776,
                        0.10886186361312866,
                        0.041172876954078674,
                        1.1131649017333984,
                        0.07830611616373062,
                        -0.05532001703977585,
                        -0.07597137242555618,
                        0.0060357037000358105,
                        0.19485773146152496,
                        -0.11503506451845169,
                        -0.7740198969841003,
                        -0.04623384401202202,
                        -0.040697112679481506,
                        -0.09594279527664185,
                        -0.30618923902511597,
                        -0.01290204655379057,
                        -0.10169560462236404,
                        -0.1448248326778412,
                        0.08823180198669434,
                        -0.26818761229515076,
                        0.13593223690986633,
                        0.14606237411499023,
                        -0.21865718066692352,
                        0.29612964391708374,
                        0.02870853804051876,
                        -0.2904585003852844,
                        -0.22098131477832794,
                        0.10072413831949234,
                        0.10754914581775665,
                        0.07571500539779663,
                        -0.24321845173835754,
                        -0.05152985453605652
                    ],
                    [
                        -0.010698968544602394,
                        0.12502795457839966,
                        -1.2033908367156982,
                        -0.2479577362537384,
                        0.6492311954498291,
                        0.30190885066986084,
                        -0.5431159138679504,
                        -0.09036481380462646,
                        0.16083063185214996,
                        -0.1286766082048416,
                        -0.16828566789627075,
                        0.36250820755958557,
                        0.5643166303634644,
                        0.3710727393627167,
                        -0.32162708044052124,
                        0.18125185370445251,
                        -0.4206739068031311,
                        -0.11209790408611298,
                        -0.8897758722305298,
                        -0.18706287443637848,
                        -0.2057437002658844,
                        -0.9312345385551453,
                        -0.27165743708610535,
                        0.015643863007426262,
                        -0.32122737169265747,
                        0.029679862782359123,
                        0.05645577982068062,
                        0.4855051338672638,
                        -0.15446209907531738,
                        -0.5856914520263672,
                        -0.5935314893722534,
                        -0.5789995789527893,
                        -0.008607652969658375,
                        0.13576285541057587,
                        0.2022601068019867,
                        1.5840551853179932,
                        0.042219214141368866,
                        -0.34634360671043396,
                        -0.04731214419007301,
                        -0.20568524301052094,
                        0.394592821598053,
                        0.04537294805049896,
                        -1.8706640005111694,
                        0.40259483456611633,
                        0.0027626785449683666,
                        -0.48646241426467896,
                        -0.007639931980520487,
                        0.06955049186944962,
                        0.19179949164390564,
                        -0.24890170991420746,
                        -0.6481731534004211,
                        -0.25858989357948303,
                        0.07958851009607315,
                        -0.2891464829444885,
                        -0.3993677794933319,
                        -0.2940380573272705,
                        0.2197800874710083,
                        0.284811407327652,
                        -1.0878552198410034,
                        0.03121054545044899,
                        -0.3776606023311615,
                        0.11034278571605682,
                        0.010313503444194794,
                        0.2511279284954071
                    ],
                    [
                        -0.23832057416439056,
                        0.1278921514749527,
                        -0.031340550631284714,
                        0.159701868891716,
                        0.3331070840358734,
                        -0.2718636989593506,
                        0.23054559528827667,
                        0.8637449145317078,
                        -0.0862337052822113,
                        0.1496443897485733,
                        0.7624824047088623,
                        0.25779277086257935,
                        0.19950847327709198,
                        -0.11988761276006699,
                        0.2175072580575943,
                        0.6925490498542786,
                        -0.23228277266025543,
                        0.19869695603847504,
                        0.13662301003932953,
                        -0.19135025143623352,
                        -0.17055584490299225,
                        -0.26955994963645935,
                        0.24342791736125946,
                        1.1253353357315063,
                        -0.16988204419612885,
                        -0.058290544897317886,
                        -0.4681692123413086,
                        0.12012158334255219,
                        -0.28739747405052185,
                        -0.5167539119720459,
                        -0.2344689816236496,
                        0.020979592576622963,
                        -0.4133896827697754,
                        0.025587355718016624,
                        -0.07176075130701065,
                        0.2533940076828003,
                        -0.1277114897966385,
                        0.1406625211238861,
                        0.9742534160614014,
                        -2.8981990814208984,
                        0.21914230287075043,
                        0.4985365569591522,
                        -0.3302087187767029,
                        -0.08746457099914551,
                        -0.007958291098475456,
                        0.17582684755325317,
                        -0.21565698087215424,
                        0.5050380229949951,
                        0.20422455668449402,
                        0.15828455984592438,
                        -0.006818069610744715,
                        -0.21392810344696045,
                        0.3562872111797333,
                        -0.07952599227428436,
                        0.42391037940979004,
                        0.005817745812237263,
                        -0.08267698436975479,
                        0.16941116750240326,
                        -1.2956833839416504,
                        -0.7895340919494629,
                        0.016528520733118057,
                        -0.84124356508255,
                        0.14811858534812927,
                        -0.005127111449837685
                    ],
                    [
                        0.2262931764125824,
                        0.038690678775310516,
                        0.6262259483337402,
                        -0.27889493107795715,
                        0.026202384382486343,
                        0.3321506679058075,
                        -0.22656531631946564,
                        -0.22896191477775574,
                        -0.0651007667183876,
                        -0.1818751096725464,
                        -0.5956749320030212,
                        0.5209698677062988,
                        0.11450284719467163,
                        0.01825842075049877,
                        0.0050873467698693275,
                        0.150992751121521,
                        -0.03469265252351761,
                        -0.13754266500473022,
                        0.21129564940929413,
                        -0.0783252865076065,
                        -0.15439873933792114,
                        -0.31929707527160645,
                        0.33126524090766907,
                        -0.22106890380382538,
                        0.0013812872348353267,
                        -0.05816011130809784,
                        -0.28115588426589966,
                        0.28474169969558716,
                        -0.387746661901474,
                        -0.701029896736145,
                        -0.25064560770988464,
                        -0.6392581462860107,
                        -0.10933583229780197,
                        0.050552818924188614,
                        0.3358336389064789,
                        -0.2428475022315979,
                        0.16960203647613525,
                        -0.249294713139534,
                        0.2725958526134491,
                        0.579348623752594,
                        -0.06189722567796707,
                        0.26964324712753296,
                        0.3918568789958954,
                        0.3420770466327667,
                        0.36828720569610596,
                        -0.2788081467151642,
                        -0.4480178654193878,
                        0.04084138944745064,
                        0.20182938873767853,
                        0.04524220526218414,
                        -0.32440221309661865,
                        -0.28762540221214294,
                        -0.507399320602417,
                        0.48140281438827515,
                        -0.27092811465263367,
                        0.22252660989761353,
                        -0.3666740357875824,
                        0.10244111716747284,
                        0.9103767275810242,
                        -0.15118178725242615,
                        -0.2304431051015854,
                        0.04344072937965393,
                        -0.1320229172706604,
                        -0.008886817842721939
                    ],
                    [
                        0.008463183417916298,
                        0.038357507437467575,
                        0.4264144003391266,
                        -0.2818906009197235,
                        0.26026105880737305,
                        0.32529452443122864,
                        -0.17835190892219543,
                        0.20409898459911346,
                        -0.10661901533603668,
                        -0.14258158206939697,
                        -0.3497825860977173,
                        0.3551167845726013,
                        0.17456141114234924,
                        0.4068186581134796,
                        0.25064778327941895,
                        0.29211509227752686,
                        -0.47197088599205017,
                        0.057784613221883774,
                        0.5857887864112854,
                        0.24854633212089539,
                        -0.6293935179710388,
                        -0.49296581745147705,
                        0.06913407891988754,
                        -0.14957916736602783,
                        0.1182059496641159,
                        0.004162135999649763,
                        -0.0824146643280983,
                        0.09726882725954056,
                        -0.4395090639591217,
                        -0.05855521187186241,
                        -0.20980915427207947,
                        -0.49320971965789795,
                        -0.2068464756011963,
                        -0.040509261190891266,
                        0.02282511629164219,
                        1.0233577489852905,
                        0.12847082316875458,
                        0.023932388052344322,
                        -0.11995333433151245,
                        -0.24827983975410461,
                        0.17568233609199524,
                        0.2604542076587677,
                        0.2400372326374054,
                        0.17069220542907715,
                        0.17801493406295776,
                        0.2859847843647003,
                        0.2824868857860565,
                        0.1501639038324356,
                        0.04091350734233856,
                        -0.11671996861696243,
                        -0.5881646871566772,
                        -0.3880545496940613,
                        -0.2294250875711441,
                        -0.8882322907447815,
                        -0.26984915137290955,
                        -0.1710122674703598,
                        -0.1367768496274948,
                        -0.3177326023578644,
                        -0.0815393328666687,
                        0.12734311819076538,
                        -0.19898046553134918,
                        0.10741376876831055,
                        -0.08342733234167099,
                        0.12809135019779205
                    ],
                    [
                        -0.3641262352466583,
                        0.1936146467924118,
                        -0.3157053291797638,
                        0.2808290421962738,
                        -0.19752641022205353,
                        -0.7713422179222107,
                        0.43375736474990845,
                        -1.4057163000106812,
                        -0.7143667340278625,
                        0.12856028974056244,
                        0.012981620617210865,
                        -0.05734526738524437,
                        -0.1747816503047943,
                        -0.1936590075492859,
                        -0.006422508507966995,
                        0.0950765311717987,
                        0.30417364835739136,
                        0.2861132323741913,
                        0.07563149183988571,
                        0.3261779546737671,
                        0.13953450322151184,
                        0.8916001319885254,
                        0.045981451869010925,
                        -0.020180528983473778,
                        0.5575011372566223,
                        0.41586267948150635,
                        -0.717456042766571,
                        0.07715559750795364,
                        0.19935135543346405,
                        0.1939195692539215,
                        0.07537728548049927,
                        0.5051643252372742,
                        -0.20568394660949707,
                        0.14743804931640625,
                        -0.09029550850391388,
                        -1.0913156270980835,
                        0.09045130759477615,
                        -0.008885332383215427,
                        -0.19942054152488708,
                        -2.8089094161987305,
                        0.051181770861148834,
                        0.13289758563041687,
                        0.09461577236652374,
                        0.01997355744242668,
                        0.14106132090091705,
                        0.027597660198807716,
                        -0.008120836690068245,
                        -0.05665868520736694,
                        -0.0540379136800766,
                        0.28724032640457153,
                        0.41901764273643494,
                        0.12966197729110718,
                        0.13089120388031006,
                        -0.038472484797239304,
                        -0.2920963764190674,
                        -0.14343562722206116,
                        -0.0584493987262249,
                        -0.34644266963005066,
                        -0.6542605757713318,
                        -0.12654109299182892,
                        -0.2257528156042099,
                        0.15778754651546478,
                        -0.3746122419834137,
                        -0.5179389119148254
                    ],
                    [
                        -0.17766591906547546,
                        0.06264916062355042,
                        0.0168740376830101,
                        -0.3793659210205078,
                        -0.04870612546801567,
                        -0.20129942893981934,
                        -0.48048388957977295,
                        -0.4948965907096863,
                        -0.08429358899593353,
                        -0.031924329698085785,
                        0.05148385092616081,
                        0.003977575805038214,
                        0.2854293882846832,
                        -0.22567181289196014,
                        -0.22558140754699707,
                        0.4310092628002167,
                        -0.1974773108959198,
                        0.008883168920874596,
                        -0.008719983510673046,
                        -0.1688821017742157,
                        0.22737383842468262,
                        0.10867428034543991,
                        0.014285242184996605,
                        0.31084349751472473,
                        0.08403933793306351,
                        -0.12059485912322998,
                        -0.01524082850664854,
                        -0.042560186237096786,
                        -0.22142630815505981,
                        0.25217604637145996,
                        0.4343261122703552,
                        0.060380902141332626,
                        0.181579127907753,
                        0.025362512096762657,
                        -0.07056182622909546,
                        0.09023207426071167,
                        0.12728698551654816,
                        0.2256901115179062,
                        0.1459060162305832,
                        1.293181300163269,
                        -0.03799012303352356,
                        -0.08640848100185394,
                        -0.04411317780613899,
                        0.032024282962083817,
                        0.24697436392307281,
                        0.21015632152557373,
                        -0.17275536060333252,
                        0.08569620549678802,
                        -0.05899043381214142,
                        0.009093858301639557,
                        0.2534131705760956,
                        -0.33647507429122925,
                        0.006928710732609034,
                        0.03642405942082405,
                        0.41051334142684937,
                        -0.23258307576179504,
                        0.010013837367296219,
                        -0.016484791412949562,
                        0.0784391388297081,
                        -0.10035676509141922,
                        -0.5465767979621887,
                        0.05858867987990379,
                        0.7160852551460266,
                        0.009548448026180267
                    ],
                    [
                        0.021845035254955292,
                        0.04421660304069519,
                        2.4106898307800293,
                        -0.059586502611637115,
                        -0.1367267519235611,
                        -0.0037230688612908125,
                        -0.08624773472547531,
                        -0.47960135340690613,
                        -0.24526728689670563,
                        -0.14473140239715576,
                        -0.10700026899576187,
                        0.32290834188461304,
                        0.03196849673986435,
                        0.23454105854034424,
                        0.07086649537086487,
                        0.15637922286987305,
                        -0.22119861841201782,
                        -0.15592627227306366,
                        1.1845860481262207,
                        -0.3043470084667206,
                        -0.31462326645851135,
                        -0.33859431743621826,
                        0.1395256519317627,
                        0.06256458908319473,
                        -0.4782339036464691,
                        -0.1982034146785736,
                        0.13532224297523499,
                        -0.14290010929107666,
                        -0.4651776850223541,
                        -0.30504757165908813,
                        -0.3103400468826294,
                        -0.48813775181770325,
                        0.021838640794157982,
                        -0.12673094868659973,
                        0.12255183607339859,
                        -0.9439594149589539,
                        0.23862923681735992,
                        0.30627769231796265,
                        -0.10349821299314499,
                        0.42007145285606384,
                        0.1384505182504654,
                        0.3025442957878113,
                        0.3754142224788666,
                        -0.1882346123456955,
                        0.056773364543914795,
                        0.25187501311302185,
                        0.1521834433078766,
                        -0.06954044848680496,
                        -0.30096736550331116,
                        0.047173451632261276,
                        -0.42336204648017883,
                        -0.15412171185016632,
                        -0.29769274592399597,
                        0.5062966346740723,
                        -0.1562911570072174,
                        -0.16863439977169037,
                        -0.6439918875694275,
                        -0.2684575617313385,
                        0.37206047773361206,
                        -0.04607253149151802,
                        -0.12141142040491104,
                        -0.18423737585544586,
                        -0.29017373919487,
                        -0.47536253929138184
                    ],
                    [
                        0.19593146443367004,
                        0.12311069667339325,
                        0.6307945251464844,
                        -0.11684446781873703,
                        0.3029475212097168,
                        0.26160362362861633,
                        -0.12763139605522156,
                        -0.2071814090013504,
                        0.16627486050128937,
                        -0.08864488452672958,
                        -0.17200233042240143,
                        0.013427997007966042,
                        -0.023315442726016045,
                        0.048140060156583786,
                        0.0722978264093399,
                        0.12339199334383011,
                        0.01666470803320408,
                        0.02365555427968502,
                        0.5334939360618591,
                        -0.09891416877508163,
                        -0.4145415127277374,
                        -0.1782013475894928,
                        -0.02782376855611801,
                        -0.11336604505777359,
                        -0.3421376049518585,
                        -0.06842450797557831,
                        0.036220453679561615,
                        -0.0723603293299675,
                        -0.35038915276527405,
                        -0.3000064492225647,
                        -0.09789098799228668,
                        -0.3600385785102844,
                        0.06354054063558578,
                        -0.14864642918109894,
                        -0.16778376698493958,
                        -0.3564365804195404,
                        0.021527525037527084,
                        0.21371346712112427,
                        -0.08535350114107132,
                        0.38513150811195374,
                        0.27322444319725037,
                        -0.14693978428840637,
                        0.4576224684715271,
                        0.08535698801279068,
                        0.04041413217782974,
                        0.11713981628417969,
                        -0.053221315145492554,
                        -0.1754593849182129,
                        -0.035972271114587784,
                        0.05886337533593178,
                        -0.37772056460380554,
                        -0.15068753063678741,
                        -0.17816419899463654,
                        0.14644233882427216,
                        -0.14206336438655853,
                        -0.11473555862903595,
                        0.07025396078824997,
                        0.6083594560623169,
                        -0.14988014101982117,
                        0.03573297709226608,
                        -0.08557137846946716,
                        -0.07645241171121597,
                        -0.043679431080818176,
                        0.028005478903651237
                    ],
                    [
                        0.17061150074005127,
                        -0.010019657202064991,
                        -0.003555558156222105,
                        -0.18887075781822205,
                        -0.11997644603252411,
                        0.4731484353542328,
                        -0.11473878473043442,
                        1.7105321884155273,
                        0.21357525885105133,
                        0.018203837797045708,
                        0.001370476558804512,
                        -0.05075749754905701,
                        -0.12626326084136963,
                        -0.13987566530704498,
                        -0.05808661878108978,
                        -0.07601746916770935,
                        0.052904803305864334,
                        0.06322940438985825,
                        -0.14440996944904327,
                        0.4133897125720978,
                        0.002169801387935877,
                        -0.12117807567119598,
                        0.2569626271724701,
                        -0.27300405502319336,
                        -0.2677849531173706,
                        -0.11153200268745422,
                        0.12006189674139023,
                        0.08976396918296814,
                        0.03497817739844322,
                        0.4378616213798523,
                        -0.06747746467590332,
                        -0.12285230308771133,
                        0.38430285453796387,
                        0.0003220411017537117,
                        -0.045176927000284195,
                        -1.6510989665985107,
                        0.028214726597070694,
                        -0.2882457673549652,
                        -1.1778583526611328,
                        2.2398087978363037,
                        0.07901676744222641,
                        -0.3344017267227173,
                        0.9788262844085693,
                        -0.10778523236513138,
                        0.2293051779270172,
                        -0.023056814447045326,
                        0.06280137598514557,
                        -0.3298649191856384,
                        -0.16140300035476685,
                        -0.12171472609043121,
                        -0.03082374483346939,
                        0.009165709838271141,
                        -0.08495979756116867,
                        -0.5130726099014282,
                        0.5453445315361023,
                        -0.3397292196750641,
                        0.11413615196943283,
                        -0.2854720950126648,
                        0.7398859858512878,
                        0.8277798295021057,
                        -0.09355155378580093,
                        0.16106243431568146,
                        0.3686085343360901,
                        0.16424256563186646
                    ],
                    [
                        -0.43193987011909485,
                        0.07635743170976639,
                        0.7958868145942688,
                        0.07742900401353836,
                        -0.1743653267621994,
                        0.04094105213880539,
                        0.16304270923137665,
                        -0.035137247294187546,
                        -0.3696960508823395,
                        -0.009867463260889053,
                        -0.15260069072246552,
                        0.23664674162864685,
                        -0.361359179019928,
                        -0.14843782782554626,
                        0.0788300484418869,
                        -0.004983589518815279,
                        0.447381854057312,
                        0.18919877707958221,
                        0.31363874673843384,
                        -0.19120976328849792,
                        0.3561854064464569,
                        0.32973119616508484,
                        0.11945542693138123,
                        0.08066464215517044,
                        0.10089490562677383,
                        -0.10725430399179459,
                        -0.3004462718963623,
                        0.49661046266555786,
                        -0.0527273565530777,
                        0.1971053034067154,
                        -0.04118305444717407,
                        0.17062899470329285,
                        0.03791441023349762,
                        -0.32891350984573364,
                        -0.6946842074394226,
                        1.052951455116272,
                        0.05067772790789604,
                        -0.39772829413414,
                        0.32837939262390137,
                        0.24540400505065918,
                        0.07883305102586746,
                        0.22921055555343628,
                        0.19200003147125244,
                        0.046330325305461884,
                        -0.059678029268980026,
                        0.17066648602485657,
                        -0.0728323757648468,
                        -0.13428524136543274,
                        -0.1535104662179947,
                        0.36060717701911926,
                        0.3287295401096344,
                        0.1159137710928917,
                        -0.07161886990070343,
                        -0.037368033081293106,
                        0.20672333240509033,
                        -0.11650759726762772,
                        -0.46309754252433777,
                        -0.4657537341117859,
                        -0.0726846382021904,
                        0.7919585704803467,
                        0.21072004735469818,
                        -0.1545979231595993,
                        -0.020196661353111267,
                        -0.822666585445404
                    ],
                    [
                        0.3183695077896118,
                        -0.03860200569033623,
                        0.31136971712112427,
                        -0.5388461351394653,
                        0.35536935925483704,
                        0.2357775866985321,
                        -0.317536324262619,
                        0.43831607699394226,
                        0.4674789309501648,
                        -0.13207657635211945,
                        -0.00495480839163065,
                        0.33117109537124634,
                        -0.08861877024173737,
                        -0.012746050022542477,
                        0.36572548747062683,
                        0.2824932634830475,
                        -0.6871275901794434,
                        -0.1556956171989441,
                        -0.018325457349419594,
                        0.23807156085968018,
                        -0.37583163380622864,
                        -0.6578867435455322,
                        -0.2484544962644577,
                        -0.7867705225944519,
                        -0.24383622407913208,
                        -0.018491923809051514,
                        0.3793748915195465,
                        0.05881843343377113,
                        -0.4131016135215759,
                        -0.23372124135494232,
                        0.260131299495697,
                        -0.5906267166137695,
                        0.13099242746829987,
                        -0.05634878948330879,
                        0.06435076892375946,
                        -0.16726253926753998,
                        0.2443952113389969,
                        -0.2711317241191864,
                        -0.4074295461177826,
                        -0.5001437067985535,
                        0.06302664428949356,
                        0.1675497144460678,
                        0.19566941261291504,
                        -0.2159826159477234,
                        -0.31045961380004883,
                        -0.42941221594810486,
                        0.50836181640625,
                        0.06452897936105728,
                        0.6418258547782898,
                        -0.08151957392692566,
                        -0.32973068952560425,
                        -0.6117226481437683,
                        0.05709699168801308,
                        -0.6743125915527344,
                        -0.34247666597366333,
                        0.12489911168813705,
                        0.3150988817214966,
                        0.35156509280204773,
                        -0.14897513389587402,
                        0.18475523591041565,
                        -0.32798755168914795,
                        0.006296603474766016,
                        0.07514262199401855,
                        0.18527767062187195
                    ],
                    [
                        -0.04189205542206764,
                        -0.02974763512611389,
                        -0.20534756779670715,
                        -0.13329508900642395,
                        -0.15984050929546356,
                        -0.23374122381210327,
                        -0.06638085097074509,
                        0.35019543766975403,
                        -0.2850479185581207,
                        0.048648592084646225,
                        -0.3168025016784668,
                        0.013870598748326302,
                        -0.10086199641227722,
                        0.07127789407968521,
                        -0.04428618773818016,
                        -0.04180692881345749,
                        0.0732324942946434,
                        0.139500230550766,
                        0.2978264093399048,
                        0.1226155012845993,
                        0.10968425869941711,
                        0.3498762547969818,
                        -0.03336380049586296,
                        0.20802555978298187,
                        0.3579559326171875,
                        -0.014863436110317707,
                        0.04719250276684761,
                        0.11129894107580185,
                        0.23116961121559143,
                        0.49906542897224426,
                        0.2762083113193512,
                        0.34463462233543396,
                        -0.12341570854187012,
                        -0.19848406314849854,
                        -0.32134538888931274,
                        0.9511725902557373,
                        -0.012927787378430367,
                        -0.20099373161792755,
                        0.05521830916404724,
                        0.00952471699565649,
                        0.034125979989767075,
                        -0.10020775347948074,
                        -0.621667206287384,
                        0.47357138991355896,
                        0.08693163096904755,
                        0.2121238112449646,
                        -0.7034245133399963,
                        -0.2638149857521057,
                        0.06436997652053833,
                        -0.0627136379480362,
                        0.27174612879753113,
                        -0.06813687831163406,
                        0.10394801944494247,
                        0.2747231721878052,
                        0.0836525708436966,
                        0.3755924105644226,
                        -0.0830342024564743,
                        -0.3530488908290863,
                        0.18148286640644073,
                        0.3331775963306427,
                        0.035350579768419266,
                        0.920046329498291,
                        0.4504850506782532,
                        0.021551065146923065
                    ],
                    [
                        0.43194469809532166,
                        -0.049066077917814255,
                        0.04898977652192116,
                        -0.3412097990512848,
                        0.1560075730085373,
                        -0.02547408826649189,
                        -0.09787757694721222,
                        0.11463313549757004,
                        0.16738741099834442,
                        -0.010261677205562592,
                        -0.46188268065452576,
                        0.028117982670664787,
                        0.003963822033256292,
                        -0.37873324751853943,
                        -0.3836035132408142,
                        -0.007692589424550533,
                        0.3089947998523712,
                        -0.039153046905994415,
                        0.09811542928218842,
                        0.0012561618350446224,
                        -0.061053600162267685,
                        -0.24612611532211304,
                        0.06364122778177261,
                        0.15458638966083527,
                        -0.12835028767585754,
                        0.016351835802197456,
                        0.2888341248035431,
                        -0.1434614509344101,
                        0.42323315143585205,
                        0.05304203927516937,
                        0.12748637795448303,
                        -0.2271295189857483,
                        -0.1902080923318863,
                        -0.023692531511187553,
                        0.019030096009373665,
                        0.1465206891298294,
                        -0.09956751763820648,
                        0.14496712386608124,
                        0.32187891006469727,
                        0.2912845015525818,
                        -0.004659056197851896,
                        0.0024905295576900244,
                        -0.14260078966617584,
                        0.289593368768692,
                        0.2741173803806305,
                        0.7166980504989624,
                        -0.29408544301986694,
                        0.181428462266922,
                        0.2662549614906311,
                        -0.08574902266263962,
                        0.0007337211864069104,
                        -0.19093358516693115,
                        -0.09208192676305771,
                        0.3860286474227905,
                        -0.11846483498811722,
                        -0.8190491795539856,
                        0.08340569585561752,
                        0.045706912875175476,
                        -0.07705547660589218,
                        0.18279509246349335,
                        0.20771388709545135,
                        -0.03011007234454155,
                        0.1992901861667633,
                        0.09433624893426895
                    ],
                    [
                        0.10812762379646301,
                        0.027323387563228607,
                        0.5690509080886841,
                        -0.025610748678445816,
                        0.19395549595355988,
                        0.282516211271286,
                        -0.06737373769283295,
                        -0.26191335916519165,
                        -0.03459829464554787,
                        -0.06473733484745026,
                        -0.058145321905612946,
                        0.13270680606365204,
                        -0.0009525486966595054,
                        0.028187492862343788,
                        0.030787531286478043,
                        0.1053372398018837,
                        -0.08899746090173721,
                        -0.10549815744161606,
                        0.25506699085235596,
                        -0.06348565220832825,
                        -0.46872439980506897,
                        -0.13231545686721802,
                        0.01946529559791088,
                        -0.16006597876548767,
                        -0.6895423531532288,
                        -0.06730705499649048,
                        0.2725251615047455,
                        -0.018816111609339714,
                        -0.29607781767845154,
                        -0.4218396544456482,
                        -0.26347729563713074,
                        -0.22363263368606567,
                        0.04167339578270912,
                        -0.13971978425979614,
                        0.04766254872083664,
                        -0.7491834759712219,
                        0.07408885657787323,
                        -0.04500533640384674,
                        0.2499474287033081,
                        -0.10161764919757843,
                        0.08333747833967209,
                        0.235513374209404,
                        1.1283481121063232,
                        -0.25937172770500183,
                        0.3875635862350464,
                        -0.18570701777935028,
                        -0.0655597671866417,
                        -0.0010304406750947237,
                        -0.014427692629396915,
                        -0.012008016929030418,
                        -0.32002556324005127,
                        -0.09970948845148087,
                        -0.26397502422332764,
                        -0.018844828009605408,
                        -0.2102905958890915,
                        -0.003506871173158288,
                        -0.13261766731739044,
                        -0.018008992075920105,
                        -0.06486649811267853,
                        0.029773328453302383,
                        -0.22189341485500336,
                        -0.11681917309761047,
                        -0.12215030193328857,
                        -0.342138409614563
                    ]
                ],
                [
                    -2.0376386642456055,
                    -0.3930682837963104,
                    1.4117374420166016,
                    0.6518858075141907,
                    -0.8252829313278198,
                    -1.6434245109558105,
                    0.816342830657959,
                    0.19439348578453064,
                    -0.8498240113258362,
                    0.35205078125,
                    -0.12632325291633606,
                    -0.04478495195508003,
                    -0.6895661354064941,
                    -1.5149189233779907,
                    -0.13520698249340057,
                    -0.5001963376998901,
                    2.481414556503296,
                    0.9443494081497192,
                    1.1310186386108398,
                    0.05121937021613121,
                    1.6611436605453491,
                    2.064903497695923,
                    -0.23161253333091736,
                    1.1365158557891846,
                    1.2501206398010254,
                    0.7774988412857056,
                    -0.054545748978853226,
                    0.7085662484169006,
                    1.283724069595337,
                    1.950805425643921,
                    1.1067436933517456,
                    1.6133837699890137,
                    -0.1677199751138687,
                    -0.1964365541934967,
                    -1.3373407125473022,
                    0.6714376211166382,
                    -0.3498225808143616,
                    -0.18924076855182648,
                    0.722469687461853,
                    -0.6597132682800293,
                    -0.09981533139944077,
                    -0.04678162932395935,
                    -0.7022979259490967,
                    0.7525197863578796,
                    -0.17714589834213257,
                    -0.3581113815307617,
                    0.0792563259601593,
                    0.09396079182624817,
                    0.2698630690574646,
                    0.5349923372268677,
                    1.7079013586044312,
                    0.8247112035751343,
                    0.0715395137667656,
                    0.5900038480758667,
                    0.8801950216293335,
                    -0.03073352575302124,
                    -0.34694039821624756,
                    0.03700058534741402,
                    0.43528491258621216,
                    1.6566226482391357,
                    0.8839188814163208,
                    0.29094672203063965,
                    0.19409233331680298,
                    -0.6832102537155151
                ]
            ]
        },
        {
            "type": "dense",
            "activation": "",
            "shape": [
                null,
                null,
                1
            ],
            "weights": [
                [
                    [
                        -0.2497919797897339
                    ],
                    [
                        -0.018567858263850212
                    ],
                    [
                        0.004549829754978418
                    ],
                    [
                        -0.025314880535006523
                    ],
                    [
                        -0.03280077502131462
                    ],
                    [
                        -0.2814561128616333
                    ],
                    [
                        -0.014656256884336472
                    ],
                    [
                        0.8657827377319336
                    ],
                    [
                        -0.0934782549738884
                    ],
                    [
                        0.05580414831638336
                    ],
                    [
                        -0.055533815175294876
                    ],
                    [
                        0.1508694738149643
                    ],
                    [
                        -0.6764577031135559
                    ],
                    [
                        -1.2806140184402466
                    ],
                    [
                        1.2858891487121582
                    ],
                    [
                        0.09971132129430771
                    ]
                ],
                [
                    -0.022386891767382622
                ]
            ]
        }
    ],
    "input_batch": [
        -4.365005565887259e-07,
        -2.1825028397870483e-06,
        -1.4841019719824544e-06,
        7.857009904910228e-07,
        8.730011558100159e-08,
        4.365005565887259e-07,
        -8.730011131774518e-07,
        -7.857009904910228e-07,
        1.7460023116200318e-07,
        -3.4920046232400637e-07,
        -6.984009246480127e-07,
        -1.7460023116200318e-07,
        -6.984009246480127e-07,
        4.365005565887259e-07,
        -5.238006792751548e-07,
        -7.857009904910228e-07,
        -1.7460023116200318e-07,
        -9.603012358638807e-07,
        -1.7460022263549035e-06,
        -1.5714019809820456e-06,
        -1.3968018492960255e-06,
        -1.3095017266095965e-06,
        -3.4920046232400637e-07,
        8.730011558100159e-08,
        -1.3095017266095965e-06,
        -2.619003396375774e-07,
        6.984009246480127e-07,
        -7.857009904910228e-07,
        -5.238006792751548e-07,
        8.730011558100159e-08,
        -1.7460023116200318e-07,
        -8.730011131774518e-07,
        -1.7460023116200318e-07,
        6.111008019615838e-07,
        -1.7460023116200318e-07,
        -6.111008019615838e-07,
        1.1349014812367386e-06,
        -3.4920046232400637e-07,
        -1.4841019719824544e-06,
        -7.857009904910228e-07,
        1.3095017266095965e-06,
        -2.619003396375774e-07,
        -1.1349014812367386e-06,
        1.7460023116200318e-07,
        2.619003396375774e-07,
        -3.4920046232400637e-07,
        -3.4920046232400637e-07,
        0.0,
        8.730011131774518e-07,
        -8.730011558100159e-08,
        -6.111008019615838e-07,
        -3.4920046232400637e-07,
        1.6587021036684746e-06,
        1.3095017266095965e-06,
        1.7460022263549035e-06,
        1.2222016039231676e-06,
        1.7460023116200318e-07,
        -8.730011558100159e-08,
        -1.7460023116200318e-07,
        -3.4920046232400637e-07,
        3.4920046232400637e-07,
        1.7460023116200318e-07,
        -3.4920046232400637e-07,
        -1.5714019809820456e-06,
        0.0,
        6.984009246480127e-07,
        1.7460023116200318e-07,
        -6.984009246480127e-07,
        -1.7460023116200318e-07,
        5.238006792751548e-07,
        0.0,
        -7.857009904910228e-07,
        -3.4920046232400637e-07,
        -1.7460023116200318e-07,
        -7.857009904910228e-07,
        -2.619003396375774e-07,
        -5.238006792751548e-07,
        9.603012358638807e-07,
        5.238006792751548e-07,
        7.857009904910228e-07,
        6.984009246480127e-07,
        -4.365005565887259e-07,
        -4.365005565887259e-07,
        6.111008019615838e-07,
        1.7460023116200318e-07,
        -1.3968018492960255e-06,
        -2.0079025944141904e-06,
        1.2222016039231676e-06,
        4.365005565887259e-07,
        1.1349014812367386e-06,
        -1.6587021036684746e-06,
        -1.0476013585503097e-06,
        -8.730011558100159e-08,
        4.365005565887259e-07,
        0.0,
        -1.0476013585503097e-06,
        -1.0476013585503097e-06,
        -4.365005565887259e-07,
        -1.8333023490413325e-06,
        -7.857009904910228e-07,
        -1.0476013585503097e-06,
        -1.0476013585503097e-06,
        -1.7460022263549035e-06,
        -1.2222016039231676e-06,
        -8.730011558100159e-08,
        5.238006792751548e-07,
        1.0476013585503097e-06,
        1.4841019719824544e-06,
        6.111008019615838e-07,
        -9.603012358638807e-07,
        -9.603012358638807e-07,
        1.8333023490413325e-06,
        -5.238006792751548e-07,
        -3.4920046232400637e-07,
        -7.857009904910228e-07,
        -1.0476013585503097e-06,
        -2.619003396375774e-07,
        3.4920046232400637e-07,
        9.603012358638807e-07,
        1.0476013585503097e-06,
        1.3095017266095965e-06,
        1.4841019719824544e-06,
        -1.2222016039231676e-06,
        -1.8333023490413325e-06,
        -1.0476013585503097e-06,
        -1.1349014812367386e-06,
        0.0,
        6.984009246480127e-07,
        -3.4920046232400637e-07,
        -2.619003396375774e-07,
        -6.111008019615838e-07,
        -3.4920046232400637e-07,
        6.111008019615838e-07,
        6.111008019615838e-07,
        6.111008019615838e-07,
        8.730011558100159e-08,
        6.984009246480127e-07,
        -2.619003396375774e-07,
        1.1349014812367386e-06,
        1.5714019809820456e-06,
        1.7460023116200318e-07,
        -1.1349014812367386e-06,
        -8.730011558100159e-08,
        7.857009904910228e-07,
        7.857009904910228e-07,
        3.4920046232400637e-07,
        -1.0476013585503097e-06,
        -7.857009904910228e-07,
        -1.7460023116200318e-07,
        2.619003396375774e-07,
        -3.4920046232400637e-07,
        5.238006792751548e-07,
        1.3095017266095965e-06,
        5.238006792751548e-07,
        -5.238006792751548e-07,
        -1.8333023490413325e-06,
        -2.0952027171006193e-06,
        2.619003396375774e-07,
        1.3968018492960255e-06,
        -2.357103085159906e-06,
        -1.1349014812367386e-06,
        6.111008019615838e-07,
        -8.730011558100159e-08,
        8.730011558100159e-08,
        4.365005565887259e-07,
        5.238006792751548e-07,
        1.7460023116200318e-07,
        0.0,
        8.730011558100159e-08,
        -2.619003396375774e-07,
        -2.619003396375774e-07,
        6.984009246480127e-07,
        8.730011558100159e-08,
        -5.238006792751548e-07,
        -1.7460023116200318e-07,
        9.603012358638807e-07,
        -5.238006792751548e-07,
        -1.7460022263549035e-06,
        -1.4841019719824544e-06,
        -2.444403207846335e-06,
        -1.3095017266095965e-06,
        1.0476013585503097e-06,
        1.7460023116200318e-07,
        -1.0476013585503097e-06,
        -8.730011558100159e-08,
        -9.603012358638807e-07,
        -6.111008019615838e-07,
        -1.0476013585503097e-06,
        -1.0476013585503097e-06,
        8.730011131774518e-07,
        5.238006792751548e-07,
        2.619003396375774e-07,
        -8.730011131774518e-07,
        -2.1825028397870483e-06,
        -1.4841019719824544e-06,
        -5.238006792751548e-07,
        -7.857009904910228e-07,
        -5.238006792751548e-07,
        -8.730011131774518e-07,
        -1.1349014812367386e-06,
        -6.984009246480127e-07,
        -8.730011558100159e-08,
        -1.5714019809820456e-06,
        -4.365005565887259e-07,
        8.730011558100159e-08,
        1.7460023116200318e-07,
        6.111008019615838e-07,
        -1.7460023116200318e-07,
        -1.7460023116200318e-07,
        -4.365005565887259e-07,
        -8.730011131774518e-07,
        -5.238006792751548e-07,
        -7.857009904910228e-07,
        -5.238006792751548e-07,
        -8.730011558100159e-08,
        1.7460023116200318e-07,
        2.619003396375774e-07,
        -6.984009246480127e-07,
        -1.0476013585503097e-06,
        -8.730011558100159e-08,
        -1.7460023116200318e-07,
        1.7460023116200318e-07,
        -2.619003396375774e-07,
        -6.111008019615838e-07,
        -8.730011558100159e-08,
        0.0,
        -1.0476013585503097e-06,
        -1.0476013585503097e-06,
        8.730011131774518e-07,
        1.3968018492960255e-06,
        9.603012358638807e-07,
        1.4841019719824544e-06,
        6.984009246480127e-07,
        -1.8333023490413325e-06,
        6.984009246480127e-07,
        2.619003453219193e-06,
        1.6587021036684746e-06,
        5.238006792751548e-07,
        -1.2222016039231676e-06,
        0.0,
        1.3968018492960255e-06,
        6.984009246480127e-07,
        -2.619003396375774e-07,
        -4.365005565887259e-07,
        -6.111008019615838e-07,
        -9.603012358638807e-07,
        -2.1825028397870483e-06,
        0.0,
        -1.1349014812367386e-06,
        -8.730011558100159e-08,
        -1.7460023116200318e-07,
        1.3095017266095965e-06,
        1.0476013585503097e-06,
        6.111008019615838e-07,
        6.111008019615838e-07,
        -4.365005565887259e-07,
        -2.2698029624734772e-06,
        -2.0952027171006193e-06,
        8.730011558100159e-08,
        0.0,
        7.857009904910228e-07,
        3.4920046232400637e-07,
        -5.238006792751548e-07,
        -7.857009904910228e-07,
        -8.730011558100159e-08,
        -5.238006792751548e-07,
        -5.238006792751548e-07,
        3.4920046232400637e-07,
        8.730011131774518e-07,
        7.857009904910228e-07,
        -1.7460023116200318e-07,
        1.1349014812367386e-06,
        8.730011558100159e-08,
        1.0476013585503097e-06,
        3.4920046232400637e-07,
        -4.365005565887259e-07,
        2.619003396375774e-07,
        8.730011131774518e-07,
        5.238006792751548e-07,
        2.619003396375774e-07,
        5.238006792751548e-07,
        2.619003396375774e-07,
        2.619003396375774e-07,
        7.857009904910228e-07,
        -1.7460023116200318e-07,
        -6.111008019615838e-07,
        -1.7460023116200318e-07,
        -7.857009904910228e-07,
        1.5714019809820456e-06,
        6.111008019615838e-07,
        -6.111008019615838e-07,
        2.619003396375774e-07,
        5.238006792751548e-07,
        2.619003396375774e-07,
        1.7460022263549035e-06,
        6.984009246480127e-07,
        1.8333023490413325e-06,
        8.730011558100159e-08,
        6.984009246480127e-07,
        -2.619003396375774e-07,
        -6.984009246480127e-07,
        -1.7460023116200318e-07,
        -4.365005565887259e-07,
        -8.730011131774518e-07,
        -4.365005565887259e-07,
        -1.7460023116200318e-07,
        -6.984009246480127e-07,
        -6.111008019615838e-07,
        -6.111008019615838e-07,
        2.1825028397870483e-06,
        1.2222016039231676e-06,
        -4.365005565887259e-07,
        -1.2222016039231676e-06,
        -3.4920046232400637e-07,
        2.0952027171006193e-06,
        5.238006792751548e-07,
        -2.0079025944141904e-06,
        -6.111008019615838e-07,
        3.4920046232400637e-07,
        -6.984009246480127e-07,
        4.365005565887259e-07,
        -9.603012358638807e-07,
        -8.730011558100159e-08,
        -5.238006792751548e-07,
        4.365005565887259e-07,
        -9.603012358638807e-07,
        -7.857009904910228e-07,
        -1.7460023116200318e-07,
        -9.603012358638807e-07,
        -1.4841019719824544e-06,
        -4.365005565887259e-07,
        1.1349014812367386e-06,
        1.5714019809820456e-06,
        6.984009246480127e-07,
        -8.730011558100159e-08,
        3.4920046232400637e-07,
        8.730011558100159e-08,
        -2.619003396375774e-07,
        7.857009904910228e-07,
        -2.619003396375774e-07,
        -1.3968018492960255e-06,
        -2.619003396375774e-07,
        8.730011131774518e-07,
        6.984009246480127e-07,
        6.111008019615838e-07,
        4.365005565887259e-07,
        8.730011131774518e-07,
        6.984009246480127e-07,
        -1.3968018492960255e-06,
        -1.7460023116200318e-07,
        6.111008019615838e-07,
        -1.7460023116200318e-07,
        -1.7460023116200318e-07,
        6.984009246480127e-07,
        1.0476013585503097e-06,
        6.984009246480127e-07,
        -2.619003396375774e-07,
        5.238006792751548e-07,
        9.603012358638807e-07,
        0.0,
        -5.238006792751548e-07,
        -1.6587021036684746e-06,
        -3.4920046232400637e-07,
        6.111008019615838e-07,
        4.365005565887259e-07,
        1.0476013585503097e-06,
        1.4841019719824544e-06,
        5.238006792751548e-07,
        3.4920046232400637e-07,
        -6.111008019615838e-07,
        8.730011558100159e-08,
        1.5714019809820456e-06,
        2.0079025944141904e-06,
        1.9206024717277614e-06,
        1.2222016039231676e-06,
        0.0,
        -5.238006792751548e-07,
        -1.7460023116200318e-07,
        -8.730011558100159e-08,
        -8.730011558100159e-08,
        5.238006792751548e-07,
        4.365005565887259e-07,
        1.2222016039231676e-06,
        -8.730011131774518e-07,
        6.111008019615838e-07,
        1.4841019719824544e-06,
        0.0,
        -1.7460023116200318e-07,
        3.4920046232400637e-07,
        -6.111008019615838e-07,
        -6.111008019615838e-07,
        2.619003396375774e-07,
        -5.238006792751548e-07,
        2.619003396375774e-07,
        5.238006792751548e-07,
        9.603012358638807e-07,
        0.0,
        4.365005565887259e-07,
        -1.7460023116200318e-07,
        1.7460023116200318e-07,
        1.2222016039231676e-06,
        7.857009904910228e-07,
        8.730011558100159e-08,
        2.619003396375774e-07,
        6.984009246480127e-07,
        1.4841019719824544e-06,
        9.603012358638807e-07,
        4.365005565887259e-07,
        6.111008019615838e-07,
        -5.238006792751548e-07,
        1.4841019719824544e-06,
        -8.730011558100159e-08,
        -1.8333023490413325e-06,
        -1.3968018492960255e-06,
        -4.365005565887259e-07,
        -7.857009904910228e-07,
        -1.1349014812367386e-06,
        6.984009246480127e-07,
        6.984009246480127e-07,
        -1.5714019809820456e-06,
        1.3968018492960255e-06,
        1.1349014812367386e-06,
        1.0476013585503097e-06,
        2.619003396375774e-07,
        -7.857009904910228e-07,
        -1.1349014812367386e-06,
        -2.0079025944141904e-06,
        -1.6587021036684746e-06,
        7.857009904910228e-07,
        6.111008019615838e-07,
        -1.4841019719824544e-06,
        8.730011558100159e-08,
        1.2222016039231676e-06,
        -5.238006792751548e-07,
        -2.1825028397870483e-06,
        -1.4841019719824544e-06,
        -1.3968018492960255e-06,
        -6.984009246480127e-07,
        -6.111008019615838e-07,
        -3.4920046232400637e-07,
        3.4920046232400637e-07,
        -8.730011558100159e-08,
        -1.7460023116200318e-07,
        6.111008019615838e-07,
        1.3095017266095965e-06,
        6.111008019615838e-07,
        -1.4841019719824544e-06,
        -3.4920046232400637e-07,
        7.857009904910228e-07,
        -8.730011558100159e-08,
        -2.619003396375774e-07,
        2.619003396375774e-07,
        -1.7460023116200318e-07,
        -2.619003396375774e-07,
        1.1349014812367386e-06,
        8.730011558100159e-08,
        -7.857009904910228e-07,
        -2.619003396375774e-07,
        0.0,
        -3.4920046232400637e-07,
        -1.3968018492960255e-06,
        -9.603012358638807e-07,
        -1.1349014812367386e-06,
        -8.730011131774518e-07,
        1.7460023116200318e-07,
        -8.730011558100159e-08,
        -6.984009246480127e-07,
        5.238006792751548e-07,
        0.0,
        -2.619003396375774e-07,
        6.984009246480127e-07,
        -7.857009904910228e-07,
        4.365005565887259e-07,
        2.619003396375774e-07,
        -1.0476013585503097e-06,
        -1.2222016039231676e-06,
        -4.365005565887259e-07,
        8.730011558100159e-08,
        4.365005565887259e-07,
        1.4841019719824544e-06,
        2.0952027171006193e-06,
        2.2698029624734772e-06,
        -4.365005565887259e-07,
        -1.0476013585503097e-06,
        1.8333023490413325e-06,
        8.730011558100159e-08,
        3.4920046232400637e-07,
        6.984009246480127e-07,
        1.7460023116200318e-07,
        2.619003396375774e-07,
        -2.619003396375774e-07,
        -1.7460022263549035e-06,
        -1.7460023116200318e-07,
        -8.730011131774518e-07,
        7.857009904910228e-07,
        -5.238006792751548e-07,
        -8.730011131774518e-07,
        -3.4920046232400637e-07,
        4.365005565887259e-07,
        1.7460023116200318e-07,
        -4.365005565887259e-07,
        -5.238006792751548e-07,
        0.0,
        8.730011558100159e-08,
        -8.730011558100159e-08,
        -8.730011558100159e-08,
        9.603012358638807e-07,
        4.365005565887259e-07,
        5.238006792751548e-07,
        -1.7460023116200318e-07,
        -6.111008019615838e-07,
        -3.4920046232400637e-07,
        -8.730011558100159e-08,
        -8.730011131774518e-07,
        -9.603012358638807e-07,
        3.4920046232400637e-07,
        -6.984009246480127e-07,
        -8.730011131774518e-07,
        -1.0476013585503097e-06,
        0.0,
        -1.2222016039231676e-06,
        -1.7460023116200318e-07,
        2.619003396375774e-07,
        -8.730011558100159e-08,
        7.857009904910228e-07,
        7.857009904910228e-07,
        -2.619003396375774e-07,
        5.238006792751548e-07,
        1.9206024717277614e-06,
        1.1349014812367386e-06,
        -2.619003396375774e-07,
        -1.3095017266095965e-06,
        8.730011558100159e-08,
        -1.0476013585503097e-06,
        -5.238006792751548e-07,
        3.4920046232400637e-07,
        -4.365005565887259e-07,
        -8.730011558100159e-08,
        4.365005565887259e-07,
        -4.365005565887259e-07,
        -3.4920046232400637e-07,
        -2.619003396375774e-07,
        1.1349014812367386e-06,
        2.619003396375774e-07,
        8.730011558100159e-08,
        -3.4920046232400637e-07,
        -2.0952027171006193e-06,
        -8.730011131774518e-07,
        6.984009246480127e-07,
        -1.7460023116200318e-07,
        -1.0476013585503097e-06,
        3.4920046232400637e-07,
        9.603012358638807e-07,
        -9.603012358638807e-07,
        -1.3968018492960255e-06,
        -1.2222016039231676e-06,
        -1.3095017266095965e-06,
        6.984009246480127e-07,
        3.4920046232400637e-07,
        -5.238006792751548e-07,
        -6.984009246480127e-07,
        -6.984009246480127e-07,
        -7.857009904910228e-07,
        -5.238006792751548e-07,
        3.4920046232400637e-07,
        6.111008019615838e-07,
        -5.238006792751548e-07,
        -2.968203943964909e-06,
        -8.730011131774518e-07,
        2.619003396375774e-07,
        2.619003396375774e-07,
        2.619003396375774e-07,
        1.4841019719824544e-06,
        0.0,
        -1.3095017266095965e-06,
        -1.7460023116200318e-07,
        -8.730011558100159e-08,
        -1.3095017266095965e-06,
        -2.619003396375774e-07,
        3.4920046232400637e-07,
        -3.4920046232400637e-07,
        -6.984009246480127e-07,
        -5.238006792751548e-07,
        -1.3968018492960255e-06,
        -8.730011131774518e-07,
        2.619003396375774e-07,
        2.619003396375774e-07,
        -4.365005565887259e-07,
        -6.984009246480127e-07,
        -6.984009246480127e-07,
        -8.730011558100159e-08,
        6.111008019615838e-07,
        -3.4920046232400637e-07,
        -2.619003396375774e-07,
        9.603012358638807e-07,
        1.7460022263549035e-06,
        8.730011131774518e-07,
        -3.4920046232400637e-07,
        -4.365005565887259e-07,
        -5.238006792751548e-07,
        -9.603012358638807e-07,
        -6.111008019615838e-07,
        -5.238006792751548e-07,
        8.730011558100159e-08,
        5.238006792751548e-07,
        -1.7460023116200318e-07,
        0.0,
        1.3968018492960255e-06,
        -1.2222016039231676e-06,
        -1.1349014812367386e-06,
        1.7460023116200318e-07,
        6.111008019615838e-07,
        5.238006792751548e-07,
        3.4920046232400637e-07,
        0.0,
        -1.1349014812367386e-06,
        -1.3968018492960255e-06,
        7.857009904910228e-07,
        -5.238006792751548e-07,
        -4.365005565887259e-07,
        1.0476013585503097e-06,
        -5.238006792751548e-07,
        -1.6587021036684746e-06,
        -1.3095017266095965e-06,
        -5.238006792751548e-07,
        8.730011558100159e-08,
        -6.111008019615838e-07,
        -2.0079025944141904e-06,
        8.730011558100159e-08,
        -5.238006792751548e-07,
        -1.8333023490413325e-06,
        9.603012358638807e-07,
        -1.7460023116200318e-07,
        -1.3968018492960255e-06,
        -7.857009904910228e-07,
        -6.984009246480127e-07,
        -9.603012358638807e-07,
        -6.111008019615838e-07,
        -6.111008019615838e-07,
        8.730011558100159e-08,
        -7.857009904910228e-07,
        1.7460023116200318e-07,
        -7.857009904910228e-07,
        -2.619003396375774e-07,
        -7.857009904910228e-07,
        1.7460023116200318e-07,
        -8.730011558100159e-08,
        8.730011558100159e-08,
        6.984009246480127e-07,
        5.238006792751548e-07,
        8.730011558100159e-08,
        -5.238006792751548e-07,
        6.111008019615838e-07,
        -3.4920046232400637e-07,
        1.0476013585503097e-06,
        -1.2222016039231676e-06,
        -1.7460023116200318e-07,
        5.238006792751548e-07,
        -8.730011131774518e-07,
        -7.857009904910228e-07,
        -1.7460023116200318e-07,
        8.730011558100159e-08,
        6.111008019615838e-07,
        -5.238006792751548e-07,
        -7.857009904910228e-07,
        -3.4920046232400637e-07,
        1.7460023116200318e-07,
        -2.619003396375774e-07,
        6.984009246480127e-07,
        2.1825028397870483e-06,
        1.7460022263549035e-06,
        -5.238006792751548e-07,
        -3.4920046232400637e-07,
        1.4841019719824544e-06,
        1.4841019719824544e-06,
        6.984009246480127e-07,
        3.4920046232400637e-07,
        1.1349014812367386e-06,
        1.7460022263549035e-06,
        -1.7460023116200318e-07,
        6.984009246480127e-07,
        9.603012358638807e-07,
        0.0,
        6.111008019615838e-07,
        7.857009904910228e-07,
        8.730011131774518e-07,
        1.2222016039231676e-06,
        4.365005565887259e-07,
        0.0,
        1.1349014812367386e-06,
        1.0476013585503097e-06,
        6.984009246480127e-07,
        8.730011131774518e-07,
        1.1349014812367386e-06,
        5.238006792751548e-07,
        -3.4920046232400637e-07,
        8.730011558100159e-08,
        4.365005565887259e-07,
        6.984009246480127e-07,
        1.5714019809820456e-06,
        1.3968018492960255e-06,
        1.7460023116200318e-07,
        -7.857009904910228e-07,
        -8.730011558100159e-08,
        -5.238006792751548e-07,
        -1.2222016039231676e-06,
        -1.9206024717277614e-06,
        1.7460023116200318e-07,
        6.984009246480127e-07,
        1.7460023116200318e-07,
        -7.857009904910228e-07,
        -1.4841019719824544e-06,
        -2.619003396375774e-07,
        -2.619003396375774e-07,
        4.365005565887259e-07,
        8.730011558100159e-08,
        0.0,
        -1.1349014812367386e-06,
        -1.3095017266095965e-06,
        -1.5714019809820456e-06,
        -1.7460022263549035e-06,
        -1.0476013585503097e-06,
        0.0,
        -5.238006792751548e-07,
        -1.2222016039231676e-06,
        5.238006792751548e-07,
        -8.730011558100159e-08,
        5.238006792751548e-07,
        2.619003396375774e-07,
        -1.7460023116200318e-07,
        6.111008019615838e-07,
        -8.730011558100159e-08,
        -1.0476013585503097e-06,
        -2.619003396375774e-07,
        1.1349014812367386e-06,
        1.0476013585503097e-06,
        8.730011558100159e-08,
        -1.7460023116200318e-07,
        -1.7460023116200318e-07,
        1.4841019719824544e-06,
        -5.238006792751548e-07,
        5.238006792751548e-07,
        8.730011558100159e-08,
        1.2222016039231676e-06,
        1.7460023116200318e-07,
        -1.7460023116200318e-07,
        -1.7460023116200318e-07,
        2.619003396375774e-07,
        1.6587021036684746e-06,
        1.1349014812367386e-06,
        -5.238006792751548e-07,
        -8.730011131774518e-07,
        -2.619003396375774e-07,
        -1.7460023116200318e-07,
        -1.5714019809820456e-06,
        -8.730011558100159e-08,
        5.238006792751548e-07,
        0.0,
        -1.7460023116200318e-07,
        8.730011558100159e-08,
        1.7460023116200318e-07,
        8.730011558100159e-08,
        -2.619003396375774e-07,
        -8.730011131774518e-07,
        3.4920046232400637e-07,
        9.603012358638807e-07,
        -4.365005565887259e-07,
        -1.4841019719824544e-06,
        8.730011131774518e-07,
        1.9206024717277614e-06,
        7.857009904910228e-07,
        -1.7460023116200318e-07,
        8.730011558100159e-08,
        5.238006792751548e-07,
        3.4920046232400637e-07,
        1.3095017266095965e-06,
        1.6587021036684746e-06,
        2.619003396375774e-07,
        4.365005565887259e-07,
        -1.3968018492960255e-06,
        -3.4920046232400637e-07,
        -1.7460023116200318e-07,
        0.0,
        7.857009904910228e-07,
        5.238006792751548e-07,
        -9.603012358638807e-07,
        -9.603012358638807e-07,
        8.730011131774518e-07,
        -6.984009246480127e-07,
        -6.984009246480127e-07,
        1.2222016039231676e-06,
        1.1349014812367386e-06,
        7.857009904910228e-07,
        1.3095017266095965e-06,
        6.111008019615838e-07,
        -9.603012358638807e-07,
        -9.603012358638807e-07,
        4.365005565887259e-07,
        1.1349014812367386e-06,
        9.603012358638807e-07,
        4.365005565887259e-07,
        -5.238006792751548e-07,
        -1.3968018492960255e-06,
        -1.2222016039231676e-06,
        8.730011558100159e-08,
        -1.1349014812367386e-06,
        -6.111008019615838e-07,
        4.365005565887259e-07,
        -6.111008019615838e-07,
        -8.730011131774518e-07,
        3.4920046232400637e-07,
        -1.0476013585503097e-06,
        -7.857009904910228e-07,
        -3.4920046232400637e-07,
        -4.365005565887259e-07,
        -1.3968018492960255e-06,
        -1.7460023116200318e-07,
        -2.2698029624734772e-06,
        -1.3095017266095965e-06,
        -2.619003396375774e-07,
        -9.603012358638807e-07,
        -9.603012358638807e-07,
        -6.984009246480127e-07,
        -1.6587021036684746e-06,
        -7.857009904910228e-07,
        -6.984009246480127e-07,
        -1.3968018492960255e-06,
        -4.365005565887259e-07,
        8.730011131774518e-07,
        -5.238006792751548e-07,
        8.730011558100159e-08,
        8.730011131774518e-07,
        -5.238006792751548e-07,
        -1.1349014812367386e-06,
        -6.111008019615838e-07,
        -1.0476013585503097e-06,
        0.0,
        -1.3968018492960255e-06,
        -1.1349014812367386e-06,
        -9.603012358638807e-07,
        -2.619003396375774e-07,
        -7.857009904910228e-07,
        -2.619003396375774e-07,
        1.3095017266095965e-06,
        4.365005565887259e-07,
        -4.365005565887259e-07,
        1.7460023116200318e-07,
        -5.238006792751548e-07,
        -1.2222016039231676e-06,
        -5.238006792751548e-07,
        -6.984009246480127e-07,
        -7.857009904910228e-07,
        -5.238006792751548e-07,
        -1.9206024717277614e-06,
        -1.0476013585503097e-06,
        8.730011558100159e-08,
        2.619003396375774e-07,
        -1.7460023116200318e-07,
        -8.730011558100159e-08,
        -8.730011558100159e-08,
        -1.4841019719824544e-06,
        -1.0476013585503097e-06,
        1.7460023116200318e-07,
        -1.0476013585503097e-06,
        -1.3968018492960255e-06,
        -5.238006792751548e-07,
        -1.4841019719824544e-06,
        -6.111008019615838e-07,
        -6.984009246480127e-07,
        -6.111008019615838e-07,
        -8.730011131774518e-07,
        -1.5714019809820456e-06,
        -3.4920046232400637e-07,
        4.365005565887259e-07,
        8.730011558100159e-08,
        -1.0476013585503097e-06,
        -6.111008019615838e-07,
        -6.984009246480127e-07,
        -6.111008019615838e-07,
        -8.730011558100159e-08,
        2.619003396375774e-07,
        8.730011131774518e-07,
        7.857009904910228e-07,
        3.4920046232400637e-07,
        5.238006792751548e-07,
        -8.730011131774518e-07,
        -5.238006792751548e-07,
        1.8333023490413325e-06,
        -1.1349014812367386e-06,
        -7.857009904910228e-07,
        2.619003396375774e-07,
        -2.619003396375774e-07,
        4.365005565887259e-07,
        -5.238006792751548e-07,
        -1.0476013585503097e-06,
        0.0,
        0.0,
        -4.365005565887259e-07,
        -6.984009246480127e-07,
        8.730011558100159e-08,
        3.4920046232400637e-07,
        -9.603012358638807e-07,
        -3.4920046232400637e-07,
        1.1349014812367386e-06,
        -1.3095017266095965e-06,
        -1.0476013585503097e-06,
        4.365005565887259e-07,
        -1.3095017266095965e-06,
        -3.2301040846505202e-06,
        -1.1349014812367386e-06,
        6.111008019615838e-07,
        -8.730011131774518e-07,
        8.730011558100159e-08,
        2.619003396375774e-07,
        -1.7460023116200318e-07,
        -9.603012358638807e-07,
        -9.603012358638807e-07,
        -1.6587021036684746e-06,
        -1.5714019809820456e-06,
        -5.238006792751548e-07,
        8.730011558100159e-08,
        -8.730011558100159e-08,
        -9.603012358638807e-07,
        -9.603012358638807e-07,
        -1.7460023116200318e-07,
        8.730011131774518e-07,
        -1.1349014812367386e-06,
        -8.730011558100159e-08,
        3.4920046232400637e-07,
        0.0,
        -6.984009246480127e-07,
        -1.1349014812367386e-06,
        5.238006792751548e-07,
        1.6587021036684746e-06,
        -1.2222016039231676e-06,
        -9.603012358638807e-07,
        -9.603012358638807e-07,
        -8.730011131774518e-07,
        -6.984009246480127e-07,
        -5.238006792751548e-07,
        -6.984009246480127e-07,
        2.619003396375774e-07,
        -6.111008019615838e-07,
        -1.1349014812367386e-06,
        -8.730011558100159e-08,
        4.365005565887259e-07,
        2.619003396375774e-07,
        -5.238006792751548e-07,
        -1.7460023116200318e-07,
        1.0476013585503097e-06,
        5.238006792751548e-07,
        8.730011558100159e-08,
        1.3968018492960255e-06,
        -4.365005565887259e-07,
        -9.603012358638807e-07,
        -1.0476013585503097e-06,
        -1.1349014812367386e-06,
        -9.603012358638807e-07,
        -1.6587021036684746e-06,
        -6.984009246480127e-07,
        -1.7460023116200318e-07,
        -1.6587021036684746e-06,
        1.7460023116200318e-07,
        -1.3968018492960255e-06,
        1.3095017266095965e-06,
        1.6587021036684746e-06,
        1.1349014812367386e-06,
        -1.0476013585503097e-06,
        -1.7460022263549035e-06,
        -4.365005565887259e-07,
        -6.111008019615838e-07,
        -1.0476013585503097e-06,
        6.111008019615838e-07,
        -1.3968018492960255e-06,
        2.619003396375774e-07,
        3.4920046232400637e-07,
        -1.7460023116200318e-07,
        5.238006792751548e-07,
        8.730011558100159e-08,
        -8.730011558100159e-08,
        1.7460023116200318e-07,
        8.730011131774518e-07,
        1.3968018492960255e-06,
        8.730011131774518e-07,
        4.365005565887259e-07,
        9.603012358638807e-07,
        -3.4920046232400637e-07,
        0.0,
        -1.7460023116200318e-07,
        8.730011131774518e-07,
        4.365005565887259e-07,
        -6.111008019615838e-07,
        -6.984009246480127e-07,
        -3.4920046232400637e-07,
        -6.111008019615838e-07,
        -1.7460023116200318e-07,
        9.603012358638807e-07,
        -1.0476013585503097e-06,
        -3.4920046232400637e-07,
        9.603012358638807e-07,
        2.706303575905622e-06,
        6.984009246480127e-07,
        2.619003396375774e-07,
        0.0,
        3.4920046232400637e-07,
        2.619003396375774e-07,
        -2.619003396375774e-07,
        2.619003396375774e-07,
        2.619003396375774e-07,
        3.4920046232400637e-07,
        6.984009246480127e-07,
        1.1349014812367386e-06,
        4.365005565887259e-07,
        -4.365005565887259e-07,
        7.857009904910228e-07,
        6.111008019615838e-07,
        -5.238006792751548e-07,
        -8.730011558100159e-08,
        8.730011131774518e-07,
        5.238006792751548e-07,
        1.7460023116200318e-07,
        6.111008019615838e-07,
        3.4920046232400637e-07,
        2.619003396375774e-07,
        2.619003396375774e-07,
        1.7460023116200318e-07,
        4.365005565887259e-07,
        -8.730011131774518e-07,
        -7.857009904910228e-07,
        -4.365005565887259e-07,
        -6.984009246480127e-07,
        -3.4920046232400637e-07,
        0.0,
        1.7460023116200318e-07,
        1.4841019719824544e-06,
        -3.4920046232400637e-07,
        -7.857009904910228e-07,
        1.8333023490413325e-06,
        2.0952027171006193e-06,
        4.365005565887259e-07,
        2.619003396375774e-07,
        7.857009904910228e-07,
        5.238006792751548e-07,
        8.730011558100159e-08,
        1.7460023116200318e-07,
        8.730011558100159e-08,
        5.238006792751548e-07,
        4.365005565887259e-07,
        -4.365005565887259e-07,
        0.0,
        2.0952027171006193e-06,
        -1.0476013585503097e-06,
        -5.238006792751548e-07,
        0.0,
        -2.619003396375774e-07,
        8.730011131774518e-07,
        6.111008019615838e-07,
        -1.5714019809820456e-06,
        -8.730011558100159e-08,
        1.0476013585503097e-06,
        3.4920046232400637e-07,
        -1.0476013585503097e-06,
        3.4920046232400637e-07,
        4.365005565887259e-07,
        -1.7460023116200318e-07,
        -2.619003396375774e-07,
        1.7460023116200318e-07,
        6.111008019615838e-07,
        1.1349014812367386e-06,
        1.3968018492960255e-06,
        -3.4920046232400637e-07,
        -1.1349014812367386e-06,
        -9.603012358638807e-07,
        6.111008019615838e-07,
        1.7460022263549035e-06,
        -1.7460023116200318e-07,
        5.238006792751548e-07,
        -4.365005565887259e-07,
        -4.365005565887259e-07,
        7.857009904910228e-07,
        0.0,
        -7.857009904910228e-07,
        1.6587021036684746e-06,
        1.3095017266095965e-06,
        6.111008019615838e-07,
        -6.111008019615838e-07,
        -1.5714019809820456e-06,
        1.3095017266095965e-06,
        1.3095017266095965e-06,
        1.2222016039231676e-06,
        4.365005565887259e-07,
        1.7460023116200318e-07,
        3.4920046232400637e-07,
        -3.4920046232400637e-07,
        -2.619003396375774e-07,
        -2.619003396375774e-07,
        4.365005565887259e-07,
        0.0,
        -6.111008019615838e-07,
        3.4920046232400637e-07,
        9.603012358638807e-07,
        -8.730011558100159e-08,
        -7.857009904910228e-07,
        -3.4920046232400637e-07,
        8.730011558100159e-08,
        1.7460023116200318e-07,
        0.0,
        -1.3095017266095965e-06,
        -7.857009904910228e-07,
        -3.4920046232400637e-07,
        6.984009246480127e-07,
        9.603012358638807e-07,
        -4.365005565887259e-07,
        -4.365005565887259e-07,
        -6.111008019615838e-07,
        5.238006792751548e-07,
        6.984009246480127e-07,
        -1.5714019809820456e-06,
        -2.1825028397870483e-06,
        -1.7460023116200318e-07,
        -1.7460023116200318e-07,
        2.619003396375774e-07,
        -1.7460023116200318e-07,
        -8.730011131774518e-07,
        2.619003396375774e-07,
        1.0476013585503097e-06,
        -3.4920046232400637e-07,
        -1.0476013585503097e-06,
        -6.984009246480127e-07,
        -2.619003396375774e-07,
        -1.7460023116200318e-07,
        -7.857009904910228e-07,
        -9.603012358638807e-07,
        -8.730011558100159e-08,
        1.9206024717277614e-06,
        5.238006792751548e-07,
        9.603012358638807e-07,
        5.238006792751548e-07,
        8.730011131774518e-07,
        1.1349014812367386e-06,
        1.0476013585503097e-06,
        3.4920046232400637e-07,
        -5.238006792751548e-07,
        1.7460023116200318e-07,
        -2.619003396375774e-07,
        -8.730011131774518e-07,
        1.7460023116200318e-07,
        6.111008019615838e-07,
        8.730011131774518e-07,
        -4.365005565887259e-07,
        -7.857009904910228e-07,
        8.730011131774518e-07,
        6.984009246480127e-07,
        -6.984009246480127e-07,
        -5.238006792751548e-07,
        -8.730011558100159e-08,
        -3.4920046232400637e-07,
        6.984009246480127e-07,
        1.2222016039231676e-06,
        -4.365005565887259e-07,
        5.238006792751548e-07,
        7.857009904910228e-07,
        0.0,
        -9.603012358638807e-07,
        -8.730011558100159e-08,
        1.0476013585503097e-06,
        5.238006792751548e-07,
        2.619003396375774e-07,
        1.1349014812367386e-06,
        5.238006792751548e-07,
        -2.619003396375774e-07,
        -6.111008019615838e-07,
        -9.603012358638807e-07,
        -1.7460023116200318e-07,
        -5.238006792751548e-07,
        -6.111008019615838e-07,
        -8.730011131774518e-07,
        -4.365005565887259e-07,
        3.4920046232400637e-07,
        8.730011131774518e-07,
        1.2222016039231676e-06,
        -7.857009904910228e-07,
        -8.730011131774518e-07,
        2.619003396375774e-07,
        1.0476013585503097e-06,
        5.238006792751548e-07,
        -9.603012358638807e-07,
        5.238006792751548e-07,
        8.730011131774518e-07,
        3.4920046232400637e-07,
        6.111008019615838e-07,
        8.730011131774518e-07,
        6.984009246480127e-07,
        -6.111008019615838e-07,
        -5.238006792751548e-07,
        1.4841019719824544e-06,
        1.9206024717277614e-06,
        1.8333023490413325e-06,
        1.7460023116200318e-07,
        -8.730011558100159e-08,
        8.730011558100159e-08,
        -2.619003396375774e-07,
        3.4920046232400637e-07,
        8.730011558100159e-08,
        -1.5714019809820456e-06,
        4.365005565887259e-07,
        0.0,
        -7.857009904910228e-07,
        7.857009904910228e-07,
        -4.365005565887259e-07,
        1.7460023116200318e-07,
        1.4841019719824544e-06,
        1.5714019809820456e-06,
        4.365005565887259e-07,
        -8.730011558100159e-08,
        4.365005565887259e-07,
        1.7460023116200318e-07,
        -8.730011131774518e-07,
        1.3968018492960255e-06,
        1.7460022263549035e-06,
        1.1349014812367386e-06,
        -8.730011558100159e-08,
        0.0,
        8.730011131774518e-07,
        -2.619003396375774e-07,
        6.111008019615838e-07,
        8.730011131774518e-07,
        -1.2222016039231676e-06,
        -1.3968018492960255e-06,
        7.857009904910228e-07,
        8.730011558100159e-08,
        -1.3968018492960255e-06,
        0.0,
        7.857009904910228e-07,
        -8.730011558100159e-08,
        -1.3095017266095965e-06,
        -1.1349014812367386e-06,
        -4.365005565887259e-07,
        -8.730011558100159e-08,
        8.730011558100159e-08,
        -3.4920046232400637e-07,
        -1.3095017266095965e-06,
        -7.857009904910228e-07,
        -6.111008019615838e-07,
        -6.984009246480127e-07,
        2.619003396375774e-07,
        -1.0476013585503097e-06,
        -1.9206024717277614e-06,
        -1.6587021036684746e-06,
        -2.444403207846335e-06,
        -2.0079025944141904e-06,
        -8.730011131774518e-07,
        8.730011558100159e-08,
        4.365005565887259e-07,
        -7.857009904910228e-07,
        4.365005565887259e-07,
        6.111008019615838e-07,
        1.3968018492960255e-06,
        1.3095017266095965e-06,
        -2.619003396375774e-07,
        -8.730011558100159e-08,
        8.730011558100159e-08,
        2.619003396375774e-07,
        0.0,
        -1.0476013585503097e-06,
        -1.2222016039231676e-06,
        1.7460023116200318e-07,
        6.111008019615838e-07,
        -8.730011558100159e-08,
        -6.111008019615838e-07,
        -1.7460023116200318e-07,
        6.111008019615838e-07,
        1.0476013585503097e-06,
        8.730011131774518e-07,
        -7.857009904910228e-07,
        -8.730011131774518e-07,
        6.984009246480127e-07,
        9.603012358638807e-07,
        -8.730011131774518e-07,
        -2.0952027171006193e-06,
        4.365005565887259e-07,
        6.984009246480127e-07,
        6.111008019615838e-07,
        -1.1349014812367386e-06,
        -1.1349014812367386e-06,
        -1.7460023116200318e-07,
        9.603012358638807e-07,
        -1.7460023116200318e-07,
        -3.4920046232400637e-07,
        7.857009904910228e-07,
        0.0,
        -8.730011558100159e-08,
        -1.7460023116200318e-07,
        -6.984009246480127e-07,
        -1.8333023490413325e-06,
        -2.88090382127848e-06,
        -1.3968018492960255e-06,
        -1.7460023116200318e-07,
        6.984009246480127e-07,
        -5.238006792751548e-07,
        -7.857009904910228e-07,
        8.730011558100159e-08,
        2.619003396375774e-07,
        1.3095017266095965e-06,
        6.111008019615838e-07,
        -1.4841019719824544e-06,
        -6.984009246480127e-07,
        -8.730011131774518e-07,
        1.2222016039231676e-06,
        -8.730011131774518e-07,
        -9.603012358638807e-07,
        -1.1349014812367386e-06,
        -3.4920046232400637e-07,
        7.857009904910228e-07,
        2.619003396375774e-07,
        -6.984009246480127e-07,
        -9.603012358638807e-07,
        -5.238006792751548e-07,
        -1.3095017266095965e-06,
        -6.984009246480127e-07,
        8.730011131774518e-07,
        -2.619003396375774e-07,
        0.0,
        -6.984009246480127e-07,
        -9.603012358638807e-07,
        -3.4920046232400637e-07,
        -3.4920046232400637e-07,
        -6.984009246480127e-07,
        -6.111008019615838e-07,
        -2.619003396375774e-07,
        1.0476013585503097e-06,
        -1.5714019809820456e-06,
        -7.857009904910228e-07,
        -6.111008019615838e-07,
        1.0476013585503097e-06,
        0.0,
        -1.8333023490413325e-06,
        -2.2698029624734772e-06,
        -9.603012358638807e-07,
        5.238006792751548e-07,
        -1.7460023116200318e-07,
        -1.7460023116200318e-07,
        3.4920046232400637e-07,
        -6.111008019615838e-07,
        -1.3095017266095965e-06,
        -1.0476013585503097e-06,
        1.7460023116200318e-07,
        -5.238006792751548e-07,
        -6.111008019615838e-07,
        -1.2222016039231676e-06,
        -1.2222016039231676e-06,
