{
    "in_shape": [
        null,
        null,
        1
    ],
    "layers": [
        {
            "type": "lstm",
            "activation": "",
            "shape": [
                null,
                null,
                20
            ],
            "weights": [
                [
                    [
                        -0.13580770790576935,
                        0.21142789721488953,
                        0.1344904899597168,
                        -0.07279318571090698,
                        -0.09506840258836746,
                        0.032499879598617554,
                        0.05294322595000267,
                        0.3383796811103821,
                        0.16859716176986694,
                        0.11460299044847488,
                        0.3302069306373596,
                        -0.0692603811621666,
                        0.14458221197128296,
                        0.3168332874774933,
                        -0.0386415533721447,
                        -0.18485353887081146,
                        -0.3610229790210724,
                        0.7291972041130066,
                        0.6427732110023499,
                        0.2523406445980072,
                        -0.3091660141944885,
                        -0.07578419893980026,
                        0.12384213507175446,
                        0.20476911962032318,
                        -0.1417994350194931,
                        -0.530116617679596,
                        -0.24805936217308044,
                        -0.14158733189105988,
                        -0.16973260045051575,
                        0.21154022216796875,
                        0.35641759634017944,
                        0.22145771980285645,
                        0.37082716822624207,
                        -0.1998290717601776,
                        -0.017664644867181778,
                        0.04867131635546684,
                        -0.6518215537071228,
                        0.13102024793624878,
                        0.7778334617614746,
                        -0.1958162486553192,
                        0.20953427255153656,
                        0.1270746886730194,
                        -0.27063503861427307,
                        -0.19108420610427856,
                        -0.1624038815498352,
                        -0.5805175304412842,
                        0.09515649825334549,
                        -0.22882473468780518,
                        -0.051174096763134,
                        -0.07752697914838791,
                        -0.2725282907485962,
                        0.17760205268859863,
                        3.227438449859619,
                        0.46103325486183167,
                        0.23394732177257538,
                        -0.23872166872024536,
                        -0.45185765624046326,
                        1.170343041419983,
                        0.7002570629119873,
                        0.008608286269009113,
                        -0.041607245802879333,
                        0.22223225235939026,
                        -0.45830658078193665,
                        -0.0048218038864433765,
                        0.25848203897476196,
                        0.05823846906423569,
                        0.25325435400009155,
                        0.36717939376831055,
                        0.13721394538879395,
                        -0.5485736727714539,
                        0.648512065410614,
                        -0.21700546145439148,
                        0.9047786593437195,
                        -0.1193840280175209,
                        0.17413800954818726,
                        -0.07097578793764114,
                        -0.5074372291564941,
                        0.10802175849676132,
                        0.3895331919193268,
                        -0.11704200506210327
                    ]
                ],
                [
                    [
                        -0.3246999680995941,
                        -0.3382857143878937,
                        -0.2857401669025421,
                        0.6455337405204773,
                        -0.05442860350012779,
                        -0.2913864850997925,
                        -0.4218384325504303,
                        -0.5115178823471069,
                        -0.0268934927880764,
                        0.015581367537379265,
                        0.13985848426818848,
                        0.45442476868629456,
                        -0.07516692578792572,
                        0.03584982827305794,
                        0.21008990705013275,
                        -0.3177033066749573,
                        -0.0645853579044342,
                        0.03567618876695633,
                        -0.0008606389164924622,
                        0.25739485025405884,
                        -0.5514887571334839,
                        -0.6637272238731384,
                        0.06172936409711838,
                        0.13809962570667267,
                        -0.04044368490576744,
                        -0.21301475167274475,
                        -0.43060722947120667,
                        -0.5112448334693909,
                        -0.15156446397304535,
                        -0.11310277879238129,
                        0.2264941781759262,
                        1.7309260368347168,
                        0.39806488156318665,
                        0.19321471452713013,
                        0.3487759232521057,
                        0.06593254208564758,
                        -0.25208866596221924,
                        -0.06824740022420883,
                        0.19511760771274567,
                        -0.3950072228908539,
                        0.706682026386261,
                        1.0258654356002808,
                        0.19147798418998718,
                        0.26482293009757996,
                        -0.06547340750694275,
                        0.30511096119880676,
                        -0.5564409494400024,
                        -0.02911476045846939,
                        0.6569185853004456,
                        0.41626858711242676,
                        -0.14009331166744232,
                        -1.182252049446106,
                        0.0111442431807518,
                        0.02664618007838726,
                        0.15522202849388123,
                        -0.20903529226779938,
                        0.07932429760694504,
                        0.14612530171871185,
                        -0.1438886970281601,
                        0.08911769092082977,
                        -0.8245636820793152,
                        0.28764960169792175,
                        0.1271859109401703,
                        0.5219062566757202,
                        -0.21034319698810577,
                        -0.27788683772087097,
                        -0.010569619946181774,
                        -0.16651983559131622,
                        1.0949690341949463,
                        -0.09460785984992981,
                        0.21040154993534088,
                        0.3663671016693115,
                        0.2530570924282074,
                        0.338055819272995,
                        -0.062231168150901794,
                        0.6448580622673035,
                        0.005100538022816181,
                        -0.18158797919750214,
                        -0.2912859618663788,
                        0.19943518936634064
                    ],
                    [
                        -0.6445424556732178,
                        -0.6690672636032104,
                        0.15991611778736115,
                        -0.16984455287456512,
                        0.35579460859298706,
                        0.003968282602727413,
                        0.5060878992080688,
                        0.652624249458313,
                        -0.24176274240016937,
                        0.21164940297603607,
                        0.03616200014948845,
                        -0.5830315351486206,
                        -0.07313574850559235,
                        -0.20391331613063812,
                        0.22680342197418213,
                        0.1566866934299469,
                        0.18723545968532562,
                        0.17934474349021912,
                        0.05900523439049721,
                        0.01372820045799017,
                        -0.9156358242034912,
                        -1.0396506786346436,
                        -0.13215194642543793,
                        0.020483633503317833,
                        0.15745538473129272,
                        -0.17938582599163055,
                        -0.5395472049713135,
                        -0.785744309425354,
                        -0.3966861367225647,
                        -0.16407930850982666,
                        -0.3202972412109375,
                        -0.3534281849861145,
                        -0.02389749139547348,
                        -0.14101643860340118,
                        -0.07894404232501984,
                        -0.23063796758651733,
                        -0.3735120892524719,
                        0.09200230985879898,
                        0.11491004377603531,
                        -0.35486745834350586,
                        0.4803350865840912,
                        0.7320838570594788,
                        -0.25019571185112,
                        -0.06397576630115509,
                        0.04987224191427231,
                        -0.18345731496810913,
                        -0.05490558594465256,
                        -0.166364386677742,
                        1.4153162240982056,
                        0.08542774617671967,
                        0.03108258917927742,
                        0.4004908502101898,
                        0.037702567875385284,
                        -0.005993269849568605,
                        -0.36504560708999634,
                        0.6628085374832153,
                        -0.036871589720249176,
                        -0.06894848495721817,
                        0.08676186203956604,
                        0.27464979887008667,
                        -0.948347806930542,
                        -0.5014722943305969,
                        -0.009279687888920307,
                        -0.4604469835758209,
                        0.2809942066669464,
                        -0.1950627714395523,
                        -0.2635648846626282,
                        0.16549810767173767,
                        0.6433228254318237,
                        0.16285297274589539,
                        -0.1551835834980011,
                        0.03173167631030083,
                        -0.38095158338546753,
                        -0.149111807346344,
                        -0.24587608873844147,
                        0.6636577248573303,
                        -0.034313663840293884,
                        0.038260042667388916,
                        -0.01498003676533699,
                        -0.32601672410964966
                    ],
                    [
                        0.07588307559490204,
                        -0.024922532960772514,
                        0.1252773106098175,
                        -0.12643611431121826,
                        -0.34824538230895996,
                        -0.030862174928188324,
                        0.6050834655761719,
                        -0.011560418643057346,
                        -0.06793909519910812,
                        0.5160659551620483,
                        0.500081479549408,
                        -0.0079948166385293,
                        0.32343557476997375,
                        -0.4254601299762726,
                        0.11181202530860901,
                        -0.023494945839047432,
                        -0.31337520480155945,
                        -0.17311741411685944,
                        0.6864659190177917,
                        0.16035912930965424,
                        0.25727957487106323,
                        0.232042133808136,
                        0.16205675899982452,
                        0.08864830434322357,
                        -0.46095171570777893,
                        -0.13114793598651886,
                        -0.6026288270950317,
                        -0.7576132416725159,
                        -0.16756998002529144,
                        -0.5461244583129883,
                        -0.06812293082475662,
                        0.16345299780368805,
                        -0.07258664071559906,
                        -0.43071362376213074,
                        0.13083873689174652,
                        0.0005068259779363871,
                        -0.06975317001342773,
                        -0.37845727801322937,
                        -0.059928469359874725,
                        -0.3747347891330719,
                        -0.29157203435897827,
                        -0.6640113592147827,
                        0.22096647322177887,
                        0.20053201913833618,
                        -0.49787014722824097,
                        -0.34348878264427185,
                        0.06848590821027756,
                        0.34757593274116516,
                        0.15385602414608002,
                        -0.5718709826469421,
                        -0.08195427060127258,
                        -0.2110052853822708,
                        0.7846317887306213,
                        0.37055447697639465,
                        0.14690880477428436,
                        -0.05931767076253891,
                        -0.1799335479736328,
                        0.11924556642770767,
                        0.1218339279294014,
                        -0.06852922588586807,
                        0.06522614508867264,
                        0.004268407355993986,
                        0.24417459964752197,
                        -0.23914735019207,
                        -0.3541092574596405,
                        -0.07460714131593704,
                        -0.2478136569261551,
                        -0.64206862449646,
                        -0.5771709084510803,
                        0.32468152046203613,
                        0.2260911613702774,
                        -0.04045960679650307,
                        -0.40020719170570374,
                        -0.6357097029685974,
                        -0.07589592039585114,
                        -0.1543755978345871,
                        0.3353917598724365,
                        -0.23200556635856628,
                        0.2743830680847168,
                        -0.3684365451335907
                    ],
                    [
                        -0.472922682762146,
                        -0.20353905856609344,
                        0.34701594710350037,
                        -0.3455257713794708,
                        -0.10892853885889053,
                        0.0688207820057869,
                        0.6254863142967224,
                        0.5646238923072815,
                        -0.5136071443557739,
                        0.414296954870224,
                        0.5085545182228088,
                        0.29673027992248535,
                        0.6343039870262146,
                        -0.3361293077468872,
                        -0.07923837751150131,
                        0.16731365025043488,
                        -0.11465173214673996,
                        -0.060047391802072525,
                        0.9962218403816223,
                        -0.09063216298818588,
                        -0.07868015021085739,
                        -0.9532763361930847,
                        -0.33832189440727234,
                        -0.49947500228881836,
                        0.026475360617041588,
                        0.0010598693042993546,
                        -0.6079291105270386,
                        -0.4340350925922394,
                        -0.21837739646434784,
                        -0.5775818824768066,
                        -0.7301947474479675,
                        0.1516219824552536,
                        0.37713539600372314,
                        0.028044015169143677,
                        0.011115457862615585,
                        -0.12185079604387283,
                        -0.3072625994682312,
                        -0.23806145787239075,
                        -0.4162597954273224,
                        -0.18118661642074585,
                        -0.8490442633628845,
                        -0.5064114928245544,
                        0.07513363659381866,
                        0.2784062325954437,
                        0.03151978552341461,
                        0.807631254196167,
                        -0.06374436616897583,
                        -0.26198384165763855,
                        0.2314024567604065,
                        -0.17954280972480774,
                        -0.25765761733055115,
                        -0.2576282024383545,
                        0.13400913774967194,
                        0.07403869926929474,
                        0.01916290819644928,
                        1.3995636701583862,
                        -0.22097527980804443,
                        -0.23644845187664032,
                        0.30706465244293213,
                        -0.342133492231369,
                        0.45828303694725037,
                        0.13691341876983643,
                        -0.0051347254775464535,
                        -0.053155310451984406,
                        0.030935674905776978,
                        0.10131124407052994,
                        -0.07104392349720001,
                        -0.15689034759998322,
                        -0.24685126543045044,
                        0.38821351528167725,
                        0.007459833286702633,
                        0.27237069606781006,
                        -0.6672237515449524,
                        -0.4123215079307556,
                        -0.338230162858963,
                        -0.014230107888579369,
                        -0.4980572462081909,
                        0.2021273970603943,
                        0.5542553663253784,
                        0.015145865269005299
                    ],
                    [
                        -0.12968362867832184,
                        -0.18899376690387726,
                        0.04012852534651756,
                        0.02717025950551033,
                        -0.20023539662361145,
                        -0.13478291034698486,
                        0.49463534355163574,
                        -0.37126100063323975,
                        0.06292849034070969,
                        0.4565920829772949,
                        0.08702478557825089,
                        -0.21687087416648865,
                        -0.49923110008239746,
                        -0.14120198786258698,
                        -0.176880344748497,
                        0.005674092099070549,
                        0.2589109539985657,
                        0.04778079688549042,
                        -0.03064524196088314,
                        0.6525127291679382,
                        0.054042987525463104,
                        0.060858555138111115,
                        -0.09686483442783356,
                        0.26538029313087463,
                        -0.08367221802473068,
                        0.1354368031024933,
                        -0.7924928665161133,
                        -0.5262961387634277,
                        -0.04962700605392456,
                        -0.40053802728652954,
                        -0.48769471049308777,
                        0.15562044084072113,
                        -0.22176510095596313,
                        -0.2496636062860489,
                        -0.20788899064064026,
                        -0.030067376792430878,
                        -0.303233802318573,
                        -0.023052651435136795,
                        -0.06523735821247101,
                        -0.4019853472709656,
                        -0.053478166460990906,
                        0.017469771206378937,
                        0.029353078454732895,
                        -0.08691170066595078,
                        0.1717023253440857,
                        -0.04781821742653847,
                        -0.275860458612442,
                        0.48200783133506775,
                        0.04997360706329346,
                        0.018348602578043938,
                        0.13853472471237183,
                        -0.13538484275341034,
                        -0.20262597501277924,
                        -0.7465422749519348,
                        -0.08267616480588913,
                        -0.041160501539707184,
                        -0.0658080205321312,
                        0.025980819016695023,
                        -0.20054671168327332,
                        0.36414021253585815,
                        -0.1688113510608673,
                        0.13564538955688477,
                        0.34987273812294006,
                        -0.19292837381362915,
                        -0.2937384247779846,
                        -0.2253032624721527,
                        -0.023128584027290344,
                        0.24594326317310333,
                        0.12539595365524292,
                        0.4069443345069885,
                        -0.18365739285945892,
                        -0.3997483253479004,
                        -0.23835615813732147,
                        0.025088487192988396,
                        -0.04136845842003822,
                        -0.4249759316444397,
                        0.17729724943637848,
                        -0.13891781866550446,
                        -0.19118838012218475,
                        0.11946660280227661
                    ],
                    [
                        0.5891380310058594,
                        0.4483875632286072,
                        0.01345319114625454,
                        -0.6490691900253296,
                        0.022895969450473785,
                        0.059165459126234055,
                        -0.07346045970916748,
                        -0.7710667252540588,
                        -0.6795751452445984,
                        0.14327864348888397,
                        -0.20247825980186462,
                        0.5334230065345764,
                        0.05108266696333885,
                        0.41055741906166077,
                        0.12806737422943115,
                        -0.2707340121269226,
                        -0.11459282785654068,
                        0.22960343956947327,
                        -0.1267632395029068,
                        -0.20427575707435608,
                        -0.21279340982437134,
                        1.1111948490142822,
                        0.25603896379470825,
                        0.1892620027065277,
                        0.1439550817012787,
                        -0.33997583389282227,
                        -0.37163588404655457,
                        0.5650311708450317,
                        -0.08900480717420578,
                        0.23621246218681335,
                        0.25832831859588623,
                        0.03902027755975723,
                        -0.3441222310066223,
                        0.558502733707428,
                        0.11094962060451508,
                        -0.5625976920127869,
                        0.20701730251312256,
                        0.3699743449687958,
                        -0.3307971656322479,
                        -0.3607792556285858,
                        -0.5006471872329712,
                        -1.0756415128707886,
                        -0.07486592233181,
                        -0.631477415561676,
                        -0.07078926265239716,
                        0.010689061135053635,
                        0.1576533317565918,
                        0.03706887736916542,
                        -0.13809834420681,
                        -0.29712024331092834,
                        0.008351038210093975,
                        -0.18978393077850342,
                        -0.12418688088655472,
                        -0.25897708535194397,
                        -0.13172468543052673,
                        -0.01885993592441082,
                        -0.032517530024051666,
                        0.19008618593215942,
                        0.003550478257238865,
                        0.06700439751148224,
                        0.7057559490203857,
                        -0.5803812742233276,
                        -0.003431021934375167,
                        1.0946848392486572,
                        0.1492374688386917,
                        -0.12198320031166077,
                        -0.5628435611724854,
                        -0.17011381685733795,
                        0.0043733795173466206,
                        -0.5614770650863647,
                        0.14065097272396088,
                        0.2685399353504181,
                        0.16904021799564362,
                        -0.5242817997932434,
                        -0.13972127437591553,
                        0.7503520846366882,
                        -0.03116302751004696,
                        0.2020280659198761,
                        0.1840244084596634,
                        -0.1370481550693512
                    ],
                    [
                        -0.1226327046751976,
                        0.2407071739435196,
                        0.1699216216802597,
                        0.16256588697433472,
                        0.19610093533992767,
                        0.23003371059894562,
                        -0.20818519592285156,
                        -0.14470475912094116,
                        0.34301280975341797,
                        -0.5318830609321594,
                        0.02616165392100811,
                        0.12102599442005157,
                        -0.513153076171875,
                        -0.20322753489017487,
                        -0.17491169273853302,
                        0.2517111897468567,
                        0.2046116441488266,
                        -0.23074914515018463,
                        -0.23443010449409485,
                        -0.02001483179628849,
                        0.5323130488395691,
                        -0.228357195854187,
                        0.006497517693787813,
                        0.2126806080341339,
                        0.2871057689189911,
                        0.06333988904953003,
                        1.1277776956558228,
                        0.445405513048172,
                        0.08977527916431427,
                        0.4072597622871399,
                        0.3795740008354187,
                        0.1680055409669876,
                        0.14599712193012238,
                        -0.5588083267211914,
                        -0.011694535613059998,
                        0.1708330363035202,
                        -0.0507844053208828,
                        -0.2437237650156021,
                        0.43993711471557617,
                        0.4686893820762634,
                        -0.07637614756822586,
                        0.3481415808200836,
                        -0.4390433430671692,
                        -0.35552680492401123,
                        -0.4181205630302429,
                        -0.8269879817962646,
                        0.2876364290714264,
                        -0.30343398451805115,
                        -0.05508005991578102,
                        -0.01565791293978691,
                        0.5183436274528503,
                        0.10946502536535263,
                        0.2729153037071228,
                        -0.5433430671691895,
                        -0.38486865162849426,
                        0.3754892945289612,
                        0.44773954153060913,
                        -0.4047672748565674,
                        0.17258839309215546,
                        -0.42129385471343994,
                        -0.1534499228000641,
                        0.14156021177768707,
                        -0.125910684466362,
                        -0.12033230811357498,
                        0.09802010655403137,
                        0.39228078722953796,
                        0.9414486885070801,
                        0.19994670152664185,
                        0.46917861700057983,
                        0.19748951494693756,
                        0.1755479872226715,
                        0.15823426842689514,
                        0.21930217742919922,
                        0.13107642531394958,
                        -0.12351194769144058,
                        0.23729588091373444,
                        -0.2176043689250946,
                        -0.22358091175556183,
                        0.0923912301659584,
                        0.14661940932273865
                    ],
                    [
                        -0.10943109542131424,
                        -0.21619243919849396,
                        -0.2806034982204437,
                        -0.22415879368782043,
                        0.21481218934059143,
                        -0.12930725514888763,
                        0.43519407510757446,
                        -0.09431280940771103,
                        -0.26086103916168213,
                        0.49298158288002014,
                        -0.06052448973059654,
                        -0.035409554839134216,
                        1.0616569519042969,
                        0.14061705768108368,
                        0.09920893609523773,
                        -0.22116591036319733,
                        -0.2693854570388794,
                        0.32381579279899597,
                        0.2515958845615387,
                        0.30843764543533325,
                        -0.3495025336742401,
                        -0.25019535422325134,
                        -0.4136202335357666,
                        -0.4258381128311157,
                        0.15918990969657898,
                        -0.17645885050296783,
                        -0.3290051519870758,
                        0.0304084662348032,
                        -0.03824308514595032,
                        -0.27222537994384766,
                        -0.3799077570438385,
                        -0.1284427046775818,
                        0.33981531858444214,
                        0.5309849381446838,
                        -0.01340677123516798,
                        -0.20299749076366425,
                        0.066349096596241,
                        0.23526699841022491,
                        -0.6904187202453613,
                        -0.4069812297821045,
                        0.2635919153690338,
                        -0.03379960358142853,
                        0.2458208054304123,
                        0.8673157691955566,
                        -0.7390896081924438,
                        -0.3633924126625061,
                        0.13209833204746246,
                        -0.16245871782302856,
                        -0.1848376989364624,
                        -0.266072541475296,
                        -0.5712665319442749,
                        0.5621636509895325,
                        0.631419837474823,
                        0.45132237672805786,
                        -0.060919132083654404,
                        0.008803763426840305,
                        0.13722628355026245,
                        -0.052324213087558746,
                        -0.4349634051322937,
                        0.10317625105381012,
                        -0.3697836101055145,
                        -0.018016275018453598,
                        -0.8349998593330383,
                        -0.2379554659128189,
                        0.18541817367076874,
                        -0.25343742966651917,
                        -0.44403472542762756,
                        -0.8851710557937622,
                        -0.03100341185927391,
                        -0.08249198645353317,
                        -0.7431955337524414,
                        -0.13478942215442657,
                        -0.1907561868429184,
                        -0.03450357913970947,
                        -0.018918288871645927,
                        -0.21750657260417938,
                        0.07378845661878586,
                        0.4785335958003998,
                        -0.14363086223602295,
                        -0.1097600981593132
                    ],
                    [
                        0.2977457642555237,
                        -0.6037144064903259,
                        0.32556483149528503,
                        0.166147381067276,
                        0.14313971996307373,
                        -0.3853375017642975,
                        0.959332287311554,
                        0.7962815165519714,
                        -0.3069130480289459,
                        0.2983195185661316,
                        0.2985070049762726,
                        -0.20522423088550568,
                        -0.08248523622751236,
                        -0.08590833097696304,
                        -0.7322022318840027,
                        -0.4764985740184784,
                        0.29672807455062866,
                        -0.01697913371026516,
                        0.27051442861557007,
                        -0.07383447140455246,
                        0.5964050889015198,
                        -0.2974874973297119,
                        -0.30356135964393616,
                        0.11417218297719955,
                        0.0942411795258522,
                        -0.042005352675914764,
                        -1.0361061096191406,
                        -1.0943033695220947,
                        0.030675282701849937,
                        -0.5556978583335876,
                        -0.4543345272541046,
                        -1.084128499031067,
                        -0.04003585875034332,
                        -0.5390591621398926,
                        -0.308777779340744,
                        -0.1274692565202713,
                        -0.2152736634016037,
                        0.12063387036323547,
                        -0.12072231620550156,
                        -0.3279302716255188,
                        -0.022224849089980125,
                        -0.29201382398605347,
                        0.10838053375482559,
                        0.18014264106750488,
                        0.09712911397218704,
                        0.10549016296863556,
                        -0.012934206053614616,
                        -0.10668861865997314,
                        -0.351708322763443,
                        0.14964427053928375,
                        0.06649787724018097,
                        0.522130012512207,
                        -0.07491391897201538,
                        0.08612632006406784,
                        0.5981067419052124,
                        -0.4093284606933594,
                        0.16150394082069397,
                        0.04861444607377052,
                        0.07776014506816864,
                        -0.3826315999031067,
                        0.3739392161369324,
                        -0.5252465605735779,
                        -0.08022671937942505,
                        -0.2035990059375763,
                        0.0470140166580677,
                        -0.2986796796321869,
                        -0.09297502040863037,
                        0.014286872930824757,
                        -0.34474876523017883,
                        0.007591307163238525,
                        -0.09063112735748291,
                        -0.1214229017496109,
                        -0.09446423500776291,
                        0.17438365519046783,
                        1.0457788705825806,
                        -0.4467006325721741,
                        0.1398698091506958,
                        -0.12658248841762543,
                        0.01850733906030655,
                        -0.5776355266571045
                    ],
                    [
                        0.5016545057296753,
                        -0.2006726861000061,
                        0.019803455099463463,
                        -0.19582727551460266,
                        0.237330824136734,
                        -0.16255034506320953,
                        0.7309972643852234,
                        0.07264731079339981,
                        -0.0795789435505867,
                        -0.10627801716327667,
                        0.39196890592575073,
                        0.05406533554196358,
                        -0.006419134326279163,
                        0.0290219783782959,
                        0.20009522140026093,
                        -0.1441177874803543,
                        0.1251169741153717,
                        0.09758246690034866,
                        0.3300178349018097,
                        0.7482069134712219,
                        -0.24798837304115295,
                        0.7441506385803223,
                        -0.1472873091697693,
                        0.1747804582118988,
                        0.23726287484169006,
                        -0.3703480064868927,
                        -0.5386850833892822,
                        -0.39283856749534607,
                        0.20258952677249908,
                        -0.5099559426307678,
                        -0.4404500424861908,
                        0.2070910781621933,
                        0.16947558522224426,
                        0.19269737601280212,
                        0.29177790880203247,
                        0.019119802862405777,
                        -0.07484986633062363,
                        -0.0024898506235331297,
                        -0.062220413237810135,
                        0.09841824322938919,
                        -0.074297696352005,
                        -0.1228301078081131,
                        -0.14056003093719482,
                        0.35439634323120117,
                        -0.0487828403711319,
                        0.2110089808702469,
                        -0.05856306105852127,
                        0.2129337042570114,
                        -0.4318942725658417,
                        0.6265025734901428,
                        -0.09463158994913101,
                        -0.13844050467014313,
                        0.15919151902198792,
                        0.07992656528949738,
                        -0.30624958872795105,
                        -0.13161082565784454,
                        -0.29764530062675476,
                        -0.02263248711824417,
                        0.008592400699853897,
                        -0.6555246114730835,
                        0.38367459177970886,
                        0.0008011275203898549,
                        0.19791743159294128,
                        0.3050500154495239,
                        0.558025598526001,
                        -0.1889089196920395,
                        -0.06858167797327042,
                        0.3710840344429016,
                        -0.4516986012458801,
                        -0.8479041457176208,
                        0.23867954313755035,
                        -0.06725069880485535,
                        0.18314088881015778,
                        -0.4455954432487488,
                        0.10831432044506073,
                        0.15611185133457184,
                        0.17889805138111115,
                        -0.228268101811409,
                        0.18708151578903198,
                        -0.39137300848960876
                    ],
                    [
                        -0.11916358023881912,
                        0.1451285183429718,
                        0.22829493880271912,
                        -0.017911307513713837,
                        -0.3001319169998169,
                        0.23703938722610474,
                        0.08977536112070084,
                        -0.16742710769176483,
                        0.24018873274326324,
                        -0.5152686834335327,
                        0.20279009640216827,
                        0.03447975218296051,
                        -2.051640033721924,
                        0.4085144102573395,
                        -0.23217105865478516,
                        0.237575963139534,
                        0.3208587169647217,
                        -0.3054707944393158,
                        -0.5196611881256104,
                        0.20328357815742493,
                        0.03280196711421013,
                        0.02759108878672123,
                        -0.008152689784765244,
                        0.18412543833255768,
                        -0.22610242664813995,
                        0.2761801481246948,
                        0.4416889250278473,
                        -0.06941096484661102,
                        0.05037324130535126,
                        0.09280917793512344,
                        0.02396097034215927,
                        -0.01955314353108406,
                        -0.8034883737564087,
                        0.2553844749927521,
                        -0.15246731042861938,
                        0.29201483726501465,
                        -0.21913324296474457,
                        -0.21873721480369568,
                        0.599373459815979,
                        0.13266147673130035,
                        0.06305721402168274,
                        0.3249651789665222,
                        -0.37990695238113403,
                        -0.20839285850524902,
                        0.40353813767433167,
                        0.1339687556028366,
                        -0.10598030686378479,
                        -0.021416081115603447,
                        -0.23701202869415283,
                        0.023537015542387962,
                        -0.09476475417613983,
                        -0.1319967359304428,
                        -1.1901370286941528,
                        -0.4939471185207367,
                        -0.03721262142062187,
                        0.2426047921180725,
                        0.04153456166386604,
                        -0.05475616455078125,
                        -0.12888289988040924,
                        0.1416594237089157,
                        0.01787390001118183,
                        -0.11234583705663681,
                        0.10267581790685654,
                        0.11869710683822632,
                        -0.15712092816829681,
                        0.3266301453113556,
                        0.12744449079036713,
                        0.7854304313659668,
                        0.1465156227350235,
                        -0.021853186190128326,
                        0.3151916563510895,
                        -0.024371959269046783,
                        -0.00014778417244087905,
                        0.4629944860935211,
                        -0.055398959666490555,
                        0.2124052196741104,
                        -0.10157595574855804,
                        -0.3727433383464813,
                        -0.18543200194835663,
                        -0.03158651664853096
                    ],
                    [
                        -0.7096811532974243,
                        -0.1380210965871811,
                        -0.08883923292160034,
                        0.3476678729057312,
                        -0.08180360496044159,
                        -0.5020846128463745,
                        0.6087943315505981,
                        0.1409912109375,
                        0.08628027886152267,
                        0.41990095376968384,
                        0.15042100846767426,
                        -0.6806197166442871,
                        0.14065058529376984,
                        0.24965235590934753,
                        -0.29967936873435974,
                        0.4080742299556732,
                        -0.1473458707332611,
                        -0.06340664625167847,
                        0.13820458948612213,
                        -0.26155441999435425,
                        -0.450469046831131,
                        -0.7791248559951782,
                        -0.04695678502321243,
                        0.40575817227363586,
                        -0.30124762654304504,
                        -0.012124656699597836,
                        -0.6618440747261047,
                        -0.5565453171730042,
                        0.7814905643463135,
                        0.19276152551174164,
                        0.2860001027584076,
                        -1.4772734642028809,
                        0.30785658955574036,
                        0.1635887622833252,
                        -0.22353921830654144,
                        0.06828534603118896,
                        -0.276443749666214,
                        -0.062088239938020706,
                        -0.2463863492012024,
                        -0.22765229642391205,
                        0.7633756995201111,
                        0.8417239189147949,
                        0.02987418882548809,
                        -0.06137406453490257,
                        -0.0504310242831707,
                        0.018949564546346664,
                        -0.07696143537759781,
                        -0.46310460567474365,
                        0.5677668452262878,
                        -0.6776527166366577,
                        -0.1747249960899353,
                        -0.5992441773414612,
                        0.10315265506505966,
                        0.021130396053195,
                        -1.0130884647369385,
                        0.49486708641052246,
                        -0.1312681883573532,
                        0.052957672625780106,
                        -0.027941999956965446,
                        0.1947498768568039,
                        -0.33829838037490845,
                        -0.07571882754564285,
                        0.22051401436328888,
                        -0.2941551208496094,
                        -0.28023606538772583,
                        -0.17476211488246918,
                        -0.5012008547782898,
                        0.0239096786826849,
                        -0.02102993056178093,
                        -0.07584374397993088,
                        -0.00978707056492567,
                        -0.6228806972503662,
                        -0.03389735147356987,
                        0.005243592895567417,
                        0.23296605050563812,
                        -0.40137407183647156,
                        -0.12413495033979416,
                        -0.011897359974682331,
                        -0.12006715685129166,
                        0.19498899579048157
                    ],
                    [
                        0.08968514949083328,
                        0.22166511416435242,
                        0.015356263145804405,
                        0.37187063694000244,
                        -0.10662343353033066,
                        0.11678867042064667,
                        -0.07283860445022583,
                        -0.26704081892967224,
                        -0.051616013050079346,
                        -0.09344957768917084,
                        0.06694459170103073,
                        0.11113084107637405,
                        1.339937448501587,
                        0.0641966164112091,
                        0.014472804963588715,
                        -0.05264484882354736,
                        0.19213877618312836,
                        0.05521071329712868,
                        0.4080524742603302,
                        -0.025557927787303925,
                        0.21805806457996368,
                        -0.2672044336795807,
                        -0.11218618601560593,
                        0.10995796322822571,
                        0.0324227400124073,
                        0.05847117677330971,
                        0.48651379346847534,
                        0.06135564297437668,
                        0.03242502361536026,
                        0.2257823497056961,
                        -0.03038162924349308,
                        0.050259094685316086,
                        0.9011866450309753,
                        0.037053465843200684,
                        0.03227466344833374,
                        -0.011292984709143639,
                        0.02419883757829666,
                        -0.061507996171712875,
                        0.07715897262096405,
                        -0.07271413505077362,
                        0.0038735470734536648,
                        -0.6155945658683777,
                        -0.03819308802485466,
                        1.5378997325897217,
                        -0.21339961886405945,
                        -0.6189716458320618,
                        -0.024667110294103622,
                        -0.32616475224494934,
                        -0.03157779946923256,
                        -0.1609208583831787,
                        0.024800313636660576,
                        0.2919985055923462,
                        0.7480894327163696,
                        0.7817944884300232,
                        -0.22770649194717407,
                        -0.7013389468193054,
                        -0.08883987367153168,
                        0.19820161163806915,
                        0.6339606046676636,
                        0.10368460416793823,
                        0.1345992237329483,
                        0.2496071606874466,
                        -0.19446757435798645,
                        0.25689899921417236,
                        -0.030239209532737732,
                        0.335580974817276,
                        0.5303237438201904,
                        -0.0747920423746109,
                        -0.15400846302509308,
                        0.3082055151462555,
                        0.300431489944458,
                        0.08965227007865906,
                        0.42305323481559753,
                        0.010625979863107204,
                        0.1241229772567749,
                        -0.06186934560537338,
                        -0.987358570098877,
                        0.7850736379623413,
                        0.4875209331512451,
                        0.07329568266868591
                    ],
                    [
                        0.050802264362573624,
                        0.21763162314891815,
                        -0.7590996026992798,
                        0.3369300067424774,
                        0.2322615385055542,
                        0.23882360756397247,
                        -0.9790793657302856,
                        -0.8784792423248291,
                        -0.01975790038704872,
                        -0.6208487749099731,
                        -0.7193441390991211,
                        -0.0040459949523210526,
                        0.5477283000946045,
                        0.11647707223892212,
                        -0.2178383618593216,
                        -0.6178970336914062,
                        -0.8823280930519104,
                        -0.4880947768688202,
                        -0.17444226145744324,
                        -0.33578208088874817,
                        0.278315931558609,
                        0.2622288167476654,
                        0.7473664879798889,
                        0.3082464337348938,
                        0.3831593096256256,
                        -0.20220422744750977,
                        1.1248944997787476,
                        0.9391835331916809,
                        0.21708539128303528,
                        1.0799230337142944,
                        0.9563849568367004,
                        0.029794486239552498,
                        -0.34014686942100525,
                        -0.016410451382398605,
                        0.04835658520460129,
                        -0.023022141307592392,
                        0.2717670500278473,
                        -0.07549618929624557,
                        -0.04599149897694588,
                        0.6322224736213684,
                        -0.07476528733968735,
                        -0.22993816435337067,
                        0.017257753759622574,
                        0.3018135130405426,
                        -0.08773840963840485,
                        0.29227787256240845,
                        -0.102625772356987,
                        -0.057579897344112396,
                        -0.43824195861816406,
                        0.05857785791158676,
                        -0.16476038098335266,
                        -0.2402765303850174,
                        0.043966300785541534,
                        0.0438491627573967,
                        0.18234844505786896,
                        0.17923232913017273,
                        0.07902761548757553,
                        0.3323501646518707,
                        -0.13043718039989471,
                        0.056807294487953186,
                        0.4854925572872162,
                        -0.3431668281555176,
                        0.14118970930576324,
                        0.6975489854812622,
                        0.1429273635149002,
                        0.18280461430549622,
                        0.28114908933639526,
                        -0.13526208698749542,
                        -0.4289647936820984,
                        0.29094380140304565,
                        0.36856967210769653,
                        0.1135992631316185,
                        0.8860383033752441,
                        0.08367319405078888,
                        0.04961075261235237,
                        -0.2445659190416336,
                        -0.46259233355522156,
                        -0.04584701359272003,
                        0.12447993457317352,
                        -0.050772570073604584
                    ],
                    [
                        0.3719460964202881,
                        0.25051480531692505,
                        0.06318270415067673,
                        -0.6577064394950867,
                        -0.16200947761535645,
                        0.252084881067276,
                        0.026433872058987617,
                        -0.10886386036872864,
                        0.11412587761878967,
                        0.49503567814826965,
                        0.09744919836521149,
                        0.16372109949588776,
                        0.03567345812916756,
                        -0.3571639955043793,
                        0.0611112080514431,
                        0.025137659162282944,
                        0.03998948633670807,
                        0.03091195598244667,
                        -0.1733122020959854,
                        0.01865565776824951,
                        0.18234841525554657,
                        0.09634453058242798,
                        0.025964245200157166,
                        0.13019616901874542,
                        -0.09571637958288193,
                        0.14023607969284058,
                        -0.2353619784116745,
                        0.23453064262866974,
                        0.2639133036136627,
                        -0.11792036145925522,
                        0.13398246467113495,
                        -0.11076464504003525,
                        -0.25623375177383423,
                        0.04658392444252968,
                        0.07103513181209564,
                        0.3375455439090729,
                        -0.05902206152677536,
                        0.008511392399668694,
                        -0.04003838822245598,
                        -0.23036135733127594,
                        0.18087710440158844,
                        0.13283155858516693,
                        -0.12765644490718842,
                        -0.07929789274930954,
                        0.08338439464569092,
                        -0.11179186403751373,
                        -0.32057714462280273,
                        0.27194246649742126,
                        -0.17653240263462067,
                        -0.4145198166370392,
                        -0.10441995412111282,
                        0.20915497839450836,
                        0.01450512558221817,
                        -0.008153469301760197,
                        0.211716890335083,
                        0.034699659794569016,
                        -0.14589712023735046,
                        0.08564504235982895,
                        0.16073699295520782,
                        0.40875542163848877,
                        0.020812079310417175,
                        0.26223766803741455,
                        0.07191859930753708,
                        -0.34119361639022827,
                        -0.048054471611976624,
                        0.053693413734436035,
                        0.08231820166110992,
                        -0.054792340844869614,
                        -0.046774815768003464,
                        0.0749475434422493,
                        0.02378447726368904,
                        0.08940118551254272,
                        0.15415403246879578,
                        0.1290307193994522,
                        -0.2554587125778198,
                        0.11670517921447754,
                        -0.17149969935417175,
                        0.047017842531204224,
                        0.027413228526711464,
                        -0.4196743369102478
                    ],
                    [
                        -0.8707470297813416,
                        -0.31782883405685425,
                        0.17375566065311432,
                        -0.08065413683652878,
                        -0.12237018346786499,
                        0.1957974135875702,
                        0.47247275710105896,
                        0.16777567565441132,
                        -0.13018330931663513,
                        0.01575894095003605,
                        0.4153119623661041,
                        0.22994187474250793,
                        0.37724554538726807,
                        -0.20937636494636536,
                        -0.12231902778148651,
                        -0.08526521176099777,
                        0.24852296710014343,
                        0.04973404482007027,
                        -0.22445963323116302,
                        -0.2259293645620346,
                        0.3862496316432953,
                        0.030610598623752594,
                        -0.22731278836727142,
                        -0.15126453340053558,
                        -0.09406058490276337,
                        0.5689202547073364,
                        0.008273197337985039,
                        -0.2661641538143158,
                        -0.8040234446525574,
                        -0.062302183359861374,
                        -0.07041487842798233,
                        0.16779986023902893,
                        -0.01603890024125576,
                        0.0006027604686096311,
                        -0.10725220292806625,
                        0.1305241882801056,
                        0.045716412365436554,
                        -0.2092035412788391,
                        -0.3254055380821228,
                        0.14395490288734436,
                        -0.2531795799732208,
                        -1.2999399900436401,
                        0.31347376108169556,
                        -0.43229520320892334,
                        0.3030844032764435,
                        -0.01683618314564228,
                        0.04052846506237984,
                        -0.44846194982528687,
                        0.35610485076904297,
                        -0.04973982647061348,
                        0.07178238779306412,
                        -1.2195115089416504,
                        0.017545996233820915,
                        0.3020166754722595,
                        -0.17916470766067505,
                        0.14026272296905518,
                        -0.1309608668088913,
                        -0.08857578039169312,
                        -0.26806822419166565,
                        0.16046558320522308,
                        -0.08325783908367157,
                        0.6409338116645813,
                        0.33039313554763794,
                        0.1460137516260147,
                        -0.303382009267807,
                        0.10176550596952438,
                        0.059794776141643524,
                        -0.2529698312282562,
                        0.5594231486320496,
                        -0.07442624121904373,
                        0.24172592163085938,
                        0.12074727565050125,
                        -0.23739571869373322,
                        0.1773461550474167,
                        0.4087608754634857,
                        -0.23811064660549164,
                        0.04332325607538223,
                        -0.1684342324733734,
                        0.3489301800727844,
                        0.45504525303840637
                    ],
                    [
                        -0.015424592420458794,
                        0.03873542323708534,
                        0.29824361205101013,
                        -0.1185375303030014,
                        0.1883149892091751,
                        -0.09879472851753235,
                        -0.44143909215927124,
                        0.2687132656574249,
                        0.07936180382966995,
                        -0.6648505926132202,
                        0.14292415976524353,
                        0.05831178277730942,
                        0.19077029824256897,
                        0.2144632488489151,
                        -0.17012634873390198,
                        0.09372171014547348,
                        -0.12278901785612106,
                        0.03580474853515625,
                        -0.1503753513097763,
                        -0.8153603672981262,
                        0.16332733631134033,
                        -0.11939489841461182,
                        0.2962924540042877,
                        -0.5501125454902649,
                        0.13628587126731873,
                        -0.10250703990459442,
                        0.6300592422485352,
                        0.017222832888364792,
                        0.09114222228527069,
                        0.4893447458744049,
                        0.3241404592990875,
                        -0.032977815717458725,
                        -0.33532944321632385,
                        0.46461185812950134,
                        -0.08341722190380096,
                        0.33691006898880005,
                        0.2767188251018524,
                        -0.06627558171749115,
                        0.06766253709793091,
                        0.6032994389533997,
                        -0.11427026987075806,
                        0.1592528373003006,
                        0.42858678102493286,
                        0.4310300946235657,
                        -0.18205475807189941,
                        -0.5430790185928345,
                        -0.1412203460931778,
                        -0.23752816021442413,
                        -0.1213170737028122,
                        0.2284720093011856,
                        -0.610607385635376,
                        0.18313530087471008,
                        1.0906593799591064,
                        -0.2021409571170807,
                        -0.09631107747554779,
                        0.15324634313583374,
                        -0.054701194167137146,
                        -0.1539209634065628,
                        0.21962715685367584,
                        0.08878714591264725,
                        0.044392868876457214,
                        -0.23271764814853668,
                        0.34935760498046875,
                        -0.25737065076828003,
                        0.25069963932037354,
                        0.02443273738026619,
                        0.07523462921380997,
                        -0.48488226532936096,
                        0.053768858313560486,
                        0.15866412222385406,
                        0.081525519490242,
                        0.009427356533706188,
                        -0.10143641382455826,
                        0.2342824935913086,
                        -0.056194599717855453,
                        0.25267699360847473,
                        0.6719051599502563,
                        0.14868396520614624,
                        -0.10003256052732468,
                        -0.01077189575880766
                    ],
                    [
                        0.5346446633338928,
                        0.2614160478115082,
                        0.08389990776777267,
                        0.01270904578268528,
                        -0.03911086544394493,
                        0.3638159930706024,
                        -0.07588238269090652,
                        -0.2043205350637436,
                        -0.24338969588279724,
                        0.3278553783893585,
                        -0.2208307534456253,
                        0.127583310008049,
                        0.17285850644111633,
                        0.3158243000507355,
                        0.12627564370632172,
                        -0.09848088771104813,
                        -0.0528859980404377,
                        0.43395811319351196,
                        -0.14349579811096191,
                        0.023374231532216072,
                        -0.3179970979690552,
                        0.5616523623466492,
                        0.06994949281215668,
                        -0.04570763558149338,
                        -0.005319125950336456,
                        -0.09012891352176666,
                        0.05616815760731697,
                        0.08468873053789139,
                        0.02818998508155346,
                        -0.15496911108493805,
                        0.1616346389055252,
                        -0.1627044677734375,
                        0.5961307883262634,
                        0.29495587944984436,
                        0.05059616640210152,
                        -0.2269245833158493,
                        -0.42535069584846497,
                        0.6713727712631226,
                        0.3715132176876068,
                        -0.25684693455696106,
                        -0.039829183369874954,
                        -0.5339478254318237,
                        -0.13238532841205597,
                        1.0154814720153809,
                        0.002779848873615265,
                        0.3295712172985077,
                        -0.09459168463945389,
                        -0.12741222977638245,
                        0.03282887116074562,
                        -0.3138379454612732,
                        0.2748759686946869,
                        0.08350805938243866,
                        -0.023495377972722054,
                        0.18295727670192719,
                        0.07958434522151947,
                        -0.10988648980855942,
                        -0.13673177361488342,
                        0.06569062918424606,
                        0.1906115710735321,
                        -0.08261656761169434,
                        0.539435863494873,
                        -0.22316206991672516,
                        -0.09875299036502838,
                        0.33399009704589844,
                        0.21561773121356964,
                        0.2836005389690399,
                        0.02483431249856949,
                        -0.1056923121213913,
                        -0.36523306369781494,
                        -0.5253502726554871,
                        0.2782955765724182,
                        0.20359525084495544,
                        0.611492395401001,
                        -0.13484296202659607,
                        0.13056223094463348,
                        0.24643315374851227,
                        -0.4351085424423218,
                        0.6412959098815918,
                        0.20883417129516602,
                        -0.15427729487419128
                    ],
                    [
                        0.08138873428106308,
                        0.21041858196258545,
                        0.30921173095703125,
                        0.036220062524080276,
                        -0.0386202298104763,
                        0.3476615846157074,
                        0.6051006317138672,
                        0.670170247554779,
                        -0.2446204125881195,
                        0.3995940685272217,
                        0.4616320729255676,
                        0.07417958974838257,
                        -0.7778671979904175,
                        0.04886096343398094,
                        -0.014952181838452816,
                        0.04530259221792221,
                        0.2509109079837799,
                        0.026039037853479385,
                        0.18248222768306732,
                        -0.2932990491390228,
                        0.22034409642219543,
                        0.11401940882205963,
                        0.17169582843780518,
                        -0.18710660934448242,
                        -0.04377010464668274,
                        -0.12083964049816132,
                        -0.04703351482748985,
                        0.2735777795314789,
                        -0.271648108959198,
                        0.26121631264686584,
                        -0.29062822461128235,
                        -0.034501224756240845,
                        -0.5229311585426331,
                        -0.11729066073894501,
                        0.13597704470157623,
                        -0.21875114738941193,
                        -0.11307645589113235,
                        -0.12077562510967255,
                        0.21039994060993195,
                        0.2781475782394409,
                        -0.3782097399234772,
                        -0.5146130919456482,
                        -0.5309267640113831,
                        0.14685162901878357,
                        -0.03486353158950806,
                        0.251496285200119,
                        0.13949471712112427,
                        0.032762352377176285,
                        0.19955089688301086,
                        -0.035123907029628754,
                        0.55625981092453,
                        0.05535634607076645,
                        -0.3125108480453491,
                        -0.302698016166687,
                        0.044433217495679855,
                        0.5191577076911926,
                        -0.2367478311061859,
                        -0.025237247347831726,
                        0.022997306659817696,
                        0.045940227806568146,
                        0.42059704661369324,
                        -0.2945725619792938,
                        -0.19020509719848633,
                        0.13692395389080048,
                        0.026370622217655182,
                        0.24763934314250946,
                        -0.03889503329992294,
                        0.3509940505027771,
                        -0.31825339794158936,
                        -0.32420310378074646,
                        -0.19305942952632904,
                        0.1166369765996933,
                        -0.23279990255832672,
                        -0.3876567780971527,
                        0.06854036450386047,
                        0.19465431571006775,
                        0.11660465598106384,
                        -0.018384095281362534,
                        0.6167988777160645,
                        -0.2939821779727936
                    ],
                    [
                        0.5148911476135254,
                        -0.20489923655986786,
                        0.14039446413516998,
                        0.057361964136362076,
                        0.019036341458559036,
                        0.14155244827270508,
                        1.029741644859314,
                        0.07260685414075851,
                        -0.17121320962905884,
                        -0.03731744736433029,
                        0.054043468087911606,
                        -0.00866079144179821,
                        -0.16875343024730682,
                        0.0778786912560463,
                        0.022696655243635178,
                        -0.32427504658699036,
                        -0.22200895845890045,
                        0.04407738521695137,
                        0.17481321096420288,
                        -0.21145576238632202,
                        0.23547717928886414,
                        0.1862105131149292,
                        0.15651386976242065,
                        -0.048796020448207855,
                        0.0027744814287871122,
                        0.32541918754577637,
                        -0.03264442831277847,
                        -0.28853514790534973,
                        0.4900076389312744,
                        -0.6845245957374573,
                        0.011624202132225037,
                        -0.3668159544467926,
                        0.06604915857315063,
                        0.21281148493289948,
                        0.20682787895202637,
                        -0.3306143283843994,
                        -0.0004221532435622066,
                        -0.10597973316907883,
                        -0.26598361134529114,
                        0.24552464485168457,
                        0.13031280040740967,
                        -0.2132263481616974,
                        -0.10273091495037079,
                        0.1832275092601776,
                        0.21713411808013916,
                        -0.11324817687273026,
                        0.003710348391905427,
                        -0.022902801632881165,
                        -0.49198654294013977,
                        1.1055315732955933,
                        -0.09196573495864868,
                        -0.08433446288108826,
                        0.04439844191074371,
                        -0.004618124105036259,
                        -0.5568211674690247,
                        -0.013309278525412083,
                        -0.11503583937883377,
                        0.025485800579190254,
                        0.273398220539093,
                        0.10592539608478546,
                        0.848612904548645,
                        -0.2553887665271759,
                        0.528226375579834,
                        0.22704827785491943,
                        0.1391371488571167,
                        -0.1216496005654335,
                        -0.26585274934768677,
                        0.015576491132378578,
                        -0.6890904903411865,
                        -0.5920106768608093,
                        -0.04892760142683983,
                        0.11305993795394897,
                        -0.13451732695102692,
                        -0.0874304324388504,
                        0.0005201602471061051,
                        -0.004209193866699934,
                        0.11900702863931656,
                        0.16460563242435455,
                        0.1124173030257225,
                        -1.3254759311676025
                    ]
                ],
                [
                    -0.8880245685577393,
                    0.1733940839767456,
                    -1.4342488050460815,
                    0.5858224630355835,
                    0.18328845500946045,
                    0.5987284183502197,
                    -1.8336942195892334,
                    -1.915337324142456,
                    0.38963833451271057,
                    -2.9218873977661133,
                    -1.7310528755187988,
                    0.48038923740386963,
                    1.5403738021850586,
                    0.4515420198440552,
                    -0.042324960231781006,
                    0.10991834104061127,
                    -1.2551445960998535,
                    -0.008108505979180336,
                    -0.9576449394226074,
                    -2.343376398086548,
                    0.6679717302322388,
                    0.5366159081459045,
                    1.9574404954910278,
                    0.0185581985861063,
                    0.824331521987915,
                    0.3232409656047821,
                    2.8726611137390137,
                    1.957662582397461,
                    0.37971413135528564,
                    3.9607925415039062,
                    1.777191162109375,
                    -0.37776196002960205,
                    0.33111149072647095,
                    0.7686219215393066,
                    0.7632806301116943,
                    0.25985172390937805,
                    1.5775933265686035,
                    1.5593395233154297,
                    0.5723360776901245,
                    3.20481014251709,
                    0.33486300706863403,
                    -0.14949685335159302,
                    -0.09240248054265976,
                    -0.12700259685516357,
                    -0.9399334788322449,
                    0.5486904382705688,
                    -0.04268365353345871,
                    -0.01206497848033905,
                    -0.3880771994590759,
                    0.09470687806606293,
                    -0.30702945590019226,
                    -0.14015799760818481,
                    0.8861335515975952,
                    0.9015029668807983,
                    -0.11350663751363754,
                    -0.07627804577350616,
                    0.40751513838768005,
                    0.46535739302635193,
                    -0.24617871642112732,
                    0.04985051602125168,
                    -0.6068354249000549,
                    0.3513924479484558,
                    -0.7843956351280212,
                    0.7430200576782227,
                    0.20419079065322876,
                    1.0238547325134277,
                    -0.23718249797821045,
                    -0.6087796092033386,
                    0.16197307407855988,
                    -0.6490457057952881,
                    0.18210461735725403,
                    0.7776495814323425,
                    0.8560709953308105,
                    1.0355727672576904,
                    0.20512637495994568,
                    0.7263575196266174,
                    0.04974712058901787,
                    0.11444632709026337,
                    -0.10866792500019073,
                    0.034198109060525894
                ]
            ]
        },
        {
            "type": "dense",
            "activation": "",
            "shape": [
                null,
                null,
                1
            ],
            "weights": [
                [
                    [
                        -0.14932382106781006
                    ],
                    [
                        0.014669879339635372
                    ],
                    [
                        -0.06508918106555939
                    ],
                    [
                        0.03377249464392662
                    ],
                    [
                        -0.07400371879339218
                    ],
                    [
                        -0.20288285613059998
                    ],
                    [
                        -0.09475983679294586
                    ],
                    [
                        -0.20587067306041718
                    ],
                    [
                        0.17731481790542603
                    ],
                    [
                        -0.18291433155536652
                    ],
                    [
                        -0.07130631804466248
                    ],
                    [
                        -0.6784260272979736
                    ],
                    [
                        -0.03368904069066048
                    ],
                    [
                        0.024757297709584236
                    ],
                    [
                        -0.8030291795730591
                    ],
                    [
                        -0.16489338874816895
                    ],
                    [
                        0.057796452194452286
                    ],
                    [
                        0.06213603913784027
                    ],
                    [
                        0.059926439076662064
                    ],
                    [
                        0.8954959511756897
                    ]
                ],
                [
                    0.08207301050424576
                ]
            ]
        }
    ],
    "input_batch": [
        0.08890712261199951,
        0.07685470581054688,
        0.0653461217880249,
        0.054532408714294434,
        0.04451119899749756,
        0.035308122634887695,
        0.026958346366882324,
        0.019446253776550293,
        0.012525677680969238,
        0.005981564521789551,
        -0.00026929378509521484,
        -0.006249666213989258,
        -0.011995553970336914,
        -0.017508625984191895,
        -0.02271401882171631,
        -0.02761971950531006,
        -0.032241225242614746,
        -0.036610960960388184,
        -0.040699005126953125,
        -0.044444918632507324,
        -0.04790925979614258,
        -0.05123317241668701,
        -0.05459952354431152,
        -0.05816948413848877,
        -0.06197834014892578,
        -0.06591951847076416,
        -0.06988704204559326,
        -0.07376646995544434,
        -0.0775219202041626,
        -0.0812673568725586,
        -0.0852200984954834,
        -0.08966875076293945,
        -0.0947955846786499,
        -0.10053467750549316,
        -0.10666441917419434,
        -0.11304926872253418,
        -0.11953246593475342,
        -0.12591278553009033,
        -0.132002592086792,
        -0.13763344287872314,
        -0.1428072452545166,
        -0.1477440595626831,
        -0.15266728401184082,
        -0.15767443180084229,
        -0.16278719902038574,
        -0.16788256168365479,
        -0.17280030250549316,
        -0.17743873596191406,
        -0.18170714378356934,
        -0.18566298484802246,
        -0.18930482864379883,
        -0.1925739049911499,
        -0.1953953504562378,
        -0.19770467281341553,
        -0.19953620433807373,
        -0.20087742805480957,
        -0.20163464546203613,
        -0.20174288749694824,
        -0.20131254196166992,
        -0.20060443878173828,
        -0.19981276988983154,
        -0.19898736476898193,
        -0.19804656505584717,
        -0.196830153465271,
        -0.19518935680389404,
        -0.19313395023345947,
        -0.19076907634735107,
        -0.18827474117279053,
        -0.18589138984680176,
        -0.1838209629058838,
        -0.1821526288986206,
        -0.18084239959716797,
        -0.17979443073272705,
        -0.17878055572509766,
        -0.17766690254211426,
        -0.17643523216247559,
        -0.17515993118286133,
        -0.1739363670349121,
        -0.17273938655853271,
        -0.17163515090942383,
        -0.17070817947387695,
        -0.17007207870483398,
        -0.16979968547821045,
        -0.16981327533721924,
        -0.16993045806884766,
        -0.16990244388580322,
        -0.16958773136138916,
        -0.1689746379852295,
        -0.16806650161743164,
        -0.16679561138153076,
        -0.1650604009628296,
        -0.16283249855041504,
        -0.16023242473602295,
        -0.15746891498565674,
        -0.15467429161071777,
        -0.1518399715423584,
        -0.14881455898284912,
        -0.14543640613555908,
        -0.1416233777999878,
        -0.13732385635375977,
        -0.13252103328704834,
        -0.12722790241241455,
        -0.12140977382659912,
        -0.1149972677230835,
        -0.10812699794769287,
        -0.10091328620910645,
        -0.09338629245758057,
        -0.08561444282531738,
        -0.07770180702209473,
        -0.0697547197341919,
        -0.06180286407470703,
        -0.05381882190704346,
        -0.04577839374542236,
        -0.037773728370666504,
        -0.02981877326965332,
        -0.0217587947845459,
        -0.013584733009338379,
        -0.005498647689819336,
        0.0022115707397460938,
        0.009361028671264648,
        0.015861988067626953,
        0.02178025245666504,
        0.027471303939819336,
        0.03322553634643555,
        0.0390704870223999,
        0.044942378997802734,
        0.05073356628417969,
        0.056270599365234375,
        0.061307668685913086,
        0.06559419631958008,
        0.06905794143676758,
        0.07182455062866211,
        0.07404875755310059,
        0.07576572895050049,
        0.07687973976135254,
        0.07731044292449951,
        0.07699429988861084,
        0.07598209381103516,
        0.07441914081573486,
        0.07245373725891113,
        0.07016265392303467,
        0.06741988658905029,
        0.06401145458221436,
        0.059793949127197266,
        0.054786086082458496,
        0.049076080322265625,
        0.04292154312133789,
        0.0367201566696167,
        0.030768513679504395,
        0.025237202644348145,
        0.020194053649902344,
        0.015549659729003906,
        0.011062860488891602,
        0.006516814231872559,
        0.0016690492630004883,
        -0.0035783052444458008,
        -0.009043335914611816,
        -0.014560103416442871,
        -0.01997232437133789,
        -0.025107622146606445,
        -0.029849529266357422,
        -0.0341801643371582,
        -0.038176894187927246,
        -0.0419238805770874,
        -0.04551243782043457,
        -0.049030423164367676,
        -0.05255579948425293,
        -0.05611443519592285,
        -0.05966758728027344,
        -0.06308913230895996,
        -0.06624603271484375,
        -0.06903386116027832,
        -0.07132863998413086,
        -0.07318830490112305,
        -0.07477903366088867,
        -0.07623231410980225,
        -0.07766759395599365,
        -0.07912790775299072,
        -0.08060348033905029,
        -0.08206832408905029,
        -0.0835350751876831,
        -0.0849834680557251,
        -0.0863875150680542,
        -0.08768463134765625,
        -0.08876609802246094,
        -0.08961772918701172,
        -0.09028482437133789,
        -0.09077417850494385,
        -0.09109926223754883,
        -0.09132516384124756,
        -0.09154629707336426,
        -0.09190034866333008,
        -0.09250175952911377,
        -0.09336423873901367,
        -0.09438812732696533,
        -0.09540486335754395,
        -0.09629964828491211,
        -0.09695351123809814,
        -0.09727776050567627,
        -0.09731853008270264,
        -0.09716832637786865,
        -0.09688055515289307,
        -0.09645700454711914,
        -0.09585022926330566,
        -0.09491729736328125,
        -0.09349715709686279,
        -0.09149730205535889,
        -0.0888979434967041,
        -0.08565866947174072,
        -0.08183944225311279,
        -0.07756125926971436,
        -0.07288217544555664,
        -0.06781184673309326,
        -0.06223011016845703,
        -0.05610156059265137,
        -0.049604177474975586,
        -0.04303312301635742,
        -0.03657269477844238,
        -0.030182957649230957,
        -0.023830890655517578,
        -0.017480134963989258,
        -0.011202812194824219,
        -0.005202770233154297,
        0.00040411949157714844,
        0.005603194236755371,
        0.010437726974487305,
        0.0148468017578125,
        0.018692374229431152,
        0.02192986011505127,
        0.0246657133102417,
        0.027021288871765137,
        0.029035091400146484,
        0.030586719512939453,
        0.03155243396759033,
        0.031975388526916504,
        0.031960248947143555,
        0.03164219856262207,
        0.03116452693939209,
        0.030570149421691895,
        0.029740571975708008,
        0.028551816940307617,
        0.027022480964660645,
        0.025263190269470215,
        0.023347020149230957,
        0.021306276321411133,
        0.019191265106201172,
        0.017074108123779297,
        0.014982461929321289,
        0.012930631637573242,
        0.011011600494384766,
        0.009290933609008789,
        0.007765769958496094,
        0.006402850151062012,
        0.005133152008056641,
        0.003931283950805664,
        0.0027321577072143555,
        0.0015039443969726562,
        0.0003292560577392578,
        -0.000674128532409668,
        -0.0014024972915649414,
        -0.001804351806640625,
        -0.0017800331115722656,
        -0.001269221305847168,
        -0.00032699108123779297,
        0.000947117805480957,
        0.002516508102416992,
        0.004452705383300781,
        0.006804466247558594,
        0.00959157943725586,
        0.01270139217376709,
        0.0160750150680542,
        0.01967310905456543,
        0.023368358612060547,
        0.027097105979919434,
        0.030758142471313477,
        0.03434407711029053,
        0.03788125514984131,
        0.04126310348510742,
        0.0442659854888916,
        0.046614766120910645,
        0.048201560974121094,
        0.04912543296813965,
        0.04964029788970947,
        0.049962520599365234,
        0.05014371871948242,
        0.05012857913970947,
        0.04983675479888916,
        0.04925990104675293,
        0.048380136489868164,
        0.04710042476654053,
        0.045377135276794434,
        0.04331254959106445,
        0.04109060764312744,
        0.038783907890319824,
        0.03635132312774658,
        0.03364443778991699,
        0.030588626861572266,
        0.027303099632263184,
        0.02396368980407715,
        0.020811080932617188,
        0.017944693565368652,
        0.015338897705078125,
        0.012925505638122559,
        0.010601639747619629,
        0.008323907852172852,
        0.006069660186767578,
        0.0038775205612182617,
        0.001814126968383789,
        -0.00012803077697753906,
        -0.001978278160095215,
        -0.003760099411010742,
        -0.0054596662521362305,
        -0.007068753242492676,
        -0.008604645729064941,
        -0.010076761245727539,
        -0.0114821195602417,
        -0.012848258018493652,
        -0.014246225357055664,
        -0.015692472457885742,
        -0.01719212532043457,
        -0.0187608003616333,
        -0.020316243171691895,
        -0.021687865257263184,
        -0.022744178771972656,
        -0.023395895957946777,
        -0.02367424964904785,
        -0.023686766624450684,
        -0.023559212684631348,
        -0.02353835105895996,
        -0.023810148239135742,
        -0.024420976638793945,
        -0.025281429290771484,
        -0.026275038719177246,
        -0.02729785442352295,
        -0.028254151344299316,
        -0.029113173484802246,
        -0.029862523078918457,
        -0.030559778213500977,
        -0.031292080879211426,
        -0.032172203063964844,
        -0.0333104133605957,
        -0.03469491004943848,
        -0.03616642951965332,
        -0.03746485710144043,
        -0.03835141658782959,
        -0.03867208957672119,
        -0.038384437561035156,
        -0.03746497631072998,
        -0.03588759899139404,
        -0.03366267681121826,
        -0.030804753303527832,
        -0.027373194694519043,
        -0.023534536361694336,
        -0.019438862800598145,
        -0.015193939208984375,
        -0.010837078094482422,
        -0.006299853324890137,
        -0.0014376640319824219,
        0.0038427114486694336,
        0.009543776512145996,
        0.01564168930053711,
        0.022014617919921875,
        0.02853548526763916,
        0.03507280349731445,
        0.041413187980651855,
        0.047380924224853516,
        0.052945852279663086,
        0.05824482440948486,
        0.0635983943939209,
        0.06930017471313477,
        0.07545745372772217,
        0.08200514316558838,
        0.08876204490661621,
        0.0954751968383789,
        0.10194063186645508,
        0.10813772678375244,
        0.11412465572357178,
        0.11989188194274902,
        0.12540817260742188,
        0.13065004348754883,
        0.13551747798919678,
        0.13996493816375732,
        0.14400458335876465,
        0.14764666557312012,
        0.1509488821029663,
        0.153936505317688,
        0.15665125846862793,
        0.15916800498962402,
        0.16149985790252686,
        0.163557767868042,
        0.1652536392211914,
        0.1665053367614746,
        0.16722917556762695,
        0.16746926307678223,
        0.16731905937194824,
        0.16686558723449707,
        0.1661592721939087,
        0.16517388820648193,
        0.16384673118591309,
        0.16212892532348633,
        0.15992379188537598,
        0.1572057008743286,
        0.15409469604492188,
        0.15064311027526855,
        0.14686822891235352,
        0.1427854299545288,
        0.13837194442749023,
        0.13358283042907715,
        0.12836873531341553,
        0.12267875671386719,
        0.11648714542388916,
        0.10981261730194092,
        0.10262274742126465,
        0.09489047527313232,
        0.08663547039031982,
        0.07785844802856445,
        0.06863725185394287,
        0.059093356132507324,
        0.049382805824279785,
        0.03961348533630371,
        0.029848098754882812,
        0.020093560218811035,
        0.010236620903015137,
        0.00021505355834960938,
        -0.009972095489501953,
        -0.020226001739501953,
        -0.030455946922302246,
        -0.04052531719207764,
        -0.050289154052734375,
        -0.05972552299499512,
        -0.06886005401611328,
        -0.07784080505371094,
        -0.0867767333984375,
        -0.09571337699890137,
        -0.1045914888381958,
        -0.11325192451477051,
        -0.12151956558227539,
        -0.12922298908233643,
        -0.1362835168838501,
        -0.14263927936553955,
        -0.1482940912246704,
        -0.1532684564590454,
        -0.15757524967193604,
        -0.16122519969940186,
        -0.1642622947692871,
        -0.16681206226348877,
        -0.16893625259399414,
        -0.17068421840667725,
        -0.17207610607147217,
        -0.17307233810424805,
        -0.17363691329956055,
        -0.1737598180770874,
        -0.17346549034118652,
        -0.17271947860717773,
        -0.17148637771606445,
        -0.16977882385253906,
        -0.16760897636413574,
        -0.16502392292022705,
        -0.16216707229614258,
        -0.1592104434967041,
        -0.15623486042022705,
        -0.15324032306671143,
        -0.1501682996749878,
        -0.14697551727294922,
        -0.14366364479064941,
        -0.14021897315979004,
        -0.13671469688415527,
        -0.13324189186096191,
        -0.12983334064483643,
        -0.12648701667785645,
        -0.12318646907806396,
        -0.11989593505859375,
        -0.11658215522766113,
        -0.11322450637817383,
        -0.10980117321014404,
        -0.10633063316345215,
        -0.10277009010314941,
        -0.09906196594238281,
        -0.09512495994567871,
        -0.09084725379943848,
        -0.08619320392608643,
        -0.08116018772125244,
        -0.07574772834777832,
        -0.06996405124664307,
        -0.0638279914855957,
        -0.05738401412963867,
        -0.05070388317108154,
        -0.043877243995666504,
        -0.03686964511871338,
        -0.029566407203674316,
        -0.021921396255493164,
        -0.013936519622802734,
        -0.005740642547607422,
        0.002494215965270996,
        0.010594964027404785,
        0.018350601196289062,
        0.025620341300964355,
        0.032303452491760254,
        0.03835153579711914,
        0.04381203651428223,
        0.04878711700439453,
        0.05340433120727539,
        0.05774569511413574,
        0.0618366003036499,
        0.06566691398620605,
        0.06917035579681396,
        0.07234203815460205,
        0.07526206970214844,
        0.07799792289733887,
        0.08058881759643555,
        0.08302938938140869,
        0.08532822132110596,
        0.08749306201934814,
        0.08949458599090576,
        0.09129893779754639,
        0.09285402297973633,
        0.09407222270965576,
        0.09488523006439209,
        0.09520912170410156,
        0.09495413303375244,
        0.09404194355010986,
        0.09246575832366943,
        0.0903468132019043,
        0.08780062198638916,
        0.08496463298797607,
        0.08192956447601318,
        0.07872426509857178,
        0.07540559768676758,
        0.0719749927520752,
        0.06843304634094238,
        0.06476032733917236,
        0.06087362766265869,
        0.05673205852508545,
        0.052332520484924316,
        0.047727346420288086,
        0.04300487041473389,
        0.03824615478515625,
        0.03349590301513672,
        0.02874135971069336,
        0.024009108543395996,
        0.019306421279907227,
        0.014646530151367188,
        0.010010123252868652,
        0.005287289619445801,
        0.00045299530029296875,
        -0.004498720169067383,
        -0.009496808052062988,
        -0.014434576034545898,
        -0.019288182258605957,
        -0.02406179904937744,
        -0.028815865516662598,
        -0.03360104560852051,
        -0.038417935371398926,
        -0.0432513952255249,
        -0.04804682731628418,
        -0.05280649662017822,
        -0.05752289295196533,
        -0.06214869022369385,
        -0.06665265560150146,
        -0.07101058959960938,
        -0.07518935203552246,
        -0.07914745807647705,
        -0.0828104019165039,
        -0.08608293533325195,
        -0.08889186382293701,
        -0.09117889404296875,
        -0.09295666217803955,
        -0.09428727626800537,
        -0.09519016742706299,
        -0.09563040733337402,
        -0.09557640552520752,
        -0.09496498107910156,
        -0.09374654293060303,
        -0.09195005893707275,
        -0.08963990211486816,
        -0.08688616752624512,
        -0.08372116088867188,
        -0.08011412620544434,
        -0.07605946063995361,
        -0.0715566873550415,
        -0.06662797927856445,
