{
    "in_shape": [
        null,
        null,
        1
    ],
    "layers": [
        {
            "type": "lstm",
            "activation": "",
            "shape": [
                null,
                null,
                16
            ],
            "weights": [
                [
                    [
                        0.26705700159072876,
                        -0.32673460245132446,
                        0.05754810944199562,
                        -0.034472476691007614,
                        0.1675671488046646,
                        0.9620016813278198,
                        0.03439246863126755,
                        0.03847894072532654,
                        -0.3519253432750702,
                        -0.14387203752994537,
                        0.16463299095630646,
                        0.0877932533621788,
                        0.29345378279685974,
                        -0.022398831322789192,
                        -0.007836555130779743,
                        -0.10732469707727432,
                        0.2608906328678131,
                        0.10205914080142975,
                        0.06782835721969604,
                        0.03824099153280258,
                        -0.3669600188732147,
                        0.5092417597770691,
                        -0.27763164043426514,
                        -0.27015864849090576,
                        0.08841866999864578,
                        -0.3343839645385742,
                        -0.5915402770042419,
                        0.11602509766817093,
                        -0.08332458883523941,
                        0.07531139254570007,
                        0.048943035304546356,
                        -0.052844882011413574,
                        -4.764101028442383,
                        0.224556565284729,
                        -0.1741015613079071,
                        -0.1876250058412552,
                        -0.019610408693552017,
                        0.23063737154006958,
                        -0.4706149697303772,
                        0.014357227832078934,
                        0.22229129076004028,
                        0.6462635397911072,
                        -1.5093590021133423,
                        0.014501106925308704,
                        0.0026244374457746744,
                        0.05486029013991356,
                        1.7391037940979004,
                        0.0692237839102745,
                        -0.8996989130973816,
                        0.15313008427619934,
                        0.11993004381656647,
                        -0.2747063636779785,
                        0.009415664710104465,
                        0.5550667643547058,
                        -0.22456935048103333,
                        -0.22585850954055786,
                        -0.06451670080423355,
                        -0.1671563982963562,
                        -0.07712560147047043,
                        -0.08057291060686111,
                        0.13693863153457642,
                        0.36295366287231445,
                        -0.24222557246685028,
                        -0.1837177276611328
                    ]
                ],
                [
                    [
                        -0.0199639480561018,
                        -0.5370396971702576,
                        0.35745948553085327,
                        0.3545635938644409,
                        0.18675491213798523,
                        -0.18612654507160187,
                        -0.4348391592502594,
                        0.052104152739048004,
                        0.14458221197128296,
                        -1.3327630758285522,
                        -0.24342159926891327,
                        0.2818771004676819,
                        -0.13187965750694275,
                        0.16135174036026,
                        0.3608144521713257,
                        0.19136464595794678,
                        0.057528141885995865,
                        -0.8494871854782104,
                        0.26078298687934875,
                        0.27155765891075134,
                        -0.005085865035653114,
                        -0.009550681337714195,
                        0.12013649195432663,
                        0.18518413603305817,
                        0.42637839913368225,
                        -0.6631700396537781,
                        -0.28344982862472534,
                        -0.1761665791273117,
                        0.09431120753288269,
                        0.15337905287742615,
                        0.6545249819755554,
                        0.031011853367090225,
                        0.9407869577407837,
                        -0.133414164185524,
                        0.17886671423912048,
                        -0.08095739781856537,
                        0.013594022952020168,
                        -0.43405881524086,
                        -1.1252986192703247,
                        0.6505967974662781,
                        0.2857155501842499,
                        1.991515874862671,
                        0.025742094963788986,
                        -0.09861437976360321,
                        0.03370695933699608,
                        0.12165766954421997,
                        0.12986719608306885,
                        0.2724009156227112,
                        -2.004145622253418,
                        0.08669251948595047,
                        0.2233276218175888,
                        0.4209383726119995,
                        0.3767440617084503,
                        -0.7612511515617371,
                        -0.046788111329078674,
                        0.2630116939544678,
                        -0.14396527409553528,
                        1.0672886371612549,
                        -0.16297197341918945,
                        -0.034223198890686035,
                        0.07550601661205292,
                        -0.16556939482688904,
                        0.6753957271575928,
                        0.6707857251167297
                    ],
                    [
                        -0.11591760069131851,
                        -1.2514657974243164,
                        0.1066131666302681,
                        -0.19855915009975433,
                        0.9535303711891174,
                        0.3352001905441284,
                        -0.0168311670422554,
                        -0.12156858295202255,
                        0.4829598069190979,
                        -0.09192489087581635,
                        -0.2989353835582733,
                        0.16029784083366394,
                        0.3759749233722687,
                        -0.17443519830703735,
                        0.1483735740184784,
                        0.04399120807647705,
                        -0.08858264237642288,
                        -0.7771555781364441,
                        -0.024498391896486282,
                        -0.0037668177392333746,
                        -0.2345430999994278,
                        -0.35203397274017334,
                        -0.15568488836288452,
                        1.0142663717269897,
                        -0.43655720353126526,
                        -0.16026468575000763,
                        -0.023225026205182076,
                        -0.27683982253074646,
                        0.5418422222137451,
                        -0.4792982041835785,
                        -0.11615479737520218,
                        0.3101230263710022,
                        0.050783444195985794,
                        0.9691402316093445,
                        0.30321386456489563,
                        0.023646680638194084,
                        -0.04720744490623474,
                        0.027707308530807495,
                        -0.30296260118484497,
                        -0.1737280786037445,
                        0.17311903834342957,
                        -0.2516727149486542,
                        0.011965325102210045,
                        -0.6874774694442749,
                        0.6164637804031372,
                        0.4915211796760559,
                        -0.033254802227020264,
                        -0.3456287384033203,
                        -0.2041383534669876,
                        0.09568541496992111,
                        0.09255621582269669,
                        -0.05259440094232559,
                        0.004508229438215494,
                        -0.017563682049512863,
                        -0.045208174735307693,
                        -0.09148486703634262,
                        0.05801820382475853,
                        -0.360991507768631,
                        -0.138268381357193,
                        0.054824117571115494,
                        -0.1593080312013626,
                        0.014141644351184368,
                        -0.10203005373477936,
                        0.29110366106033325
                    ],
                    [
                        0.371075838804245,
                        0.02374897710978985,
                        -0.16647523641586304,
                        0.07369291037321091,
                        -0.21616914868354797,
                        -0.3573937714099884,
                        0.32729649543762207,
                        0.17727909982204437,
                        -0.45279988646507263,
                        0.23601225018501282,
                        0.3973706364631653,
                        -0.1964021623134613,
                        -0.017126761376857758,
                        -0.6638228297233582,
                        -0.358258992433548,
                        0.2518605589866638,
                        0.09951897710561752,
                        0.9119447469711304,
                        0.19925791025161743,
                        0.05923178046941757,
                        1.1463299989700317,
                        0.6077597141265869,
                        0.13764671981334686,
                        0.050670117139816284,
                        0.7734520435333252,
                        0.04227353259921074,
                        0.0384339801967144,
                        0.47549909353256226,
                        0.10792749375104904,
                        0.6053562164306641,
                        0.8388774394989014,
                        0.2929574251174927,
                        -0.07405105233192444,
                        -1.2405123710632324,
                        0.12190002202987671,
                        0.015661701560020447,
                        0.027808519080281258,
                        -0.08041833341121674,
                        0.011285175569355488,
                        0.03912144526839256,
                        -0.10323286056518555,
                        0.06171579286456108,
                        -0.07956434786319733,
                        -0.20864784717559814,
                        -0.21287837624549866,
                        -0.17833755910396576,
                        -0.1735849678516388,
                        0.2160264551639557,
                        -0.1857970505952835,
                        -1.0284565687179565,
                        0.2306642234325409,
                        0.1633712202310562,
                        0.3453074097633362,
                        0.11238643527030945,
                        0.17802277207374573,
                        -0.03936878219246864,
                        0.13373903930187225,
                        0.48057976365089417,
                        0.27784264087677,
                        -0.19192518293857574,
                        0.5366595983505249,
                        0.3507695198059082,
                        0.15834052860736847,
                        0.13236364722251892
                    ],
                    [
                        -0.4403918385505676,
                        0.3660973906517029,
                        0.12897473573684692,
                        -0.22961631417274475,
                        0.7129270434379578,
                        0.8575794696807861,
                        -0.13651137053966522,
                        -0.3271808922290802,
                        0.6841100454330444,
                        0.001483391271904111,
                        -0.32551202178001404,
                        0.4096381366252899,
                        -0.0363619364798069,
                        0.4395085573196411,
                        0.433908611536026,
                        -0.2415127456188202,
                        -0.22058221697807312,
                        -0.06406497210264206,
                        0.06254328042268753,
                        -0.10171134769916534,
                        -0.671088457107544,
                        -0.7629944086074829,
                        -0.7014205455780029,
                        0.005497902166098356,
                        -0.24450518190860748,
                        -0.24374356865882874,
                        -0.33951690793037415,
                        -0.6776676177978516,
                        0.0003102974151261151,
                        -0.534988284111023,
                        -0.2481994330883026,
                        -0.011845801956951618,
                        0.04179390147328377,
                        0.3428055942058563,
                        -0.16216257214546204,
                        0.05739092826843262,
                        -0.2708263099193573,
                        -0.5586852431297302,
                        -0.8948519229888916,
                        0.14366096258163452,
                        -0.03859657421708107,
                        0.8297712206840515,
                        -0.2564391493797302,
                        0.14672940969467163,
                        -0.04619837552309036,
                        -0.0708627849817276,
                        0.19619342684745789,
                        -0.04255106672644615,
                        -0.4968506693840027,
                        -0.6366003155708313,
                        -0.06367357820272446,
                        -0.26255568861961365,
                        -0.24989299476146698,
                        0.056120771914720535,
                        -0.12297859787940979,
                        -0.35531648993492126,
                        0.1534733921289444,
                        -0.3440902829170227,
                        -0.1828371286392212,
                        -0.12231128662824631,
                        -0.09623108059167862,
                        -0.12336426973342896,
                        0.03764251619577408,
                        -0.28896772861480713
                    ],
                    [
                        -0.25533169507980347,
                        -0.4732430577278137,
                        0.2747475504875183,
                        -0.08203286677598953,
                        0.5580222010612488,
                        0.06981568783521652,
                        -0.3454395532608032,
                        -0.3869210183620453,
                        0.1594012975692749,
                        0.8309610486030579,
                        -0.061986327171325684,
                        1.1443175077438354,
                        -0.3987213671207428,
                        0.5424118638038635,
                        0.3060201406478882,
                        -0.3963187038898468,
                        0.7201269268989563,
                        0.6379016041755676,
                        -0.1441432237625122,
                        0.18500858545303345,
                        -1.2693760395050049,
                        -0.3722299039363861,
                        0.36345309019088745,
                        -0.14601658284664154,
                        -0.8262274265289307,
                        0.7480424046516418,
                        -0.09097257256507874,
                        -0.96837317943573,
                        -0.3694109320640564,
                        -1.0567026138305664,
                        -0.6585243940353394,
                        -0.3501545488834381,
                        0.228764608502388,
                        0.10841740667819977,
                        -0.29327043890953064,
                        0.04577610269188881,
                        0.2849392592906952,
                        -0.22196336090564728,
                        0.22240668535232544,
                        0.028001397848129272,
                        -0.3691529631614685,
                        -0.2649293541908264,
                        0.1271509826183319,
                        0.6137034893035889,
                        0.5790766477584839,
                        0.3824246823787689,
                        -0.19090574979782104,
                        1.0118825435638428,
                        0.36992427706718445,
                        -1.0564016103744507,
                        0.0319230854511261,
                        0.22979462146759033,
                        -1.1993581056594849,
                        -0.3510476350784302,
                        -0.32670727372169495,
                        -0.18479607999324799,
                        -0.4743032157421112,
                        0.8338795304298401,
                        -0.3603651225566864,
                        0.039358824491500854,
                        0.03926759585738182,
                        -0.08825527876615524,
                        -0.6211816072463989,
                        -0.2176225483417511
                    ],
                    [
                        0.5110311508178711,
                        0.007000862155109644,
                        0.0743972584605217,
                        -0.00844575371593237,
                        -0.273080974817276,
                        0.41995561122894287,
                        0.2746184468269348,
                        0.17645369470119476,
                        -0.5728452801704407,
                        0.2592187821865082,
                        0.11684873700141907,
                        -0.15416072309017181,
                        0.28949055075645447,
                        -0.17148859798908234,
                        0.3500158488750458,
                        0.28862637281417847,
                        -0.6522579193115234,
                        0.30258166790008545,
                        0.4942623972892761,
                        -0.17961786687374115,
                        0.48818108439445496,
                        -0.09624410420656204,
                        0.12482599914073944,
                        -0.31278470158576965,
                        0.5091193914413452,
                        0.36053192615509033,
                        -0.3831760585308075,
                        0.6233980655670166,
                        -0.02543226070702076,
                        0.28978094458580017,
                        0.18080046772956848,
                        0.3315878212451935,
                        2.026034116744995,
                        -0.19570167362689972,
                        0.08195465803146362,
                        0.8542407155036926,
                        0.2728288173675537,
                        -0.3366728723049164,
                        -0.38374003767967224,
                        -0.10436353087425232,
                        -0.2595835328102112,
                        0.9001280665397644,
                        1.3217049837112427,
                        -0.16506506502628326,
                        -0.1987057477235794,
                        -0.06771887838840485,
                        0.38837510347366333,
                        0.2471112310886383,
                        -1.5496397018432617,
                        -0.20019318163394928,
                        0.4364364445209503,
                        -0.21526719629764557,
                        0.02454325743019581,
                        0.5960103273391724,
                        0.1926548331975937,
                        -0.30814850330352783,
                        0.6592481136322021,
                        0.2350444793701172,
                        0.10748180001974106,
                        -0.1381920427083969,
                        0.1334572285413742,
                        0.25009891390800476,
                        0.30011725425720215,
                        0.2348133623600006
                    ],
                    [
                        -0.695769190788269,
                        0.09107495099306107,
                        0.6564196348190308,
                        -0.2680751085281372,
                        0.4786739647388458,
                        -0.04839752987027168,
                        -0.07049806416034698,
                        0.008617988787591457,
                        0.36987435817718506,
                        -0.15702056884765625,
                        0.19578008353710175,
                        -0.011481722816824913,
                        -0.42343541979789734,
                        0.23769354820251465,
                        -0.07075684517621994,
                        0.0777064859867096,
                        -0.40601056814193726,
                        -0.4924473464488983,
                        0.006730831228196621,
                        0.1448678970336914,
                        0.28718438744544983,
                        0.14988760650157928,
                        0.10679922997951508,
                        -0.05688885971903801,
                        0.3017089068889618,
                        0.20546235144138336,
                        -0.23019380867481232,
                        0.3342529237270355,
                        0.13504613935947418,
                        0.08526710420846939,
                        0.401359498500824,
                        -0.6391580104827881,
                        0.18578848242759705,
                        -1.1102571487426758,
                        0.6993945240974426,
                        -0.03958146274089813,
                        -0.4151087701320648,
                        0.052206236869096756,
                        -0.13688351213932037,
                        -1.0273001194000244,
                        0.4886184334754944,
                        -0.17354366183280945,
                        -0.010811593383550644,
                        0.14481426775455475,
                        0.024565787985920906,
                        -0.16082721948623657,
                        -0.1402985155582428,
                        0.3331480920314789,
                        0.3796907961368561,
                        0.07079479098320007,
                        0.10690048336982727,
                        -0.7226898670196533,
                        0.0015995526919141412,
                        -0.3337600529193878,
                        -0.19910681247711182,
                        0.49057233333587646,
                        0.2983107268810272,
                        -0.5451130270957947,
                        0.1651003509759903,
                        0.1928171068429947,
                        -0.7333117723464966,
                        -0.05018265172839165,
                        -0.18382017314434052,
                        -0.1748809963464737
                    ],
                    [
                        0.495590478181839,
                        -1.6613801717758179,
                        -0.2648903727531433,
                        0.08645974844694138,
                        -0.9672753810882568,
                        -0.5363156795501709,
                        0.09573596715927124,
                        0.3671160936355591,
                        -0.5596970915794373,
                        0.38345867395401,
                        0.08910702913999557,
                        -0.09506738930940628,
                        0.394107848405838,
                        -0.2130383998155594,
                        -0.55544513463974,
                        -0.043046534061431885,
                        0.004633380100131035,
                        -1.377112865447998,
                        -0.1734563261270523,
                        0.06919901072978973,
                        0.6442551016807556,
                        0.8614905476570129,
                        -0.27533572912216187,
                        0.5752084255218506,
                        0.4574713706970215,
                        0.06934904307126999,
                        0.33031368255615234,
                        0.06602111458778381,
                        0.1592465490102768,
                        0.14203307032585144,
                        0.6962305307388306,
                        0.2337089478969574,
                        -0.07690736651420593,
                        1.8346943855285645,
                        0.08691561967134476,
                        0.008916524238884449,
                        0.44087255001068115,
                        -0.029831496998667717,
                        0.4407106339931488,
                        0.017730992287397385,
                        -0.12675487995147705,
                        0.33864250779151917,
                        0.027055008336901665,
                        0.04344864934682846,
                        -0.08144599199295044,
                        0.09480374306440353,
                        0.03395254164934158,
                        0.03982149437069893,
                        0.9026279449462891,
                        -0.40475985407829285,
                        -0.7252669930458069,
                        -0.24148648977279663,
                        0.3176270127296448,
                        0.04112723097205162,
                        0.1360785812139511,
                        0.2564111351966858,
                        0.07670601457357407,
                        0.4575931429862976,
                        0.23714682459831238,
                        -0.17406447231769562,
                        -0.6774764060974121,
                        0.06484625488519669,
                        0.33892393112182617,
                        1.0976338386535645
                    ],
                    [
                        0.7864751219749451,
                        0.8147063255310059,
                        -0.21046054363250732,
                        0.15522845089435577,
                        -0.9098730087280273,
                        -0.012973478995263577,
                        0.4217868745326996,
                        0.35044780373573303,
                        -0.017208242788910866,
                        0.5128814578056335,
                        0.6021086573600769,
                        -0.46426162123680115,
                        0.45960870385169983,
                        -0.5676631927490234,
                        -1.0945545434951782,
                        0.30681824684143066,
                        0.6568403244018555,
                        0.02293214574456215,
                        -0.06077318266034126,
                        0.15152379870414734,
                        0.8942981362342834,
                        0.9219844937324524,
                        0.22865556180477142,
                        0.11884359270334244,
                        0.6171149015426636,
                        0.2826986014842987,
                        0.929585874080658,
                        0.4455089271068573,
                        0.21542759239673615,
                        0.5556579232215881,
                        0.4477345943450928,
                        0.42006856203079224,
                        0.1927720159292221,
                        0.7142844796180725,
                        -0.023596135899424553,
                        0.30822399258613586,
                        0.4559755325317383,
                        0.6159365177154541,
                        -1.0968509912490845,
                        0.24826861917972565,
                        0.32630088925361633,
                        1.3548651933670044,
                        0.4351392686367035,
                        -0.20800764858722687,
                        -0.41152116656303406,
                        0.051345933228731155,
                        0.19980597496032715,
                        -0.22713421285152435,
                        0.6802594065666199,
                        -0.02386704459786415,
                        0.1285337507724762,
                        -0.015660054981708527,
                        0.28696319460868835,
                        0.4185614287853241,
                        0.43695977330207825,
                        0.249004065990448,
                        0.40945446491241455,
                        0.4680858552455902,
                        0.5764845609664917,
                        0.1427547037601471,
                        0.3953375518321991,
                        0.46065258979797363,
                        0.4142848253250122,
                        0.37157103419303894
                    ],
                    [
                        0.0324096605181694,
                        -1.5814818143844604,
                        -0.6288183927536011,
                        0.4620826542377472,
                        0.48760271072387695,
                        0.3708001673221588,
                        -0.23727768659591675,
                        -0.027165453881025314,
                        0.2914097309112549,
                        -0.40592727065086365,
                        -0.3228946328163147,
                        -0.2719976305961609,
                        0.07012469321489334,
                        -0.1315813958644867,
                        0.7112632989883423,
                        -0.01021882425993681,
                        0.106368288397789,
                        0.7416294813156128,
                        -0.11440171301364899,
                        0.2575080990791321,
                        -0.8023006916046143,
                        -0.7543405294418335,
                        0.42329660058021545,
                        -0.030140217393636703,
                        -1.0842382907867432,
                        0.1145172268152237,
                        -0.11899745464324951,
                        0.13091547787189484,
                        -0.22119314968585968,
                        0.20526742935180664,
                        -0.7119977474212646,
                        -0.5853694677352905,
                        -0.07675512135028839,
                        1.8348616361618042,
                        -0.6507955193519592,
                        0.09161829203367233,
                        0.32850193977355957,
                        -0.18259572982788086,
                        -0.37521395087242126,
                        1.6967068910598755,
                        -0.286204069852829,
                        -0.005422529298812151,
                        -0.005171388387680054,
                        -0.14698533713817596,
                        -0.06468286365270615,
                        0.21341058611869812,
                        0.026681501418352127,
                        -0.061642229557037354,
                        -1.320705771446228,
                        0.41049784421920776,
                        -0.544377326965332,
                        1.136741042137146,
                        -0.26751452684402466,
                        0.1773248165845871,
                        -0.05546516552567482,
                        -1.026884913444519,
                        -0.5246230959892273,
                        -0.4551762044429779,
                        -0.2122136801481247,
                        0.2668757438659668,
                        0.0578119233250618,
                        -0.03626268357038498,
                        -0.2498459368944168,
                        0.4390968084335327
                    ],
                    [
                        0.1148550733923912,
                        0.3151504099369049,
                        -0.2657036781311035,
                        0.038280438631772995,
                        -1.0039267539978027,
                        -0.8048191666603088,
                        -0.05806288868188858,
                        0.008118615485727787,
                        -0.6358957290649414,
                        0.5338467955589294,
                        0.060095299035310745,
                        -0.49778032302856445,
                        0.054545219987630844,
                        -0.4059385061264038,
                        -0.4123782217502594,
                        0.12970462441444397,
                        -0.7276791930198669,
                        0.300007164478302,
                        0.09851054847240448,
                        -0.2318650186061859,
                        0.8904085755348206,
                        0.3531652092933655,
                        -0.09533551335334778,
                        0.308279424905777,
                        0.2591118812561035,
                        0.6354093551635742,
                        0.075592540204525,
                        0.3230355679988861,
                        -0.07677172869443893,
                        0.5037217736244202,
                        0.7410911917686462,
                        0.4455544948577881,
                        0.20814768970012665,
                        0.7154971957206726,
                        -0.14451159536838531,
                        0.5483282208442688,
                        0.16523213684558868,
                        -0.2245159149169922,
                        -1.1588155031204224,
                        0.49999865889549255,
                        -0.1811944842338562,
                        0.8786707520484924,
                        -0.18361689150333405,
                        -0.029997359961271286,
                        -0.14365726709365845,
                        0.009433855302631855,
                        -0.6354581713676453,
                        0.28411945700645447,
                        0.3388454020023346,
                        0.1476687639951706,
                        -0.18270854651927948,
                        -0.3961115777492523,
                        -0.11299661546945572,
                        -0.0011662171455100179,
                        0.26170653104782104,
                        0.0033161654137074947,
                        0.34696218371391296,
                        0.31787869334220886,
                        0.3009514808654785,
                        -0.023061152547597885,
                        -0.05309271439909935,
                        0.3683831989765167,
                        0.5537586212158203,
                        0.363905131816864
                    ],
                    [
                        0.05052271857857704,
                        0.19497300684452057,
                        0.11493638902902603,
                        -0.011387470178306103,
                        0.6349120736122131,
                        -0.0863804966211319,
                        0.11542804539203644,
                        0.0633775070309639,
                        0.09365776926279068,
                        0.05729192867875099,
                        0.2221580594778061,
                        0.24633470177650452,
                        -0.003542776918038726,
                        -0.24370868504047394,
                        -0.17022232711315155,
                        0.1821962594985962,
                        0.007496664300560951,
                        -0.12660665810108185,
                        0.15903975069522858,
                        -0.0345790721476078,
                        0.645724892616272,
                        -0.15460294485092163,
                        0.11829014122486115,
                        -0.007102875970304012,
                        -0.01575203612446785,
                        0.5285717844963074,
                        -0.13985124230384827,
                        -0.030764760449528694,
                        -0.1725732833147049,
                        -0.19430014491081238,
                        0.21284380555152893,
                        0.24983739852905273,
                        0.5188620090484619,
                        0.20301057398319244,
                        -0.15493068099021912,
                        -0.2905287742614746,
                        -0.0025603186804801226,
                        -0.014715817756950855,
                        0.027715208008885384,
                        -0.30125918984413147,
                        0.17139770090579987,
                        -0.11059246212244034,
                        -0.10490605235099792,
                        0.15236663818359375,
                        -0.23125748336315155,
                        0.6721648573875427,
                        -0.35348477959632874,
                        0.09546120464801788,
                        0.012196924537420273,
                        -0.2717131972312927,
                        0.10279864072799683,
                        0.04320644214749336,
                        0.07345840334892273,
                        -0.05682452768087387,
                        0.08346068114042282,
                        0.35450485348701477,
                        0.29467716813087463,
                        0.12399588525295258,
                        0.09635555744171143,
                        0.291323184967041,
                        -0.046999454498291016,
                        0.25714337825775146,
                        -0.030290143564343452,
                        0.2875889539718628
                    ],
                    [
                        -0.07301060855388641,
                        -1.0844502449035645,
                        -0.08131901919841766,
                        -0.1416807323694229,
                        -0.8073471188545227,
                        -0.5774176120758057,
                        0.14183220267295837,
                        0.1146242618560791,
                        -0.6362654566764832,
                        0.46777287125587463,
                        0.08983533084392548,
                        -0.18315060436725616,
                        0.1478426307439804,
                        0.00044569160672836006,
                        -0.31900981068611145,
                        0.08418258279561996,
                        -0.02314603142440319,
                        0.8586738109588623,
                        -0.0968574583530426,
                        -0.023679519072175026,
                        0.4329819083213806,
                        0.8659303188323975,
                        0.15616072714328766,
                        -0.34724515676498413,
                        0.9015790820121765,
                        0.2500777244567871,
                        0.23363222181797028,
                        0.6020164489746094,
                        -0.37418559193611145,
                        -0.06950891017913818,
                        0.3296578526496887,
                        0.0402580127120018,
                        -0.03271239623427391,
                        -0.6528109908103943,
                        -0.08369472622871399,
                        -0.1289183795452118,
                        -0.1404859870672226,
                        0.00805190671235323,
                        0.28786230087280273,
                        -0.6834052801132202,
                        -0.07732272893190384,
                        0.1845894306898117,
                        -0.006242336705327034,
                        0.6732567548751831,
                        -0.42381978034973145,
                        0.02280200645327568,
                        0.0046647582203149796,
                        0.3535819351673126,
                        0.5390186905860901,
                        0.12812258303165436,
                        0.38326266407966614,
                        0.12285111099481583,
                        -0.27704864740371704,
                        -0.00490129878744483,
                        0.14075644314289093,
                        -0.06020898371934891,
                        0.051096782088279724,
                        1.017736554145813,
                        0.15683497488498688,
                        0.038336094468832016,
                        0.6558918356895447,
                        0.030021825805306435,
                        0.05576024949550629,
                        0.11306744813919067
                    ],
                    [
                        -0.21203987300395966,
                        -0.20097705721855164,
                        0.05004177242517471,
                        -0.015753433108329773,
                        1.0010254383087158,
                        0.19368162751197815,
                        -0.24919667840003967,
                        -0.16423621773719788,
                        0.38913777470588684,
                        -0.08401640504598618,
                        0.030625514686107635,
                        0.15492087602615356,
                        -0.27050772309303284,
                        -0.31923913955688477,
                        -0.08859284967184067,
                        -0.30567169189453125,
                        0.43370187282562256,
                        0.5316544771194458,
                        -0.2664806842803955,
                        0.1753702163696289,
                        -0.23790061473846436,
                        -0.25777918100357056,
                        0.015068089589476585,
                        -0.3041909337043762,
                        -0.1953706592321396,
                        -0.1543431133031845,
                        -0.21805892884731293,
                        -0.6546752452850342,
                        -0.24464283883571625,
                        -0.14667704701423645,
                        -0.26373356580734253,
                        -0.06890659779310226,
                        0.18643206357955933,
                        -0.22192688286304474,
                        0.5468774437904358,
                        -0.4062443971633911,
                        0.05769181251525879,
                        -0.037684835493564606,
                        0.4810425639152527,
                        -0.16589738428592682,
                        -0.2669770419597626,
                        0.32467758655548096,
                        -0.10908699780702591,
                        -0.9065211415290833,
                        -0.6387146711349487,
                        0.06035448983311653,
                        -0.04873186722397804,
                        0.4543052017688751,
                        0.24746976792812347,
                        0.5366438031196594,
                        0.37205711007118225,
                        0.46785491704940796,
                        0.35493022203445435,
                        -0.16922254860401154,
                        -0.18641211092472076,
                        -0.34058713912963867,
                        0.01899864710867405,
                        0.0765421986579895,
                        -0.178447887301445,
                        -0.17186270654201508,
                        -0.5467155575752258,
                        -1.230574369430542,
                        -0.04252554848790169,
                        -0.16334249079227448
                    ],
                    [
                        0.21628637611865997,
                        -0.12305804342031479,
                        0.15260642766952515,
                        0.06070803850889206,
                        -0.09646385908126831,
                        -0.1460452377796173,
                        -0.0887359008193016,
                        0.033255837857723236,
                        -0.11763576418161392,
                        -0.18508367240428925,
                        0.04275256022810936,
                        0.02985919639468193,
                        0.2060321718454361,
                        0.12160458415746689,
                        -0.40784329175949097,
                        0.008863377384841442,
                        0.0911373719573021,
                        -0.3535440266132355,
                        0.0862378478050232,
                        0.27482685446739197,
                        -0.2447863668203354,
                        -0.15390582382678986,
                        0.24711713194847107,
                        0.1670190691947937,
                        0.1194663718342781,
                        0.08450699597597122,
                        -0.1263158768415451,
                        -0.2658369839191437,
                        -0.0376613512635231,
                        -0.21801409125328064,
                        0.05688723549246788,
                        -0.037135832011699677,
                        2.2621750831604004,
                        0.10298041999340057,
                        0.15143892168998718,
                        -0.15967603027820587,
                        -0.1796586960554123,
                        0.08892960101366043,
                        0.21725501120090485,
                        -0.08832772821187973,
                        0.37066909670829773,
                        0.16552412509918213,
                        0.1949561983346939,
                        0.16705815494060516,
                        -0.06464143097400665,
                        0.02096477895975113,
                        -0.821803092956543,
                        0.005964434705674648,
                        -1.4818090200424194,
                        0.3370632529258728,
                        -0.1876409947872162,
                        0.2364707738161087,
                        -0.10228577256202698,
                        0.5648044943809509,
                        -0.20767581462860107,
                        -0.26550331711769104,
                        -0.4121735692024231,
                        0.029053524136543274,
                        -0.08071231096982956,
                        -0.08181233704090118,
                        -0.4380173683166504,
                        -0.33789902925491333,
                        -0.4595310091972351,
                        0.06465274095535278
                    ],
                    [
                        0.11125834286212921,
                        -0.6328967213630676,
                        0.05579026788473129,
                        -0.11187908798456192,
                        -0.4275366961956024,
                        -0.3579201102256775,
                        0.027880586683750153,
                        0.24490663409233093,
                        -0.880488932132721,
                        0.6374773979187012,
                        0.1767781376838684,
                        0.09643571823835373,
                        -0.12136542797088623,
                        -0.055730149149894714,
                        -0.012555182911455631,
                        -0.04858219251036644,
                        -0.213236466050148,
                        1.0810598134994507,
                        0.05302351340651512,
                        -0.17701084911823273,
                        0.43643203377723694,
                        0.47668200731277466,
                        0.04391101002693176,
                        -0.6609668731689453,
                        0.6506500840187073,
                        0.7170847654342651,
                        0.13091546297073364,
                        0.16995316743850708,
                        0.18860511481761932,
                        0.030408810824155807,
                        -0.08135280013084412,
                        -0.28141263127326965,
                        0.010850543156266212,
                        -0.19513194262981415,
                        0.32010403275489807,
                        -0.010203324258327484,
                        0.15137790143489838,
                        -0.15234608948230743,
                        -0.1176908016204834,
                        -0.33466023206710815,
                        -0.4294225573539734,
                        0.09049228578805923,
                        -0.08640146255493164,
                        -0.08215515315532684,
                        0.37740322947502136,
                        0.14042487740516663,
                        0.02987111546099186,
                        -0.3134341239929199,
                        0.20371802151203156,
                        0.3361716568470001,
                        0.7145312428474426,
                        0.19153165817260742,
                        0.21173663437366486,
                        0.10453256964683533,
                        -0.044996365904808044,
                        -0.02483534812927246,
                        0.23209327459335327,
                        1.6960415840148926,
                        0.13099634647369385,
                        0.08758983016014099,
                        0.350639283657074,
                        -0.43108174204826355,
                        -0.08642730116844177,
                        0.05003456026315689
                    ]
                ],
                [
                    1.588579535484314,
                    0.27151280641555786,
                    -0.34671586751937866,
                    0.7319849729537964,
                    -1.9272089004516602,
                    -2.7255892753601074,
                    0.8714346289634705,
                    1.153471827507019,
                    -1.4430091381072998,
                    0.6673316955566406,
                    0.26969748735427856,
                    -2.9524264335632324,
                    0.4600844979286194,
                    -2.738886833190918,
                    -1.941712498664856,
                    0.6261454820632935,
                    0.3918260633945465,
                    0.7687615156173706,
                    0.9719035029411316,
                    0.8429845571517944,
                    3.0407466888427734,
                    2.245617151260376,
                    0.4801841378211975,
                    -0.16237367689609528,
                    1.8825201988220215,
                    0.21475976705551147,
                    -0.4330567419528961,
                    3.5567116737365723,
                    0.6533094644546509,
                    2.90950345993042,
                    2.294188976287842,
                    0.49356329441070557,
                    -0.7877629995346069,
                    0.07972784340381622,
                    0.6135126352310181,
                    -1.2712914943695068,
                    -0.7396467924118042,
                    -0.44709986448287964,
                    0.7333698272705078,
                    0.6258989572525024,
                    0.2610430419445038,
                    -1.3940925598144531,
                    -0.8343365788459778,
                    0.24268385767936707,
                    0.924625039100647,
                    0.007296310737729073,
                    -0.21450048685073853,
                    0.9739077091217041,
                    1.0037624835968018,
                    0.11307965219020844,
                    0.4891882538795471,
                    0.8740088939666748,
                    1.0048108100891113,
                    0.07207734137773514,
                    0.7420719265937805,
                    1.0469776391983032,
                    0.10767528414726257,
                    0.7327181100845337,
                    0.8645926713943481,
                    0.36574476957321167,
                    0.6954631805419922,
                    -0.08178557455539703,
                    1.5899406671524048,
                    0.5103839039802551
                ]
            ]
        },
        {
            "type": "dense",
            "activation": "",
            "shape": [
                null,
                null,
                1
            ],
            "weights": [
                [
                    [
                        -0.003575229784473777
                    ],
                    [
                        0.7093068957328796
                    ],
                    [
                        0.0029496087227016687
                    ],
                    [
                        -0.13026127219200134
                    ],
                    [
                        -0.3129647374153137
                    ],
                    [
                        -0.010827203281223774
                    ],
                    [
                        -0.002035637618973851
                    ],
                    [
                        -0.06654132902622223
                    ],
                    [
                        -0.02822735346853733
                    ],
                    [
                        0.013560746796429157
                    ],
                    [
                        -0.0790722444653511
                    ],
                    [
                        0.5207728743553162
                    ],
                    [
                        -0.6927677989006042
                    ],
                    [
                        0.7205899357795715
                    ],
                    [
                        -0.13021907210350037
                    ],
                    [
                        0.15128324925899506
                    ]
                ],
                [
                    0.2528234124183655
                ]
            ]
        }
    ],
    "input_batch": [
        0.08890712261199951,
        0.07685470581054688,
        0.0653461217880249,
        0.054532408714294434,
        0.04451119899749756,
        0.035308122634887695,
        0.026958346366882324,
        0.019446253776550293,
        0.012525677680969238,
        0.005981564521789551,
        -0.00026929378509521484,
        -0.006249666213989258,
        -0.011995553970336914,
        -0.017508625984191895,
        -0.02271401882171631,
        -0.02761971950531006,
        -0.032241225242614746,
        -0.036610960960388184,
        -0.040699005126953125,
        -0.044444918632507324,
        -0.04790925979614258,
        -0.05123317241668701,
        -0.05459952354431152,
        -0.05816948413848877,
        -0.06197834014892578,
        -0.06591951847076416,
        -0.06988704204559326,
        -0.07376646995544434,
        -0.0775219202041626,
        -0.0812673568725586,
        -0.0852200984954834,
        -0.08966875076293945,
        -0.0947955846786499,
        -0.10053467750549316,
        -0.10666441917419434,
        -0.11304926872253418,
        -0.11953246593475342,
        -0.12591278553009033,
        -0.132002592086792,
        -0.13763344287872314,
        -0.1428072452545166,
        -0.1477440595626831,
        -0.15266728401184082,
        -0.15767443180084229,
        -0.16278719902038574,
        -0.16788256168365479,
        -0.17280030250549316,
        -0.17743873596191406,
        -0.18170714378356934,
        -0.18566298484802246,
        -0.18930482864379883,
        -0.1925739049911499,
        -0.1953953504562378,
        -0.19770467281341553,
        -0.19953620433807373,
        -0.20087742805480957,
        -0.20163464546203613,
        -0.20174288749694824,
        -0.20131254196166992,
        -0.20060443878173828,
        -0.19981276988983154,
        -0.19898736476898193,
        -0.19804656505584717,
        -0.196830153465271,
        -0.19518935680389404,
        -0.19313395023345947,
        -0.19076907634735107,
        -0.18827474117279053,
        -0.18589138984680176,
        -0.1838209629058838,
        -0.1821526288986206,
        -0.18084239959716797,
        -0.17979443073272705,
        -0.17878055572509766,
        -0.17766690254211426,
        -0.17643523216247559,
        -0.17515993118286133,
        -0.1739363670349121,
        -0.17273938655853271,
        -0.17163515090942383,
        -0.17070817947387695,
        -0.17007207870483398,
        -0.16979968547821045,
        -0.16981327533721924,
        -0.16993045806884766,
        -0.16990244388580322,
        -0.16958773136138916,
        -0.1689746379852295,
        -0.16806650161743164,
        -0.16679561138153076,
        -0.1650604009628296,
        -0.16283249855041504,
        -0.16023242473602295,
        -0.15746891498565674,
        -0.15467429161071777,
        -0.1518399715423584,
        -0.14881455898284912,
        -0.14543640613555908,
        -0.1416233777999878,
        -0.13732385635375977,
        -0.13252103328704834,
        -0.12722790241241455,
        -0.12140977382659912,
        -0.1149972677230835,
        -0.10812699794769287,
        -0.10091328620910645,
        -0.09338629245758057,
        -0.08561444282531738,
        -0.07770180702209473,
        -0.0697547197341919,
        -0.06180286407470703,
        -0.05381882190704346,
        -0.04577839374542236,
        -0.037773728370666504,
        -0.02981877326965332,
        -0.0217587947845459,
        -0.013584733009338379,
        -0.005498647689819336,
        0.0022115707397460938,
        0.009361028671264648,
        0.015861988067626953,
        0.02178025245666504,
        0.027471303939819336,
        0.03322553634643555,
        0.0390704870223999,
        0.044942378997802734,
        0.05073356628417969,
        0.056270599365234375,
        0.061307668685913086,
        0.06559419631958008,
        0.06905794143676758,
        0.07182455062866211,
        0.07404875755310059,
        0.07576572895050049,
        0.07687973976135254,
        0.07731044292449951,
        0.07699429988861084,
        0.07598209381103516,
        0.07441914081573486,
        0.07245373725891113,
        0.07016265392303467,
        0.06741988658905029,
        0.06401145458221436,
        0.059793949127197266,
        0.054786086082458496,
        0.049076080322265625,
        0.04292154312133789,
        0.0367201566696167,
        0.030768513679504395,
        0.025237202644348145,
        0.020194053649902344,
        0.015549659729003906,
        0.011062860488891602,
        0.006516814231872559,
        0.0016690492630004883,
        -0.0035783052444458008,
        -0.009043335914611816,
        -0.014560103416442871,
        -0.01997232437133789,
        -0.025107622146606445,
        -0.029849529266357422,
        -0.0341801643371582,
        -0.038176894187927246,
        -0.0419238805770874,
        -0.04551243782043457,
        -0.049030423164367676,
        -0.05255579948425293,
        -0.05611443519592285,
        -0.05966758728027344,
        -0.06308913230895996,
        -0.06624603271484375,
        -0.06903386116027832,
        -0.07132863998413086,
        -0.07318830490112305,
        -0.07477903366088867,
        -0.07623231410980225,
        -0.07766759395599365,
        -0.07912790775299072,
        -0.08060348033905029,
        -0.08206832408905029,
        -0.0835350751876831,
        -0.0849834680557251,
        -0.0863875150680542,
        -0.08768463134765625,
        -0.08876609802246094,
        -0.08961772918701172,
        -0.09028482437133789,
        -0.09077417850494385,
        -0.09109926223754883,
        -0.09132516384124756,
        -0.09154629707336426,
        -0.09190034866333008,
        -0.09250175952911377,
        -0.09336423873901367,
        -0.09438812732696533,
        -0.09540486335754395,
        -0.09629964828491211,
        -0.09695351123809814,
        -0.09727776050567627,
        -0.09731853008270264,
        -0.09716832637786865,
        -0.09688055515289307,
        -0.09645700454711914,
        -0.09585022926330566,
        -0.09491729736328125,
        -0.09349715709686279,
        -0.09149730205535889,
        -0.0888979434967041,
        -0.08565866947174072,
        -0.08183944225311279,
        -0.07756125926971436,
        -0.07288217544555664,
        -0.06781184673309326,
        -0.06223011016845703,
        -0.05610156059265137,
        -0.049604177474975586,
        -0.04303312301635742,
        -0.03657269477844238,
        -0.030182957649230957,
        -0.023830890655517578,
        -0.017480134963989258,
        -0.011202812194824219,
        -0.005202770233154297,
        0.00040411949157714844,
        0.005603194236755371,
        0.010437726974487305,
        0.0148468017578125,
        0.018692374229431152,
        0.02192986011505127,
        0.0246657133102417,
        0.027021288871765137,
        0.029035091400146484,
        0.030586719512939453,
        0.03155243396759033,
        0.031975388526916504,
        0.031960248947143555,
        0.03164219856262207,
        0.03116452693939209,
        0.030570149421691895,
        0.029740571975708008,
        0.028551816940307617,
        0.027022480964660645,
        0.025263190269470215,
        0.023347020149230957,
        0.021306276321411133,
        0.019191265106201172,
        0.017074108123779297,
        0.014982461929321289,
        0.012930631637573242,
        0.011011600494384766,
        0.009290933609008789,
        0.007765769958496094,
        0.006402850151062012,
        0.005133152008056641,
        0.003931283950805664,
        0.0027321577072143555,
        0.0015039443969726562,
        0.0003292560577392578,
        -0.000674128532409668,
        -0.0014024972915649414,
        -0.001804351806640625,
        -0.0017800331115722656,
        -0.001269221305847168,
        -0.00032699108123779297,
        0.000947117805480957,
        0.002516508102416992,
        0.004452705383300781,
        0.006804466247558594,
        0.00959157943725586,
        0.01270139217376709,
        0.0160750150680542,
        0.01967310905456543,
        0.023368358612060547,
        0.027097105979919434,
        0.030758142471313477,
        0.03434407711029053,
        0.03788125514984131,
        0.04126310348510742,
        0.0442659854888916,
        0.046614766120910645,
        0.048201560974121094,
        0.04912543296813965,
        0.04964029788970947,
        0.049962520599365234,
        0.05014371871948242,
        0.05012857913970947,
        0.04983675479888916,
        0.04925990104675293,
        0.048380136489868164,
        0.04710042476654053,
        0.045377135276794434,
        0.04331254959106445,
        0.04109060764312744,
        0.038783907890319824,
        0.03635132312774658,
        0.03364443778991699,
        0.030588626861572266,
        0.027303099632263184,
        0.02396368980407715,
        0.020811080932617188,
        0.017944693565368652,
        0.015338897705078125,
        0.012925505638122559,
        0.010601639747619629,
        0.008323907852172852,
        0.006069660186767578,
        0.0038775205612182617,
        0.001814126968383789,
        -0.00012803077697753906,
        -0.001978278160095215,
        -0.003760099411010742,
        -0.0054596662521362305,
        -0.007068753242492676,
        -0.008604645729064941,
        -0.010076761245727539,
        -0.0114821195602417,
        -0.012848258018493652,
        -0.014246225357055664,
        -0.015692472457885742,
        -0.01719212532043457,
        -0.0187608003616333,
        -0.020316243171691895,
        -0.021687865257263184,
        -0.022744178771972656,
        -0.023395895957946777,
        -0.02367424964904785,
        -0.023686766624450684,
        -0.023559212684631348,
        -0.02353835105895996,
        -0.023810148239135742,
        -0.024420976638793945,
        -0.025281429290771484,
        -0.026275038719177246,
        -0.02729785442352295,
        -0.028254151344299316,
        -0.029113173484802246,
        -0.029862523078918457,
        -0.030559778213500977,
        -0.031292080879211426,
        -0.032172203063964844,
        -0.0333104133605957,
        -0.03469491004943848,
        -0.03616642951965332,
        -0.03746485710144043,
        -0.03835141658782959,
        -0.03867208957672119,
        -0.038384437561035156,
        -0.03746497631072998,
        -0.03588759899139404,
        -0.03366267681121826,
        -0.030804753303527832,
        -0.027373194694519043,
        -0.023534536361694336,
        -0.019438862800598145,
        -0.015193939208984375,
        -0.010837078094482422,
        -0.006299853324890137,
        -0.0014376640319824219,
        0.0038427114486694336,
        0.009543776512145996,
        0.01564168930053711,
        0.022014617919921875,
        0.02853548526763916,
        0.03507280349731445,
        0.041413187980651855,
        0.047380924224853516,
        0.052945852279663086,
        0.05824482440948486,
        0.0635983943939209,
        0.06930017471313477,
        0.07545745372772217,
        0.08200514316558838,
        0.08876204490661621,
        0.0954751968383789,
        0.10194063186645508,
        0.10813772678375244,
        0.11412465572357178,
        0.11989188194274902,
        0.12540817260742188,
        0.13065004348754883,
        0.13551747798919678,
        0.13996493816375732,
        0.14400458335876465,
        0.14764666557312012,
        0.1509488821029663,
        0.153936505317688,
        0.15665125846862793,
        0.15916800498962402,
        0.16149985790252686,
        0.163557767868042,
        0.1652536392211914,
        0.1665053367614746,
        0.16722917556762695,
        0.16746926307678223,
        0.16731905937194824,
        0.16686558723449707,
        0.1661592721939087,
        0.16517388820648193,
        0.16384673118591309,
        0.16212892532348633,
        0.15992379188537598,
        0.1572057008743286,
        0.15409469604492188,
        0.15064311027526855,
        0.14686822891235352,
        0.1427854299545288,
        0.13837194442749023,
        0.13358283042907715,
        0.12836873531341553,
        0.12267875671386719,
        0.11648714542388916,
        0.10981261730194092,
        0.10262274742126465,
        0.09489047527313232,
        0.08663547039031982,
        0.07785844802856445,
        0.06863725185394287,
        0.059093356132507324,
        0.049382805824279785,
        0.03961348533630371,
        0.029848098754882812,
        0.020093560218811035,
        0.010236620903015137,
        0.00021505355834960938,
        -0.009972095489501953,
        -0.020226001739501953,
        -0.030455946922302246,
        -0.04052531719207764,
        -0.050289154052734375,
        -0.05972552299499512,
        -0.06886005401611328,
        -0.07784080505371094,
        -0.0867767333984375,
        -0.09571337699890137,
        -0.1045914888381958,
        -0.11325192451477051,
        -0.12151956558227539,
        -0.12922298908233643,
        -0.1362835168838501,
        -0.14263927936553955,
        -0.1482940912246704,
        -0.1532684564590454,
        -0.15757524967193604,
        -0.16122519969940186,
        -0.1642622947692871,
        -0.16681206226348877,
        -0.16893625259399414,
        -0.17068421840667725,
        -0.17207610607147217,
        -0.17307233810424805,
        -0.17363691329956055,
        -0.1737598180770874,
        -0.17346549034118652,
        -0.17271947860717773,
        -0.17148637771606445,
        -0.16977882385253906,
        -0.16760897636413574,
        -0.16502392292022705,
        -0.16216707229614258,
        -0.1592104434967041,
        -0.15623486042022705,
        -0.15324032306671143,
        -0.1501682996749878,
        -0.14697551727294922,
        -0.14366364479064941,
        -0.14021897315979004,
        -0.13671469688415527,
        -0.13324189186096191,
        -0.12983334064483643,
        -0.12648701667785645,
        -0.12318646907806396,
        -0.11989593505859375,
        -0.11658215522766113,
        -0.11322450637817383,
        -0.10980117321014404,
        -0.10633063316345215,
        -0.10277009010314941,
        -0.09906196594238281,
        -0.09512495994567871,
        -0.09084725379943848,
        -0.08619320392608643,
        -0.08116018772125244,
        -0.07574772834777832,
        -0.06996405124664307,
        -0.0638279914855957,
        -0.05738401412963867,
        -0.05070388317108154,
        -0.043877243995666504,
        -0.03686964511871338,
        -0.029566407203674316,
        -0.021921396255493164,
        -0.013936519622802734,
        -0.005740642547607422,
        0.002494215965270996,
        0.010594964027404785,
        0.018350601196289062,
        0.025620341300964355,
        0.032303452491760254,
        0.03835153579711914,
        0.04381203651428223,
        0.04878711700439453,
        0.05340433120727539,
        0.05774569511413574,
        0.0618366003036499,
        0.06566691398620605,
        0.06917035579681396,
        0.07234203815460205,
        0.07526206970214844,
        0.07799792289733887,
        0.08058881759643555,
        0.08302938938140869,
        0.08532822132110596,
        0.08749306201934814,
        0.08949458599090576,
        0.09129893779754639,
        0.09285402297973633,
        0.09407222270965576,
        0.09488523006439209,
        0.09520912170410156,
        0.09495413303375244,
        0.09404194355010986,
        0.09246575832366943,
        0.0903468132019043,
        0.08780062198638916,
        0.08496463298797607,
        0.08192956447601318,
        0.07872426509857178,
        0.07540559768676758,
        0.0719749927520752,
        0.06843304634094238,
        0.06476032733917236,
        0.06087362766265869,
        0.05673205852508545,
        0.052332520484924316,
        0.047727346420288086,
        0.04300487041473389,
        0.03824615478515625,
        0.03349590301513672,
        0.02874135971069336,
        0.024009108543395996,
        0.019306421279907227,
        0.014646530151367188,
        0.010010123252868652,
        0.005287289619445801,
        0.00045299530029296875,
        -0.004498720169067383,
        -0.009496808052062988,
        -0.014434576034545898,
        -0.019288182258605957,
        -0.02406179904937744,
        -0.028815865516662598,
        -0.03360104560852051,
        -0.038417935371398926,
        -0.0432513952255249,
        -0.04804682731628418,
        -0.05280649662017822,
        -0.05752289295196533,
        -0.06214869022369385,
        -0.06665265560150146,
        -0.07101058959960938,
        -0.07518935203552246,
        -0.07914745807647705,
        -0.0828104019165039,
        -0.08608293533325195,
        -0.08889186382293701,
        -0.09117889404296875,
        -0.09295666217803955,
        -0.09428727626800537,
        -0.09519016742706299,
        -0.09563040733337402,
        -0.09557640552520752,
        -0.09496498107910156,
        -0.09374654293060303,
        -0.09195005893707275,
        -0.08963990211486816,
        -0.08688616752624512,
        -0.08372116088867188,
        -0.08011412620544434,
        -0.07605946063995361,
        -0.0715566873550415,
        -0.06662797927856445,
        -0.061333537101745605,
        -0.055725693702697754,
        -0.049837589263916016,
        -0.04364275932312012,
        -0.03715801239013672,
        -0.03043210506439209,
        -0.023501157760620117,
        -0.016399502754211426,
        -0.009154200553894043,
        -0.001789689064025879,
        0.005626082420349121,
        0.01300191879272461,
        0.020279407501220703,
        0.02738320827484131,
        0.03426814079284668,
        0.04089701175689697,
        0.04720616340637207,
        0.05310702323913574,
        0.05859255790710449,
        0.06370806694030762,
        0.06850099563598633,
        0.0731041431427002,
        0.0776205062866211,
        0.08206188678741455,
        0.08641374111175537,
        0.09056854248046875,
        0.09444379806518555,
        0.09807097911834717,
        0.10150456428527832,
        0.10480892658233643,
        0.1080625057220459,
        0.11134195327758789,
        0.11466598510742188,
        0.11799275875091553,
        0.12133169174194336,
        0.12464714050292969,
        0.12785184383392334,
        0.1308732032775879,
        0.13368332386016846,
        0.13631868362426758,
        0.13882768154144287,
        0.1412980556488037,
        0.14374709129333496,
        0.1461852788925171,
        0.14865076541900635,
        0.15110254287719727,
        0.15356361865997314,
        0.15608656406402588,
        0.15870440006256104,
        0.16138184070587158,
        0.16401779651641846,
        0.16655242443084717,
        0.16894948482513428,
        0.17133140563964844,
        0.17382049560546875,
        0.17648911476135254,
        0.1793990135192871,
        0.182525634765625,
        0.18587863445281982,
        0.1894739866256714,
        0.19328594207763672,
        0.19717657566070557,
        0.20100414752960205,
        0.20471787452697754,
        0.20834052562713623,
        0.21193289756774902,
        0.2154841423034668,
        0.21901726722717285,
        0.22256481647491455,
        0.22604238986968994,
        0.22931504249572754,
        0.23225295543670654,
        0.23482537269592285,
        0.2370469570159912,
        0.23885869979858398,
        0.24014687538146973,
        0.24081969261169434,
        0.2407677173614502,
        0.23992884159088135,
        0.2382974624633789,
        0.23588407039642334,
        0.23283493518829346,
        0.2292344570159912,
        0.22517144680023193,
        0.2207629680633545,
        0.21600568294525146,
        0.21090304851531982,
        0.2054058313369751,
        0.19942212104797363,
        0.19283020496368408,
        0.1854952573776245,
        0.17752337455749512,
        0.1691434383392334,
        0.16058194637298584,
        0.1519094705581665,
        0.14304256439208984,
        0.13384294509887695,
        0.12415039539337158,
        0.11391007900238037,
        0.1030813455581665,
        0.09162569046020508,
        0.07965409755706787,
        0.06739890575408936,
        0.05516397953033447,
        0.04310023784637451,
        0.03117072582244873,
        0.019317150115966797,
        0.0075685977935791016,
        -0.003940105438232422,
        -0.015060186386108398,
        -0.025677204132080078,
        -0.035745859146118164,
        -0.045325636863708496,
        -0.054540395736694336,
        -0.06351816654205322,
        -0.07225775718688965,
        -0.08060562610626221,
        -0.08826446533203125,
        -0.09501826763153076,
        -0.10087275505065918,
        -0.10588264465332031,
        -0.11013579368591309,
        -0.11380910873413086,
        -0.11709332466125488,
        -0.12007129192352295,
        -0.12276363372802734,
        -0.12521576881408691,
        -0.12737178802490234,
        -0.12913668155670166,
        -0.13057053089141846,
        -0.13190436363220215,
        -0.1333467960357666,
        -0.13485944271087646,
        -0.1363009214401245,
        -0.13771557807922363,
        -0.13928639888763428,
        -0.14108610153198242,
        -0.14311301708221436,
        -0.14538586139678955,
        -0.14795780181884766,
        -0.15078461170196533,
        -0.15359139442443848,
        -0.1561272144317627,
        -0.1583644151687622,
        -0.16051983833312988,
        -0.1629176139831543,
        -0.16570556163787842,
        -0.1686464548110962,
        -0.17130637168884277,
        -0.17351150512695312,
        -0.17543530464172363,
        -0.17725348472595215,
        -0.17892062664031982,
        -0.1802668571472168,
        -0.18123459815979004,
        -0.18191051483154297,
        -0.1824202537536621,
        -0.1827000379562378,
        -0.18249940872192383,
        -0.18168652057647705,
        -0.18027710914611816,
        -0.17841804027557373,
        -0.17629528045654297,
        -0.1739208698272705,
        -0.17116475105285645,
        -0.16795289516448975,
        -0.16432476043701172,
        -0.16040360927581787,
        -0.15628695487976074,
        -0.1519784927368164,
        -0.14741158485412598,
        -0.1425187587738037,
        -0.13728129863739014,
        -0.13173019886016846,
        -0.12593066692352295,
        -0.12000489234924316,
        -0.11407089233398438,
        -0.10821592807769775,
        -0.10251879692077637,
        -0.09698343276977539,
        -0.09157299995422363,
        -0.08623480796813965,
        -0.08087170124053955,
        -0.07539856433868408,
        -0.06978237628936768,
        -0.06402456760406494,
        -0.05816316604614258,
        -0.05224812030792236,
        -0.046396732330322266,
        -0.04072916507720947,
        -0.03536808490753174,
        -0.03040635585784912,
        -0.02578604221343994,
        -0.021445393562316895,
        -0.017293095588684082,
        -0.013260364532470703,
        -0.009328246116638184,
        -0.005497455596923828,
        -0.0018433332443237305,
        0.0015560388565063477,
        0.004591226577758789,
        0.007177948951721191,
        0.009240865707397461,
        0.010774850845336914,
        0.01189875602722168,
        0.012699604034423828,
        0.013322591781616211,
        0.013897538185119629,
        0.014467835426330566,
        0.015088319778442383,
        0.01575934886932373,
        0.016494154930114746,
        0.01735818386077881,
        0.018445134162902832,
        0.019817829132080078,
        0.021524786949157715,
        0.023568391799926758,
        0.025907158851623535,
        0.028574585914611816,
        0.031600236892700195,
        0.03496861457824707,
        0.038645029067993164,
        0.04259765148162842,
        0.04677104949951172,
        0.05110645294189453,
        0.055520057678222656,
        0.05986583232879639,
        0.06399273872375488,
        0.06779229640960693,
        0.07124590873718262,
        0.07439708709716797,
        0.07726383209228516,
        0.07987368106842041,
        0.08223450183868408,
        0.08435189723968506,
        0.08620059490203857,
        0.08774185180664062,
        0.08901393413543701,
        0.09011638164520264,
        0.09110057353973389,
        0.09195899963378906,
        0.0927431583404541,
        0.0935065746307373,
        0.09423983097076416,
        0.09489059448242188,
        0.09538328647613525,
        0.09575796127319336,
        0.0960608720779419,
        0.09629714488983154,
        0.09649133682250977,
        0.09665107727050781,
        0.09681499004364014,
        0.09700131416320801,
        0.09720909595489502,
        0.09730494022369385,
        0.09711253643035889,
        0.09654784202575684,
        0.095664381980896,
        0.09460067749023438,
        0.0933225154876709,
        0.09169185161590576,
        0.08958876132965088,
        0.0870966911315918,
        0.08436644077301025,
        0.0813138484954834,
        0.07774591445922852,
        0.07350623607635498,
        0.06850874423980713,
        0.06267261505126953,
        0.056018710136413574,
        0.04861283302307129,
        0.04032266139984131,
        0.030764102935791016,
        0.019420623779296875,
        0.005938529968261719,
        -0.009744048118591309,
        -0.02734506130218506,
        -0.04649984836578369,
        -0.0670771598815918,
        -0.08930528163909912,
        -0.11346101760864258,
        -0.13909006118774414,
        -0.16544365882873535,
        -0.19170594215393066,
        -0.21692776679992676,
        -0.24077308177947998,
        -0.26333045959472656,
        -0.28453636169433594,
        -0.30409324169158936,
        -0.32168424129486084,
        -0.33719420433044434,
        -0.3507596254348755,
        -0.3625906705856323,
        -0.3728501796722412,
        -0.38165998458862305,
        -0.38897693157196045,
        -0.39474987983703613,
        -0.3987541198730469,
        -0.400687575340271,
        -0.40056538581848145,
        -0.3984431028366089,
        -0.39425206184387207,
        -0.3880128860473633,
        -0.37991154193878174,
        -0.37013304233551025,
        -0.35886430740356445,
        -0.34626781940460205,
        -0.3325338363647461,
        -0.31802403926849365,
        -0.30312788486480713,
        -0.2883896827697754,
        -0.2740824222564697,
        -0.26011765003204346,
        -0.24661195278167725,
        -0.23375296592712402,
        -0.22170722484588623,
        -0.2106539011001587,
        -0.20056867599487305,
        -0.1913440227508545,
        -0.18298733234405518,
        -0.17551255226135254,
        -0.16887128353118896,
        -0.1630183458328247,
        -0.15789544582366943,
        -0.15324699878692627,
        -0.14869356155395508,
        -0.14390969276428223,
        -0.13878381252288818,
        -0.1335214376449585,
        -0.12838923931121826,
        -0.12361800670623779,
        -0.11918997764587402,
        -0.11469805240631104,
        -0.10970604419708252,
        -0.10406339168548584,
        -0.09801840782165527,
        -0.09185636043548584,
        -0.08572947978973389,
        -0.07960593700408936,
        -0.07327842712402344,
        -0.06659901142120361,
        -0.059532880783081055,
        -0.0522913932800293,
        -0.045038580894470215,
        -0.03775131702423096,
        -0.030428767204284668,
        -0.023017287254333496,
        -0.015425920486450195,
        -0.007490038871765137,
        0.0007032155990600586,
        0.008858084678649902,
        0.016721248626708984,
        0.024128198623657227,
        0.031126022338867188,
        0.03775370121002197,
        0.04400372505187988,
        0.04972696304321289,
        0.05476808547973633,
        0.05914771556854248,
        0.06301701068878174,
        0.06663262844085693,
        0.0701221227645874,
        0.07341301441192627,
        0.07629966735839844,
        0.07857942581176758,
        0.08021628856658936,
        0.08123636245727539,
        0.0817105770111084,
        0.08162355422973633,
        0.08096837997436523,
        0.07982873916625977,
        0.0783456563949585,
        0.0767587423324585,
        0.07512903213500977,
        0.07341992855072021,
        0.07144129276275635,
        0.0688772201538086,
        0.06573045253753662,
        0.062143564224243164,
        0.05831336975097656,
        0.05439746379852295,
        0.050476670265197754,
        0.046645283699035645,
        0.04293406009674072,
        0.03935229778289795,
        0.035895586013793945,
        0.03249561786651611,
        0.02900087833404541,
        0.025295615196228027,
        0.02149820327758789,
        0.017765045166015625,
        0.014096260070800781,
        0.010455012321472168,
        0.00691676139831543,
        0.003584742546081543,
        0.0004889965057373047,
        -0.0024014711380004883,
        -0.00509333610534668,
        -0.0076220035552978516,
        -0.010041117668151855,
        -0.012328267097473145,
        -0.014419794082641602,
        -0.01632869243621826,
        -0.01813364028930664,
        -0.019798636436462402,
        -0.021132349967956543,
        -0.02196824550628662,
        -0.022297024726867676,
        -0.022289276123046875,
        -0.022141098976135254,
        -0.021939754486083984,
        -0.021674275398254395,
        -0.021317243576049805,
        -0.020769119262695312,
        -0.019951701164245605,
        -0.018954873085021973,
        -0.017873287200927734,
        -0.0167006254196167,
        -0.015430450439453125,
        -0.014043331146240234,
        -0.012556910514831543,
        -0.011048316955566406,
        -0.00956106185913086,
        -0.008123636245727539,
        -0.006684064865112305,
        -0.0052078962326049805,
        -0.0036818981170654297,
        -0.0021257400512695312,
        -0.0006213188171386719,
        0.0008932352066040039,
        0.0024793148040771484,
        0.004159331321716309,
        0.005952954292297363,
        0.007770538330078125,
        0.009532570838928223,
        0.011179685592651367,
        0.012689828872680664,
        0.014043450355529785,
        0.015199661254882812,
        0.01617109775543213,
        0.016906261444091797,
        0.017342567443847656,
        0.01751887798309326,
        0.017481327056884766,
        0.01733720302581787,
        0.01712954044342041,
        0.016847729682922363,
        0.016550898551940918,
        0.016298770904541016,
        0.016086339950561523,
        0.015824437141418457,
        0.01554107666015625,
        0.015387296676635742,
        0.015357017517089844,
        0.015309453010559082,
        0.015203595161437988,
        0.015007734298706055,
        0.014736175537109375,
        0.014556527137756348,
        0.014637470245361328,
        0.01506507396697998,
        0.01582503318786621,
        0.016790032386779785,
        0.017794013023376465,
        0.01865100860595703,
        0.019188523292541504,
        0.019452214241027832,
        0.019864320755004883,
        0.02082681655883789,
        0.022294998168945312,
        0.02386188507080078,
        0.02507007122039795,
        0.02574896812438965,
        0.0260162353515625,
        0.026065707206726074,
        0.026061177253723145,
        0.026025772094726562,
        0.025830864906311035,
        0.025335192680358887,
        0.024461984634399414,
        0.02329707145690918,
        0.02192819118499756,
        0.020354032516479492,
        0.018604278564453125,
        0.016683101654052734,
        0.014640569686889648,
        0.012564539909362793,
        0.010662555694580078,
        0.009135007858276367,
        0.007909893989562988,
        0.006774783134460449,
        0.005591034889221191,
        0.004402518272399902,
        0.003325223922729492,
        0.0024132728576660156,
        0.0016082525253295898,
        0.0007477998733520508,
        -0.00031566619873046875,
        -0.0016340017318725586,
        -0.003015279769897461,
        -0.004178881645202637,
        -0.005008339881896973,
        -0.005551934242248535,
        -0.005870699882507324,
        -0.005863308906555176,
        -0.005256175994873047,
        -0.003634214401245117,
        -0.000599980354309082,
        0.003915905952453613,
        0.009735941886901855,
        0.016672492027282715,
        0.024623394012451172,
        0.03354799747467041,
        0.04335486888885498,
        0.053924560546875,
        0.06490087509155273,
        0.07581925392150879,
        0.0864255428314209,
        0.09660124778747559,
        0.10643243789672852,
        0.11615109443664551,
        0.12560772895812988,
        0.1346527338027954,
        0.14354395866394043,
        0.1522684097290039,
        0.16063058376312256,
        0.16849148273468018,
        0.17572474479675293,
        0.18219375610351562,
        0.18720555305480957,
        0.19020390510559082,
        0.1915452480316162,
        0.19181597232818604,
        0.19073224067687988,
        0.18737709522247314,
        0.1817624568939209,
        0.17497622966766357,
        0.16781961917877197,
        0.1598207950592041,
        0.15018057823181152,
        0.13924574851989746,
        0.12769055366516113,
        0.11568856239318848,
        0.10387122631072998,
        0.09306538105010986,
        0.08342099189758301,
        0.07436037063598633,
        0.06500899791717529,
        0.055487632751464844,
        0.0468214750289917,
        0.0401911735534668,
        0.036713361740112305,
        0.03667187690734863,
        0.038565874099731445,
        0.03991973400115967,
        0.040352582931518555,
        0.04173552989959717,
        0.04513895511627197,
        0.04935336112976074,
        0.05249762535095215,
        0.053843140602111816,
        0.0526731014251709,
        0.04808533191680908,
        0.04045248031616211,
        0.031011462211608887,
        0.020429491996765137,
        0.008535027503967285,
        -0.004960894584655762,
        -0.01990675926208496,
        -0.035344839096069336,
        -0.049695491790771484,
        -0.061628103256225586,
        -0.07101333141326904,
        -0.07891547679901123,
        -0.08643090724945068,
        -0.09388256072998047,
        -0.10116171836853027,
        -0.10799872875213623,
        -0.11407816410064697,
        -0.11931049823760986,
        -0.12375044822692871,
        -0.1272817850112915,
        -0.1295398473739624,
        -0.1302356719970703,
        -0.12917637825012207,
        -0.12613582611083984,
        -0.12075316905975342,
        -0.11277186870574951,
        -0.10260820388793945,
        -0.09097909927368164,
        -0.0784151554107666,
        -0.06509935855865479,
        -0.05111098289489746,
        -0.03688502311706543,
        -0.022862792015075684,
        -0.009287118911743164,
        0.0035675764083862305,
        0.015156269073486328,
        0.02495872974395752,
        0.03285324573516846,
        0.0391690731048584,
        0.04441678524017334,
        0.04880642890930176,
        0.052130818367004395,
        0.05400896072387695,
        0.054273247718811035,
        0.05303800106048584,
        0.05058574676513672,
        0.047147393226623535,
        0.04284501075744629,
        0.03791999816894531,
        0.03257548809051514,
        0.026985764503479004,
        0.021387457847595215,
        0.015994906425476074,
        0.01091015338897705,
        0.006133675575256348,
        0.0016078948974609375,
        -0.0027822256088256836,
        -0.007052302360534668,
        -0.011141300201416016,
        -0.01498103141784668,
        -0.018489360809326172,
        -0.021770596504211426,
        -0.024997591972351074,
        -0.028400659561157227,
        -0.03215658664703369,
        -0.03612565994262695,
        -0.04020428657531738,
        -0.04436850547790527,
        -0.04855954647064209,
        -0.05271041393280029,
        -0.05683314800262451,
        -0.06098830699920654,
        -0.06493258476257324,
        -0.06851005554199219,
        -0.07178390026092529,
        -0.0746912956237793,
        -0.07708561420440674,
        -0.0788651704788208,
        -0.08015096187591553,
        -0.08105707168579102,
        -0.08162391185760498,
        -0.08181548118591309,
        -0.08177435398101807,
        -0.08170604705810547,
        -0.08131086826324463,
        -0.08022773265838623,
        -0.07845199108123779,
        -0.07608342170715332,
        -0.07288730144500732,
        -0.06852996349334717,
        -0.06312358379364014,
        -0.05686211585998535,
        -0.04964172840118408,
        -0.041432976722717285,
        -0.03247809410095215,
        -0.02305459976196289,
        -0.013255953788757324,
        -0.003201603889465332,
        0.006862282752990723,
        0.01695072650909424,
        0.027204275131225586,
        0.03755295276641846,
        0.0476452112197876,
        0.05736720561981201,
        0.06701958179473877,
        0.07669937610626221,
        0.08636057376861572,
        0.0958327054977417,
        0.10496008396148682,
        0.11399269104003906,
        0.12320780754089355,
        0.13271832466125488,
        0.14231836795806885,
        0.15145277976989746,
        0.1601485013961792,
        0.16887712478637695,
        0.17782652378082275,
        0.18697762489318848,
        0.19589269161224365,
        0.20403587818145752,
        0.2113720178604126,
        0.21845197677612305,
        0.2258380651473999,
        0.23376309871673584,
        0.24227118492126465,
        0.2508723735809326,
        0.2589191198348999,
        0.2659912109375,
        0.2720867395401001,
        0.27797913551330566,
        0.28444647789001465,
        0.2912524938583374,
        0.29750800132751465,
        0.30279541015625,
        0.30718517303466797,
        0.3109687566757202,
        0.314145565032959,
        0.3162271976470947,
        0.3172640800476074,
        0.3175128698348999,
        0.31693947315216064,
        0.3155653476715088,
        0.3129829168319702,
        0.3088568449020386,
        0.3033618927001953,
        0.29609692096710205,
        0.2867763042449951,
        0.27578282356262207,
        0.2634847164154053,
        0.24985837936401367,
        0.23470842838287354,
        0.21859025955200195,
        0.20202410221099854,
        0.18529069423675537,
        0.16875731945037842,
        0.15273261070251465,
        0.13772964477539062,
        0.12385499477386475,
        0.11090743541717529,
        0.09858739376068115,
        0.08699369430541992,
        0.0764240026473999,
        0.06661784648895264,
        0.057431936264038086,
        0.0489506721496582,
        0.041170358657836914,
        0.03362321853637695,
        0.026155591011047363,
        0.01940751075744629,
        0.013772726058959961,
        0.009118437767028809,
        0.005098819732666016,
        0.0016077756881713867,
        -0.0014090538024902344,
        -0.0038061141967773438,
        -0.004994750022888184,
        -0.004668116569519043,
        -0.003354787826538086,
        -0.0019243955612182617,
        -0.0005826950073242188,
        0.0011818408966064453,
        0.003744959831237793,
        0.006935715675354004,
        0.010675668716430664,
        0.015171408653259277,
        0.020346522331237793,
        0.02570664882659912,
        0.03079807758331299,
        0.035607337951660156,
        0.04013943672180176,
        0.04416489601135254,
        0.047460198402404785,
        0.0499567985534668,
        0.0519556999206543,
        0.05386817455291748,
        0.05550861358642578,
        0.05607140064239502,
        0.055100083351135254,
        0.05296504497528076,
        0.05039238929748535,
        0.04771387577056885,
        0.044585466384887695,
        0.04060542583465576,
        0.03583216667175293,
        0.030585050582885742,
        0.02521991729736328,
        0.019780755043029785,
        0.013889551162719727,
        0.0072106122970581055,
        -0.00024211406707763672,
        -0.007796049118041992,
        -0.014480352401733398,
        -0.019942045211791992,
        -0.02456533908843994,
        -0.029244542121887207,
        -0.03474891185760498,
        -0.04119300842285156,
        -0.048210978507995605,
        -0.05511903762817383,
        -0.0612645149230957,
        -0.0668567419052124,
        -0.07295477390289307,
        -0.0805426836013794,
        -0.08998966217041016,
        -0.10062170028686523,
        -0.11114299297332764,
        -0.12087297439575195,
        -0.13014817237854004,
        -0.1395472288131714,
        -0.1492680311203003,
        -0.1591048240661621,
        -0.1684103012084961,
        -0.17651426792144775,
        -0.1831132173538208,
        -0.1882462501525879,
        -0.1921699047088623,
        -0.1951770782470703,
        -0.1975409984588623,
        -0.19927477836608887,
        -0.20011663436889648,
        -0.19994044303894043,
        -0.19904661178588867,
        -0.19763171672821045,
        -0.1953732967376709,
        -0.19211411476135254,
        -0.1875070333480835,
        -0.18103742599487305,
        -0.17272639274597168,
        -0.16298389434814453,
        -0.15238547325134277,
        -0.14098668098449707,
        -0.12871217727661133,
        -0.1159813404083252,
        -0.10351622104644775,
        -0.09153127670288086,
        -0.07916641235351562,
        -0.06627523899078369,
        -0.05370819568634033,
        -0.042140841484069824,
        -0.031841278076171875,
        -0.022536635398864746,
        -0.013927340507507324,
        -0.0055702924728393555,
        0.0024121999740600586,
        0.008936285972595215,
        0.013425469398498535,
        0.01655292510986328,
        0.019115686416625977,
        0.02050161361694336,
        0.020235061645507812,
        0.019057869911193848,
        0.01734626293182373,
        0.015086889266967773,
        0.012624502182006836,
        0.011332988739013672,
        0.012831568717956543,
        0.01724982261657715,
        0.023668289184570312,
        0.03130149841308594,
        0.039641499519348145,
        0.048101186752319336,
        0.05628335475921631,
        0.06394457817077637,
        0.07026934623718262,
        0.07396078109741211,
        0.07412993907928467,
        0.07102930545806885,
        0.06513524055480957,
        0.0563732385635376,
        0.045096635818481445,
        0.03213369846343994,
        0.018101930618286133,
        0.003534555435180664,
        -0.010791540145874023,
        -0.02428126335144043,
        -0.03712320327758789,
        -0.049796104431152344,
        -0.06230306625366211,
        -0.07432615756988525,
        -0.08598148822784424,
        -0.0977928638458252,
        -0.11024987697601318,
        -0.12340331077575684,
        -0.13693201541900635,
        -0.150293231010437,
        -0.16258537769317627,
        -0.1732640266418457,
        -0.18216514587402344,
        -0.1892409324645996,
        -0.19462382793426514,
        -0.19819748401641846,
        -0.1996469497680664,
        -0.1988915205001831,
        -0.1961582899093628,
        -0.19165074825286865,
        -0.1854163408279419,
        -0.1775808334350586,
        -0.16849219799041748,
        -0.15878045558929443,
        -0.1490393877029419,
        -0.13969504833221436,
        -0.1310495138168335,
        -0.12321364879608154,
        -0.11616349220275879,
        -0.1097787618637085,
        -0.1039731502532959,
        -0.098716139793396,
        -0.09399521350860596,
        -0.09005534648895264,
        -0.08716106414794922,
        -0.08530950546264648,
        -0.08442902565002441,
        -0.08435463905334473,
        -0.08458197116851807,
        -0.08450126647949219,
        -0.08408844470977783,
        -0.0838625431060791,
        -0.08424258232116699,
        -0.08513391017913818,
        -0.0859149694442749,
        -0.08625209331512451,
        -0.08621275424957275,
        -0.08578228950500488,
        -0.0850297212600708,
        -0.08408927917480469,
        -0.08292269706726074,
        -0.08108985424041748,
        -0.07843291759490967,
        -0.0754082202911377,
        -0.07236921787261963,
        -0.06933116912841797,
        -0.06619954109191895,
        -0.06307816505432129,
        -0.059948086738586426,
        -0.056641221046447754,
        -0.05339336395263672,
        -0.05074131488800049,
        -0.048998475074768066,
        -0.0479358434677124,
        -0.04719245433807373,
        -0.04659879207611084,
        -0.04603934288024902,
        -0.045389771461486816,
        -0.04466676712036133,
        -0.044194936752319336,
        -0.04414057731628418,
        -0.04435539245605469,
        -0.044652581214904785,
        -0.04496562480926514,
        -0.04521965980529785,
        -0.045185208320617676,
        -0.04473519325256348,
        -0.04402613639831543,
        -0.043244004249572754,
        -0.04220473766326904,
        -0.0406646728515625,
        -0.03866100311279297,
        -0.03633284568786621,
        -0.03383147716522217,
        -0.030994057655334473,
        -0.02755427360534668,
        -0.023667454719543457,
        -0.019904494285583496,
        -0.016718149185180664,
        -0.014062643051147461,
        -0.011654257774353027,
