{
    "in_shape": [
        null,
        null,
        1
    ],
    "layers": [
        {
            "type": "lstm",
            "activation": "",
            "shape": [
                null,
                null,
                20
            ],
            "weights": [
                [
                    [
                        -0.1633850485086441,
                        -0.11120185256004333,
                        -0.08072077482938766,
                        0.09817411750555038,
                        -0.07970782369375229,
                        -0.0003793604555539787,
                        -0.11140190064907074,
                        -0.10491222143173218,
                        0.4069660007953644,
                        -0.06592264026403427,
                        0.19521962106227875,
                        0.2216055989265442,
                        0.07483517378568649,
                        -0.00607945816591382,
                        -0.2507965564727783,
                        0.14196886122226715,
                        0.07094883173704147,
                        0.06261492520570755,
                        -0.012997438199818134,
                        0.011121552437543869,
                        0.08919058740139008,
                        0.07602611929178238,
                        0.08267384022474289,
                        0.13659583032131195,
                        0.18633678555488586,
                        0.10992420464754105,
                        -0.289995938539505,
                        -0.29345837235450745,
                        0.2978867292404175,
                        0.40807992219924927,
                        -0.2790096402168274,
                        0.11418432742357254,
                        0.345490038394928,
                        0.10286478698253632,
                        -0.016411326825618744,
                        -0.10537384450435638,
                        -0.2419828176498413,
                        0.02711007185280323,
                        -0.037269074469804764,
                        -0.09515945613384247,
                        -0.22736044228076935,
                        0.2303863912820816,
                        -0.6665799617767334,
                        2.373676300048828,
                        0.10112036019563675,
                        0.23707625269889832,
                        0.1539786458015442,
                        -0.29571694135665894,
                        0.31089815497398376,
                        -0.3517526388168335,
                        -0.8018514513969421,
                        -0.24918514490127563,
                        1.71246337890625,
                        -0.16304749250411987,
                        -0.4191318452358246,
                        0.2770846486091614,
                        0.2739578187465668,
                        0.10807890444993973,
                        0.19082528352737427,
                        -0.2887696623802185,
                        -0.17371271550655365,
                        -0.1472443789243698,
                        -0.06009542569518089,
                        0.013985147699713707,
                        0.230171337723732,
                        -0.07938045263290405,
                        -0.11737681180238724,
                        -0.11696509271860123,
                        -0.24932074546813965,
                        0.2962229549884796,
                        -0.13113680481910706,
                        0.030891040340065956,
                        -0.10172590613365173,
                        0.04032214730978012,
                        0.10920996218919754,
                        0.012593133375048637,
                        0.10575263202190399,
                        0.24161535501480103,
                        0.10164931416511536,
                        -0.17669685184955597
                    ]
                ],
                [
                    [
                        -0.16118387877941132,
                        0.3186975419521332,
                        0.06013421341776848,
                        0.09130904078483582,
                        -0.01774335838854313,
                        0.0023885921109467745,
                        0.032882511615753174,
                        -0.08841296285390854,
                        0.11151712387800217,
                        0.00834878720343113,
                        0.21485629677772522,
                        -0.07801762223243713,
                        0.10050087422132492,
                        -0.02034040354192257,
                        -0.2397620528936386,
                        0.2302507609128952,
                        0.09839238971471786,
                        -0.399676114320755,
                        -0.0861252099275589,
                        0.013584806583821774,
                        -0.006296997424215078,
                        -0.14210079610347748,
                        -0.06495746225118637,
                        -0.039624810218811035,
                        -0.05723657086491585,
                        -0.031151602044701576,
                        0.041917696595191956,
                        -0.1698424369096756,
                        -0.2546592354774475,
                        0.2411806881427765,
                        -0.10416529327630997,
                        -0.09918304532766342,
                        0.12985919415950775,
                        -0.15264049172401428,
                        -0.1850007325410843,
                        -0.026569506153464317,
                        -0.018687590956687927,
                        -0.1797509640455246,
                        -0.059916190803050995,
                        0.07866689562797546,
                        0.008790855295956135,
                        0.40721267461776733,
                        -0.29079172015190125,
                        0.03772849217057228,
                        -0.1006561666727066,
                        -0.06642963737249374,
                        0.052094973623752594,
                        -0.17432548105716705,
                        -0.01435675285756588,
                        -0.30662158131599426,
                        -0.08713363111019135,
                        -0.5239695906639099,
                        -0.03745527192950249,
                        -0.10169592499732971,
                        0.9087519645690918,
                        -0.038823965936899185,
                        0.11879973858594894,
                        -0.339566707611084,
                        -0.07756925374269485,
                        0.1359330713748932,
                        -0.004558348562568426,
                        0.19382700324058533,
                        -0.14033178985118866,
                        0.08630843460559845,
                        -0.0227951742708683,
                        -0.000845873320940882,
                        0.014059565961360931,
                        -0.022448552772402763,
                        0.19389808177947998,
                        -0.19228337705135345,
                        0.1671186089515686,
                        -0.041686199605464935,
                        -0.24742692708969116,
                        -0.004976013675332069,
                        0.12868037819862366,
                        0.2802383303642273,
                        0.09117653965950012,
                        0.18854084610939026,
                        -0.1860588788986206,
                        -0.45193687081336975
                    ],
                    [
                        0.10430381447076797,
                        -0.6991814970970154,
                        0.2511058747768402,
                        0.16386188566684723,
                        -0.13592515885829926,
                        -0.053813885897397995,
                        -0.043336909264326096,
                        0.012372657656669617,
                        0.6486632227897644,
                        -0.15503111481666565,
                        -0.18796680867671967,
                        0.14445947110652924,
                        -0.013814044184982777,
                        -0.07721816003322601,
                        0.1705693006515503,
                        0.2368171364068985,
                        -0.05387859418988228,
                        0.956067681312561,
                        0.011753080412745476,
                        1.0033074617385864,
                        -0.38463589549064636,
                        -0.5498417019844055,
                        -0.7052074670791626,
                        0.02711217850446701,
                        0.05020730942487717,
                        -0.25587695837020874,
                        -0.012891624122858047,
                        0.2351778745651245,
                        -0.21930526196956635,
                        -0.5025191903114319,
                        -0.2492581009864807,
                        -0.11913996189832687,
                        0.13779300451278687,
                        -0.0348198264837265,
                        -0.6453701257705688,
                        0.212675541639328,
                        -0.34578460454940796,
                        -1.0283851623535156,
                        -0.09441358596086502,
                        0.7504499554634094,
                        -0.09082764387130737,
                        0.2544136345386505,
                        0.035205159336328506,
                        -0.01865690015256405,
                        -0.02602180279791355,
                        0.3376208245754242,
                        0.10440981388092041,
                        -0.09288491308689117,
                        0.06880205869674683,
                        -0.11177743226289749,
                        -0.051191169768571854,
                        -0.20480866730213165,
                        0.013470297679305077,
                        -0.04408442601561546,
                        -0.13700899481773376,
                        -0.2853113114833832,
                        0.010889891535043716,
                        -0.46265479922294617,
                        0.22962769865989685,
                        1.2866840362548828,
                        -0.16549766063690186,
                        -0.50358647108078,
                        -0.023821184411644936,
                        0.01451473031193018,
                        -0.014409715309739113,
                        -0.05557699501514435,
                        0.1308608204126358,
                        -0.03370550647377968,
                        0.01287410594522953,
                        -0.33039095997810364,
                        -0.0878131166100502,
                        0.21017734706401825,
                        -0.36428743600845337,
                        -0.10735215991735458,
                        -0.09121062606573105,
                        -0.17966461181640625,
                        -0.27578747272491455,
                        -0.06621524691581726,
                        0.18268850445747375,
                        -1.1564968824386597
                    ],
                    [
                        0.3820876479148865,
                        0.066158726811409,
                        0.027570074424147606,
                        0.0028867246583104134,
                        0.05980922281742096,
                        -0.0463443249464035,
                        -0.01819542422890663,
                        -0.10527435690164566,
                        0.13614705204963684,
                        -0.0028207881841808558,
                        0.03457285091280937,
                        0.02296328730881214,
                        -0.05509001389145851,
                        -0.12108726799488068,
                        0.19795341789722443,
                        -0.1974848359823227,
                        -0.06246541067957878,
                        0.03144121170043945,
                        0.29083386063575745,
                        -0.12803417444229126,
                        -0.1672888696193695,
                        -0.02612842433154583,
                        0.039950668811798096,
                        -0.10063674300909042,
                        0.1454993486404419,
                        -0.14788098633289337,
                        -0.12270143628120422,
                        0.09885436296463013,
                        -0.11967047303915024,
                        -0.3442867398262024,
                        -0.004294103477150202,
                        -0.08488619327545166,
                        -0.006606818176805973,
                        -0.11077143996953964,
                        -0.1265852302312851,
                        0.1524832844734192,
                        -0.191132590174675,
                        -0.5391933917999268,
                        0.24450162053108215,
                        -0.14045944809913635,
                        0.5448878407478333,
                        -0.12472349405288696,
                        -0.17287684977054596,
                        2.4393553733825684,
                        0.1994076818227768,
                        0.2646297514438629,
                        0.460411012172699,
                        0.18162426352500916,
                        -0.07203436642885208,
                        0.40455836057662964,
                        -0.4780886769294739,
                        -0.20581503212451935,
                        1.8522586822509766,
                        0.28716304898262024,
                        -0.21491563320159912,
                        -0.06826329231262207,
                        0.2820345163345337,
                        0.35996007919311523,
                        -0.15790767967700958,
                        0.3808373212814331,
                        0.1459924578666687,
                        0.11531976610422134,
                        -0.10908673703670502,
                        -0.04943190887570381,
                        0.009348209947347641,
                        -0.10966998338699341,
                        0.3051047623157501,
                        -0.06264536082744598,
                        0.14048244059085846,
                        -0.36999499797821045,
                        0.06320065259933472,
                        0.01717149280011654,
                        0.09428458660840988,
                        -0.14848394691944122,
                        -0.2565937638282776,
                        -0.299051433801651,
                        -0.011981995776295662,
                        -0.01079992949962616,
                        0.2054755687713623,
                        0.3088242709636688
                    ],
                    [
                        0.003979386296123266,
                        -0.1953132599592209,
                        -0.2762735188007355,
                        -0.14304891228675842,
                        0.07016447186470032,
                        0.04846764728426933,
                        0.14260588586330414,
                        -0.3658614158630371,
                        -0.10324187576770782,
                        0.04082387313246727,
                        0.3820238411426544,
                        0.2707909345626831,
                        -0.004862175323069096,
                        0.08986592292785645,
                        -0.2998064458370209,
                        0.10419627279043198,
                        0.13654351234436035,
                        0.2418188750743866,
                        -0.04042883589863777,
                        -0.15460018813610077,
                        0.06001165136694908,
                        -0.18021228909492493,
                        0.06439551711082458,
                        0.05178775265812874,
                        0.0691199004650116,
                        -0.05081553757190704,
                        -0.1832723468542099,
                        -0.15972280502319336,
                        -0.3328608572483063,
                        0.0823708102107048,
                        0.059226762503385544,
                        0.08172310143709183,
                        0.2786105275154114,
                        0.3716357946395874,
                        0.1665191501379013,
                        0.08134599775075912,
                        -0.23071466386318207,
                        0.06844951212406158,
                        -0.017106812447309494,
                        -0.410442054271698,
                        -0.1668468415737152,
                        -0.21998895704746246,
                        -0.7327939867973328,
                        -0.35465601086616516,
                        0.6662589907646179,
                        -0.0506649948656559,
                        0.3698185086250305,
                        -0.21612215042114258,
                        0.12877823412418365,
                        -0.47477391362190247,
                        -0.3614027500152588,
                        -0.3513224422931671,
                        2.041195869445801,
                        0.68913733959198,
                        -1.037363886833191,
                        -0.11632703244686127,
                        0.44320055842399597,
                        0.023624174296855927,
                        -0.19295348227024078,
                        0.07865007221698761,
                        -0.07617052644491196,
                        -0.01459203939884901,
                        0.07948430627584457,
                        -0.013412106782197952,
                        0.5082092881202698,
                        -0.02661086805164814,
                        -0.33333685994148254,
                        -0.21154703199863434,
                        0.05111473798751831,
                        0.13148576021194458,
                        0.36779746413230896,
                        0.02755269780755043,
                        0.02433544211089611,
                        0.14721432328224182,
                        -0.1420178860425949,
                        -0.1492512822151184,
                        0.3516993224620819,
                        -0.24175451695919037,
                        -0.28304773569107056,
                        0.19389183819293976
                    ],
                    [
                        -0.04249762371182442,
                        -0.11378682404756546,
                        1.6172475814819336,
                        -0.7980379462242126,
                        -0.20696447789669037,
                        -0.2897122800350189,
                        0.44783592224121094,
                        -0.20758217573165894,
                        0.42871809005737305,
                        -0.01605820842087269,
                        0.2904178500175476,
                        0.3556915521621704,
                        -0.8073027729988098,
                        -0.22363819181919098,
                        1.2664042711257935,
                        -0.28657880425453186,
                        -0.16266237199306488,
                        0.5634973645210266,
                        0.29143479466438293,
                        -0.14677198231220245,
                        -0.2695900499820709,
                        -0.15817779302597046,
                        -0.7639246582984924,
                        -0.03195520490407944,
                        0.14201147854328156,
                        -0.24320906400680542,
                        -0.5866002440452576,
                        -0.08385772258043289,
                        -0.594918429851532,
                        -0.006328199524432421,
                        -0.11146422475576401,
                        -0.18682393431663513,
                        -0.5234771370887756,
                        0.07080546766519547,
                        -0.9174414277076721,
                        0.029641838744282722,
                        -0.3677046000957489,
                        -0.9296742677688599,
                        0.03139691799879074,
                        0.19092504680156708,
                        0.29074588418006897,
                        -0.041124697774648666,
                        -0.12711714208126068,
                        0.0804838091135025,
                        -0.22000283002853394,
                        -0.2796695828437805,
                        0.22058658301830292,
                        0.11321841180324554,
                        0.1763121336698532,
                        -0.013634467497467995,
                        0.13911853730678558,
                        0.14201775193214417,
                        -0.5153025388717651,
                        -0.30860549211502075,
                        -0.05376019328832626,
                        -0.03925992175936699,
                        -0.04345426335930824,
                        0.014733972027897835,
                        -0.08259419351816177,
                        0.13344548642635345,
                        -0.19701674580574036,
                        -0.06335438787937164,
                        -0.458173006772995,
                        -0.4433944523334503,
                        -0.3441964089870453,
                        -0.07669926434755325,
                        -0.3872174918651581,
                        -0.3344627022743225,
                        0.3279041647911072,
                        -0.8231471180915833,
                        0.26426732540130615,
                        0.1531626433134079,
                        -0.23298253118991852,
                        -0.2552550137042999,
                        -0.2725624144077301,
                        -0.12751461565494537,
                        -0.2480751872062683,
                        -0.09627116471529007,
                        0.27805638313293457,
                        -0.08292877674102783
                    ],
                    [
                        -0.054453108459711075,
                        -0.0695701315999031,
                        -0.37156346440315247,
                        0.16481895744800568,
                        0.025739001110196114,
                        0.1796693056821823,
                        -0.07162594050168991,
                        0.05892672389745712,
                        -0.23118440806865692,
                        -0.20907075703144073,
                        -0.12899334728717804,
                        0.03236741945147514,
                        0.25579872727394104,
                        0.012661218643188477,
                        -0.4829505383968353,
                        -0.34255215525627136,
                        0.06176168471574783,
                        -0.5007256865501404,
                        0.20761023461818695,
                        -0.45633751153945923,
                        0.01966816559433937,
                        0.5328280925750732,
                        0.8003779053688049,
                        0.24052976071834564,
                        -0.14376746118068695,
                        0.31743526458740234,
                        0.14943943917751312,
                        0.12363243103027344,
                        0.6239138841629028,
                        0.23935632407665253,
                        0.07713228464126587,
                        -0.03468624874949455,
                        -0.04392491653561592,
                        0.07482916861772537,
                        0.47066590189933777,
                        -0.19522984325885773,
                        -0.060127414762973785,
                        0.6044843792915344,
                        0.23493510484695435,
                        -0.7586035132408142,
                        0.10522183775901794,
                        -0.14243431389331818,
                        0.03855867311358452,
                        -0.031286247074604034,
                        -0.19410105049610138,
                        0.08427777886390686,
                        -0.2530609369277954,
                        -0.13173559308052063,
                        -0.002511954866349697,
                        0.01696871779859066,
                        -0.23632128536701202,
                        0.15047982335090637,
                        0.08771932870149612,
                        -0.4932672679424286,
                        0.13602633774280548,
                        0.19112063944339752,
                        -0.1866120845079422,
                        -0.1967003047466278,
                        -0.0858122929930687,
                        -0.43146955966949463,
                        0.2539142668247223,
                        0.19866889715194702,
                        0.14292261004447937,
                        0.16835394501686096,
                        -0.11146748811006546,
                        0.1319599747657776,
                        0.06416893750429153,
                        0.07779959589242935,
                        -0.20462940633296967,
                        0.36992356181144714,
                        0.05493757128715515,
                        0.0016420191386714578,
                        1.0902451276779175,
                        0.07303150743246078,
                        0.1364825814962387,
                        -0.24976833164691925,
                        -0.1498638540506363,
                        0.2584829330444336,
                        -0.014787275344133377,
                        0.16154354810714722
                    ],
                    [
                        0.6642619967460632,
                        -0.22087231278419495,
                        0.910344660282135,
                        -0.49913960695266724,
                        -0.3886961340904236,
                        -0.29856690764427185,
                        0.11799713969230652,
                        -0.0013346064370125532,
                        0.42485594749450684,
                        -0.217158243060112,
                        -0.05613221600651741,
                        0.15390335023403168,
                        -0.6330586075782776,
                        -0.28888317942619324,
                        1.1844615936279297,
                        -0.05197734013199806,
                        -0.30705970525741577,
                        0.9206571578979492,
                        0.33236441016197205,
                        -0.2607000470161438,
                        -0.838770866394043,
                        0.30177727341651917,
                        -1.0998772382736206,
                        -0.2059137523174286,
                        -0.14238028228282928,
                        -0.06427273899316788,
                        -0.2946268320083618,
                        -0.05266498774290085,
                        -0.6403742432594299,
                        0.261322557926178,
                        -0.39322417974472046,
                        -0.237443745136261,
                        0.44246113300323486,
                        0.08823305368423462,
                        -1.1523019075393677,
                        -0.08797308802604675,
                        -0.33057671785354614,
                        -1.06703519821167,
                        0.055938318371772766,
                        -0.39925017952919006,
                        -0.22439083456993103,
                        0.13780416548252106,
                        -0.11308325827121735,
                        -0.4502839148044586,
                        0.034849245101213455,
                        -0.10234184563159943,
                        0.0059296563267707825,
                        0.13510192930698395,
                        0.3267897963523865,
                        0.004485339857637882,
                        -0.14918555319309235,
                        0.24087734520435333,
                        -0.053457193076610565,
                        -0.1901170313358307,
                        -0.21724767982959747,
                        0.14903001487255096,
                        -0.08947495371103287,
                        -0.04680566489696503,
                        0.21895816922187805,
                        -0.18633805215358734,
                        -0.23661485314369202,
                        -0.3398401141166687,
                        -0.5954208970069885,
                        -0.5762786269187927,
                        -0.4191005825996399,
                        -0.13084745407104492,
                        -0.3998730778694153,
                        -0.18168072402477264,
                        -0.0027231741696596146,
                        0.058583252131938934,
                        -0.13883483409881592,
                        -0.0769776925444603,
                        -0.5494600534439087,
                        -0.32991546392440796,
                        -0.4051091969013214,
                        -0.07561032474040985,
                        -0.3187709450721741,
                        -0.1716165989637375,
                        0.21371015906333923,
                        -0.15457011759281158
                    ],
                    [
                        -0.36958518624305725,
                        -0.10731534659862518,
                        0.3030751943588257,
                        -0.02168019860982895,
                        0.040493566542863846,
                        0.05888468399643898,
                        0.051323968917131424,
                        0.10616544634103775,
                        -0.4260098934173584,
                        -0.47735029458999634,
                        -0.0031737093813717365,
                        -0.029479794204235077,
                        -0.10209452360868454,
                        0.03019927255809307,
                        0.2697979807853699,
                        0.002435256727039814,
                        -0.18565714359283447,
                        -0.12629249691963196,
                        0.18993321061134338,
                        0.07974895089864731,
                        0.27548015117645264,
                        0.03649575263261795,
                        0.2852928936481476,
                        0.23536908626556396,
                        -0.00495502632111311,
                        0.13460151851177216,
                        -0.021949997171759605,
                        0.3854815661907196,
                        0.32110315561294556,
                        0.0870928093791008,
                        0.07863235473632812,
                        -0.03534387797117233,
                        -0.5509932041168213,
                        -0.02155371755361557,
                        0.34881630539894104,
                        0.2940196990966797,
                        -0.19205212593078613,
                        -0.26862984895706177,
                        0.1548682004213333,
                        0.0616452693939209,
                        -0.1416684240102768,
                        -0.13517148792743683,
                        -0.036159221082925797,
                        -0.08025602996349335,
                        0.4971025586128235,
                        -0.022243179380893707,
                        0.3546372652053833,
                        -0.07065132260322571,
                        -0.37260210514068604,
                        0.29177361726760864,
                        0.03805416449904442,
                        -0.01370626874268055,
                        -0.04761732369661331,
                        0.17182955145835876,
                        -0.04461032152175903,
                        0.013513716869056225,
                        0.1654190570116043,
                        0.34078261256217957,
                        -0.03135582432150841,
                        -0.013001754879951477,
                        0.11632928252220154,
                        0.08034270256757736,
                        -0.061569832265377045,
                        0.034830618649721146,
                        -0.22058697044849396,
                        0.2776072025299072,
                        0.24353209137916565,
                        0.23624524474143982,
                        -0.3447719216346741,
                        0.12773127853870392,
                        0.20698972046375275,
                        -0.007308491040021181,
                        0.059010278433561325,
                        0.061362992972135544,
                        0.08075222373008728,
                        0.11880520731210709,
                        -0.5800101161003113,
                        -0.2203299105167389,
                        -0.049655742943286896,
                        0.12687790393829346
                    ],
                    [
                        0.18843959271907806,
                        -0.5212351679801941,
                        0.5500243306159973,
                        -0.2696854770183563,
                        -0.35610365867614746,
                        -0.0920218974351883,
                        -0.44517549872398376,
                        0.032876621931791306,
                        -0.04755827412009239,
                        -0.5976318717002869,
                        -0.4574850797653198,
                        -0.05238503962755203,
                        -0.31534627079963684,
                        -0.10574682056903839,
                        0.4316207468509674,
                        -0.01785120740532875,
                        -0.24971255660057068,
                        0.9387732148170471,
                        0.2763274610042572,
                        0.2575775980949402,
                        -0.2505626678466797,
                        -0.04255078360438347,
                        -0.6516997218132019,
                        -0.3391180634498596,
                        -0.5897704362869263,
                        0.01966937631368637,
                        -0.3610798120498657,
                        -0.039449673146009445,
                        -0.3395644426345825,
                        -0.3219355046749115,
                        -0.2586647868156433,
                        -0.11229144036769867,
                        -0.1782771795988083,
                        -0.007782595697790384,
                        -0.3755808472633362,
                        0.15665780007839203,
                        -0.4791293144226074,
                        -0.8138322234153748,
                        0.1899888515472412,
                        0.2528993785381317,
                        0.07076697796583176,
                        0.2817815840244293,
                        0.11628375947475433,
                        -0.16761592030525208,
                        0.045002300292253494,
                        0.08984212577342987,
                        0.1892991065979004,
                        0.5831313729286194,
                        0.22954623401165009,
                        -0.0906626507639885,
                        -0.5016036629676819,
                        -0.23504334688186646,
                        0.1146109476685524,
                        0.28759703040122986,
                        -0.048629723489284515,
                        -0.23234114050865173,
                        0.33551228046417236,
                        -0.20369483530521393,
                        0.06680448353290558,
                        -0.09527351707220078,
                        0.06664719432592392,
                        -0.15054039657115936,
                        -0.3274683952331543,
                        -0.2953566014766693,
                        -0.30378884077072144,
                        0.015532626770436764,
                        -0.24839983880519867,
                        -0.023355048149824142,
                        -0.6387274861335754,
                        0.2344648391008377,
                        -0.2931070923805237,
                        -0.03733852878212929,
                        -0.19454047083854675,
                        -0.15896542370319366,
                        -0.012768139131367207,
                        -0.07456221431493759,
                        -0.5358476042747498,
                        -0.4692525863647461,
                        -0.011670623905956745,
                        0.1336558610200882
                    ],
                    [
                        -0.08655530959367752,
                        0.45022451877593994,
                        0.1399833858013153,
                        -0.31330162286758423,
                        0.10645264387130737,
                        -0.06979688256978989,
                        -0.021937105804681778,
                        -0.029690928757190704,
                        0.5625321269035339,
                        -0.6129698753356934,
                        -0.2400161772966385,
                        -0.06160977482795715,
                        -0.36855989694595337,
                        -0.0418674536049366,
                        0.03645630553364754,
                        -0.05636674165725708,
                        -0.0060726008377969265,
                        0.7496377229690552,
                        -0.05797065049409866,
                        -0.1090623140335083,
                        0.011813481338322163,
                        0.9731504321098328,
                        0.03040289506316185,
                        -0.11405309289693832,
                        0.01799478754401207,
                        0.484653115272522,
                        -0.18000143766403198,
                        -0.10840538144111633,
                        0.4064227342605591,
                        0.2154783308506012,
                        -0.12383206933736801,
                        0.046991582959890366,
                        0.09690029919147491,
                        -0.031422052532434464,
                        0.20437563955783844,
                        -0.3151804506778717,
                        0.22033849358558655,
                        0.001842930563725531,
                        -0.2713867425918579,
                        -0.7337460517883301,
                        -0.019043752923607826,
                        -1.025273323059082,
                        -0.05311034247279167,
                        0.05616721510887146,
                        -0.12263493239879608,
                        0.8291175365447998,
                        -0.07444123923778534,
                        0.19018419086933136,
                        0.22642935812473297,
                        0.303494393825531,
                        0.0018511703237891197,
                        -0.088425412774086,
                        -0.14097115397453308,
                        -0.07351060956716537,
                        -0.11229297518730164,
                        0.38218188285827637,
                        -0.0939464196562767,
                        0.009263237938284874,
                        -0.01874312199652195,
                        -0.2655794024467468,
                        -0.18640266358852386,
                        -0.13085395097732544,
                        0.0702889934182167,
                        -0.16296541690826416,
                        0.06792701780796051,
                        -0.3391198515892029,
                        -0.10927960276603699,
                        -0.06510816514492035,
                        0.19533060491085052,
                        -0.3029845356941223,
                        -0.5526426434516907,
                        -0.042987801134586334,
                        0.32161009311676025,
                        -0.038275472819805145,
                        0.12783361971378326,
                        -0.06717580556869507,
                        0.16861313581466675,
                        -0.12608502805233002,
                        -0.16413970291614532,
                        0.1578737497329712
                    ],
                    [
                        -0.1304420381784439,
                        0.0007519493228755891,
                        0.7186087965965271,
                        0.062163181602954865,
                        0.09699365496635437,
                        0.019157979637384415,
                        0.23762422800064087,
                        0.0655868873000145,
                        -0.07099244743585587,
                        0.16187410056591034,
                        0.14272217452526093,
                        -0.1269562542438507,
                        0.06376511603593826,
                        -0.03413724899291992,
                        0.15194636583328247,
                        0.21072259545326233,
                        -0.10370603948831558,
                        -0.22716732323169708,
                        0.04048560559749603,
                        -0.128016397356987,
                        0.15319061279296875,
                        -0.40352970361709595,
                        -0.20179426670074463,
                        -0.3365938663482666,
                        0.09688212722539902,
                        0.14573879539966583,
                        0.3095254898071289,
                        0.19335640966892242,
                        -0.32982581853866577,
                        0.2911934554576874,
                        -0.08592882752418518,
                        0.008187578991055489,
                        0.03484496846795082,
                        -0.15654003620147705,
                        -0.05313469469547272,
                        0.09914632141590118,
                        0.09229325503110886,
                        -0.14556777477264404,
                        0.05227062851190567,
                        0.34244927763938904,
                        0.09983254224061966,
                        0.1152230054140091,
                        0.24380314350128174,
                        0.17410030961036682,
                        -0.0871787741780281,
                        -0.4435763657093048,
                        0.006592722609639168,
                        -0.13076603412628174,
                        -0.5034704804420471,
                        -0.4405239224433899,
                        -0.16401278972625732,
                        0.28267520666122437,
                        -0.23274871706962585,
                        -0.4729628562927246,
                        0.40822386741638184,
                        -0.055846408009529114,
                        0.8144994974136353,
                        -0.2874850928783417,
                        -0.05998235568404198,
                        -0.040356628596782684,
                        0.013063192367553711,
                        0.058698538690805435,
                        0.12956497073173523,
                        -0.029949244111776352,
                        -0.17553724348545074,
                        0.08138720691204071,
                        -0.07223470509052277,
                        0.16566720604896545,
                        -0.16032670438289642,
                        0.044147998094558716,
                        0.14231328666210175,
                        -0.10894100368022919,
                        -0.3933482766151428,
                        -0.0831468477845192,
                        -0.02296818234026432,
                        -0.13357795774936676,
                        -0.0005221098545007408,
                        -0.15556548535823822,
                        -0.05124172568321228,
                        -0.013617529533803463
                    ],
                    [
                        -0.25023481249809265,
                        0.055170170962810516,
                        -0.06005373224616051,
                        0.11932153254747391,
                        0.034251224249601364,
                        0.02738393470644951,
                        0.05521722882986069,
                        0.04297349974513054,
                        0.21564528346061707,
                        0.16703176498413086,
                        0.13618706166744232,
                        -0.0256743673235178,
                        0.02172352746129036,
                        0.00447379844263196,
                        -0.1625077724456787,
                        0.03944109380245209,
                        0.0645260438323021,
                        -0.2891702353954315,
                        -0.10958164930343628,
                        0.01678856648504734,
                        -0.036016106605529785,
                        -0.2842448055744171,
                        -0.02501380257308483,
                        0.014434099197387695,
                        0.031181612983345985,
                        -0.06894036382436752,
                        0.07563931494951248,
                        0.059657368808984756,
                        0.002072782488539815,
                        -0.21305187046527863,
                        -0.01545962505042553,
                        -0.030194740742444992,
                        -0.008931893855333328,
                        -0.012966434471309185,
                        -0.08255153894424438,
                        0.06813626736402512,
                        -0.05513137951493263,
                        0.10596192628145218,
                        -0.1128748282790184,
                        0.3277614712715149,
                        0.22807824611663818,
                        0.21287058293819427,
                        0.3595835268497467,
                        -0.001719086547382176,
                        -0.271650493144989,
                        -0.3559717833995819,
                        -0.027093900367617607,
                        0.08064041286706924,
                        0.021997520700097084,
                        -0.04070156812667847,
                        0.02176414616405964,
                        -0.09299333393573761,
                        0.10299196094274521,
                        0.15991297364234924,
                        -0.11715572327375412,
                        0.13211221992969513,
                        0.4175291061401367,
                        -0.2408999502658844,
                        0.009430100210011005,
                        0.4638988971710205,
                        0.021995332092046738,
                        -0.015635039657354355,
                        0.05474882200360298,
                        0.058661118149757385,
                        0.02215864695608616,
                        -0.10391175746917725,
                        0.1222151517868042,
                        0.06494935601949692,
                        -0.07452990859746933,
                        0.13267071545124054,
                        0.10344251990318298,
                        -0.015737352892756462,
                        0.018427830189466476,
                        -0.019597850739955902,
                        -0.09629301726818085,
                        0.0033229365944862366,
                        0.06024366617202759,
                        0.029890531674027443,
                        0.1134045347571373,
                        0.31176668405532837
                    ],
                    [
                        -0.01831935904920101,
                        0.3508085608482361,
                        -0.12571515142917633,
                        -0.20607492327690125,
                        0.11662217229604721,
                        -0.13723346590995789,
                        -0.0767507553100586,
                        -0.5341951251029968,
                        0.18119579553604126,
                        0.9653124213218689,
                        -0.4586230516433716,
                        0.11579187959432602,
                        -0.36943089962005615,
                        0.11718091368675232,
                        -0.03745438903570175,
                        -0.060172006487846375,
                        -0.006279339082539082,
                        -0.1570262759923935,
                        0.051799170672893524,
                        0.009731347672641277,
                        0.14361266791820526,
                        -0.4566323757171631,
                        0.5508822202682495,
                        -0.3627539277076721,
                        -0.3395991325378418,
                        -0.06236012652516365,
                        -0.1679701805114746,
                        -0.36795657873153687,
                        0.36813148856163025,
                        -0.3285592496395111,
                        -0.026922523975372314,
                        0.043005023151636124,
                        0.36433669924736023,
                        0.028511347249150276,
                        0.15390586853027344,
                        0.020070716738700867,
                        0.5000635981559753,
                        0.38787633180618286,
                        0.05281442776322365,
                        0.0880056694149971,
                        -0.03787365183234215,
                        -0.05011321231722832,
                        -0.5288425087928772,
                        -0.2510313391685486,
                        1.1892844438552856,
                        -0.008700980804860592,
                        -0.0029981236439198256,
                        -0.7159587740898132,
                        -0.8358393311500549,
                        1.4930408000946045,
                        -0.4606499969959259,
                        -0.13395966589450836,
                        0.9148318767547607,
                        0.023714561015367508,
                        -0.4902038872241974,
                        -0.2431330382823944,
                        -0.36197352409362793,
                        0.11813227832317352,
                        -0.06553789973258972,
                        0.08924616873264313,
                        0.08591616153717041,
                        0.37338852882385254,
                        0.10647328943014145,
                        0.0154263349249959,
                        0.3742919862270355,
                        -0.3623668849468231,
                        0.5404300093650818,
                        -0.4639756977558136,
                        0.7406153678894043,
                        -0.6855466365814209,
                        -0.40125441551208496,
                        -0.17251966893672943,
                        0.30977174639701843,
                        0.13140229880809784,
                        -0.0892924815416336,
                        0.14112737774848938,
                        0.8965278267860413,
                        0.41951462626457214,
                        0.032758988440036774,
                        0.1547207236289978
                    ],
                    [
                        -0.3555217385292053,
                        0.2165151834487915,
                        -0.6286452412605286,
                        0.17527702450752258,
                        0.1438407301902771,
                        0.18224604427814484,
                        0.02497377060353756,
                        0.02104608528316021,
                        -0.5587134957313538,
                        -0.16589942574501038,
                        -0.2215002477169037,
                        -0.08915666490793228,
                        0.28596290946006775,
                        0.16575351357460022,
                        -0.7137523293495178,
                        -0.0879790186882019,
                        0.10645825415849686,
                        -0.36072227358818054,
                        -0.16030342876911163,
                        0.32709401845932007,
                        0.40067434310913086,
                        0.46625539660453796,
                        0.5845084190368652,
                        0.38901758193969727,
                        -0.15570442378520966,
                        0.056873075664043427,
                        0.1375511735677719,
                        0.05622287839651108,
                        0.4489670693874359,
                        0.38927942514419556,
                        -0.013101201504468918,
                        0.17258942127227783,
                        0.31843602657318115,
                        0.03889145329594612,
                        0.8392156958580017,
                        0.0917392298579216,
                        0.36399173736572266,
                        0.839307427406311,
                        -0.04144108295440674,
                        -0.6710149645805359,
                        0.07392144203186035,
                        -0.25893986225128174,
                        -0.0762571319937706,
                        -0.042699020355939865,
                        -0.019924649968743324,
                        0.5438399314880371,
                        0.08737504482269287,
                        -0.1749429702758789,
                        -0.26127439737319946,
                        0.5945222973823547,
                        -0.10468201339244843,
                        0.2575739324092865,
                        0.03576935455203056,
                        -0.03614552319049835,
                        -0.026506373658776283,
                        0.18894784152507782,
                        -0.2796468138694763,
                        -0.07373519241809845,
                        -0.13678191602230072,
                        -0.27782759070396423,
                        0.1726427972316742,
                        0.08648709952831268,
                        -0.12349602580070496,
                        0.2345285564661026,
                        0.27398374676704407,
                        0.037673722952604294,
                        0.24370524287223816,
                        0.04540873318910599,
                        -0.19235393404960632,
                        0.3251485526561737,
                        -0.30395737290382385,
                        0.020462416112422943,
                        0.43749645352363586,
                        0.3169233202934265,
                        0.009535306133329868,
                        0.08576066792011261,
                        0.3470166027545929,
                        -0.08859595656394958,
                        -0.11710652709007263,
                        0.0406491681933403
                    ],
                    [
                        -0.08098942786455154,
                        0.016840366646647453,
                        0.05169273167848587,
                        -0.0716332495212555,
                        0.09628152847290039,
                        -0.04176903888583183,
                        0.18844835460186005,
                        -0.02156461961567402,
                        0.0869600921869278,
                        0.31411442160606384,
                        -0.06390506774187088,
                        -0.08875495940446854,
                        -0.16393913328647614,
                        0.030904611572623253,
                        -0.02619287371635437,
                        -0.018308918923139572,
                        0.006664194166660309,
                        0.45980146527290344,
                        0.09330830723047256,
                        -0.039470821619033813,
                        -0.22876478731632233,
                        -0.20523139834403992,
                        -0.11261004209518433,
                        -0.3251008093357086,
                        0.27833396196365356,
                        -0.14226695895195007,
                        0.07029033452272415,
                        0.14880448579788208,
                        0.06009941175580025,
                        -0.3788623511791229,
                        0.17434236407279968,
                        -0.14319603145122528,
                        -0.36993569135665894,
                        0.08797772228717804,
                        -0.12169574201107025,
                        -0.08842217922210693,
                        -0.0677981898188591,
                        -0.22578522562980652,
                        0.03998972102999687,
                        0.1695755571126938,
                        -0.8546774983406067,
                        0.014246640726923943,
                        -0.3661339581012726,
                        1.0580720901489258,
                        0.26732513308525085,
                        -0.1151825338602066,
                        0.04913739114999771,
                        -0.04780687391757965,
                        -0.09724666178226471,
                        -0.13041041791439056,
                        -0.22068049013614655,
                        -0.033562421798706055,
                        1.1667845249176025,
                        0.3509672284126282,
                        -0.10224730521440506,
                        0.3923057019710541,
                        0.12373512983322144,
                        -0.0064459010027348995,
                        -0.4954204857349396,
                        0.3299999237060547,
                        -0.06878867745399475,
                        -0.16651932895183563,
                        -0.16740787029266357,
                        -0.07967115938663483,
                        0.10546652227640152,
                        -0.13941828906536102,
                        0.07706845551729202,
                        -0.022883949801325798,
                        -0.055593784898519516,
                        0.19048559665679932,
                        -0.058038026094436646,
                        -0.07272523641586304,
                        -0.091670922935009,
                        -0.0062401872128248215,
                        -0.37037622928619385,
                        -0.01717442274093628,
                        0.19301964342594147,
                        -0.25514715909957886,
                        0.05177462100982666,
                        0.08508557081222534
                    ],
                    [
                        0.20972861349582672,
                        0.24341613054275513,
                        0.37538933753967285,
                        -0.12397307902574539,
                        -0.1110185831785202,
                        -0.06606584042310715,
                        0.030063219368457794,
                        0.04742666333913803,
                        0.21115520596504211,
                        -0.11091539263725281,
                        0.06871619075536728,
                        0.18734478950500488,
                        -0.21331563591957092,
                        -0.1393996775150299,
                        0.4620596766471863,
                        0.0014169247588142753,
                        0.0872778370976448,
                        0.7746132016181946,
                        -0.07103906571865082,
                        -0.28736138343811035,
                        -0.31803375482559204,
                        -0.316969633102417,
                        -0.5102574229240417,
                        0.17019161581993103,
                        0.2496325969696045,
                        -0.16063271462917328,
                        -0.21727068722248077,
                        -0.01807078719139099,
                        -0.3489765524864197,
                        0.0007201395928859711,
                        -0.18740223348140717,
                        0.16887931525707245,
                        0.1618584394454956,
                        -0.06591777503490448,
                        -0.250604510307312,
                        0.08518393337726593,
                        0.11473062634468079,
                        -0.7631792426109314,
                        -0.2064010500907898,
                        -0.1776176393032074,
                        0.1883370280265808,
                        0.09719172865152359,
                        0.11827389150857925,
                        0.00584622984752059,
                        0.2222674936056137,
                        -0.2712149918079376,
                        0.05414145812392235,
                        -0.13359837234020233,
                        -0.0918068140745163,
                        -0.2442355901002884,
                        0.10761693120002747,
                        -0.4693545997142792,
                        -0.015416248701512814,
                        0.1882237046957016,
                        -0.2820172607898712,
                        0.0011037146905437112,
                        -0.19241207838058472,
                        0.022872861474752426,
                        0.05784599483013153,
                        0.35293862223625183,
                        -0.027986768633127213,
                        -0.2139762043952942,
                        0.034092098474502563,
                        -0.24004341661930084,
                        0.039999522268772125,
                        -0.19678650796413422,
                        -0.05243223160505295,
                        -0.012657973915338516,
                        0.08163005113601685,
                        0.48240646719932556,
                        0.02555755153298378,
                        0.06521742790937424,
                        -0.20274300873279572,
                        -0.14957787096500397,
                        -0.002825122093781829,
                        -0.24335019290447235,
                        0.18828637897968292,
                        -0.13611313700675964,
                        0.07031506299972534,
                        0.45946478843688965
                    ],
                    [
                        -0.10252590477466583,
                        -0.1520739197731018,
                        -0.58186274766922,
                        0.25719356536865234,
                        0.09695756435394287,
                        0.12545245885849,
                        0.06072944402694702,
                        -0.07808233797550201,
                        0.5454630255699158,
                        0.09608875215053558,
                        0.24652604758739471,
                        0.10756183415651321,
                        0.08716756105422974,
                        0.005920794326812029,
                        -0.16071268916130066,
                        -0.20400585234165192,
                        -0.034981418401002884,
                        -0.9687450528144836,
                        0.12449007481336594,
                        -0.006858759559690952,
                        -0.13937152922153473,
                        -0.7195373177528381,
                        0.3051947355270386,
                        -0.26107683777809143,
                        -0.358567476272583,
                        -0.007205639034509659,
                        0.11293810606002808,
                        0.0622609481215477,
                        -0.14252009987831116,
                        -0.6700870394706726,
                        -0.0212793480604887,
                        -0.08966896682977676,
                        0.3265807330608368,
                        -0.02757427841424942,
                        -0.0841086134314537,
                        -0.03225836157798767,
                        -0.40224573016166687,
                        0.39158639311790466,
                        0.359722375869751,
                        0.7926863431930542,
                        0.19530275464057922,
                        0.8114843964576721,
                        0.0821395292878151,
                        -0.099877268075943,
                        0.24661147594451904,
                        -0.468916118144989,
                        0.0712641105055809,
                        0.044712964445352554,
                        0.25110843777656555,
                        -1.1761724948883057,
                        -0.23317408561706543,
                        0.41489502787590027,
                        0.35463759303092957,
                        -0.37987029552459717,
                        0.07648308575153351,
                        -0.28319576382637024,
                        -0.4444865584373474,
                        -0.6166444420814514,
                        -0.06566368788480759,
                        0.895784854888916,
                        0.05406637489795685,
                        -0.0072739822790026665,
                        0.2462683767080307,
                        0.26240986585617065,
                        -0.06232740357518196,
                        0.35617443919181824,
                        0.22524213790893555,
                        0.09687932580709457,
                        -0.11735082417726517,
                        0.19486357271671295,
                        0.33451250195503235,
                        -0.07073304802179337,
                        -0.24276047945022583,
                        -0.045804597437381744,
                        0.12314927577972412,
                        -0.2888341546058655,
                        -0.09591841697692871,
                        0.3402840495109558,
                        -0.19870984554290771,
                        0.7175997495651245
                    ],
                    [
                        -0.44977426528930664,
                        0.32948383688926697,
                        0.1822161227464676,
                        0.22671982645988464,
                        0.143267422914505,
                        0.15612636506557465,
                        0.03832225874066353,
                        -0.049499813467264175,
                        -0.33010977506637573,
                        0.38770076632499695,
                        -0.035025209188461304,
                        -0.11610853672027588,
                        0.01668996550142765,
                        0.15912020206451416,
                        0.11963984370231628,
                        0.009192073717713356,
                        0.16649988293647766,
                        -0.5783721804618835,
                        -0.29775968194007874,
                        0.12326215952634811,
                        0.7448698282241821,
                        -0.48701179027557373,
                        0.9578819274902344,
                        -0.217000350356102,
                        -0.3663761615753174,
                        -0.21710485219955444,
                        0.03280505910515785,
                        -0.10893828421831131,
                        0.21033862233161926,
                        -0.25611793994903564,
                        0.36822307109832764,
                        0.06546209007501602,
                        -0.5473143458366394,
                        -0.17838263511657715,
                        0.4939010441303253,
                        0.1124032512307167,
                        0.017994841560721397,
                        0.8893182277679443,
                        -0.20609860122203827,
                        0.722953736782074,
                        0.30569174885749817,
                        0.2200290709733963,
                        -0.6606647372245789,
                        0.07627012580633163,
                        0.5360962152481079,
                        -0.4026266932487488,
                        0.0529593825340271,
                        0.35714191198349,
                        0.30095207691192627,
                        -0.5112608671188354,
                        0.45509961247444153,
                        0.28491535782814026,
                        -0.18350958824157715,
                        -0.801584005355835,
                        -0.4851400852203369,
                        -0.11777593940496445,
                        1.2898269891738892,
                        0.44693252444267273,
                        -0.011283240281045437,
                        0.7222233414649963,
                        0.11538276076316833,
                        0.5191302299499512,
                        0.5806728005409241,
                        0.43056008219718933,
                        0.17840594053268433,
                        0.08125820010900497,
                        0.3220768868923187,
                        0.06585851311683655,
                        0.5827267169952393,
                        -0.2874913513660431,
                        -0.053908634930849075,
                        0.058409783989191055,
                        -0.05730840563774109,
                        0.19557581841945648,
                        0.46719110012054443,
                        0.14858339726924896,
                        0.29430288076400757,
                        1.496090054512024,
                        -0.11963848024606705,
                        0.3811897039413452
                    ],
                    [
                        0.19169872999191284,
                        -0.09499182552099228,
                        0.12465447187423706,
                        -0.04284924268722534,
                        -0.05609579011797905,
                        -0.06324882805347443,
                        -0.05574844777584076,
                        -0.03407326713204384,
                        0.4863767623901367,
                        -0.07434996217489243,
                        -0.06045547127723694,
                        -0.02747264876961708,
                        0.030648248270154,
                        -0.05983828008174896,
                        0.3071441650390625,
                        0.011243072338402271,
                        -0.06158160790801048,
                        0.3709355890750885,
                        0.020181726664304733,
                        -0.09273330867290497,
                        -0.15610256791114807,
                        -0.04310400038957596,
                        -0.3342965841293335,
                        0.01684630662202835,
                        -0.01159395556896925,
                        -0.029015537351369858,
                        -0.04441200941801071,
                        -0.06652712821960449,
                        -0.09291787445545197,
                        -0.03506534919142723,
                        -0.03893445432186127,
                        -0.055687688291072845,
                        0.18443943560123444,
                        -0.1025131419301033,
                        -0.28868773579597473,
                        -0.06105845794081688,
                        -0.07017843425273895,
                        -0.42076483368873596,
                        -0.023880071938037872,
                        -0.010811121203005314,
                        0.036333657801151276,
                        0.08704492449760437,
                        -0.018330058082938194,
                        -0.2733808755874634,
                        0.3553406000137329,
                        -0.03049560822546482,
                        0.009738458320498466,
                        -0.1528928279876709,
                        0.05466604605317116,
                        -0.11444896459579468,
                        0.23350070416927338,
                        0.1616312712430954,
                        0.0864599198102951,
                        -0.2533787488937378,
                        0.12331508100032806,
                        0.1634615808725357,
                        0.1424209028482437,
                        -0.2630055546760559,
                        -0.03420460596680641,
                        -0.15724757313728333,
                        -0.07760322093963623,
                        -0.11257100850343704,
                        -0.10499356687068939,
                        -0.09493417292833328,
                        -0.08444733172655106,
                        -0.0358785018324852,
                        -0.15247707068920135,
                        -0.0556219257414341,
                        0.097269207239151,
                        0.019709378480911255,
                        0.059979092329740524,
                        -0.05586106702685356,
                        -0.022746717557311058,
                        -0.08699504286050797,
                        -0.08074299246072769,
                        0.01533532701432705,
                        -0.04458664730191231,
                        0.25616055727005005,
                        -0.13459531962871552,
                        -0.24439427256584167
                    ],
                    [
                        0.05851328372955322,
                        -0.08698904514312744,
                        -0.21771764755249023,
                        0.23982597887516022,
                        0.16732951998710632,
                        0.09643939882516861,
                        -0.1580577790737152,
                        0.14940309524536133,
                        -0.07924327254295349,
                        0.14995114505290985,
                        -0.030602071434259415,
                        -0.1758100390434265,
                        0.4169198274612427,
                        0.1555446982383728,
                        -0.06697297096252441,
                        0.341619610786438,
                        0.07394319027662277,
                        -0.9447479844093323,
                        -0.46461719274520874,
                        1.1697450876235962,
                        0.2348615825176239,
                        -0.5352201461791992,
                        0.7045384645462036,
                        -0.024567728862166405,
                        0.05019897222518921,
                        -0.1828051507472992,
                        0.1661936193704605,
                        0.09629522264003754,
                        0.38359880447387695,
                        -0.3008109927177429,
                        0.40414202213287354,
                        -0.16611456871032715,
                        0.11281523108482361,
                        0.07639845460653305,
                        0.6430280208587646,
                        0.6301628351211548,
                        -0.48533475399017334,
                        0.8877173066139221,
                        -0.12645795941352844,
                        0.8457521796226501,
                        -0.3867047131061554,
                        0.21868999302387238,
                        0.2999931275844574,
                        0.035889945924282074,
                        0.10554877668619156,
                        -0.082539401948452,
                        0.14192643761634827,
                        -0.023002929985523224,
                        -0.12259932607412338,
                        -0.3552273213863373,
                        0.08090090751647949,
                        -0.5964791178703308,
                        -0.030678894370794296,
                        -0.1118687093257904,
                        -0.34150630235671997,
                        -0.7087420225143433,
                        -0.40185636281967163,
                        -0.05613618344068527,
                        0.19157099723815918,
                        -0.19456399977207184,
                        0.270839124917984,
                        0.24824601411819458,
                        0.1478213667869568,
                        0.2905729413032532,
                        0.17290137708187103,
                        -0.025966638699173927,
                        0.2280634194612503,
                        0.16396193206310272,
                        -0.2823045551776886,
                        0.04894045367836952,
                        0.35228219628334045,
                        0.10345391184091568,
                        0.2455873340368271,
                        0.1510515809059143,
                        0.12760314345359802,
                        0.098252072930336,
                        -0.03631964698433876,
                        0.1934083253145218,
                        -0.1556856483221054,
                        0.024081235751509666
                    ]
                ],
                [
                    -2.7232069969177246,
                    0.12311860918998718,
                    -2.3942997455596924,
                    0.7329578995704651,
                    1.0138341188430786,
                    0.7688899636268616,
                    -0.21848627924919128,
                    -0.017941078171133995,
                    -1.2188854217529297,
                    0.39999496936798096,
                    -0.035241030156612396,
                    -0.5694623589515686,
                    0.5504827499389648,
                    0.8347612619400024,
                    -2.230586528778076,
                    -0.174719899892807,
                    0.6359519958496094,
                    -1.6263234615325928,
                    -0.16889089345932007,
                    0.7011440992355347,
                    2.7306416034698486,
                    0.5626217126846313,
                    2.653400182723999,
                    0.36616042256355286,
                    0.7113040685653687,
                    0.7311220169067383,
                    1.1566195487976074,
                    0.22846277058124542,
                    1.2371467351913452,
                    0.5211299657821655,
                    0.7024953365325928,
                    0.9198073148727417,
                    0.24365705251693726,
                    0.219619482755661,
                    3.0662059783935547,
                    0.2881106436252594,
                    0.42682158946990967,
                    2.7798876762390137,
                    0.6133520603179932,
                    -0.02011817693710327,
                    -0.16724663972854614,
                    -0.3416816294193268,
                    0.21631813049316406,
                    -0.03125835210084915,
                    -1.260455846786499,
                    0.41848224401474,
                    -0.4875152111053467,
                    0.08706939220428467,
                    -0.19283699989318848,
                    0.36529457569122314,
                    -0.4446756839752197,
                    -0.10216807574033737,
                    -0.09878246486186981,
                    1.0015788078308105,
                    -0.09993675351142883,
                    -0.27930527925491333,
                    -0.2681483328342438,
                    -0.06804037094116211,
                    -0.8945646286010742,
                    0.494635671377182,
                    0.5658527612686157,
                    0.5775452852249146,
                    1.2403461933135986,
                    1.1161229610443115,
                    1.2157634496688843,
                    0.14279314875602722,
                    1.149775743484497,
                    0.4262540936470032,
                    0.09525468945503235,
                    0.0985940620303154,
                    0.1387799233198166,
                    0.1811297982931137,
                    0.5983860492706299,
                    1.0007190704345703,
                    1.0455291271209717,
                    0.3736867308616638,
                    0.291787713766098,
                    -0.2505528926849365,
                    0.15382489562034607,
                    0.25215065479278564
                ]
            ]
        },
        {
            "type": "dense",
            "activation": "",
            "shape": [
                null,
                null,
                1
            ],
            "weights": [
                [
                    [
                        -0.8976099491119385
                    ],
                    [
                        0.15007737278938293
                    ],
                    [
                        -0.353378564119339
                    ],
                    [
                        0.02271472103893757
                    ],
                    [
                        -0.02781418152153492
                    ],
                    [
                        -0.13655176758766174
                    ],
                    [
                        -0.030763139948248863
                    ],
                    [
                        0.027462847530841827
                    ],
                    [
                        -0.010011184960603714
                    ],
                    [
                        0.021497376263141632
                    ],
                    [
                        -0.11397752910852432
                    ],
                    [
                        0.3824109733104706
                    ],
                    [
                        0.0021404647268354893
                    ],
                    [
                        -0.016090983524918556
                    ],
                    [
                        0.34347036480903625
                    ],
                    [
                        0.541575014591217
                    ],
                    [
                        -0.14322300255298615
                    ],
                    [
                        -0.029274115338921547
                    ],
                    [
                        -0.28826791048049927
                    ],
                    [
                        0.5916001796722412
                    ]
                ],
                [
                    0.13330097496509552
                ]
            ]
        }
    ],
    "input_batch": [
        0.20257115364074707,
        0.18960654735565186,
        0.17664611339569092,
        0.16375184059143066,
        0.15103387832641602,
        0.13851690292358398,
        0.12610185146331787,
        0.11368882656097412,
        0.10126030445098877,
        0.08890712261199951,
        0.07685470581054688,
        0.0653461217880249,
        0.054532408714294434,
        0.04451119899749756,
        0.035308122634887695,
        0.026958346366882324,
        0.019446253776550293,
        0.012525677680969238,
        0.005981564521789551,
        -0.00026929378509521484,
        -0.006249666213989258,
        -0.011995553970336914,
        -0.017508625984191895,
        -0.02271401882171631,
        -0.02761971950531006,
        -0.032241225242614746,
        -0.036610960960388184,
        -0.040699005126953125,
        -0.044444918632507324,
        -0.04790925979614258,
        -0.05123317241668701,
        -0.05459952354431152,
        -0.05816948413848877,
        -0.06197834014892578,
        -0.06591951847076416,
        -0.06988704204559326,
        -0.07376646995544434,
        -0.0775219202041626,
        -0.0812673568725586,
        -0.0852200984954834,
        -0.08966875076293945,
        -0.0947955846786499,
        -0.10053467750549316,
        -0.10666441917419434,
        -0.11304926872253418,
        -0.11953246593475342,
        -0.12591278553009033,
        -0.132002592086792,
        -0.13763344287872314,
        -0.1428072452545166,
        -0.1477440595626831,
        -0.15266728401184082,
        -0.15767443180084229,
        -0.16278719902038574,
        -0.16788256168365479,
        -0.17280030250549316,
        -0.17743873596191406,
        -0.18170714378356934,
        -0.18566298484802246,
        -0.18930482864379883,
        -0.1925739049911499,
        -0.1953953504562378,
        -0.19770467281341553,
        -0.19953620433807373,
        -0.20087742805480957,
        -0.20163464546203613,
        -0.20174288749694824,
        -0.20131254196166992,
        -0.20060443878173828,
        -0.19981276988983154,
        -0.19898736476898193,
        -0.19804656505584717,
        -0.196830153465271,
        -0.19518935680389404,
        -0.19313395023345947,
        -0.19076907634735107,
        -0.18827474117279053,
        -0.18589138984680176,
        -0.1838209629058838,
        -0.1821526288986206,
        -0.18084239959716797,
        -0.17979443073272705,
        -0.17878055572509766,
        -0.17766690254211426,
        -0.17643523216247559,
        -0.17515993118286133,
        -0.1739363670349121,
        -0.17273938655853271,
        -0.17163515090942383,
        -0.17070817947387695,
        -0.17007207870483398,
        -0.16979968547821045,
        -0.16981327533721924,
        -0.16993045806884766,
        -0.16990244388580322,
        -0.16958773136138916,
        -0.1689746379852295,
        -0.16806650161743164,
        -0.16679561138153076,
        -0.1650604009628296,
        -0.16283249855041504,
        -0.16023242473602295,
        -0.15746891498565674,
        -0.15467429161071777,
        -0.1518399715423584,
        -0.14881455898284912,
        -0.14543640613555908,
        -0.1416233777999878,
        -0.13732385635375977,
        -0.13252103328704834,
        -0.12722790241241455,
        -0.12140977382659912,
        -0.1149972677230835,
        -0.10812699794769287,
        -0.10091328620910645,
        -0.09338629245758057,
        -0.08561444282531738,
        -0.07770180702209473,
        -0.0697547197341919,
        -0.06180286407470703,
        -0.05381882190704346,
        -0.04577839374542236,
        -0.037773728370666504,
        -0.02981877326965332,
        -0.0217587947845459,
        -0.013584733009338379,
        -0.005498647689819336,
        0.0022115707397460938,
        0.009361028671264648,
        0.015861988067626953,
        0.02178025245666504,
        0.027471303939819336,
        0.03322553634643555,
        0.0390704870223999,
        0.044942378997802734,
        0.05073356628417969,
        0.056270599365234375,
        0.061307668685913086,
        0.06559419631958008,
        0.06905794143676758,
        0.07182455062866211,
        0.07404875755310059,
        0.07576572895050049,
        0.07687973976135254,
        0.07731044292449951,
        0.07699429988861084,
        0.07598209381103516,
        0.07441914081573486,
        0.07245373725891113,
        0.07016265392303467,
        0.06741988658905029,
        0.06401145458221436,
        0.059793949127197266,
        0.054786086082458496,
        0.049076080322265625,
        0.04292154312133789,
        0.0367201566696167,
        0.030768513679504395,
        0.025237202644348145,
        0.020194053649902344,
        0.015549659729003906,
        0.011062860488891602,
        0.006516814231872559,
        0.0016690492630004883,
        -0.0035783052444458008,
        -0.009043335914611816,
        -0.014560103416442871,
        -0.01997232437133789,
        -0.025107622146606445,
        -0.029849529266357422,
        -0.0341801643371582,
        -0.038176894187927246,
        -0.0419238805770874,
        -0.04551243782043457,
        -0.049030423164367676,
        -0.05255579948425293,
        -0.05611443519592285,
        -0.05966758728027344,
        -0.06308913230895996,
        -0.06624603271484375,
        -0.06903386116027832,
        -0.07132863998413086,
        -0.07318830490112305,
        -0.07477903366088867,
        -0.07623231410980225,
        -0.07766759395599365,
        -0.07912790775299072,
        -0.08060348033905029,
        -0.08206832408905029,
        -0.0835350751876831,
        -0.0849834680557251,
        -0.0863875150680542,
        -0.08768463134765625,
        -0.08876609802246094,
        -0.08961772918701172,
        -0.09028482437133789,
        -0.09077417850494385,
        -0.09109926223754883,
        -0.09132516384124756,
        -0.09154629707336426,
        -0.09190034866333008,
        -0.09250175952911377,
        -0.09336423873901367,
        -0.09438812732696533,
        -0.09540486335754395,
        -0.09629964828491211,
        -0.09695351123809814,
        -0.09727776050567627,
        -0.09731853008270264,
        -0.09716832637786865,
        -0.09688055515289307,
        -0.09645700454711914,
        -0.09585022926330566,
        -0.09491729736328125,
        -0.09349715709686279,
        -0.09149730205535889,
        -0.0888979434967041,
        -0.08565866947174072,
        -0.08183944225311279,
        -0.07756125926971436,
        -0.07288217544555664,
        -0.06781184673309326,
        -0.06223011016845703,
        -0.05610156059265137,
        -0.049604177474975586,
        -0.04303312301635742,
        -0.03657269477844238,
        -0.030182957649230957,
        -0.023830890655517578,
        -0.017480134963989258,
        -0.011202812194824219,
        -0.005202770233154297,
        0.00040411949157714844,
        0.005603194236755371,
        0.010437726974487305,
        0.0148468017578125,
        0.018692374229431152,
        0.02192986011505127,
        0.0246657133102417,
        0.027021288871765137,
        0.029035091400146484,
        0.030586719512939453,
        0.03155243396759033,
        0.031975388526916504,
        0.031960248947143555,
        0.03164219856262207,
        0.03116452693939209,
        0.030570149421691895,
        0.029740571975708008,
        0.028551816940307617,
        0.027022480964660645,
        0.025263190269470215,
        0.023347020149230957,
        0.021306276321411133,
        0.019191265106201172,
        0.017074108123779297,
        0.014982461929321289,
        0.012930631637573242,
        0.011011600494384766,
        0.009290933609008789,
        0.007765769958496094,
        0.006402850151062012,
        0.005133152008056641,
        0.003931283950805664,
        0.0027321577072143555,
        0.0015039443969726562,
        0.0003292560577392578,
        -0.000674128532409668,
        -0.0014024972915649414,
        -0.001804351806640625,
        -0.0017800331115722656,
        -0.001269221305847168,
        -0.00032699108123779297,
        0.000947117805480957,
        0.002516508102416992,
        0.004452705383300781,
        0.006804466247558594,
        0.00959157943725586,
        0.01270139217376709,
        0.0160750150680542,
        0.01967310905456543,
        0.023368358612060547,
        0.027097105979919434,
        0.030758142471313477,
        0.03434407711029053,
        0.03788125514984131,
        0.04126310348510742,
        0.0442659854888916,
        0.046614766120910645,
        0.048201560974121094,
        0.04912543296813965,
        0.04964029788970947,
        0.049962520599365234,
        0.05014371871948242,
        0.05012857913970947,
        0.04983675479888916,
        0.04925990104675293,
        0.048380136489868164,
        0.04710042476654053,
        0.045377135276794434,
        0.04331254959106445,
        0.04109060764312744,
        0.038783907890319824,
        0.03635132312774658,
        0.03364443778991699,
        0.030588626861572266,
        0.027303099632263184,
        0.02396368980407715,
        0.020811080932617188,
        0.017944693565368652,
        0.015338897705078125,
        0.012925505638122559,
        0.010601639747619629,
        0.008323907852172852,
        0.006069660186767578,
        0.0038775205612182617,
        0.001814126968383789,
        -0.00012803077697753906,
        -0.001978278160095215,
        -0.003760099411010742,
        -0.0054596662521362305,
        -0.007068753242492676,
        -0.008604645729064941,
        -0.010076761245727539,
        -0.0114821195602417,
        -0.012848258018493652,
        -0.014246225357055664,
        -0.015692472457885742,
        -0.01719212532043457,
        -0.0187608003616333,
        -0.020316243171691895,
        -0.021687865257263184,
        -0.022744178771972656,
        -0.023395895957946777,
        -0.02367424964904785,
        -0.023686766624450684,
        -0.023559212684631348,
        -0.02353835105895996,
        -0.023810148239135742,
        -0.024420976638793945,
        -0.025281429290771484,
        -0.026275038719177246,
        -0.02729785442352295,
        -0.028254151344299316,
        -0.029113173484802246,
        -0.029862523078918457,
        -0.030559778213500977,
        -0.031292080879211426,
        -0.032172203063964844,
        -0.0333104133605957,
        -0.03469491004943848,
        -0.03616642951965332,
        -0.03746485710144043,
        -0.03835141658782959,
        -0.03867208957672119,
        -0.038384437561035156,
        -0.03746497631072998,
        -0.03588759899139404,
        -0.03366267681121826,
        -0.030804753303527832,
        -0.027373194694519043,
        -0.023534536361694336,
        -0.019438862800598145,
        -0.015193939208984375,
        -0.010837078094482422,
        -0.006299853324890137,
        -0.0014376640319824219,
        0.0038427114486694336,
        0.009543776512145996,
        0.01564168930053711,
        0.022014617919921875,
        0.02853548526763916,
        0.03507280349731445,
        0.041413187980651855,
        0.047380924224853516,
        0.052945852279663086,
        0.05824482440948486,
        0.0635983943939209,
        0.06930017471313477,
        0.07545745372772217,
        0.08200514316558838,
        0.08876204490661621,
        0.0954751968383789,
        0.10194063186645508,
        0.10813772678375244,
        0.11412465572357178,
        0.11989188194274902,
        0.12540817260742188,
        0.13065004348754883,
        0.13551747798919678,
        0.13996493816375732,
        0.14400458335876465,
        0.14764666557312012,
        0.1509488821029663,
        0.153936505317688,
        0.15665125846862793,
        0.15916800498962402,
        0.16149985790252686,
        0.163557767868042,
        0.1652536392211914,
        0.1665053367614746,
        0.16722917556762695,
        0.16746926307678223,
        0.16731905937194824,
        0.16686558723449707,
        0.1661592721939087,
        0.16517388820648193,
        0.16384673118591309,
        0.16212892532348633,
        0.15992379188537598,
        0.1572057008743286,
        0.15409469604492188,
        0.15064311027526855,
        0.14686822891235352,
        0.1427854299545288,
        0.13837194442749023,
        0.13358283042907715,
        0.12836873531341553,
        0.12267875671386719,
        0.11648714542388916,
        0.10981261730194092,
        0.10262274742126465,
        0.09489047527313232,
        0.08663547039031982,
        0.07785844802856445,
        0.06863725185394287,
        0.059093356132507324,
        0.049382805824279785,
        0.03961348533630371,
        0.029848098754882812,
        0.020093560218811035,
        0.010236620903015137,
        0.00021505355834960938,
        -0.009972095489501953,
        -0.020226001739501953,
        -0.030455946922302246,
        -0.04052531719207764,
        -0.050289154052734375,
        -0.05972552299499512,
        -0.06886005401611328,
        -0.07784080505371094,
        -0.0867767333984375,
        -0.09571337699890137,
        -0.1045914888381958,
        -0.11325192451477051,
        -0.12151956558227539,
        -0.12922298908233643,
        -0.1362835168838501,
        -0.14263927936553955,
        -0.1482940912246704,
        -0.1532684564590454,
        -0.15757524967193604,
        -0.16122519969940186,
        -0.1642622947692871,
        -0.16681206226348877,
        -0.16893625259399414,
        -0.17068421840667725,
        -0.17207610607147217,
        -0.17307233810424805,
        -0.17363691329956055,
        -0.1737598180770874,
        -0.17346549034118652,
        -0.17271947860717773,
        -0.17148637771606445,
        -0.16977882385253906,
        -0.16760897636413574,
        -0.16502392292022705,
        -0.16216707229614258,
        -0.1592104434967041,
        -0.15623486042022705,
        -0.15324032306671143,
        -0.1501682996749878,
        -0.14697551727294922,
        -0.14366364479064941,
        -0.14021897315979004,
        -0.13671469688415527,
        -0.13324189186096191,
        -0.12983334064483643,
        -0.12648701667785645,
        -0.12318646907806396,
        -0.11989593505859375,
        -0.11658215522766113,
        -0.11322450637817383,
        -0.10980117321014404,
        -0.10633063316345215,
        -0.10277009010314941,
        -0.09906196594238281,
        -0.09512495994567871,
        -0.09084725379943848,
        -0.08619320392608643,
        -0.08116018772125244,
        -0.07574772834777832,
        -0.06996405124664307,
        -0.0638279914855957,
        -0.05738401412963867,
        -0.05070388317108154,
        -0.043877243995666504,
        -0.03686964511871338,
        -0.029566407203674316,
        -0.021921396255493164,
        -0.013936519622802734,
        -0.005740642547607422,
        0.002494215965270996,
        0.010594964027404785,
        0.018350601196289062,
        0.025620341300964355,
        0.032303452491760254,
        0.03835153579711914,
        0.04381203651428223,
        0.04878711700439453,
        0.05340433120727539,
        0.05774569511413574,
        0.0618366003036499,
        0.06566691398620605,
        0.06917035579681396,
        0.07234203815460205,
        0.07526206970214844,
        0.07799792289733887,
        0.08058881759643555,
        0.08302938938140869,
        0.08532822132110596,
        0.08749306201934814,
        0.08949458599090576,
        0.09129893779754639,
        0.09285402297973633,
        0.09407222270965576,
        0.09488523006439209,
        0.09520912170410156,
        0.09495413303375244,
        0.09404194355010986,
        0.09246575832366943,
        0.0903468132019043,
        0.08780062198638916,
        0.08496463298797607,
        0.08192956447601318,
        0.07872426509857178,
        0.07540559768676758,
        0.0719749927520752,
        0.06843304634094238,
        0.06476032733917236,
        0.06087362766265869,
        0.05673205852508545,
        0.052332520484924316,
        0.047727346420288086,
        0.04300487041473389,
        0.03824615478515625,
        0.03349590301513672,
        0.02874135971069336,
        0.024009108543395996,
        0.019306421279907227,
        0.014646530151367188,
        0.010010123252868652,
        0.005287289619445801,
        0.00045299530029296875,
        -0.004498720169067383,
        -0.009496808052062988,
        -0.014434576034545898,
        -0.019288182258605957,
        -0.02406179904937744,
        -0.028815865516662598,
        -0.03360104560852051,
        -0.038417935371398926,
        -0.0432513952255249,
        -0.04804682731628418,
        -0.05280649662017822,
        -0.05752289295196533,
        -0.06214869022369385,
        -0.06665265560150146,
        -0.07101058959960938,
        -0.07518935203552246,
        -0.07914745807647705,
        -0.0828104019165039,
        -0.08608293533325195,
        -0.08889186382293701,
        -0.09117889404296875,
