{
    "in_shape": [
        null,
        null,
        1
    ],
    "layers": [
        {
            "type": "lstm",
            "activation": "",
            "shape": [
                null,
                null,
                16
            ],
            "weights": [
                [
                    [
                        -0.0522150956094265,
                        -0.3634016513824463,
                        0.009034338407218456,
                        -0.01240150723606348,
                        0.3039112985134125,
                        0.15993455052375793,
                        0.19724968075752258,
                        -0.19893060624599457,
                        -0.10758841037750244,
                        0.24078810214996338,
                        -0.1757580041885376,
                        0.1781211793422699,
                        -0.016547774896025658,
                        0.06383790075778961,
                        0.09150025248527527,
                        0.18441475927829742,
                        0.1372557431459427,
                        -0.2624753415584564,
                        0.02383382059633732,
                        0.2664182782173157,
                        -0.07455503940582275,
                        -0.03716980293393135,
                        -0.019664980471134186,
                        -0.29782044887542725,
                        -0.10361648350954056,
                        -0.10009276121854782,
                        -0.20036202669143677,
                        0.02175687812268734,
                        -0.15291236340999603,
                        -0.06810001283884048,
                        -0.010563167743384838,
                        0.06645944714546204,
                        -3.7687273025512695,
                        0.36908158659935,
                        0.05713547393679619,
                        0.5865198969841003,
                        -0.04997381195425987,
                        -0.0020749708637595177,
                        -0.016194891184568405,
                        -0.7806110978126526,
                        0.1474170833826065,
                        -1.089189887046814,
                        -0.37046438455581665,
                        0.4324207305908203,
                        -1.3049376010894775,
                        -0.08959601074457169,
                        0.3787873685359955,
                        0.17115886509418488,
                        -0.18446402251720428,
                        -0.3164271116256714,
                        0.08783555030822754,
                        0.07004854828119278,
                        0.13991357386112213,
                        0.10066045075654984,
                        -0.9676187038421631,
                        -0.07113596051931381,
                        -0.08369050174951553,
                        -0.1242816373705864,
                        -0.016804637387394905,
                        -0.054100070148706436,
                        -0.05720189958810806,
                        -0.11395087093114853,
                        0.07813934236764908,
                        0.09677934646606445
                    ]
                ],
                [
                    [
                        -1.0109434127807617,
                        -0.41810616850852966,
                        -0.16042587161064148,
                        -0.5000817179679871,
                        -0.16822092235088348,
                        -0.10773343592882156,
                        0.4801517426967621,
                        0.7876708507537842,
                        -0.0848129540681839,
                        -0.4180399477481842,
                        -0.9254354238510132,
                        -0.4411361813545227,
                        0.2390715628862381,
                        -0.13602042198181152,
                        -0.02721463143825531,
                        0.27730101346969604,
                        -0.617752194404602,
                        -0.04517766460776329,
                        -0.4551672637462616,
                        -0.27398160099983215,
                        0.0474594309926033,
                        0.16257677972316742,
                        0.6157788634300232,
                        0.12473489344120026,
                        0.41425955295562744,
                        -0.013020280748605728,
                        -0.41672781109809875,
                        -0.009724589064717293,
                        -0.44913047552108765,
                        0.019175205379724503,
                        -0.4777257442474365,
                        -0.03537922352552414,
                        0.5196351408958435,
                        -0.004507092293351889,
                        0.031191932037472725,
                        -0.5876724123954773,
                        0.15910090506076813,
                        0.024055348709225655,
                        0.17218878865242004,
                        0.5364044904708862,
                        -0.11531327664852142,
                        0.45939648151397705,
                        0.08310830593109131,
                        -0.06555500626564026,
                        0.10309348255395889,
                        -0.19118139147758484,
                        0.3137372136116028,
                        3.187744379043579,
                        0.9158434867858887,
                        0.16443587839603424,
                        0.04491405934095383,
                        -0.4192156493663788,
                        0.02670208364725113,
                        -0.5652250647544861,
                        1.7178328037261963,
                        0.5288947820663452,
                        -0.12252826988697052,
                        -0.2488459348678589,
                        -0.5527618527412415,
                        -0.8202266693115234,
                        -0.1700500100851059,
                        -0.01597963273525238,
                        -0.2323484569787979,
                        -0.5634872913360596
                    ],
                    [
                        -0.35510435700416565,
                        -0.5520299673080444,
                        -0.15719953179359436,
                        -0.5032510161399841,
                        0.06920835375785828,
                        0.673025906085968,
                        0.33982527256011963,
                        0.25550970435142517,
                        0.5558239817619324,
                        0.13912461698055267,
                        0.2980647087097168,
                        0.09889580309391022,
                        0.39917635917663574,
                        -0.21290439367294312,
                        -0.2674853503704071,
                        -0.6779434084892273,
                        0.0954698845744133,
                        -0.8438587188720703,
                        -0.979588508605957,
                        -0.07679706066846848,
                        -0.027881059795618057,
                        -0.1782793402671814,
                        -0.10718044638633728,
                        -0.11354604363441467,
                        -0.3956705927848816,
                        -0.42503276467323303,
                        0.35236895084381104,
                        -0.9377193450927734,
                        -0.25446319580078125,
                        -0.33399882912635803,
                        0.05750722438097,
                        -0.008051355369389057,
                        0.011811989359557629,
                        0.15310394763946533,
                        -1.514017105102539,
                        0.0310352835804224,
                        -0.034988537430763245,
                        -0.1314825564622879,
                        -0.3800811767578125,
                        -0.2587895095348358,
                        -0.07536518573760986,
                        -0.0035317251458764076,
                        0.10284187644720078,
                        -0.592832624912262,
                        0.03051764890551567,
                        -0.14866456389427185,
                        0.049940649420022964,
                        -0.03427452966570854,
                        -0.3364333212375641,
                        0.10305451601743698,
                        -0.6847763657569885,
                        -0.6618080139160156,
                        -0.4261717200279236,
                        -0.06084401160478592,
                        0.26671403646469116,
                        -0.11592121422290802,
                        -0.11079292744398117,
                        -0.3372417688369751,
                        0.4223965108394623,
                        -0.050585437566041946,
                        -0.08062039315700531,
                        0.06334808468818665,
                        -0.0327426977455616,
                        -0.2560114562511444
                    ],
                    [
                        -0.1739128977060318,
                        1.0910147428512573,
                        0.06986292451620102,
                        -0.14137665927410126,
                        0.3447917401790619,
                        -0.18254661560058594,
                        -0.04562144726514816,
                        0.13043902814388275,
                        -0.40804794430732727,
                        -0.0018801852129399776,
                        -0.010300090536475182,
                        0.447391152381897,
                        0.05637611821293831,
                        0.12695445120334625,
                        -0.04605415463447571,
                        0.13514088094234467,
                        -0.039646491408348083,
                        0.28917574882507324,
                        0.25983312726020813,
                        -0.2181839793920517,
                        -0.03170880302786827,
                        -0.3217041790485382,
                        0.009295456111431122,
                        0.30503854155540466,
                        0.6431041359901428,
                        0.10438358038663864,
                        -0.10499253869056702,
                        0.39060792326927185,
                        -0.016468098387122154,
                        0.09350007772445679,
                        0.027209794148802757,
                        0.0861448422074318,
                        0.02322595939040184,
                        -0.712367594242096,
                        0.44520288705825806,
                        0.15762285888195038,
                        -0.04618995264172554,
                        -0.38081374764442444,
                        -0.33408042788505554,
                        0.1904802769422531,
                        0.20658338069915771,
                        -0.12087742239236832,
                        -0.010404234752058983,
                        0.3949684202671051,
                        -0.0213568527251482,
                        0.6201494932174683,
                        0.49504318833351135,
                        0.047880880534648895,
                        0.3124642074108124,
                        -0.14711213111877441,
                        -0.6909671425819397,
                        0.01650124229490757,
                        -0.30942463874816895,
                        -0.01234432216733694,
                        0.3425283432006836,
                        0.113086998462677,
                        -0.04635632783174515,
                        0.052055105566978455,
                        -0.17409063875675201,
                        -0.14744074642658234,
                        0.10600204765796661,
                        0.05230248346924782,
                        -0.12099647521972656,
                        -0.25951191782951355
                    ],
                    [
                        0.18691875040531158,
                        0.06600058078765869,
                        0.006851880811154842,
                        0.3793645203113556,
                        -0.4389880299568176,
                        -0.5312251448631287,
                        -0.08789848536252975,
                        -0.49616217613220215,
                        0.3170500695705414,
                        0.5698343515396118,
                        0.3988569974899292,
                        -0.5663650035858154,
                        0.3852457106113434,
                        -0.09962797909975052,
                        0.0006849115015938878,
                        0.44916796684265137,
                        -0.31416165828704834,
                        -0.5706310272216797,
                        -0.8873980045318604,
                        -0.05536242201924324,
                        0.06363049149513245,
                        0.3451976180076599,
                        0.19268324971199036,
                        -0.16461998224258423,
                        -0.38781625032424927,
                        0.28572550415992737,
                        0.06251300126314163,
                        0.2723311185836792,
                        -0.3496534824371338,
                        -0.4491691589355469,
                        0.29725340008735657,
                        -0.4687398672103882,
                        0.0005191575037315488,
                        0.7346112728118896,
                        -0.7908172607421875,
                        0.009768462739884853,
                        -0.08899238705635071,
                        -0.484800785779953,
                        0.8851896524429321,
                        0.44598352909088135,
                        -0.16086240112781525,
                        0.025790978223085403,
                        -0.7764595746994019,
                        -0.3147874176502228,
                        -0.16357524693012238,
                        0.20245811343193054,
                        -0.17161792516708374,
                        -0.03966233879327774,
                        -0.43849462270736694,
                        0.12687283754348755,
                        -0.1017758697271347,
                        0.094198077917099,
                        -0.08866510540246964,
                        0.11191903799772263,
                        -0.4479295611381531,
                        -0.15575477480888367,
                        0.021071627736091614,
                        0.43051132559776306,
                        0.2327771633863449,
                        -0.0325835682451725,
                        0.004979830235242844,
                        -0.13742154836654663,
                        0.2217133790254593,
                        0.7795617580413818
                    ],
                    [
                        0.050316017121076584,
                        0.354973167181015,
                        0.2830599844455719,
                        -0.022274678573012352,
                        0.24406704306602478,
                        -0.1595832258462906,
                        0.12803196907043457,
                        0.05655718967318535,
                        0.35205528140068054,
                        -0.05940381810069084,
                        0.27093949913978577,
                        -0.3541134297847748,
                        -0.07262375950813293,
                        0.12221122533082962,
                        0.12694071233272552,
                        0.04508592188358307,
                        -0.35894128680229187,
                        0.17687830328941345,
                        0.15405955910682678,
                        0.013444098643958569,
                        -0.02392052672803402,
                        -0.2890051007270813,
                        -0.22275517880916595,
                        0.22086717188358307,
                        -0.24325308203697205,
                        -0.4658028483390808,
                        0.23676329851150513,
                        0.48106279969215393,
                        0.058444712311029434,
                        -0.07291995733976364,
                        0.19873419404029846,
                        0.3281055986881256,
                        -0.17903722822666168,
                        0.41767042875289917,
                        -0.7763569355010986,
                        -0.03621723875403404,
                        0.10683267563581467,
                        -0.609287440776825,
                        -0.24817952513694763,
                        0.17218369245529175,
                        -0.20290549099445343,
                        0.039784207940101624,
                        0.002279651118442416,
                        0.5962838530540466,
                        0.08453314751386642,
                        -0.3965063989162445,
                        -0.7932037115097046,
                        0.5841184854507446,
                        -0.30572980642318726,
                        0.2916102707386017,
                        -1.1168678998947144,
                        0.054615143686532974,
                        0.5405150055885315,
                        0.6504309177398682,
                        -0.7149825692176819,
                        0.08898552507162094,
                        -0.3236292600631714,
                        0.026043536141514778,
                        0.49772533774375916,
                        0.5529818534851074,
                        0.16883401572704315,
                        0.09311065822839737,
                        0.23670879006385803,
                        0.23969343304634094
                    ],
                    [
                        0.4655153155326843,
                        0.30843040347099304,
                        0.5470659732818604,
                        -0.12214606255292892,
                        0.060593318194150925,
                        -0.08472508937120438,
                        0.15056179463863373,
                        -0.018462296575307846,
                        -0.048110995441675186,
                        0.0037382671143859625,
                        0.004104305990040302,
                        -0.9308575987815857,
                        0.3046545088291168,
                        0.31864356994628906,
                        -0.4220486879348755,
                        -0.5210723280906677,
                        -0.21396665275096893,
                        0.08248460292816162,
                        0.19984140992164612,
                        -0.23822475969791412,
                        0.7181217670440674,
                        0.9867284297943115,
                        0.03499528393149376,
                        0.14005252718925476,
                        -0.2128995954990387,
                        -0.2166949063539505,
                        0.11149701476097107,
                        0.40144529938697815,
                        0.7734115123748779,
                        0.2987074553966522,
                        0.13476960361003876,
                        -0.5830926299095154,
                        -0.13569222390651703,
                        0.7308834195137024,
                        -0.8185529112815857,
                        0.5385520458221436,
                        0.840467095375061,
                        0.18426430225372314,
                        -0.026226680725812912,
                        -0.6348268389701843,
                        -0.12902171909809113,
                        0.3244702219963074,
                        0.8085055351257324,
                        -0.5348589420318604,
                        -0.01070310641080141,
                        1.022950291633606,
                        0.28725457191467285,
                        0.8260105848312378,
                        -0.04218214377760887,
                        0.3440539538860321,
                        0.6481389403343201,
                        0.041676461696624756,
                        0.36206912994384766,
                        1.215808391571045,
                        -0.6884306073188782,
                        0.1532120555639267,
                        0.5322644710540771,
                        0.15786801278591156,
                        0.18773406744003296,
                        0.02402225323021412,
                        0.5521543622016907,
                        0.37489792704582214,
                        0.12118160724639893,
                        -0.20304912328720093
                    ],
                    [
                        0.42213431000709534,
                        0.04977906122803688,
                        0.41093841195106506,
                        0.014304263517260551,
                        -0.9898391366004944,
                        -1.5147247314453125,
                        0.20940227806568146,
                        0.0023567737080156803,
                        -1.0617376565933228,
                        0.3127819001674652,
                        -0.46641454100608826,
                        -0.9172388315200806,
                        -1.0412741899490356,
                        0.30343541502952576,
                        0.1033177524805069,
                        0.6480384469032288,
                        0.11049190163612366,
                        0.24008530378341675,
                        -0.08597604930400848,
                        0.2055211365222931,
                        0.5961437225341797,
                        1.4092612266540527,
                        0.716640055179596,
                        0.08743130415678024,
                        1.0679162740707397,
                        0.23225298523902893,
                        -0.1931150108575821,
                        1.4413450956344604,
                        1.3245532512664795,
                        0.509600818157196,
                        0.34324967861175537,
                        -0.39284345507621765,
                        -0.02434123493731022,
                        -0.6581166386604309,
                        0.6565592885017395,
                        -0.6248632669448853,
                        0.03172095865011215,
                        0.23973903059959412,
                        -0.48929890990257263,
                        0.038628894835710526,
                        0.13005736470222473,
                        -0.2260451465845108,
                        0.06010621041059494,
                        -0.09583551436662674,
                        0.10594619810581207,
                        -0.030394887551665306,
                        -0.13242579996585846,
                        0.0728655532002449,
                        1.345902442932129,
                        -0.025577960535883904,
                        0.26500505208969116,
                        0.2337065190076828,
                        -0.04334225505590439,
                        0.350138783454895,
                        1.4398880004882812,
                        0.2297283262014389,
                        0.36188462376594543,
                        0.3491862416267395,
                        -0.061280835419893265,
                        -0.2807355225086212,
                        0.596474826335907,
                        0.5483288764953613,
                        0.31551393866539,
                        0.16300199925899506
                    ],
                    [
                        -0.2293199747800827,
                        0.0244996789842844,
                        -0.23654663562774658,
                        0.29533296823501587,
                        -0.10885246843099594,
                        0.32925522327423096,
                        -0.0579964816570282,
                        0.024345386773347855,
                        -0.12772871553897858,
                        -0.10447397083044052,
                        0.3132638931274414,
                        0.013073796406388283,
                        0.6151536703109741,
                        -0.18383464217185974,
                        0.01483441423624754,
                        0.05253979563713074,
                        -0.06991956382989883,
                        0.19640694558620453,
                        0.10552796721458435,
                        0.30036675930023193,
                        -0.17884129285812378,
                        0.38910120725631714,
                        -0.06405797600746155,
                        0.0013875127770006657,
                        0.22536633908748627,
                        0.1720692664384842,
                        0.24018527567386627,
                        0.5226075053215027,
                        -0.30445483326911926,
                        0.1274266391992569,
                        0.15090900659561157,
                        0.17565983533859253,
                        -0.049512747675180435,
                        0.6511684656143188,
                        0.3176805377006531,
                        0.20692192018032074,
                        0.09109178930521011,
                        -0.061977729201316833,
                        -0.040994808077812195,
                        0.07118025422096252,
                        0.11460002511739731,
                        -0.0003400532004889101,
                        -0.03899760544300079,
                        0.016532953828573227,
                        0.14788803458213806,
                        0.12618231773376465,
                        -0.24718880653381348,
                        -0.06305650621652603,
                        -0.15021032094955444,
                        0.27045178413391113,
                        -0.37672561407089233,
                        0.24514839053153992,
                        0.1396259069442749,
                        -0.18807926774024963,
                        0.3100353181362152,
                        0.04867095127701759,
                        -0.0843234658241272,
                        0.026711279526352882,
                        0.1353592872619629,
                        0.2832537591457367,
                        -0.1782623529434204,
                        0.06852135062217712,
                        0.12945318222045898,
                        0.2744033634662628
                    ],
                    [
                        0.6897799968719482,
                        0.17972193658351898,
                        0.42699134349823,
                        0.5448766946792603,
                        -0.4924032688140869,
                        -0.8086200952529907,
                        -0.024209367111325264,
                        -0.3270346522331238,
                        -0.44099247455596924,
                        0.6065709590911865,
                        0.30502453446388245,
                        -0.9740703701972961,
                        -0.9953331351280212,
                        0.2295481413602829,
                        -0.32374414801597595,
                        0.8059535622596741,
                        0.5360074639320374,
                        0.5108816027641296,
                        0.39413946866989136,
                        0.7524980306625366,
                        0.4535260796546936,
                        1.2052816152572632,
                        0.235215425491333,
                        -0.010999300517141819,
                        0.7538451552391052,
                        0.6899324655532837,
                        -0.030906032770872116,
                        1.1836540699005127,
                        0.7260257601737976,
                        0.2760337293148041,
                        0.17032109200954437,
                        0.3374357223510742,
                        -0.06401148438453674,
                        0.13262814283370972,
                        -0.044454652816057205,
                        0.47297415137290955,
                        0.15556815266609192,
                        0.07184457033872604,
                        0.05737728998064995,
                        -0.07356225699186325,
                        0.5579685568809509,
                        0.7895979285240173,
                        0.20458005368709564,
                        0.1648303121328354,
                        -0.18029475212097168,
                        -0.22235821187496185,
                        0.1820245385169983,
                        0.4164055287837982,
                        0.2706688940525055,
                        0.35644057393074036,
                        -0.3061193823814392,
                        0.5454394817352295,
                        0.1118796244263649,
                        0.4992731511592865,
                        0.03624675050377846,
                        -0.04801307991147041,
                        0.516556978225708,
                        0.5135690569877625,
                        0.0027426632586866617,
                        0.26881343126296997,
                        0.3672838509082794,
                        0.3041870594024658,
                        0.08435030281543732,
                        1.1293792724609375
                    ],
                    [
                        -0.5774653553962708,
                        -0.14810021221637726,
                        -0.11843141168355942,
                        -0.2057449072599411,
                        0.10183492302894592,
                        -0.33943986892700195,
                        -0.47182372212409973,
                        0.08143322914838791,
                        0.2530565857887268,
                        -0.2953932285308838,
                        0.29991617798805237,
                        0.15192516148090363,
                        0.46800872683525085,
                        -0.05708707123994827,
                        -0.009228572249412537,
                        -0.18835468590259552,
                        0.041863687336444855,
                        0.0061045195907354355,
                        0.04001378268003464,
                        0.0820377841591835,
                        -0.057521920651197433,
                        -0.5165483951568604,
                        -0.47607433795928955,
                        -0.2096206545829773,
                        -0.7735683917999268,
                        -0.3346061110496521,
                        0.19910629093647003,
                        -0.48171502351760864,
                        -0.3073781728744507,
                        -0.20823507010936737,
                        0.08622746169567108,
                        -0.12713050842285156,
                        -0.19167952239513397,
                        1.2541228532791138,
                        -0.7238151431083679,
                        0.15485414862632751,
                        -0.4727396070957184,
                        -0.6367335319519043,
                        -0.4562017321586609,
                        0.20124360918998718,
                        -0.15184497833251953,
                        -0.1505887806415558,
                        0.7845544219017029,
                        -0.11096777766942978,
                        0.2906618118286133,
                        0.5639683604240417,
                        -0.2376743108034134,
                        1.7543178796768188,
                        0.24740858376026154,
                        0.39233577251434326,
                        0.03641936928033829,
                        -0.3169378340244293,
                        -0.07639901340007782,
                        0.12167439609766006,
                        0.030545424669981003,
                        -0.10818933695554733,
                        -0.45872893929481506,
                        -0.16015124320983887,
                        -0.16770312190055847,
                        -0.2433464527130127,
                        -0.2614883780479431,
                        -0.1852632313966751,
                        -0.3490868806838989,
                        0.5776803493499756
                    ],
                    [
                        0.020848577842116356,
                        -0.23353661596775055,
                        0.2570440471172333,
                        -0.3295345604419708,
                        -0.4003136157989502,
                        -0.6129125356674194,
                        0.016163844615221024,
                        0.0815567672252655,
                        -0.3213973939418793,
                        0.3116631805896759,
                        0.09417158365249634,
                        -0.36868005990982056,
                        -0.9999901056289673,
                        0.07516254484653473,
                        -0.1923830211162567,
                        -0.8221409320831299,
                        0.432378888130188,
                        -0.2583356201648712,
                        0.3183138370513916,
                        -0.07831954956054688,
                        0.3654313385486603,
                        0.9508660435676575,
                        -0.15294063091278076,
                        0.1571144163608551,
                        0.9125377535820007,
                        0.11923833191394806,
                        0.2199353128671646,
                        1.066903829574585,
                        0.9786239862442017,
                        -0.07295087724924088,
                        0.1708149015903473,
                        -0.5295549035072327,
                        -0.012191255576908588,
                        0.4010111391544342,
                        -0.9536123871803284,
                        0.31559187173843384,
                        -0.07874681055545807,
                        -0.0987887904047966,
                        -0.036936670541763306,
                        -0.2611389458179474,
                        0.3608919084072113,
                        0.039255350828170776,
                        -0.1861538589000702,
                        -0.021740747615695,
                        -0.04781908914446831,
                        0.3011418581008911,
                        -0.07920592278242111,
                        -0.17170624434947968,
                        0.5335056185722351,
                        -0.026697058230638504,
                        -0.457390695810318,
                        -0.213918998837471,
                        0.10278879851102829,
                        -0.03134724125266075,
                        0.24431955814361572,
                        -0.056802719831466675,
                        -0.11624006181955338,
                        0.402352511882782,
                        0.3891265392303467,
                        0.3540198504924774,
                        0.430137574672699,
                        0.1635795682668686,
                        0.12857045233249664,
                        0.18680687248706818
                    ],
                    [
                        0.304986834526062,
                        0.11294850707054138,
                        0.46826034784317017,
                        -0.18707072734832764,
                        -0.5639746785163879,
                        -0.39086681604385376,
                        -0.9062719345092773,
                        -0.20946574211120605,
                        -0.08965981751680374,
                        -0.3163962960243225,
                        0.1541183739900589,
                        0.5652223229408264,
                        0.30566203594207764,
                        0.14607980847358704,
                        -0.3547722101211548,
                        -0.11282657831907272,
                        -0.20845584571361542,
                        -0.7294550538063049,
                        0.1028132438659668,
                        -0.5325939655303955,
                        0.2248866856098175,
                        1.1053835153579712,
                        -0.6079913973808289,
                        -0.01911373808979988,
                        0.3822942078113556,
                        -0.7793127298355103,
                        0.20700672268867493,
                        0.6505191326141357,
                        0.4110518991947174,
                        0.017696009948849678,
                        -0.31068047881126404,
                        -0.3663212060928345,
                        0.6812925338745117,
                        0.4376261532306671,
                        -0.413357138633728,
                        -0.5056205987930298,
                        -0.76984703540802,
                        0.5472949147224426,
                        -0.0380713976919651,
                        -0.07092560082674026,
                        0.19367384910583496,
                        0.4854125678539276,
                        0.26114216446876526,
                        0.28816524147987366,
                        0.03424525260925293,
                        0.19249877333641052,
                        0.5325907468795776,
                        0.8473259806632996,
                        -0.28859880566596985,
                        -0.5801984071731567,
                        -0.07148817181587219,
                        -0.008053458295762539,
                        0.0012530998792499304,
                        0.014130976051092148,
                        0.4022340774536133,
                        0.016986483708024025,
                        0.571368932723999,
                        -0.04496829956769943,
                        0.46833497285842896,
                        0.8904864192008972,
                        0.40305256843566895,
                        0.304616242647171,
                        0.18821631371974945,
                        -0.39996543526649475
                    ],
                    [
                        -0.38764655590057373,
                        0.17636844515800476,
                        -0.13619640469551086,
                        0.1504993438720703,
                        0.20270226895809174,
                        0.4740230143070221,
                        -0.9957469701766968,
                        -0.07167938351631165,
                        0.5855537056922913,
                        0.09801352769136429,
                        0.2259935587644577,
                        0.24280627071857452,
                        -0.6084805130958557,
                        -0.08482526242733002,
                        -0.02741186134517193,
                        0.07348009943962097,
                        -0.24477015435695648,
                        -0.0626809298992157,
                        0.10100992769002914,
                        -0.07848351448774338,
                        -0.04484880343079567,
                        0.32915040850639343,
                        -0.6427022814750671,
                        0.24521592259407043,
                        0.07521853595972061,
                        -0.07548673450946808,
                        -0.002486953279003501,
                        -0.21043764054775238,
                        0.17079132795333862,
                        -0.15907877683639526,
                        -0.02048664540052414,
                        0.0037395961116999388,
                        -3.246575355529785,
                        -0.1266831010580063,
                        -0.24548251926898956,
                        0.8415812253952026,
                        -0.027038084343075752,
                        -0.12821142375469208,
                        0.39383208751678467,
                        -0.4710456430912018,
                        -0.35298359394073486,
                        -0.884563148021698,
                        -0.23336006700992584,
                        0.42732158303260803,
                        -0.5686700940132141,
                        -0.0737777054309845,
                        0.1758131980895996,
                        -1.0684469938278198,
                        0.40390723943710327,
                        -0.12050376832485199,
                        -0.13085369765758514,
                        0.07651578634977341,
                        -0.13609477877616882,
                        -0.04736309126019478,
                        -0.02851024642586708,
                        -0.042549580335617065,
                        -0.11665098369121552,
                        -0.0297649335116148,
                        0.19400520622730255,
                        0.052716877311468124,
                        -0.15149928629398346,
                        -0.03496144711971283,
                        0.03816702216863632,
                        -0.05264446139335632
                    ],
                    [
                        -0.27728840708732605,
                        0.42291370034217834,
                        0.030609404668211937,
                        -0.2760912775993347,
                        -0.30704718828201294,
                        0.10096241533756256,
                        -0.18503054976463318,
                        -0.11307429522275925,
                        0.11281034350395203,
                        0.07823459804058075,
                        0.33513808250427246,
                        -0.014272046275436878,
                        -0.27092546224594116,
                        -0.00857367180287838,
                        -0.39173436164855957,
                        -0.23887625336647034,
                        0.23804502189159393,
                        -0.6847624182701111,
                        -0.4513583183288574,
                        -0.7100802063941956,
                        -0.05424952134490013,
                        0.016578540205955505,
                        -0.016377802938222885,
                        0.14860722422599792,
                        -1.1045897006988525,
                        -0.22465193271636963,
                        0.07300848513841629,
                        -0.08184530586004257,
                        0.25900065898895264,
                        -0.40028610825538635,
                        -0.24877400696277618,
                        -0.7340580821037292,
                        -0.023222491145133972,
                        1.1955634355545044,
                        -1.518592357635498,
                        0.1963878720998764,
                        0.40956321358680725,
                        -0.09716735035181046,
                        0.04655070975422859,
                        -0.46466436982154846,
                        -0.3228975534439087,
                        0.0900610014796257,
                        0.28114640712738037,
                        -0.43589189648628235,
                        0.1314421147108078,
                        -0.5676617622375488,
                        -0.18989264965057373,
                        -0.035895343869924545,
                        -0.09626790136098862,
                        -0.673314094543457,
                        0.12268082052469254,
                        -0.4083065092563629,
                        -0.323163777589798,
                        0.03219515085220337,
                        0.14870446920394897,
                        -0.10478320717811584,
                        -0.3620305061340332,
                        0.0723651796579361,
                        0.08143219351768494,
                        0.08029342442750931,
                        0.002553443191573024,
                        -0.1436406821012497,
                        -0.1392599493265152,
                        0.18446865677833557
                    ],
                    [
                        -0.22421270608901978,
                        0.16099268198013306,
                        -0.1449592560529709,
                        -0.16163456439971924,
                        -0.10010513663291931,
                        0.8337098956108093,
                        0.170596182346344,
                        -0.02919047325849533,
                        0.7070828676223755,
                        -0.16720280051231384,
                        0.3910616934299469,
                        0.7674649357795715,
                        0.5039843916893005,
                        0.04100266098976135,
                        -0.303032785654068,
                        -0.6243448257446289,
                        -0.1393130123615265,
                        0.5129601359367371,
                        0.7486228942871094,
                        0.10852304100990295,
                        -0.23916226625442505,
                        -0.23052360117435455,
                        0.17281612753868103,
                        -0.01435040682554245,
                        -0.6437020301818848,
                        -0.5571812391281128,
                        0.19591060280799866,
                        -1.0270441770553589,
                        -0.45925968885421753,
                        0.09852738678455353,
                        -0.05770363658666611,
                        0.8157896399497986,
                        -0.07096631824970245,
                        -0.19810105860233307,
                        0.3553803265094757,
                        0.038204796612262726,
                        0.1351260244846344,
                        0.30946773290634155,
                        -0.1874849796295166,
                        0.1141447052359581,
                        0.23503951728343964,
                        0.006359357386827469,
                        0.34564048051834106,
                        -0.26389241218566895,
                        0.014602979645133018,
                        -0.23120208084583282,
                        -0.2996440529823303,
                        0.42302870750427246,
                        -0.5452817678451538,
                        -0.7038630843162537,
                        0.10705426335334778,
                        -0.15816587209701538,
                        -0.10537269711494446,
                        -0.08276622742414474,
                        -0.1366908699274063,
                        -0.1372596025466919,
                        -0.24479953944683075,
                        -0.2589680552482605,
                        -0.07141346484422684,
                        0.16734080016613007,
                        -0.3124418556690216,
                        -0.09472235292196274,
                        -0.4211914539337158,
                        -0.14700977504253387
                    ],
                    [
                        -0.8169044256210327,
                        -1.3238966464996338,
                        -0.3967205584049225,
                        -0.7909529209136963,
                        -0.11431420594453812,
                        -0.1866365373134613,
                        0.007923037745058537,
                        0.04097824916243553,
                        -0.48947635293006897,
                        0.4587681293487549,
                        0.21932817995548248,
                        -0.017781443893909454,
                        -0.2746734023094177,
                        -0.4668042063713074,
                        -0.2518281936645508,
                        0.7817339301109314,
                        0.16998541355133057,
                        0.13533981144428253,
                        0.5964109897613525,
                        0.06360737234354019,
                        0.04130585864186287,
                        0.016977883875370026,
                        -0.25416597723960876,
                        -0.19842535257339478,
                        -0.7530542016029358,
                        0.04554961994290352,
                        -0.009808456525206566,
                        -0.29613807797431946,
                        0.2285175621509552,
                        -0.23516850173473358,
                        0.04931112006306648,
                        -0.226551815867424,
                        -0.0473460890352726,
                        1.5815231800079346,
                        -1.8963358402252197,
                        0.8624045848846436,
                        -0.24921517074108124,
                        -0.6587106585502625,
                        -0.6219619512557983,
                        -0.045158691704273224,
                        -0.13655298948287964,
                        -0.03711695224046707,
                        0.7333454489707947,
                        -0.2611636221408844,
                        0.19742856919765472,
                        0.26111796498298645,
                        -0.3565530478954315,
                        0.8725013732910156,
                        0.5755460858345032,
                        0.3763919174671173,
                        -0.34534499049186707,
                        -0.5200620889663696,
                        0.31781935691833496,
                        -0.13232947885990143,
                        -0.09533031284809113,
                        -0.034985825419425964,
                        -0.36472874879837036,
                        0.85146164894104,
                        -0.17770542204380035,
                        0.14583298563957214,
                        -0.08059878647327423,
                        -0.13171464204788208,
                        0.11892016232013702,
                        -0.5602728724479675
                    ]
                ],
                [
                    0.7724906206130981,
                    0.12816253304481506,
                    1.2084605693817139,
                    0.2557949721813202,
                    -1.932978630065918,
                    -2.055537462234497,
                    0.3128325641155243,
                    -0.23172511160373688,
                    -1.9466760158538818,
                    0.5571468472480774,
                    0.35619211196899414,
                    -2.9223246574401855,
                    -2.842738151550293,
                    0.6924696564674377,
                    0.2446189820766449,
                    0.8363779783248901,
                    -0.5267996191978455,
                    0.8773607015609741,
                    0.47082507610321045,
                    0.4685977101325989,
                    2.803894519805908,
                    3.1057095527648926,
                    0.5751562118530273,
                    0.9073823690414429,
                    1.925523042678833,
                    0.9470360279083252,
                    0.18990790843963623,
                    3.438884973526001,
                    2.5710673332214355,
                    0.8587926626205444,
                    1.3197288513183594,
                    -0.15913352370262146,
                    -0.7650612592697144,
                    -0.6624370813369751,
                    0.5643023252487183,
                    0.3468286097049713,
                    -0.1583983451128006,
                    -0.27649977803230286,
                    1.1116902828216553,
                    0.3361738920211792,
                    0.24576395750045776,
                    -1.129143476486206,
                    0.22851702570915222,
                    -0.11219434440135956,
                    0.024627987295389175,
                    -0.7884752750396729,
                    -0.6952446699142456,
                    -1.0219519138336182,
                    1.19577157497406,
                    0.6946013569831848,
                    -0.4450407028198242,
                    0.6466411352157593,
                    0.9919984340667725,
                    0.08834607899188995,
                    1.1836110353469849,
                    0.4596012532711029,
                    0.34430259466171265,
                    0.9251724481582642,
                    0.6638335585594177,
                    0.33068549633026123,
                    1.539263129234314,
                    1.3231844902038574,
                    1.1488521099090576,
                    0.5897300243377686
                ]
            ]
        },
        {
            "type": "dense",
            "activation": "",
            "shape": [
                null,
                null,
                1
            ],
            "weights": [
                [
                    [
                        0.022238602861762047
                    ],
                    [
                        0.0943761095404625
                    ],
                    [
                        -0.7677483558654785
                    ],
                    [
                        -0.18880459666252136
                    ],
                    [
                        -0.5771450400352478
                    ],
                    [
                        0.09133207052946091
                    ],
                    [
                        0.13107450306415558
                    ],
                    [
                        0.11596472561359406
                    ],
                    [
                        0.15105566382408142
                    ],
                    [
                        -0.2104877084493637
                    ],
                    [
                        -0.24159806966781616
                    ],
                    [
                        0.26600828766822815
                    ],
                    [
                        -0.026136934757232666
                    ],
                    [
                        0.5717675089836121
                    ],
                    [
                        0.4435168504714966
                    ],
                    [
                        -0.002550116740167141
                    ]
                ],
                [
                    0.10108523815870285
                ]
            ]
        }
    ],
    "input_batch": [
        0.08890712261199951,
        0.07685470581054688,
        0.0653461217880249,
        0.054532408714294434,
        0.04451119899749756,
        0.035308122634887695,
        0.026958346366882324,
        0.019446253776550293,
        0.012525677680969238,
        0.005981564521789551,
        -0.00026929378509521484,
        -0.006249666213989258,
        -0.011995553970336914,
        -0.017508625984191895,
        -0.02271401882171631,
        -0.02761971950531006,
        -0.032241225242614746,
        -0.036610960960388184,
        -0.040699005126953125,
        -0.044444918632507324,
        -0.04790925979614258,
        -0.05123317241668701,
        -0.05459952354431152,
        -0.05816948413848877,
        -0.06197834014892578,
        -0.06591951847076416,
        -0.06988704204559326,
        -0.07376646995544434,
        -0.0775219202041626,
        -0.0812673568725586,
        -0.0852200984954834,
        -0.08966875076293945,
        -0.0947955846786499,
        -0.10053467750549316,
        -0.10666441917419434,
        -0.11304926872253418,
        -0.11953246593475342,
        -0.12591278553009033,
        -0.132002592086792,
        -0.13763344287872314,
        -0.1428072452545166,
        -0.1477440595626831,
        -0.15266728401184082,
        -0.15767443180084229,
        -0.16278719902038574,
        -0.16788256168365479,
        -0.17280030250549316,
        -0.17743873596191406,
        -0.18170714378356934,
        -0.18566298484802246,
        -0.18930482864379883,
        -0.1925739049911499,
        -0.1953953504562378,
        -0.19770467281341553,
        -0.19953620433807373,
        -0.20087742805480957,
        -0.20163464546203613,
        -0.20174288749694824,
        -0.20131254196166992,
        -0.20060443878173828,
        -0.19981276988983154,
        -0.19898736476898193,
        -0.19804656505584717,
        -0.196830153465271,
        -0.19518935680389404,
        -0.19313395023345947,
        -0.19076907634735107,
        -0.18827474117279053,
        -0.18589138984680176,
        -0.1838209629058838,
        -0.1821526288986206,
        -0.18084239959716797,
        -0.17979443073272705,
        -0.17878055572509766,
        -0.17766690254211426,
        -0.17643523216247559,
        -0.17515993118286133,
        -0.1739363670349121,
        -0.17273938655853271,
        -0.17163515090942383,
        -0.17070817947387695,
        -0.17007207870483398,
        -0.16979968547821045,
        -0.16981327533721924,
        -0.16993045806884766,
        -0.16990244388580322,
        -0.16958773136138916,
        -0.1689746379852295,
        -0.16806650161743164,
        -0.16679561138153076,
        -0.1650604009628296,
        -0.16283249855041504,
        -0.16023242473602295,
        -0.15746891498565674,
        -0.15467429161071777,
        -0.1518399715423584,
        -0.14881455898284912,
        -0.14543640613555908,
        -0.1416233777999878,
        -0.13732385635375977,
        -0.13252103328704834,
        -0.12722790241241455,
        -0.12140977382659912,
        -0.1149972677230835,
        -0.10812699794769287,
        -0.10091328620910645,
        -0.09338629245758057,
        -0.08561444282531738,
        -0.07770180702209473,
        -0.0697547197341919,
        -0.06180286407470703,
        -0.05381882190704346,
        -0.04577839374542236,
        -0.037773728370666504,
        -0.02981877326965332,
        -0.0217587947845459,
        -0.013584733009338379,
        -0.005498647689819336,
        0.0022115707397460938,
        0.009361028671264648,
        0.015861988067626953,
        0.02178025245666504,
        0.027471303939819336,
        0.03322553634643555,
        0.0390704870223999,
        0.044942378997802734,
        0.05073356628417969,
        0.056270599365234375,
        0.061307668685913086,
        0.06559419631958008,
        0.06905794143676758,
        0.07182455062866211,
        0.07404875755310059,
        0.07576572895050049,
        0.07687973976135254,
        0.07731044292449951,
        0.07699429988861084,
        0.07598209381103516,
        0.07441914081573486,
        0.07245373725891113,
        0.07016265392303467,
        0.06741988658905029,
        0.06401145458221436,
        0.059793949127197266,
        0.054786086082458496,
        0.049076080322265625,
        0.04292154312133789,
        0.0367201566696167,
        0.030768513679504395,
        0.025237202644348145,
        0.020194053649902344,
        0.015549659729003906,
        0.011062860488891602,
        0.006516814231872559,
        0.0016690492630004883,
        -0.0035783052444458008,
        -0.009043335914611816,
        -0.014560103416442871,
        -0.01997232437133789,
        -0.025107622146606445,
        -0.029849529266357422,
        -0.0341801643371582,
        -0.038176894187927246,
        -0.0419238805770874,
        -0.04551243782043457,
        -0.049030423164367676,
        -0.05255579948425293,
        -0.05611443519592285,
        -0.05966758728027344,
        -0.06308913230895996,
        -0.06624603271484375,
        -0.06903386116027832,
        -0.07132863998413086,
        -0.07318830490112305,
        -0.07477903366088867,
        -0.07623231410980225,
        -0.07766759395599365,
        -0.07912790775299072,
        -0.08060348033905029,
        -0.08206832408905029,
        -0.0835350751876831,
        -0.0849834680557251,
        -0.0863875150680542,
        -0.08768463134765625,
        -0.08876609802246094,
        -0.08961772918701172,
        -0.09028482437133789,
        -0.09077417850494385,
        -0.09109926223754883,
        -0.09132516384124756,
        -0.09154629707336426,
        -0.09190034866333008,
        -0.09250175952911377,
        -0.09336423873901367,
        -0.09438812732696533,
        -0.09540486335754395,
        -0.09629964828491211,
        -0.09695351123809814,
        -0.09727776050567627,
        -0.09731853008270264,
        -0.09716832637786865,
        -0.09688055515289307,
        -0.09645700454711914,
        -0.09585022926330566,
        -0.09491729736328125,
        -0.09349715709686279,
        -0.09149730205535889,
        -0.0888979434967041,
        -0.08565866947174072,
        -0.08183944225311279,
        -0.07756125926971436,
        -0.07288217544555664,
        -0.06781184673309326,
        -0.06223011016845703,
        -0.05610156059265137,
        -0.049604177474975586,
        -0.04303312301635742,
        -0.03657269477844238,
        -0.030182957649230957,
        -0.023830890655517578,
        -0.017480134963989258,
        -0.011202812194824219,
        -0.005202770233154297,
        0.00040411949157714844,
        0.005603194236755371,
        0.010437726974487305,
        0.0148468017578125,
        0.018692374229431152,
        0.02192986011505127,
        0.0246657133102417,
        0.027021288871765137,
        0.029035091400146484,
        0.030586719512939453,
        0.03155243396759033,
        0.031975388526916504,
        0.031960248947143555,
        0.03164219856262207,
        0.03116452693939209,
        0.030570149421691895,
        0.029740571975708008,
        0.028551816940307617,
        0.027022480964660645,
        0.025263190269470215,
        0.023347020149230957,
        0.021306276321411133,
        0.019191265106201172,
        0.017074108123779297,
        0.014982461929321289,
        0.012930631637573242,
        0.011011600494384766,
        0.009290933609008789,
        0.007765769958496094,
        0.006402850151062012,
        0.005133152008056641,
        0.003931283950805664,
        0.0027321577072143555,
        0.0015039443969726562,
        0.0003292560577392578,
        -0.000674128532409668,
        -0.0014024972915649414,
        -0.001804351806640625,
        -0.0017800331115722656,
        -0.001269221305847168,
        -0.00032699108123779297,
        0.000947117805480957,
        0.002516508102416992,
        0.004452705383300781,
        0.006804466247558594,
        0.00959157943725586,
        0.01270139217376709,
        0.0160750150680542,
        0.01967310905456543,
        0.023368358612060547,
        0.027097105979919434,
        0.030758142471313477,
        0.03434407711029053,
        0.03788125514984131,
        0.04126310348510742,
        0.0442659854888916,
        0.046614766120910645,
        0.048201560974121094,
        0.04912543296813965,
        0.04964029788970947,
        0.049962520599365234,
        0.05014371871948242,
        0.05012857913970947,
        0.04983675479888916,
        0.04925990104675293,
        0.048380136489868164,
        0.04710042476654053,
        0.045377135276794434,
        0.04331254959106445,
        0.04109060764312744,
        0.038783907890319824,
        0.03635132312774658,
        0.03364443778991699,
        0.030588626861572266,
        0.027303099632263184,
        0.02396368980407715,
        0.020811080932617188,
        0.017944693565368652,
        0.015338897705078125,
        0.012925505638122559,
        0.010601639747619629,
        0.008323907852172852,
        0.006069660186767578,
        0.0038775205612182617,
        0.001814126968383789,
        -0.00012803077697753906,
        -0.001978278160095215,
        -0.003760099411010742,
        -0.0054596662521362305,
        -0.007068753242492676,
        -0.008604645729064941,
        -0.010076761245727539,
        -0.0114821195602417,
        -0.012848258018493652,
        -0.014246225357055664,
        -0.015692472457885742,
        -0.01719212532043457,
        -0.0187608003616333,
        -0.020316243171691895,
        -0.021687865257263184,
        -0.022744178771972656,
        -0.023395895957946777,
        -0.02367424964904785,
        -0.023686766624450684,
        -0.023559212684631348,
        -0.02353835105895996,
        -0.023810148239135742,
        -0.024420976638793945,
        -0.025281429290771484,
        -0.026275038719177246,
        -0.02729785442352295,
        -0.028254151344299316,
        -0.029113173484802246,
        -0.029862523078918457,
        -0.030559778213500977,
        -0.031292080879211426,
        -0.032172203063964844,
        -0.0333104133605957,
        -0.03469491004943848,
        -0.03616642951965332,
        -0.03746485710144043,
        -0.03835141658782959,
        -0.03867208957672119,
        -0.038384437561035156,
        -0.03746497631072998,
        -0.03588759899139404,
        -0.03366267681121826,
        -0.030804753303527832,
        -0.027373194694519043,
        -0.023534536361694336,
        -0.019438862800598145,
        -0.015193939208984375,
        -0.010837078094482422,
        -0.006299853324890137,
        -0.0014376640319824219,
        0.0038427114486694336,
        0.009543776512145996,
        0.01564168930053711,
        0.022014617919921875,
        0.02853548526763916,
        0.03507280349731445,
        0.041413187980651855,
        0.047380924224853516,
        0.052945852279663086,
        0.05824482440948486,
        0.0635983943939209,
        0.06930017471313477,
        0.07545745372772217,
        0.08200514316558838,
        0.08876204490661621,
        0.0954751968383789,
        0.10194063186645508,
        0.10813772678375244,
        0.11412465572357178,
        0.11989188194274902,
        0.12540817260742188,
        0.13065004348754883,
        0.13551747798919678,
        0.13996493816375732,
        0.14400458335876465,
        0.14764666557312012,
        0.1509488821029663,
        0.153936505317688,
        0.15665125846862793,
        0.15916800498962402,
        0.16149985790252686,
        0.163557767868042,
        0.1652536392211914,
        0.1665053367614746,
        0.16722917556762695,
        0.16746926307678223,
        0.16731905937194824,
        0.16686558723449707,
        0.1661592721939087,
        0.16517388820648193,
        0.16384673118591309,
        0.16212892532348633,
        0.15992379188537598,
        0.1572057008743286,
        0.15409469604492188,
        0.15064311027526855,
        0.14686822891235352,
        0.1427854299545288,
        0.13837194442749023,
        0.13358283042907715,
        0.12836873531341553,
        0.12267875671386719,
        0.11648714542388916,
        0.10981261730194092,
        0.10262274742126465,
        0.09489047527313232,
        0.08663547039031982,
        0.07785844802856445,
        0.06863725185394287,
        0.059093356132507324,
        0.049382805824279785,
        0.03961348533630371,
        0.029848098754882812,
        0.020093560218811035,
        0.010236620903015137,
        0.00021505355834960938,
        -0.009972095489501953,
        -0.020226001739501953,
        -0.030455946922302246,
        -0.04052531719207764,
        -0.050289154052734375,
        -0.05972552299499512,
        -0.06886005401611328,
        -0.07784080505371094,
        -0.0867767333984375,
        -0.09571337699890137,
        -0.1045914888381958,
        -0.11325192451477051,
        -0.12151956558227539,
        -0.12922298908233643,
        -0.1362835168838501,
        -0.14263927936553955,
        -0.1482940912246704,
        -0.1532684564590454,
        -0.15757524967193604,
        -0.16122519969940186,
        -0.1642622947692871,
        -0.16681206226348877,
        -0.16893625259399414,
        -0.17068421840667725,
        -0.17207610607147217,
        -0.17307233810424805,
        -0.17363691329956055,
        -0.1737598180770874,
        -0.17346549034118652,
        -0.17271947860717773,
        -0.17148637771606445,
        -0.16977882385253906,
        -0.16760897636413574,
        -0.16502392292022705,
        -0.16216707229614258,
        -0.1592104434967041,
        -0.15623486042022705,
        -0.15324032306671143,
        -0.1501682996749878,
        -0.14697551727294922,
        -0.14366364479064941,
        -0.14021897315979004,
        -0.13671469688415527,
        -0.13324189186096191,
        -0.12983334064483643,
        -0.12648701667785645,
        -0.12318646907806396,
        -0.11989593505859375,
        -0.11658215522766113,
        -0.11322450637817383,
        -0.10980117321014404,
        -0.10633063316345215,
        -0.10277009010314941,
        -0.09906196594238281,
        -0.09512495994567871,
        -0.09084725379943848,
        -0.08619320392608643,
        -0.08116018772125244,
        -0.07574772834777832,
        -0.06996405124664307,
        -0.0638279914855957,
        -0.05738401412963867,
        -0.05070388317108154,
        -0.043877243995666504,
        -0.03686964511871338,
        -0.029566407203674316,
        -0.021921396255493164,
        -0.013936519622802734,
        -0.005740642547607422,
        0.002494215965270996,
        0.010594964027404785,
        0.018350601196289062,
        0.025620341300964355,
        0.032303452491760254,
        0.03835153579711914,
        0.04381203651428223,
        0.04878711700439453,
        0.05340433120727539,
        0.05774569511413574,
        0.0618366003036499,
        0.06566691398620605,
        0.06917035579681396,
        0.07234203815460205,
        0.07526206970214844,
        0.07799792289733887,
        0.08058881759643555,
        0.08302938938140869,
        0.08532822132110596,
        0.08749306201934814,
        0.08949458599090576,
        0.09129893779754639,
        0.09285402297973633,
        0.09407222270965576,
        0.09488523006439209,
        0.09520912170410156,
        0.09495413303375244,
        0.09404194355010986,
        0.09246575832366943,
        0.0903468132019043,
        0.08780062198638916,
        0.08496463298797607,
        0.08192956447601318,
        0.07872426509857178,
        0.07540559768676758,
        0.0719749927520752,
        0.06843304634094238,
        0.06476032733917236,
        0.06087362766265869,
        0.05673205852508545,
        0.052332520484924316,
        0.047727346420288086,
        0.04300487041473389,
        0.03824615478515625,
        0.03349590301513672,
        0.02874135971069336,
        0.024009108543395996,
        0.019306421279907227,
        0.014646530151367188,
        0.010010123252868652,
        0.005287289619445801,
        0.00045299530029296875,
        -0.004498720169067383,
        -0.009496808052062988,
        -0.014434576034545898,
        -0.019288182258605957,
        -0.02406179904937744,
        -0.028815865516662598,
        -0.03360104560852051,
        -0.038417935371398926,
        -0.0432513952255249,
        -0.04804682731628418,
        -0.05280649662017822,
        -0.05752289295196533,
        -0.06214869022369385,
        -0.06665265560150146,
        -0.07101058959960938,
        -0.07518935203552246,
        -0.07914745807647705,
        -0.0828104019165039,
        -0.08608293533325195,
        -0.08889186382293701,
        -0.09117889404296875,
        -0.09295666217803955,
        -0.09428727626800537,
        -0.09519016742706299,
        -0.09563040733337402,
        -0.09557640552520752,
        -0.09496498107910156,
        -0.09374654293060303,
        -0.09195005893707275,
        -0.08963990211486816,
        -0.08688616752624512,
        -0.08372116088867188,
        -0.08011412620544434,
        -0.07605946063995361,
        -0.0715566873550415,
        -0.06662797927856445,
        -0.061333537101745605,
        -0.055725693702697754,
        -0.049837589263916016,
        -0.04364275932312012,
        -0.03715801239013672,
        -0.03043210506439209,
        -0.023501157760620117,
        -0.016399502754211426,
        -0.009154200553894043,
        -0.001789689064025879,
        0.005626082420349121,
        0.01300191879272461,
        0.020279407501220703,
        0.02738320827484131,
        0.03426814079284668,
        0.04089701175689697,
        0.04720616340637207,
        0.05310702323913574,
        0.05859255790710449,
        0.06370806694030762,
        0.06850099563598633,
        0.0731041431427002,
        0.0776205062866211,
        0.08206188678741455,
        0.08641374111175537,
        0.09056854248046875,
        0.09444379806518555,
        0.09807097911834717,
        0.10150456428527832,
        0.10480892658233643,
        0.1080625057220459,
        0.11134195327758789,
        0.11466598510742188,
        0.11799275875091553,
        0.12133169174194336,
        0.12464714050292969,
        0.12785184383392334,
        0.1308732032775879,
        0.13368332386016846,
        0.13631868362426758,
        0.13882768154144287,
        0.1412980556488037,
        0.14374709129333496,
        0.1461852788925171,
        0.14865076541900635,
        0.15110254287719727,
        0.15356361865997314,
        0.15608656406402588,
        0.15870440006256104,
        0.16138184070587158,
        0.16401779651641846,
        0.16655242443084717,
        0.16894948482513428,
        0.17133140563964844,
        0.17382049560546875,
        0.17648911476135254,
        0.1793990135192871,
        0.182525634765625,
        0.18587863445281982,
        0.1894739866256714,
        0.19328594207763672,
        0.19717657566070557,
        0.20100414752960205,
        0.20471787452697754,
        0.20834052562713623,
        0.21193289756774902,
        0.2154841423034668,
        0.21901726722717285,
        0.22256481647491455,
        0.22604238986968994,
        0.22931504249572754,
        0.23225295543670654,
        0.23482537269592285,
        0.2370469570159912,
        0.23885869979858398,
        0.24014687538146973,
        0.24081969261169434,
        0.2407677173614502,
        0.23992884159088135,
        0.2382974624633789,
        0.23588407039642334,
        0.23283493518829346,
        0.2292344570159912,
        0.22517144680023193,
        0.2207629680633545,
        0.21600568294525146,
        0.21090304851531982,
        0.2054058313369751,
        0.19942212104797363,
        0.19283020496368408,
        0.1854952573776245,
        0.17752337455749512,
        0.1691434383392334,
        0.16058194637298584,
        0.1519094705581665,
        0.14304256439208984,
        0.13384294509887695,
        0.12415039539337158,
        0.11391007900238037,
        0.1030813455581665,
        0.09162569046020508,
        0.07965409755706787,
        0.06739890575408936,
        0.05516397953033447,
        0.04310023784637451,
        0.03117072582244873,
        0.019317150115966797,
        0.0075685977935791016,
        -0.003940105438232422,
        -0.015060186386108398,
        -0.025677204132080078,
        -0.035745859146118164,
        -0.045325636863708496,
        -0.054540395736694336,
        -0.06351816654205322,
        -0.07225775718688965,
        -0.08060562610626221,
        -0.08826446533203125,
        -0.09501826763153076,
        -0.10087275505065918,
        -0.10588264465332031,
        -0.11013579368591309,
        -0.11380910873413086,
        -0.11709332466125488,
        -0.12007129192352295,
        -0.12276363372802734,
        -0.12521576881408691,
        -0.12737178802490234,
        -0.12913668155670166,
        -0.13057053089141846,
        -0.13190436363220215,
        -0.1333467960357666,
        -0.13485944271087646,
        -0.1363009214401245,
        -0.13771557807922363,
        -0.13928639888763428,
        -0.14108610153198242,
        -0.14311301708221436,
        -0.14538586139678955,
        -0.14795780181884766,
        -0.15078461170196533,
        -0.15359139442443848,
        -0.1561272144317627,
        -0.1583644151687622,
        -0.16051983833312988,
        -0.1629176139831543,
        -0.16570556163787842,
        -0.1686464548110962,
        -0.17130637168884277,
        -0.17351150512695312,
        -0.17543530464172363,
        -0.17725348472595215,
        -0.17892062664031982,
        -0.1802668571472168,
        -0.18123459815979004,
        -0.18191051483154297,
        -0.1824202537536621,
        -0.1827000379562378,
        -0.18249940872192383,
        -0.18168652057647705,
        -0.18027710914611816,
        -0.17841804027557373,
        -0.17629528045654297,
        -0.1739208698272705,
        -0.17116475105285645,
        -0.16795289516448975,
        -0.16432476043701172,
        -0.16040360927581787,
        -0.15628695487976074,
        -0.1519784927368164,
        -0.14741158485412598,
        -0.1425187587738037,
        -0.13728129863739014,
        -0.13173019886016846,
        -0.12593066692352295,
        -0.12000489234924316,
        -0.11407089233398438,
        -0.10821592807769775,
        -0.10251879692077637,
        -0.09698343276977539,
        -0.09157299995422363,
        -0.08623480796813965,
        -0.08087170124053955,
        -0.07539856433868408,
        -0.06978237628936768,
        -0.06402456760406494,
        -0.05816316604614258,
        -0.05224812030792236,
        -0.046396732330322266,
        -0.04072916507720947,
        -0.03536808490753174,
        -0.03040635585784912,
        -0.02578604221343994,
        -0.021445393562316895,
        -0.017293095588684082,
        -0.013260364532470703,
        -0.009328246116638184,
        -0.005497455596923828,
        -0.0018433332443237305,
        0.0015560388565063477,
        0.004591226577758789,
        0.007177948951721191,
        0.009240865707397461,
        0.010774850845336914,
        0.01189875602722168,
        0.012699604034423828,
        0.013322591781616211,
        0.013897538185119629,
        0.014467835426330566,
        0.015088319778442383,
        0.01575934886932373,
        0.016494154930114746,
        0.01735818386077881,
        0.018445134162902832,
        0.019817829132080078,
        0.021524786949157715,
        0.023568391799926758,
        0.025907158851623535,
        0.028574585914611816,
        0.031600236892700195,
        0.03496861457824707,
        0.038645029067993164,
        0.04259765148162842,
        0.04677104949951172,
        0.05110645294189453,
        0.055520057678222656,
        0.05986583232879639,
        0.06399273872375488,
        0.06779229640960693,
        0.07124590873718262,
        0.07439708709716797,
        0.07726383209228516,
        0.07987368106842041,
        0.08223450183868408,
        0.08435189723968506,
        0.08620059490203857,
        0.08774185180664062,
        0.08901393413543701,
        0.09011638164520264,
        0.09110057353973389,
        0.09195899963378906,
        0.0927431583404541,
        0.0935065746307373,
        0.09423983097076416,
        0.09489059448242188,
        0.09538328647613525,
        0.09575796127319336,
        0.0960608720779419,
        0.09629714488983154,
        0.09649133682250977,
        0.09665107727050781,
        0.09681499004364014,
        0.09700131416320801,
        0.09720909595489502,
        0.09730494022369385,
        0.09711253643035889,
        0.09654784202575684,
        0.095664381980896,
        0.09460067749023438,
        0.0933225154876709,
        0.09169185161590576,
        0.08958876132965088,
        0.0870966911315918,
        0.08436644077301025,
        0.0813138484954834,
        0.07774591445922852,
        0.07350623607635498,
        0.06850874423980713,
        0.06267261505126953,
        0.056018710136413574,
        0.04861283302307129,
        0.04032266139984131,
        0.030764102935791016,
        0.019420623779296875,
        0.005938529968261719,
        -0.009744048118591309,
        -0.02734506130218506,
        -0.04649984836578369,
        -0.0670771598815918,
        -0.08930528163909912,
        -0.11346101760864258,
        -0.13909006118774414,
        -0.16544365882873535,
        -0.19170594215393066,
        -0.21692776679992676,
        -0.24077308177947998,
        -0.26333045959472656,
        -0.28453636169433594,
        -0.30409324169158936,
        -0.32168424129486084,
        -0.33719420433044434,
        -0.3507596254348755,
        -0.3625906705856323,
        -0.3728501796722412,
        -0.38165998458862305,
        -0.38897693157196045,
        -0.39474987983703613,
        -0.3987541198730469,
        -0.400687575340271,
        -0.40056538581848145,
        -0.3984431028366089,
        -0.39425206184387207,
        -0.3880128860473633,
        -0.37991154193878174,
        -0.37013304233551025,
        -0.35886430740356445,
        -0.34626781940460205,
        -0.3325338363647461,
        -0.31802403926849365,
        -0.30312788486480713,
        -0.2883896827697754,
        -0.2740824222564697,
        -0.26011765003204346,
        -0.24661195278167725,
        -0.23375296592712402,
        -0.22170722484588623,
        -0.2106539011001587,
        -0.20056867599487305,
        -0.1913440227508545,
        -0.18298733234405518,
        -0.17551255226135254,
        -0.16887128353118896,
        -0.1630183458328247,
        -0.15789544582366943,
        -0.15324699878692627,
        -0.14869356155395508,
        -0.14390969276428223,
        -0.13878381252288818,
        -0.1335214376449585,
        -0.12838923931121826,
        -0.12361800670623779,
        -0.11918997764587402,
        -0.11469805240631104,
        -0.10970604419708252,
        -0.10406339168548584,
        -0.09801840782165527,
        -0.09185636043548584,
        -0.08572947978973389,
        -0.07960593700408936,
        -0.07327842712402344,
        -0.06659901142120361,
        -0.059532880783081055,
        -0.0522913932800293,
        -0.045038580894470215,
        -0.03775131702423096,
        -0.030428767204284668,
        -0.023017287254333496,
        -0.015425920486450195,
        -0.007490038871765137,
        0.0007032155990600586,
        0.008858084678649902,
        0.016721248626708984,
        0.024128198623657227,
        0.031126022338867188,
        0.03775370121002197,
        0.04400372505187988,
        0.04972696304321289,
        0.05476808547973633,
        0.05914771556854248,
        0.06301701068878174,
        0.06663262844085693,
        0.0701221227645874,
        0.07341301441192627,
        0.07629966735839844,
        0.07857942581176758,
        0.08021628856658936,
        0.08123636245727539,
        0.0817105770111084,
        0.08162355422973633,
        0.08096837997436523,
        0.07982873916625977,
        0.0783456563949585,
        0.0767587423324585,
        0.07512903213500977,
        0.07341992855072021,
        0.07144129276275635,
        0.0688772201538086,
        0.06573045253753662,
        0.062143564224243164,
        0.05831336975097656,
        0.05439746379852295,
        0.050476670265197754,
        0.046645283699035645,
        0.04293406009674072,
        0.03935229778289795,
        0.035895586013793945,
        0.03249561786651611,
        0.02900087833404541,
        0.025295615196228027,
        0.02149820327758789,
        0.017765045166015625,
        0.014096260070800781,
        0.010455012321472168,
        0.00691676139831543,
        0.003584742546081543,
        0.0004889965057373047,
        -0.0024014711380004883,
        -0.00509333610534668,
        -0.0076220035552978516,
        -0.010041117668151855,
        -0.012328267097473145,
        -0.014419794082641602,
        -0.01632869243621826,
        -0.01813364028930664,
        -0.019798636436462402,
        -0.021132349967956543,
        -0.02196824550628662,
        -0.022297024726867676,
        -0.022289276123046875,
        -0.022141098976135254,
        -0.021939754486083984,
        -0.021674275398254395,
        -0.021317243576049805,
        -0.020769119262695312,
        -0.019951701164245605,
        -0.018954873085021973,
        -0.017873287200927734,
        -0.0167006254196167,
        -0.015430450439453125,
        -0.014043331146240234,
        -0.012556910514831543,
        -0.011048316955566406,
        -0.00956106185913086,
        -0.008123636245727539,
        -0.006684064865112305,
        -0.0052078962326049805,
        -0.0036818981170654297,
        -0.0021257400512695312,
        -0.0006213188171386719,
        0.0008932352066040039,
        0.0024793148040771484,
        0.004159331321716309,
        0.005952954292297363,
        0.007770538330078125,
        0.009532570838928223,
        0.011179685592651367,
        0.012689828872680664,
        0.014043450355529785,
        0.015199661254882812,
        0.01617109775543213,
        0.016906261444091797,
        0.017342567443847656,
        0.01751887798309326,
        0.017481327056884766,
        0.01733720302581787,
        0.01712954044342041,
        0.016847729682922363,
        0.016550898551940918,
        0.016298770904541016,
        0.016086339950561523,
        0.015824437141418457,
        0.01554107666015625,
        0.015387296676635742,
        0.015357017517089844,
        0.015309453010559082,
        0.015203595161437988,
        0.015007734298706055,
        0.014736175537109375,
        0.014556527137756348,
        0.014637470245361328,
        0.01506507396697998,
        0.01582503318786621,
        0.016790032386779785,
        0.017794013023376465,
        0.01865100860595703,
        0.019188523292541504,
        0.019452214241027832,
        0.019864320755004883,
        0.02082681655883789,
        0.022294998168945312,
        0.02386188507080078,
        0.02507007122039795,
        0.02574896812438965,
        0.0260162353515625,
        0.026065707206726074,
        0.026061177253723145,
        0.026025772094726562,
        0.025830864906311035,
        0.025335192680358887,
        0.024461984634399414,
        0.02329707145690918,
        0.02192819118499756,
        0.020354032516479492,
        0.018604278564453125,
        0.016683101654052734,
        0.014640569686889648,
        0.012564539909362793,
        0.010662555694580078,
        0.009135007858276367,
        0.007909893989562988,
        0.006774783134460449,
        0.005591034889221191,
        0.004402518272399902,
        0.003325223922729492,
        0.0024132728576660156,
        0.0016082525253295898,
        0.0007477998733520508,
        -0.00031566619873046875,
        -0.0016340017318725586,
        -0.003015279769897461,
        -0.004178881645202637,
        -0.005008339881896973,
        -0.005551934242248535,
        -0.005870699882507324,
        -0.005863308906555176,
        -0.005256175994873047,
        -0.003634214401245117,
        -0.000599980354309082,
        0.003915905952453613,
        0.009735941886901855,
        0.016672492027282715,
        0.024623394012451172,
        0.03354799747467041,
        0.04335486888885498,
        0.053924560546875,
        0.06490087509155273,
        0.07581925392150879,
        0.0864255428314209,
        0.09660124778747559,
        0.10643243789672852,
        0.11615109443664551,
        0.12560772895812988,
        0.1346527338027954,
        0.14354395866394043,
        0.1522684097290039,
        0.16063058376312256,
        0.16849148273468018,
        0.17572474479675293,
        0.18219375610351562,
        0.18720555305480957,
        0.19020390510559082,
        0.1915452480316162,
        0.19181597232818604,
        0.19073224067687988,
        0.18737709522247314,
        0.1817624568939209,
        0.17497622966766357,
        0.16781961917877197,
        0.1598207950592041,
        0.15018057823181152,
        0.13924574851989746,
        0.12769055366516113,
        0.11568856239318848,
        0.10387122631072998,
        0.09306538105010986,
        0.08342099189758301,
        0.07436037063598633,
        0.06500899791717529,
        0.055487632751464844,
        0.0468214750289917,
        0.0401911735534668,
        0.036713361740112305,
        0.03667187690734863,
        0.038565874099731445,
        0.03991973400115967,
        0.040352582931518555,
        0.04173552989959717,
        0.04513895511627197,
        0.04935336112976074,
        0.05249762535095215,
        0.053843140602111816,
        0.0526731014251709,
        0.04808533191680908,
        0.04045248031616211,
        0.031011462211608887,
        0.020429491996765137,
        0.008535027503967285,
        -0.004960894584655762,
        -0.01990675926208496,
        -0.035344839096069336,
        -0.049695491790771484,
        -0.061628103256225586,
        -0.07101333141326904,
        -0.07891547679901123,
        -0.08643090724945068,
        -0.09388256072998047,
        -0.10116171836853027,
        -0.10799872875213623,
        -0.11407816410064697,
        -0.11931049823760986,
        -0.12375044822692871,
        -0.1272817850112915,
        -0.1295398473739624,
        -0.1302356719970703,
        -0.12917637825012207,
        -0.12613582611083984,
        -0.12075316905975342,
        -0.11277186870574951,
        -0.10260820388793945,
        -0.09097909927368164,
        -0.0784151554107666,
        -0.06509935855865479,
        -0.05111098289489746,
        -0.03688502311706543,
        -0.022862792015075684,
        -0.009287118911743164,
        0.0035675764083862305,
        0.015156269073486328,
        0.02495872974395752,
        0.03285324573516846,
        0.0391690731048584,
        0.04441678524017334,
        0.04880642890930176,
        0.052130818367004395,
        0.05400896072387695,
        0.054273247718811035,
        0.05303800106048584,
        0.05058574676513672,
        0.047147393226623535,
        0.04284501075744629,
        0.03791999816894531,
        0.03257548809051514,
        0.026985764503479004,
        0.021387457847595215,
        0.015994906425476074,
        0.01091015338897705,
        0.006133675575256348,
        0.0016078948974609375,
        -0.0027822256088256836,
        -0.007052302360534668,
        -0.011141300201416016,
        -0.01498103141784668,
        -0.018489360809326172,
        -0.021770596504211426,
        -0.024997591972351074,
        -0.028400659561157227,
        -0.03215658664703369,
        -0.03612565994262695,
        -0.04020428657531738,
        -0.04436850547790527,
        -0.04855954647064209,
        -0.05271041393280029,
        -0.05683314800262451,
        -0.06098830699920654,
        -0.06493258476257324,
        -0.06851005554199219,
        -0.07178390026092529,
        -0.0746912956237793,
        -0.07708561420440674,
        -0.0788651704788208,
        -0.08015096187591553,
        -0.08105707168579102,
        -0.08162391185760498,
        -0.08181548118591309,
        -0.08177435398101807,
        -0.08170604705810547,
        -0.08131086826324463,
        -0.08022773265838623,
        -0.07845199108123779,
        -0.07608342170715332,
        -0.07288730144500732,
        -0.06852996349334717,
        -0.06312358379364014,
        -0.05686211585998535,
        -0.04964172840118408,
        -0.041432976722717285,
        -0.03247809410095215,
        -0.02305459976196289,
        -0.013255953788757324,
        -0.003201603889465332,
        0.006862282752990723,
        0.01695072650909424,
        0.027204275131225586,
        0.03755295276641846,
        0.0476452112197876,
        0.05736720561981201,
        0.06701958179473877,
        0.07669937610626221,
        0.08636057376861572,
        0.0958327054977417,
        0.10496008396148682,
        0.11399269104003906,
        0.12320780754089355,
        0.13271832466125488,
        0.14231836795806885,
        0.15145277976989746,
        0.1601485013961792,
        0.16887712478637695,
        0.17782652378082275,
        0.18697762489318848,
        0.19589269161224365,
        0.20403587818145752,
        0.2113720178604126,
        0.21845197677612305,
        0.2258380651473999,
        0.23376309871673584,
        0.24227118492126465,
        0.2508723735809326,
        0.2589191198348999,
        0.2659912109375,
        0.2720867395401001,
        0.27797913551330566,
        0.28444647789001465,
        0.2912524938583374,
        0.29750800132751465,
        0.30279541015625,
        0.30718517303466797,
        0.3109687566757202,
        0.314145565032959,
        0.3162271976470947,
        0.3172640800476074,
        0.3175128698348999,
        0.31693947315216064,
        0.3155653476715088,
        0.3129829168319702,
        0.3088568449020386,
        0.3033618927001953,
        0.29609692096710205,
        0.2867763042449951,
        0.27578282356262207,
        0.2634847164154053,
        0.24985837936401367,
        0.23470842838287354,
        0.21859025955200195,
        0.20202410221099854,
        0.18529069423675537,
        0.16875731945037842,
        0.15273261070251465,
        0.13772964477539062,
        0.12385499477386475,
        0.11090743541717529,
        0.09858739376068115,
        0.08699369430541992,
        0.0764240026473999,
        0.06661784648895264,
        0.057431936264038086,
        0.0489506721496582,
        0.041170358657836914,
        0.03362321853637695,
        0.026155591011047363,
        0.01940751075744629,
        0.013772726058959961,
        0.009118437767028809,
        0.005098819732666016,
        0.0016077756881713867,
        -0.0014090538024902344,
        -0.0038061141967773438,
        -0.004994750022888184,
        -0.004668116569519043,
        -0.003354787826538086,
        -0.0019243955612182617,
        -0.0005826950073242188,
        0.0011818408966064453,
        0.003744959831237793,
        0.006935715675354004,
        0.010675668716430664,
        0.015171408653259277,
        0.020346522331237793,
        0.02570664882659912,
        0.03079807758331299,
        0.035607337951660156,
        0.04013943672180176,
        0.04416489601135254,
        0.047460198402404785,
        0.0499567985534668,
        0.0519556999206543,
        0.05386817455291748,
        0.05550861358642578,
        0.05607140064239502,
        0.055100083351135254,
        0.05296504497528076,
        0.05039238929748535,
        0.04771387577056885,
        0.044585466384887695,
        0.04060542583465576,
        0.03583216667175293,
        0.030585050582885742,
        0.02521991729736328,
        0.019780755043029785,
        0.013889551162719727,
        0.0072106122970581055,
        -0.00024211406707763672,
        -0.007796049118041992,
        -0.014480352401733398,
        -0.019942045211791992,
        -0.02456533908843994,
        -0.029244542121887207,
        -0.03474891185760498,
        -0.04119300842285156,
        -0.048210978507995605,
        -0.05511903762817383,
        -0.0612645149230957,
        -0.0668567419052124,
        -0.07295477390289307,
        -0.0805426836013794,
        -0.08998966217041016,
        -0.10062170028686523,
        -0.11114299297332764,
        -0.12087297439575195,
        -0.13014817237854004,
        -0.1395472288131714,
        -0.1492680311203003,
        -0.1591048240661621,
        -0.1684103012084961,
        -0.17651426792144775,
        -0.1831132173538208,
        -0.1882462501525879,
        -0.1921699047088623,
        -0.1951770782470703,
        -0.1975409984588623,
        -0.19927477836608887,
        -0.20011663436889648,
        -0.19994044303894043,
        -0.19904661178588867,
        -0.19763171672821045,
        -0.1953732967376709,
        -0.19211411476135254,
        -0.1875070333480835,
        -0.18103742599487305,
        -0.17272639274597168,
        -0.16298389434814453,
        -0.15238547325134277,
        -0.14098668098449707,
        -0.12871217727661133,
        -0.1159813404083252,
        -0.10351622104644775,
        -0.09153127670288086,
        -0.07916641235351562,
        -0.06627523899078369,
        -0.05370819568634033,
        -0.042140841484069824,
        -0.031841278076171875,
        -0.022536635398864746,
        -0.013927340507507324,
        -0.0055702924728393555,
        0.0024121999740600586,
        0.008936285972595215,
        0.013425469398498535,
        0.01655292510986328,
        0.019115686416625977,
        0.02050161361694336,
        0.020235061645507812,
        0.019057869911193848,
        0.01734626293182373,
        0.015086889266967773,
        0.012624502182006836,
        0.011332988739013672,
        0.012831568717956543,
        0.01724982261657715,
        0.023668289184570312,
        0.03130149841308594,
        0.039641499519348145,
        0.048101186752319336,
        0.05628335475921631,
        0.06394457817077637,
        0.07026934623718262,
        0.07396078109741211,
        0.07412993907928467,
        0.07102930545806885,
        0.06513524055480957,
        0.0563732385635376,
        0.045096635818481445,
        0.03213369846343994,
        0.018101930618286133,
        0.003534555435180664,
        -0.010791540145874023,
        -0.02428126335144043,
        -0.03712320327758789,
        -0.049796104431152344,
        -0.06230306625366211,
        -0.07432615756988525,
        -0.08598148822784424,
        -0.0977928638458252,
        -0.11024987697601318,
        -0.12340331077575684,
        -0.13693201541900635,
        -0.150293231010437,
        -0.16258537769317627,
        -0.1732640266418457,
        -0.18216514587402344,
        -0.1892409324645996,
        -0.19462382793426514,
        -0.19819748401641846,
        -0.1996469497680664,
        -0.1988915205001831,
        -0.1961582899093628,
        -0.19165074825286865,
        -0.1854163408279419,
        -0.1775808334350586,
        -0.16849219799041748,
        -0.15878045558929443,
        -0.1490393877029419,
        -0.13969504833221436,
        -0.1310495138168335,
        -0.12321364879608154,
        -0.11616349220275879,
        -0.1097787618637085,
        -0.1039731502532959,
        -0.098716139793396,
        -0.09399521350860596,
        -0.09005534648895264,
        -0.08716106414794922,
        -0.08530950546264648,
        -0.08442902565002441,
        -0.08435463905334473,
        -0.08458197116851807,
        -0.08450126647949219,
        -0.08408844470977783,
        -0.0838625431060791,
        -0.08424258232116699,
        -0.08513391017913818,
        -0.0859149694442749,
        -0.08625209331512451,
        -0.08621275424957275,
        -0.08578228950500488,
        -0.0850297212600708,
        -0.08408927917480469,
        -0.08292269706726074,
        -0.08108985424041748,
        -0.07843291759490967,
        -0.0754082202911377,
        -0.07236921787261963,
        -0.06933116912841797,
        -0.06619954109191895,
        -0.06307816505432129,
        -0.059948086738586426,
        -0.056641221046447754,
        -0.05339336395263672,
        -0.05074131488800049,
        -0.048998475074768066,
        -0.0479358434677124,
        -0.04719245433807373,
        -0.04659879207611084,
        -0.04603934288024902,
        -0.045389771461486816,
        -0.04466676712036133,
        -0.044194936752319336,
        -0.04414057731628418,
        -0.04435539245605469,
        -0.044652581214904785,
        -0.04496562480926514,
        -0.04521965980529785,
        -0.045185208320617676,
        -0.04473519325256348,
        -0.04402613639831543,
        -0.043244004249572754,
        -0.04220473766326904,
        -0.0406646728515625,
        -0.03866100311279297,
        -0.03633284568786621,
        -0.03383147716522217,
        -0.030994057655334473,
        -0.02755427360534668,
        -0.023667454719543457,
        -0.019904494285583496,
        -0.016718149185180664,
