{
    "in_shape": [
        null,
        null,
        1
    ],
    "layers": [
        {
            "type": "lstm",
            "activation": "",
            "shape": [
                null,
                null,
                16
            ],
            "weights": [
                [
                    [
                        0.24033160507678986,
                        0.14627507328987122,
                        0.0066405306570231915,
                        0.04701162874698639,
                        -0.1365204155445099,
                        0.06675051897764206,
                        0.11876775324344635,
                        -0.03367359936237335,
                        0.08087654411792755,
                        0.14455555379390717,
                        0.05149855464696884,
                        0.8745900988578796,
                        0.0016795494593679905,
                        0.030628394335508347,
                        0.05490439385175705,
                        -0.8901052474975586,
                        0.05787550285458565,
                        0.2313229888677597,
                        -0.08926180750131607,
                        0.11828269809484482,
                        -0.23310555517673492,
                        -0.005853485316038132,
                        -0.05917702987790108,
                        -0.19023121893405914,
                        -0.32049310207366943,
                        -0.02702641300857067,
                        0.21943645179271698,
                        0.35569578409194946,
                        0.07546126842498779,
                        -0.039254747331142426,
                        -0.11477028578519821,
                        -0.29825979471206665,
                        -3.6698837280273438,
                        -0.2599502503871918,
                        0.08246620744466782,
                        -0.010647225193679333,
                        -0.4179156422615051,
                        0.2737045884132385,
                        0.1395636945962906,
                        -0.48575112223625183,
                        0.30480241775512695,
                        0.14790213108062744,
                        -0.13834109902381897,
                        1.0243521928787231,
                        -0.02086898498237133,
                        0.09262315928936005,
                        0.13679127395153046,
                        0.9609014391899109,
                        -0.01760847307741642,
                        -0.01942269504070282,
                        0.0026207149494439363,
                        -0.0015924799954518676,
                        0.05233030021190643,
                        -0.16194897890090942,
                        -0.1279166340827942,
                        0.01706353947520256,
                        -0.22865664958953857,
                        0.09715136140584946,
                        0.029185211285948753,
                        0.2580704689025879,
                        0.0950043573975563,
                        0.01811550371348858,
                        0.008320335298776627,
                        -0.3759220838546753
                    ]
                ],
                [
                    [
                        -0.20574939250946045,
                        -0.14241324365139008,
                        0.10171844810247421,
                        0.030742323026061058,
                        0.06154339015483856,
                        -0.5082737803459167,
                        -0.021639706566929817,
                        -0.07154945284128189,
                        0.18073220551013947,
                        -0.0951143130660057,
                        0.0012116492725908756,
                        -0.044524528086185455,
                        0.21868447959423065,
                        0.08147204667329788,
                        -0.015927132219076157,
                        0.8735735416412354,
                        0.1354474127292633,
                        -0.3100701570510864,
                        -0.3855147659778595,
                        0.2817631959915161,
                        0.5122793912887573,
                        0.2988916039466858,
                        0.13018935918807983,
                        0.17179329693317413,
                        0.03990786522626877,
                        0.2629467248916626,
                        -0.04595939442515373,
                        -0.5400683879852295,
                        0.04215329885482788,
                        -0.19252647459506989,
                        -0.006053887773305178,
                        -0.023520704358816147,
                        0.341976135969162,
                        0.0016268232138827443,
                        0.12710042297840118,
                        -0.14500164985656738,
                        0.3440167307853699,
                        2.3551180362701416,
                        -0.11265106499195099,
                        0.2557953894138336,
                        0.14357057213783264,
                        0.06366348266601562,
                        2.000563859939575,
                        -0.40128323435783386,
                        -0.49539756774902344,
                        0.11624099314212799,
                        0.10235416144132614,
                        -0.2938538193702698,
                        0.27346959710121155,
                        -0.11678879708051682,
                        0.05048737674951553,
                        0.07546824216842651,
                        -0.1360263079404831,
                        -0.10217627137899399,
                        -0.03356960043311119,
                        -0.5293760299682617,
                        -0.2852104604244232,
                        -0.03646139055490494,
                        0.02311021089553833,
                        -0.2588130831718445,
                        0.06311751902103424,
                        0.07784483581781387,
                        -0.3696167469024658,
                        0.44664904475212097
                    ],
                    [
                        -0.2889429032802582,
                        -0.3764742314815521,
                        -0.6960195302963257,
                        -0.07046139985322952,
                        -0.2406303882598877,
                        0.22529485821723938,
                        1.2096282243728638,
                        -0.13132528960704803,
                        1.0027073621749878,
                        0.6599501967430115,
                        -0.4701516628265381,
                        0.6766706705093384,
                        0.8529486656188965,
                        -0.1699528992176056,
                        0.7708719968795776,
                        0.9802555441856384,
                        0.24219147861003876,
                        -0.41904619336128235,
                        -0.3115469515323639,
                        0.052066609263420105,
                        -0.22559508681297302,
                        0.002492564031854272,
                        -1.192439317703247,
                        0.3226684033870697,
                        -1.1947863101959229,
                        -0.8962557911872864,
                        0.21164818108081818,
                        -0.8195759057998657,
                        0.354673832654953,
                        -0.2677019238471985,
                        -1.5114798545837402,
                        -0.638404905796051,
                        0.03599977120757103,
                        0.3168916404247284,
                        -0.3125706613063812,
                        -0.006769656669348478,
                        0.43858495354652405,
                        0.05558757111430168,
                        0.041979555040597916,
                        0.12108393013477325,
                        -0.22881528735160828,
                        -0.05345889925956726,
                        0.13550209999084473,
                        0.19758810102939606,
                        0.12025921046733856,
                        -0.07952965795993805,
                        0.09431733936071396,
                        0.1704573631286621,
                        -0.3995845317840576,
                        -0.7034496665000916,
                        -0.4546230733394623,
                        -0.453357994556427,
                        -0.5832839608192444,
                        -0.6515929698944092,
                        -0.11989660561084747,
                        -0.11587271094322205,
                        -0.2008698284626007,
                        -0.2539999186992645,
                        -0.5358107089996338,
                        -0.1809234321117401,
                        0.5029789209365845,
                        -0.13176654279232025,
                        -0.015710417181253433,
                        -0.0877222791314125
                    ],
                    [
                        0.2830747961997986,
                        -0.06684336811304092,
                        -0.14766915142536163,
                        -0.2378470003604889,
                        0.2870732843875885,
                        0.1560063511133194,
                        -0.18136605620384216,
                        -0.1561814546585083,
                        0.00030968000646680593,
                        0.14123767614364624,
                        -0.11405883729457855,
                        -0.23378132283687592,
                        0.27527183294296265,
                        -0.5432299971580505,
                        -0.5360008478164673,
                        -0.03352255001664162,
                        -0.06175820156931877,
                        0.002045707544311881,
                        -0.2155025601387024,
                        -0.15294623374938965,
                        0.08703570812940598,
                        -0.07788527011871338,
                        0.12882080674171448,
                        -0.18327291309833527,
                        0.048314351588487625,
                        0.2148851752281189,
                        0.17606231570243835,
                        0.25919923186302185,
                        0.1286703646183014,
                        -0.3045738637447357,
                        -0.05950462073087692,
                        0.07424572110176086,
                        0.009933706372976303,
                        -0.07194284349679947,
                        0.993694007396698,
                        0.22607943415641785,
                        0.20629751682281494,
                        -0.034372687339782715,
                        0.8597047924995422,
                        0.013425690121948719,
                        0.003719705156981945,
                        0.356054425239563,
                        -0.07650703191757202,
                        -0.09507659077644348,
                        -0.7968683242797852,
                        1.0399709939956665,
                        0.3210389316082001,
                        0.0687493234872818,
                        -0.18703632056713104,
                        0.01738562248647213,
                        0.13409842550754547,
                        -0.056675124913454056,
                        -0.23895052075386047,
                        0.15434548258781433,
                        -0.025213098153471947,
                        -0.04285087063908577,
                        -0.12197206169366837,
                        -0.21012850105762482,
                        -0.07037626951932907,
                        0.030564725399017334,
                        -0.34295976161956787,
                        0.04368005320429802,
                        0.11387224495410919,
                        -0.1406341940164566
                    ],
                    [
                        -0.04190929979085922,
                        0.10441897809505463,
                        -0.020567167550325394,
                        -0.24184834957122803,
                        -0.13454467058181763,
                        1.2680795192718506,
                        -0.08565782755613327,
                        0.21872490644454956,
                        -0.1934756189584732,
                        0.01916228048503399,
                        -0.11781452596187592,
                        0.2152453362941742,
                        -0.30968114733695984,
                        0.3710889518260956,
                        -0.025341806933283806,
                        0.10572514683008194,
                        -0.15387660264968872,
                        0.1534603387117386,
                        -0.3721638321876526,
                        -0.18598929047584534,
                        0.020708318799734116,
                        -0.41146576404571533,
                        -0.18527376651763916,
                        0.3726295232772827,
                        -0.41375577449798584,
                        -0.18195758759975433,
                        0.042384952306747437,
                        -0.2113046795129776,
                        -0.3279086649417877,
                        0.096333809196949,
                        -0.06332337856292725,
                        0.06030073016881943,
                        -0.047684893012046814,
                        -0.3068469762802124,
                        -1.872672200202942,
                        0.2003052681684494,
                        -0.22868040204048157,
                        0.0442841574549675,
                        -0.16013237833976746,
                        -0.2786354422569275,
                        -0.1810809075832367,
                        0.023998036980628967,
                        -0.007769743446260691,
                        -0.03695536032319069,
                        0.1920037716627121,
                        0.039049308747053146,
                        -0.6088501811027527,
                        0.1048821210861206,
                        0.0018000142881646752,
                        0.011976107954978943,
                        -0.47743019461631775,
                        -0.3130165636539459,
                        0.061616651713848114,
                        0.06337089091539383,
                        0.20471245050430298,
                        0.2772960662841797,
                        0.3020280599594116,
                        -0.06295951455831528,
                        -0.11310476064682007,
                        0.10618168860673904,
                        -0.706426739692688,
                        -0.6834295392036438,
                        0.2840123176574707,
                        -0.38254761695861816
                    ],
                    [
                        -0.6607752442359924,
                        -0.27101218700408936,
                        -0.4752964675426483,
                        -0.17746369540691376,
                        -0.2474261373281479,
                        -0.2413870096206665,
                        0.6346704959869385,
                        0.03560455143451691,
                        1.3323915004730225,
                        0.24577996134757996,
                        -0.3819502294063568,
                        0.3906746208667755,
                        0.4441423714160919,
                        0.17470858991146088,
                        0.9035854935646057,
                        0.6953248977661133,
                        -0.5487384796142578,
                        -0.34716859459877014,
                        0.6898842453956604,
                        -0.146744504570961,
                        -0.21122193336486816,
                        -0.613149881362915,
                        -0.7742602825164795,
                        0.43040645122528076,
                        -1.2915576696395874,
                        -0.200067937374115,
                        -0.3054716885089874,
                        -1.014747142791748,
                        0.04277581721544266,
                        -0.06184820830821991,
                        -0.8608971238136292,
                        -0.6379023194313049,
                        0.021750355139374733,
                        0.3979450762271881,
                        -1.097960352897644,
                        0.9702444672584534,
                        -0.24726711213588715,
                        0.36305156350135803,
                        -0.15686453878879547,
                        0.3229145109653473,
                        -0.09782303869724274,
                        -0.10781112313270569,
                        -0.1951260268688202,
                        -0.05498100444674492,
                        -0.33692988753318787,
                        0.027713879942893982,
                        -0.36224064230918884,
                        0.055373359471559525,
                        -0.6054107546806335,
                        -0.4735223054885864,
                        0.035756971687078476,
                        -0.35773536562919617,
                        -0.572436511516571,
                        -0.38231992721557617,
                        -0.26156607270240784,
                        0.19562038779258728,
                        -0.6152665615081787,
                        -0.15748591721057892,
                        -0.4164639413356781,
                        -0.30745729804039,
                        0.21408922970294952,
                        -0.24414145946502686,
                        0.1828477829694748,
                        -0.3828374743461609
                    ],
                    [
                        0.37299102544784546,
                        -0.20702044665813446,
                        -0.21024589240550995,
                        -1.3021605014801025,
                        0.23156984150409698,
                        0.28256678581237793,
                        -0.13239040970802307,
                        0.05573798716068268,
                        -0.5421434640884399,
                        -0.05773160979151726,
                        0.08145082741975784,
                        -0.6001997590065002,
                        -0.15198914706707,
                        0.10132484883069992,
                        -0.5559278130531311,
                        -0.3020772635936737,
                        0.18596689403057098,
                        -0.8272290825843811,
                        -0.1371881663799286,
                        -1.1206448078155518,
                        -0.26701804995536804,
                        -0.2593490183353424,
                        0.38926365971565247,
                        0.5723233222961426,
                        0.4288598299026489,
                        -0.03649967908859253,
                        0.006393027026206255,
                        0.5801304578781128,
                        -0.2985033094882965,
                        0.2940504550933838,
                        0.49254700541496277,
                        0.5322074890136719,
                        -0.05447700247168541,
                        0.5430382490158081,
                        -1.59845769405365,
                        0.01110176369547844,
                        1.0657459497451782,
                        0.6224716901779175,
                        -0.36350277066230774,
                        0.06850701570510864,
                        -0.22261027991771698,
                        -0.07006394118070602,
                        -0.33535540103912354,
                        -0.03250991180539131,
                        -0.6771459579467773,
                        -0.09975670278072357,
                        -0.46290650963783264,
                        -0.13001477718353271,
                        0.10775133967399597,
                        0.04648742079734802,
                        -0.22131451964378357,
                        -0.715327799320221,
                        0.5207909941673279,
                        -0.08234681189060211,
                        -0.11598935723304749,
                        0.304230660200119,
                        -0.0053962464444339275,
                        0.11168178915977478,
                        0.020162934437394142,
                        0.09949426352977753,
                        -0.03527344390749931,
                        -0.4924391806125641,
                        -0.2347007393836975,
                        0.20095546543598175
                    ],
                    [
                        -0.05332161486148834,
                        0.034710101783275604,
                        0.15408596396446228,
                        -0.006715299095958471,
                        -0.127130389213562,
                        -0.1470625251531601,
                        0.23089952766895294,
                        0.014368242584168911,
                        -0.10738904029130936,
                        -0.27561601996421814,
                        -0.015723437070846558,
                        -0.09673246741294861,
                        0.31801915168762207,
                        0.022821761667728424,
                        -0.12285491079092026,
                        0.06858476996421814,
                        -0.16307343542575836,
                        0.03923642635345459,
                        0.010290460661053658,
                        -0.22952421009540558,
                        -0.17538927495479584,
                        -0.3682619035243988,
                        -0.17213840782642365,
                        0.2154705673456192,
                        0.00510915694758296,
                        0.0601392425596714,
                        -0.3222005367279053,
                        -0.001253583119250834,
                        0.1509190797805786,
                        -0.3058338165283203,
                        0.7256656885147095,
                        0.13437685370445251,
                        0.15473362803459167,
                        0.013515000231564045,
                        -0.39438748359680176,
                        0.08009420335292816,
                        0.2324274778366089,
                        0.18125537037849426,
                        0.2429678589105606,
                        -0.08044692128896713,
                        0.34425684809684753,
                        -0.5735624432563782,
                        0.17277096211910248,
                        -0.06829193979501724,
                        -0.06167488545179367,
                        0.30372947454452515,
                        0.19244924187660217,
                        -0.1102178692817688,
                        -0.01108025573194027,
                        -0.015164434909820557,
                        -0.06879214942455292,
                        0.0397941917181015,
                        -0.1590314656496048,
                        -0.041604842990636826,
                        0.13677847385406494,
                        0.2233017385005951,
                        0.2605065703392029,
                        -0.06672660261392593,
                        0.006143725942820311,
                        0.14205370843410492,
                        0.2588786780834198,
                        -0.007541180122643709,
                        0.2654724717140198,
                        -0.010526083409786224
                    ],
                    [
                        0.35098862648010254,
                        0.08660752326250076,
                        0.31731757521629333,
                        -0.100831039249897,
                        -0.14653199911117554,
                        0.19375047087669373,
                        -0.8239361643791199,
                        0.18506288528442383,
                        -0.111000657081604,
                        -0.26565778255462646,
                        0.2588217556476593,
                        -0.6492123007774353,
                        0.4769442677497864,
                        -0.034884754568338394,
                        -0.7249097228050232,
                        -0.42959094047546387,
                        0.46929338574409485,
                        -0.40563997626304626,
                        0.2931118309497833,
                        -0.04026862606406212,
                        -0.1858920454978943,
                        -0.2371373027563095,
                        0.819674015045166,
                        0.4571773111820221,
                        0.3614179790019989,
                        0.5581433176994324,
                        -0.15962645411491394,
                        0.5789203643798828,
                        0.3222145140171051,
                        -0.026198625564575195,
                        0.9493593573570251,
                        0.9616023898124695,
                        -0.03397605940699577,
                        0.09063990414142609,
                        -0.9539660811424255,
                        0.36255812644958496,
                        -0.2282862514257431,
                        -0.22507478296756744,
                        -0.11410748958587646,
                        -0.022769268602132797,
                        -0.3292166292667389,
                        -0.07845943421125412,
                        0.005756748840212822,
                        -0.21327029168605804,
                        -0.11214607954025269,
                        0.057883523404598236,
                        0.21990543603897095,
                        0.07345853000879288,
                        0.420870840549469,
                        0.17440085113048553,
                        -0.1522008180618286,
                        0.15741513669490814,
                        0.004218848422169685,
                        0.0054131788201630116,
                        0.16937868297100067,
                        0.4065417945384979,
                        0.3418657183647156,
                        0.4065542221069336,
                        0.24607351422309875,
                        0.3482738733291626,
                        0.3605686128139496,
                        -0.22936567664146423,
                        0.24117282032966614,
                        0.49312958121299744
                    ],
                    [
                        0.43414339423179626,
                        0.18353129923343658,
                        0.3432815372943878,
                        -0.09547562152147293,
                        0.302501380443573,
                        0.09967555105686188,
                        -0.27613475918769836,
                        -0.0975513905286789,
                        -0.06666664779186249,
                        -0.2621642053127289,
                        0.24022212624549866,
                        -0.3050597608089447,
                        -0.22887583076953888,
                        -0.12421644479036331,
                        -0.7356050610542297,
                        -0.3762344419956207,
                        -0.06997168809175491,
                        0.4337405264377594,
                        0.6898902058601379,
                        0.12358520925045013,
                        0.2931848466396332,
                        0.47381410002708435,
                        -0.028577040880918503,
                        -0.17333580553531647,
                        0.4048911929130554,
                        0.042419470846652985,
                        0.04144097492098808,
                        0.13253898918628693,
                        0.11187783628702164,
                        0.09821444004774094,
                        0.03833454102277756,
                        0.33090367913246155,
                        0.7265945672988892,
                        0.3028879165649414,
                        -0.8470206260681152,
                        0.6892660856246948,
                        0.9907755255699158,
                        0.8744304776191711,
                        -0.4482789635658264,
                        0.2623250186443329,
                        0.1662125587463379,
                        0.027253417298197746,
                        0.7491347789764404,
                        0.5019602179527283,
                        -0.2861557602882385,
                        -0.09474246948957443,
                        -0.11400669813156128,
                        -0.1533898115158081,
                        0.04335273429751396,
                        0.24837817251682281,
                        -0.299275666475296,
                        0.10653351247310638,
                        0.6176366806030273,
                        0.6374070644378662,
                        -0.06391127407550812,
                        -0.2757575511932373,
                        0.01313783973455429,
                        0.15412069857120514,
                        0.2634042799472809,
                        0.5275209546089172,
                        -0.01582750864326954,
                        -0.13458646833896637,
                        -0.21964043378829956,
                        -0.21132990717887878
                    ],
                    [
                        0.18141581118106842,
                        0.12549062073230743,
                        0.26308274269104004,
                        0.042376719415187836,
                        -0.001159643055871129,
                        -0.34649857878685,
                        0.15833255648612976,
                        -0.009545146487653255,
                        0.07064128667116165,
                        -0.07363010942935944,
                        0.1253078579902649,
                        -0.04880007728934288,
                        -0.2575250267982483,
                        0.20497986674308777,
                        -0.2354615032672882,
                        0.1190546303987503,
                        0.001700531574897468,
                        0.31919869780540466,
                        0.3803190290927887,
                        -0.06195112317800522,
                        -0.02608245424926281,
                        -0.10097959637641907,
                        0.31229671835899353,
                        -0.1204507127404213,
                        -0.025960413739085197,
                        0.06281077861785889,
                        -0.08609823882579803,
                        0.2661280930042267,
                        -0.10257093608379364,
                        -0.08337719738483429,
                        -0.4284776449203491,
                        -0.11716386675834656,
                        0.04084844887256622,
                        0.13664160668849945,
                        -0.7283348441123962,
                        0.1502140462398529,
                        0.13794735074043274,
                        0.12281335890293121,
                        1.2382278442382812,
                        -0.0948726013302803,
                        -0.1626143902540207,
                        0.33733680844306946,
                        0.281837522983551,
                        0.022937608882784843,
                        0.128308966755867,
                        -0.4572656452655792,
                        -0.7474181652069092,
                        0.06667803227901459,
                        -0.10127000510692596,
                        0.12261471897363663,
                        -0.47125038504600525,
                        0.14169231057167053,
                        0.12708723545074463,
                        0.07094559073448181,
                        0.11386219412088394,
                        -0.14145025610923767,
                        -0.1940634697675705,
                        0.3288707435131073,
                        0.15429896116256714,
                        0.3099713623523712,
                        -0.2591457664966583,
                        0.3517305254936218,
                        0.2990559935569763,
                        -0.2670845091342926
                    ],
                    [
                        0.5087494254112244,
                        0.19990478456020355,
                        0.43798863887786865,
                        0.02192237786948681,
                        0.14119890332221985,
                        -0.17901691794395447,
                        -0.12098713219165802,
                        -0.007551135960966349,
                        -0.5048648118972778,
                        0.0738154724240303,
                        -0.005700770765542984,
                        -0.4353945255279541,
                        0.3596828579902649,
                        -0.0535857230424881,
                        -0.22575511038303375,
                        0.16200792789459229,
                        0.17589913308620453,
                        0.09520921111106873,
                        0.7481627464294434,
                        0.6576566696166992,
                        0.06297396123409271,
                        0.1273283213376999,
                        0.29535186290740967,
                        0.07623423635959625,
                        0.6594359278678894,
                        -0.0011963053839281201,
                        0.2170570194721222,
                        -0.2143981158733368,
                        0.15277749300003052,
                        -0.03329332917928696,
                        -0.11434292048215866,
                        0.25967273116111755,
                        -0.249822199344635,
                        -0.6332896947860718,
                        0.9301558136940002,
                        -0.05528775602579117,
                        0.3739982843399048,
                        1.5347580909729004,
                        -0.03403455764055252,
                        0.7585530877113342,
                        0.20704351365566254,
                        -0.03656349703669548,
                        -0.3709963858127594,
                        -0.24883270263671875,
                        -0.06765439361333847,
                        -0.0294495802372694,
                        -0.03393526002764702,
                        -0.32223156094551086,
                        0.21149402856826782,
                        -0.018301120027899742,
                        0.21193931996822357,
                        0.2553485035896301,
                        -0.1502242088317871,
                        -0.2830335199832916,
                        0.013676767237484455,
                        -0.47487878799438477,
                        0.7425898909568787,
                        0.10380253195762634,
                        0.010509676299989223,
                        0.11479035764932632,
                        0.48022162914276123,
                        0.5411181449890137,
                        -0.1856367588043213,
                        0.24510648846626282
                    ],
                    [
                        -0.2742997109889984,
                        -0.09119178354740143,
                        -0.05777200311422348,
                        0.19626106321811676,
                        -0.2879626452922821,
                        0.011816672049462795,
                        0.3290459215641022,
                        -0.05955301225185394,
                        0.26911860704421997,
                        0.11963493376970291,
                        -0.01907002180814743,
                        0.5243297815322876,
                        -0.11968968063592911,
                        0.014683721587061882,
                        0.19002917408943176,
                        0.8728276491165161,
                        -0.5117899775505066,
                        -0.32229697704315186,
                        -0.15446174144744873,
                        0.24756036698818207,
                        -0.1870175153017044,
                        0.2560636103153229,
                        0.16875141859054565,
                        -0.03523009642958641,
                        0.16240599751472473,
                        0.10812274366617203,
                        0.4074210822582245,
                        -0.23788982629776,
                        -0.18624308705329895,
                        -0.09684186428785324,
                        -0.11502702534198761,
                        -0.043611809611320496,
                        1.6003894805908203,
                        -0.06712009012699127,
                        0.6351503729820251,
                        -0.42378631234169006,
                        0.2510283887386322,
                        0.8505333662033081,
                        -0.1209767684340477,
                        0.4381011724472046,
                        -0.038873035460710526,
                        -0.10711076110601425,
                        0.6991167664527893,
                        -0.6981493234634399,
                        -0.09345792233943939,
                        0.15929216146469116,
                        0.08967619389295578,
                        0.5633353590965271,
                        -0.3993906080722809,
                        -0.17784105241298676,
                        -0.037333473563194275,
                        0.04482177272439003,
                        -0.04339095577597618,
                        -0.09389740228652954,
                        -0.04251441732048988,
                        -0.3029979169368744,
                        0.5627655386924744,
                        0.056743018329143524,
                        0.016390345990657806,
                        0.2340283840894699,
                        -0.12854880094528198,
                        -0.09267895668745041,
                        0.24045205116271973,
                        -0.17408381402492523
                    ],
                    [
                        -0.008125854656100273,
                        -0.025820758193731308,
                        0.09899722784757614,
                        0.24825099110603333,
                        -0.38758477568626404,
                        -0.3066912889480591,
                        0.7034391760826111,
                        -0.002423984231427312,
                        0.1428430825471878,
                        0.3227323591709137,
                        -0.0832887515425682,
                        -0.24720722436904907,
                        0.21716247498989105,
                        0.23654910922050476,
                        0.5178337693214417,
                        -0.04276692494750023,
                        0.11069481074810028,
                        0.11386968940496445,
                        0.4386017918586731,
                        -0.02634493075311184,
                        -0.25537779927253723,
                        0.20582963526248932,
                        -0.08729954808950424,
                        -0.09427378326654434,
                        0.8170884251594543,
                        -0.24377159774303436,
                        0.3894634246826172,
                        0.11594127118587494,
                        0.19756847620010376,
                        -0.2719612121582031,
                        -0.39075806736946106,
                        0.4380662739276886,
                        0.02607158198952675,
                        0.038591887801885605,
                        0.5849986672401428,
                        0.23499086499214172,
                        0.39082953333854675,
                        -0.40503498911857605,
                        0.1953299343585968,
                        0.22198514640331268,
                        0.23147237300872803,
                        -0.15006287395954132,
                        0.04789181053638458,
                        -0.032414160668849945,
                        0.46260082721710205,
                        0.2239922285079956,
                        0.3715769946575165,
                        -0.11060098558664322,
                        -0.26801425218582153,
                        -0.1647871434688568,
                        0.06890534609556198,
                        0.14735332131385803,
                        -0.37342870235443115,
                        0.2578268051147461,
                        0.2001360058784485,
                        -0.01582023873925209,
                        0.05078616738319397,
                        0.13090813159942627,
                        -0.09649825096130371,
                        0.16871999204158783,
                        0.35365718603134155,
                        0.09062187373638153,
                        0.33626890182495117,
                        -0.23028969764709473
                    ],
                    [
                        -0.2590630352497101,
                        -0.018111390992999077,
                        -0.04159019887447357,
                        -0.07598068565130234,
                        0.10617826133966446,
                        -0.21427011489868164,
                        0.353572815656662,
                        0.15155646204948425,
                        0.3169206380844116,
                        -0.2813994586467743,
                        -0.24392448365688324,
                        0.39131879806518555,
                        0.02803710475564003,
                        -0.1385551393032074,
                        0.6075602173805237,
                        0.2088090032339096,
                        -0.02746090479195118,
                        -0.16359743475914001,
                        0.4850119948387146,
                        0.025810444727540016,
                        -0.06772194057703018,
                        -0.012355078011751175,
                        -0.11240098625421524,
                        0.3770795464515686,
                        -0.23535388708114624,
                        0.21711792051792145,
                        -0.0011020643869414926,
                        -0.4362558126449585,
                        0.008360560983419418,
                        0.5364207625389099,
                        -0.013230723328888416,
                        -0.1472361534833908,
                        0.009056976065039635,
                        0.178590789437294,
                        -0.35764431953430176,
                        -0.08328074961900711,
                        -0.05794858932495117,
                        -0.07692353427410126,
                        -0.8180162310600281,
                        0.13720738887786865,
                        0.03527063503861427,
                        0.10225391387939453,
                        0.05578060820698738,
                        0.06674578785896301,
                        0.6969901323318481,
                        -0.591934084892273,
                        -0.24974441528320312,
                        -0.03518115356564522,
                        -0.31869909167289734,
                        0.032200269401073456,
                        -0.02811104990541935,
                        0.049880657345056534,
                        -0.1598062813282013,
                        -0.20550437271595,
                        -0.011240658350288868,
                        0.25513532757759094,
                        0.008743857964873314,
                        0.25332674384117126,
                        -0.18552179634571075,
                        0.026631740853190422,
                        -0.23987610638141632,
                        0.18023720383644104,
                        0.013865814544260502,
                        -0.0016700648702681065
                    ],
                    [
                        -0.13112494349479675,
                        0.16331538558006287,
                        0.5424466729164124,
                        0.2596803605556488,
                        -0.9680049419403076,
                        -0.3063848912715912,
                        -0.46216467022895813,
                        0.2533738613128662,
                        0.341431587934494,
                        -0.17050710320472717,
                        0.1920756995677948,
                        0.19885900616645813,
                        -0.028151769191026688,
                        0.27556779980659485,
                        0.13339635729789734,
                        0.27719804644584656,
                        -0.5083099603652954,
                        -0.3813389539718628,
                        0.09442958235740662,
                        0.045027319341897964,
                        -0.8390875458717346,
                        -0.7814754843711853,
                        0.17954492568969727,
                        0.25809788703918457,
                        -0.403499573469162,
                        0.4671723246574402,
                        -0.16727100312709808,
                        -0.14407023787498474,
                        -0.22050464153289795,
                        -0.053207557648420334,
                        0.5791922807693481,
                        0.005554548930376768,
                        0.15680117905139923,
                        0.02631317265331745,
                        -0.10668163746595383,
                        0.43840211629867554,
                        0.3129136264324188,
                        0.3292559087276459,
                        -0.1862558275461197,
                        0.40676748752593994,
                        0.4842216968536377,
                        0.2977119982242584,
                        0.0410337932407856,
                        0.009441165253520012,
                        0.09511931985616684,
                        -0.16357700526714325,
                        0.43254613876342773,
                        -0.13073840737342834,
                        -0.023256316781044006,
                        0.15409523248672485,
                        0.7277624607086182,
                        0.3182050287723541,
                        -0.23079998791217804,
                        0.006211457308381796,
                        0.04354463890194893,
                        0.41582322120666504,
                        -0.3111736476421356,
                        0.1092306524515152,
                        0.2534964382648468,
                        0.3694501221179962,
                        -0.011599873192608356,
                        0.3521975576877594,
                        0.7815840244293213,
                        0.24057985842227936
                    ],
                    [
                        0.8334901332855225,
                        0.03005882352590561,
                        0.05701524764299393,
                        -0.07190591096878052,
                        0.0016859612660482526,
                        0.38425278663635254,
                        0.05000027269124985,
                        0.03572138771414757,
                        0.18577048182487488,
                        -0.038950592279434204,
                        0.0028342450968921185,
                        -0.6113674640655518,
                        0.2884668707847595,
                        -0.07676233351230621,
                        0.09781427681446075,
                        -0.1312212347984314,
                        0.7223084568977356,
                        -0.35717108845710754,
                        -0.48845934867858887,
                        0.008158843964338303,
                        0.002543134381994605,
                        0.0022403192706406116,
                        -0.09121906012296677,
                        0.029858505353331566,
                        -0.28071194887161255,
                        -0.13603490591049194,
                        -0.02005220577120781,
                        -0.1399506777524948,
                        0.058457814157009125,
                        -0.07027919590473175,
                        -0.5175175070762634,
                        0.1881556361913681,
                        1.5457463264465332,
                        0.23076274991035461,
                        0.18741095066070557,
                        -0.39500781893730164,
                        -0.6903058886528015,
                        0.4316200017929077,
                        0.13380743563175201,
                        0.5151110887527466,
                        0.32173359394073486,
                        -0.05715729296207428,
                        0.63625568151474,
                        0.42514944076538086,
                        -0.1993681937456131,
                        -0.01917179860174656,
                        0.028325147926807404,
                        -0.2995554804801941,
                        0.21839606761932373,
                        -0.11316651105880737,
                        0.06431615352630615,
                        -0.03746330365538597,
                        -0.06714098900556564,
                        -0.08944839984178543,
                        -0.21638458967208862,
                        -0.12195470184087753,
                        -0.005881208926439285,
                        0.09343466907739639,
                        -0.01036144234240055,
                        0.11833339929580688,
                        0.19016066193580627,
                        0.015074467286467552,
                        0.1202889159321785,
                        -0.13196082413196564
                    ]
                ],
                [
                    0.7367379069328308,
                    0.6982647180557251,
                    1.4881055355072021,
                    0.060453686863183975,
                    0.8040638566017151,
                    1.021196722984314,
                    -3.264564037322998,
                    0.5573849678039551,
                    -1.8279218673706055,
                    -2.703325033187866,
                    1.2189966440200806,
                    -2.535243034362793,
                    0.3434041738510132,
                    0.20746323466300964,
                    -2.286036491394043,
                    -2.262345552444458,
                    -0.30877816677093506,
                    0.3002011775970459,
                    0.3412246108055115,
                    -0.059207167476415634,
                    0.81900954246521,
                    0.44161146879196167,
                    4.040555953979492,
                    0.33517539501190186,
                    2.0665676593780518,
                    2.9940710067749023,
                    -0.07998572289943695,
                    2.412567138671875,
                    0.8174121379852295,
                    0.6689170598983765,
                    3.5797171592712402,
                    2.237233877182007,
                    -0.19525697827339172,
                    -0.7930680513381958,
                    -0.18937312066555023,
                    -0.2992880344390869,
                    -0.8188003301620483,
                    -0.4075719118118286,
                    -0.12492311745882034,
                    0.5833690166473389,
                    0.019876301288604736,
                    -0.06296104192733765,
                    -0.08401888608932495,
                    -0.13247190415859222,
                    0.09954442083835602,
                    0.028128867968916893,
                    -0.0761246606707573,
                    0.4559817314147949,
                    1.2143791913986206,
                    1.555342435836792,
                    -0.3802466094493866,
                    0.874163806438446,
                    1.2643523216247559,
                    1.0223159790039062,
                    0.7341622114181519,
                    0.7907836437225342,
                    0.570115327835083,
                    0.7315531969070435,
                    1.3603932857513428,
                    1.1758254766464233,
                    0.691723108291626,
                    0.40472498536109924,
                    0.5249574184417725,
                    1.0745761394500732
                ]
            ]
        },
        {
            "type": "dense",
            "activation": "",
            "shape": [
                null,
                null,
                1
            ],
            "weights": [
                [
                    [
                        -0.018429875373840332
                    ],
                    [
                        0.0343920923769474
                    ],
                    [
                        -0.7095942497253418
                    ],
                    [
                        -0.08609110862016678
                    ],
                    [
                        -0.006895177066326141
                    ],
                    [
                        -0.016463955864310265
                    ],
                    [
                        0.5261901021003723
                    ],
                    [
                        0.024700218811631203
                    ],
                    [
                        0.08764438331127167
                    ],
                    [
                        -0.7368877530097961
                    ],
                    [
                        0.001737812184728682
                    ],
                    [
                        -0.07175655663013458
                    ],
                    [
                        -0.07316955178976059
                    ],
                    [
                        0.7577868700027466
                    ],
                    [
                        0.011626096442341805
                    ],
                    [
                        0.018365824595093727
                    ]
                ],
                [
                    0.2073536068201065
                ]
            ]
        }
    ],
    "input_batch": [
        0.08890712261199951,
        0.07685470581054688,
        0.0653461217880249,
        0.054532408714294434,
        0.04451119899749756,
        0.035308122634887695,
        0.026958346366882324,
        0.019446253776550293,
        0.012525677680969238,
        0.005981564521789551,
        -0.00026929378509521484,
        -0.006249666213989258,
        -0.011995553970336914,
        -0.017508625984191895,
        -0.02271401882171631,
        -0.02761971950531006,
        -0.032241225242614746,
        -0.036610960960388184,
        -0.040699005126953125,
        -0.044444918632507324,
        -0.04790925979614258,
        -0.05123317241668701,
        -0.05459952354431152,
        -0.05816948413848877,
        -0.06197834014892578,
        -0.06591951847076416,
        -0.06988704204559326,
        -0.07376646995544434,
        -0.0775219202041626,
        -0.0812673568725586,
        -0.0852200984954834,
        -0.08966875076293945,
        -0.0947955846786499,
        -0.10053467750549316,
        -0.10666441917419434,
        -0.11304926872253418,
        -0.11953246593475342,
        -0.12591278553009033,
        -0.132002592086792,
        -0.13763344287872314,
        -0.1428072452545166,
        -0.1477440595626831,
        -0.15266728401184082,
        -0.15767443180084229,
        -0.16278719902038574,
        -0.16788256168365479,
        -0.17280030250549316,
        -0.17743873596191406,
        -0.18170714378356934,
        -0.18566298484802246,
        -0.18930482864379883,
        -0.1925739049911499,
        -0.1953953504562378,
        -0.19770467281341553,
        -0.19953620433807373,
        -0.20087742805480957,
        -0.20163464546203613,
        -0.20174288749694824,
        -0.20131254196166992,
        -0.20060443878173828,
        -0.19981276988983154,
        -0.19898736476898193,
        -0.19804656505584717,
        -0.196830153465271,
        -0.19518935680389404,
        -0.19313395023345947,
        -0.19076907634735107,
        -0.18827474117279053,
        -0.18589138984680176,
        -0.1838209629058838,
        -0.1821526288986206,
        -0.18084239959716797,
        -0.17979443073272705,
        -0.17878055572509766,
        -0.17766690254211426,
        -0.17643523216247559,
        -0.17515993118286133,
        -0.1739363670349121,
        -0.17273938655853271,
        -0.17163515090942383,
        -0.17070817947387695,
        -0.17007207870483398,
        -0.16979968547821045,
        -0.16981327533721924,
        -0.16993045806884766,
        -0.16990244388580322,
        -0.16958773136138916,
        -0.1689746379852295,
        -0.16806650161743164,
        -0.16679561138153076,
        -0.1650604009628296,
        -0.16283249855041504,
        -0.16023242473602295,
        -0.15746891498565674,
        -0.15467429161071777,
        -0.1518399715423584,
        -0.14881455898284912,
        -0.14543640613555908,
        -0.1416233777999878,
        -0.13732385635375977,
        -0.13252103328704834,
        -0.12722790241241455,
        -0.12140977382659912,
        -0.1149972677230835,
        -0.10812699794769287,
        -0.10091328620910645,
        -0.09338629245758057,
        -0.08561444282531738,
        -0.07770180702209473,
        -0.0697547197341919,
        -0.06180286407470703,
        -0.05381882190704346,
        -0.04577839374542236,
        -0.037773728370666504,
        -0.02981877326965332,
        -0.0217587947845459,
        -0.013584733009338379,
        -0.005498647689819336,
        0.0022115707397460938,
        0.009361028671264648,
        0.015861988067626953,
        0.02178025245666504,
        0.027471303939819336,
        0.03322553634643555,
        0.0390704870223999,
        0.044942378997802734,
        0.05073356628417969,
        0.056270599365234375,
        0.061307668685913086,
        0.06559419631958008,
        0.06905794143676758,
        0.07182455062866211,
        0.07404875755310059,
        0.07576572895050049,
        0.07687973976135254,
        0.07731044292449951,
        0.07699429988861084,
        0.07598209381103516,
        0.07441914081573486,
        0.07245373725891113,
        0.07016265392303467,
        0.06741988658905029,
        0.06401145458221436,
        0.059793949127197266,
        0.054786086082458496,
        0.049076080322265625,
        0.04292154312133789,
        0.0367201566696167,
        0.030768513679504395,
        0.025237202644348145,
        0.020194053649902344,
        0.015549659729003906,
        0.011062860488891602,
        0.006516814231872559,
        0.0016690492630004883,
        -0.0035783052444458008,
        -0.009043335914611816,
        -0.014560103416442871,
        -0.01997232437133789,
        -0.025107622146606445,
        -0.029849529266357422,
        -0.0341801643371582,
        -0.038176894187927246,
        -0.0419238805770874,
        -0.04551243782043457,
        -0.049030423164367676,
        -0.05255579948425293,
        -0.05611443519592285,
        -0.05966758728027344,
        -0.06308913230895996,
        -0.06624603271484375,
        -0.06903386116027832,
        -0.07132863998413086,
        -0.07318830490112305,
        -0.07477903366088867,
        -0.07623231410980225,
        -0.07766759395599365,
        -0.07912790775299072,
        -0.08060348033905029,
        -0.08206832408905029,
        -0.0835350751876831,
        -0.0849834680557251,
        -0.0863875150680542,
        -0.08768463134765625,
        -0.08876609802246094,
        -0.08961772918701172,
        -0.09028482437133789,
        -0.09077417850494385,
        -0.09109926223754883,
        -0.09132516384124756,
        -0.09154629707336426,
        -0.09190034866333008,
        -0.09250175952911377,
        -0.09336423873901367,
        -0.09438812732696533,
        -0.09540486335754395,
        -0.09629964828491211,
        -0.09695351123809814,
        -0.09727776050567627,
        -0.09731853008270264,
        -0.09716832637786865,
        -0.09688055515289307,
        -0.09645700454711914,
        -0.09585022926330566,
        -0.09491729736328125,
        -0.09349715709686279,
        -0.09149730205535889,
        -0.0888979434967041,
        -0.08565866947174072,
        -0.08183944225311279,
        -0.07756125926971436,
        -0.07288217544555664,
        -0.06781184673309326,
        -0.06223011016845703,
        -0.05610156059265137,
        -0.049604177474975586,
        -0.04303312301635742,
        -0.03657269477844238,
        -0.030182957649230957,
        -0.023830890655517578,
        -0.017480134963989258,
        -0.011202812194824219,
        -0.005202770233154297,
        0.00040411949157714844,
        0.005603194236755371,
        0.010437726974487305,
        0.0148468017578125,
        0.018692374229431152,
        0.02192986011505127,
        0.0246657133102417,
        0.027021288871765137,
        0.029035091400146484,
        0.030586719512939453,
        0.03155243396759033,
        0.031975388526916504,
        0.031960248947143555,
        0.03164219856262207,
        0.03116452693939209,
        0.030570149421691895,
        0.029740571975708008,
        0.028551816940307617,
        0.027022480964660645,
        0.025263190269470215,
        0.023347020149230957,
        0.021306276321411133,
        0.019191265106201172,
        0.017074108123779297,
        0.014982461929321289,
        0.012930631637573242,
        0.011011600494384766,
        0.009290933609008789,
        0.007765769958496094,
        0.006402850151062012,
        0.005133152008056641,
        0.003931283950805664,
        0.0027321577072143555,
        0.0015039443969726562,
        0.0003292560577392578,
        -0.000674128532409668,
        -0.0014024972915649414,
        -0.001804351806640625,
        -0.0017800331115722656,
        -0.001269221305847168,
        -0.00032699108123779297,
        0.000947117805480957,
        0.002516508102416992,
        0.004452705383300781,
        0.006804466247558594,
        0.00959157943725586,
        0.01270139217376709,
        0.0160750150680542,
        0.01967310905456543,
        0.023368358612060547,
        0.027097105979919434,
        0.030758142471313477,
        0.03434407711029053,
        0.03788125514984131,
        0.04126310348510742,
        0.0442659854888916,
        0.046614766120910645,
        0.048201560974121094,
        0.04912543296813965,
        0.04964029788970947,
        0.049962520599365234,
        0.05014371871948242,
        0.05012857913970947,
        0.04983675479888916,
        0.04925990104675293,
        0.048380136489868164,
        0.04710042476654053,
        0.045377135276794434,
        0.04331254959106445,
        0.04109060764312744,
        0.038783907890319824,
        0.03635132312774658,
        0.03364443778991699,
        0.030588626861572266,
        0.027303099632263184,
        0.02396368980407715,
        0.020811080932617188,
        0.017944693565368652,
        0.015338897705078125,
        0.012925505638122559,
        0.010601639747619629,
        0.008323907852172852,
        0.006069660186767578,
        0.0038775205612182617,
        0.001814126968383789,
        -0.00012803077697753906,
        -0.001978278160095215,
        -0.003760099411010742,
        -0.0054596662521362305,
        -0.007068753242492676,
        -0.008604645729064941,
        -0.010076761245727539,
        -0.0114821195602417,
        -0.012848258018493652,
        -0.014246225357055664,
        -0.015692472457885742,
        -0.01719212532043457,
        -0.0187608003616333,
        -0.020316243171691895,
        -0.021687865257263184,
        -0.022744178771972656,
        -0.023395895957946777,
        -0.02367424964904785,
        -0.023686766624450684,
        -0.023559212684631348,
        -0.02353835105895996,
        -0.023810148239135742,
        -0.024420976638793945,
        -0.025281429290771484,
        -0.026275038719177246,
        -0.02729785442352295,
        -0.028254151344299316,
        -0.029113173484802246,
        -0.029862523078918457,
        -0.030559778213500977,
        -0.031292080879211426,
        -0.032172203063964844,
        -0.0333104133605957,
        -0.03469491004943848,
        -0.03616642951965332,
        -0.03746485710144043,
        -0.03835141658782959,
        -0.03867208957672119,
        -0.038384437561035156,
        -0.03746497631072998,
        -0.03588759899139404,
        -0.03366267681121826,
        -0.030804753303527832,
        -0.027373194694519043,
        -0.023534536361694336,
        -0.019438862800598145,
        -0.015193939208984375,
        -0.010837078094482422,
        -0.006299853324890137,
        -0.0014376640319824219,
        0.0038427114486694336,
        0.009543776512145996,
        0.01564168930053711,
        0.022014617919921875,
        0.02853548526763916,
        0.03507280349731445,
        0.041413187980651855,
        0.047380924224853516,
        0.052945852279663086,
        0.05824482440948486,
        0.0635983943939209,
        0.06930017471313477,
        0.07545745372772217,
        0.08200514316558838,
        0.08876204490661621,
        0.0954751968383789,
        0.10194063186645508,
        0.10813772678375244,
        0.11412465572357178,
        0.11989188194274902,
        0.12540817260742188,
        0.13065004348754883,
        0.13551747798919678,
        0.13996493816375732,
        0.14400458335876465,
        0.14764666557312012,
        0.1509488821029663,
        0.153936505317688,
        0.15665125846862793,
        0.15916800498962402,
        0.16149985790252686,
        0.163557767868042,
        0.1652536392211914,
        0.1665053367614746,
        0.16722917556762695,
        0.16746926307678223,
        0.16731905937194824,
        0.16686558723449707,
        0.1661592721939087,
        0.16517388820648193,
        0.16384673118591309,
        0.16212892532348633,
        0.15992379188537598,
        0.1572057008743286,
        0.15409469604492188,
        0.15064311027526855,
        0.14686822891235352,
        0.1427854299545288,
        0.13837194442749023,
        0.13358283042907715,
        0.12836873531341553,
        0.12267875671386719,
        0.11648714542388916,
        0.10981261730194092,
        0.10262274742126465,
        0.09489047527313232,
        0.08663547039031982,
        0.07785844802856445,
        0.06863725185394287,
        0.059093356132507324,
        0.049382805824279785,
        0.03961348533630371,
        0.029848098754882812,
        0.020093560218811035,
        0.010236620903015137,
        0.00021505355834960938,
        -0.009972095489501953,
        -0.020226001739501953,
        -0.030455946922302246,
        -0.04052531719207764,
        -0.050289154052734375,
        -0.05972552299499512,
        -0.06886005401611328,
        -0.07784080505371094,
        -0.0867767333984375,
        -0.09571337699890137,
        -0.1045914888381958,
        -0.11325192451477051,
        -0.12151956558227539,
        -0.12922298908233643,
        -0.1362835168838501,
        -0.14263927936553955,
        -0.1482940912246704,
        -0.1532684564590454,
        -0.15757524967193604,
        -0.16122519969940186,
        -0.1642622947692871,
        -0.16681206226348877,
        -0.16893625259399414,
        -0.17068421840667725,
        -0.17207610607147217,
        -0.17307233810424805,
        -0.17363691329956055,
        -0.1737598180770874,
        -0.17346549034118652,
        -0.17271947860717773,
        -0.17148637771606445,
        -0.16977882385253906,
        -0.16760897636413574,
        -0.16502392292022705,
        -0.16216707229614258,
        -0.1592104434967041,
        -0.15623486042022705,
        -0.15324032306671143,
        -0.1501682996749878,
        -0.14697551727294922,
        -0.14366364479064941,
        -0.14021897315979004,
        -0.13671469688415527,
        -0.13324189186096191,
        -0.12983334064483643,
        -0.12648701667785645,
        -0.12318646907806396,
        -0.11989593505859375,
        -0.11658215522766113,
        -0.11322450637817383,
        -0.10980117321014404,
        -0.10633063316345215,
        -0.10277009010314941,
        -0.09906196594238281,
        -0.09512495994567871,
        -0.09084725379943848,
        -0.08619320392608643,
        -0.08116018772125244,
        -0.07574772834777832,
        -0.06996405124664307,
        -0.0638279914855957,
        -0.05738401412963867,
        -0.05070388317108154,
        -0.043877243995666504,
        -0.03686964511871338,
        -0.029566407203674316,
        -0.021921396255493164,
        -0.013936519622802734,
        -0.005740642547607422,
        0.002494215965270996,
        0.010594964027404785,
        0.018350601196289062,
        0.025620341300964355,
        0.032303452491760254,
        0.03835153579711914,
        0.04381203651428223,
        0.04878711700439453,
        0.05340433120727539,
        0.05774569511413574,
        0.0618366003036499,
        0.06566691398620605,
        0.06917035579681396,
        0.07234203815460205,
        0.07526206970214844,
        0.07799792289733887,
        0.08058881759643555,
        0.08302938938140869,
        0.08532822132110596,
        0.08749306201934814,
        0.08949458599090576,
        0.09129893779754639,
        0.09285402297973633,
        0.09407222270965576,
        0.09488523006439209,
        0.09520912170410156,
        0.09495413303375244,
        0.09404194355010986,
        0.09246575832366943,
        0.0903468132019043,
        0.08780062198638916,
        0.08496463298797607,
        0.08192956447601318,
        0.07872426509857178,
        0.07540559768676758,
        0.0719749927520752,
        0.06843304634094238,
        0.06476032733917236,
        0.06087362766265869,
        0.05673205852508545,
        0.052332520484924316,
        0.047727346420288086,
        0.04300487041473389,
        0.03824615478515625,
        0.03349590301513672,
        0.02874135971069336,
        0.024009108543395996,
        0.019306421279907227,
        0.014646530151367188,
        0.010010123252868652,
        0.005287289619445801,
        0.00045299530029296875,
        -0.004498720169067383,
        -0.009496808052062988,
        -0.014434576034545898,
        -0.019288182258605957,
        -0.02406179904937744,
        -0.028815865516662598,
        -0.03360104560852051,
        -0.038417935371398926,
        -0.0432513952255249,
        -0.04804682731628418,
        -0.05280649662017822,
        -0.05752289295196533,
        -0.06214869022369385,
        -0.06665265560150146,
        -0.07101058959960938,
        -0.07518935203552246,
        -0.07914745807647705,
        -0.0828104019165039,
        -0.08608293533325195,
        -0.08889186382293701,
        -0.09117889404296875,
        -0.09295666217803955,
        -0.09428727626800537,
        -0.09519016742706299,
        -0.09563040733337402,
        -0.09557640552520752,
        -0.09496498107910156,
        -0.09374654293060303,
        -0.09195005893707275,
        -0.08963990211486816,
        -0.08688616752624512,
        -0.08372116088867188,
        -0.08011412620544434,
        -0.07605946063995361,
        -0.0715566873550415,
        -0.06662797927856445,
        -0.061333537101745605,
        -0.055725693702697754,
        -0.049837589263916016,
        -0.04364275932312012,
        -0.03715801239013672,
        -0.03043210506439209,
        -0.023501157760620117,
        -0.016399502754211426,
        -0.009154200553894043,
        -0.001789689064025879,
        0.005626082420349121,
        0.01300191879272461,
        0.020279407501220703,
        0.02738320827484131,
        0.03426814079284668,
        0.04089701175689697,
        0.04720616340637207,
        0.05310702323913574,
        0.05859255790710449,
        0.06370806694030762,
        0.06850099563598633,
        0.0731041431427002,
        0.0776205062866211,
        0.08206188678741455,
        0.08641374111175537,
        0.09056854248046875,
        0.09444379806518555,
        0.09807097911834717,
        0.10150456428527832,
        0.10480892658233643,
        0.1080625057220459,
        0.11134195327758789,
        0.11466598510742188,
        0.11799275875091553,
        0.12133169174194336,
        0.12464714050292969,
        0.12785184383392334,
        0.1308732032775879,
        0.13368332386016846,
        0.13631868362426758,
        0.13882768154144287,
        0.1412980556488037,
        0.14374709129333496,
        0.1461852788925171,
        0.14865076541900635,
        0.15110254287719727,
        0.15356361865997314,
        0.15608656406402588,
        0.15870440006256104,
        0.16138184070587158,
        0.16401779651641846,
        0.16655242443084717,
        0.16894948482513428,
        0.17133140563964844,
        0.17382049560546875,
        0.17648911476135254,
        0.1793990135192871,
        0.182525634765625,
        0.18587863445281982,
        0.1894739866256714,
        0.19328594207763672,
        0.19717657566070557,
        0.20100414752960205,
        0.20471787452697754,
        0.20834052562713623,
        0.21193289756774902,
        0.2154841423034668,
        0.21901726722717285,
        0.22256481647491455,
        0.22604238986968994,
        0.22931504249572754,
        0.23225295543670654,
        0.23482537269592285,
        0.2370469570159912,
        0.23885869979858398,
        0.24014687538146973,
        0.24081969261169434,
        0.2407677173614502,
        0.23992884159088135,
        0.2382974624633789,
        0.23588407039642334,
        0.23283493518829346,
        0.2292344570159912,
        0.22517144680023193,
        0.2207629680633545,
        0.21600568294525146,
        0.21090304851531982,
        0.2054058313369751,
        0.19942212104797363,
        0.19283020496368408,
        0.1854952573776245,
        0.17752337455749512,
        0.1691434383392334,
        0.16058194637298584,
        0.1519094705581665,
        0.14304256439208984,
        0.13384294509887695,
        0.12415039539337158,
        0.11391007900238037,
        0.1030813455581665,
        0.09162569046020508,
        0.07965409755706787,
        0.06739890575408936,
        0.05516397953033447,
        0.04310023784637451,
        0.03117072582244873,
        0.019317150115966797,
        0.0075685977935791016,
        -0.003940105438232422,
        -0.015060186386108398,
        -0.025677204132080078,
        -0.035745859146118164,
        -0.045325636863708496,
        -0.054540395736694336,
        -0.06351816654205322,
        -0.07225775718688965,
        -0.08060562610626221,
        -0.08826446533203125,
        -0.09501826763153076,
        -0.10087275505065918,
        -0.10588264465332031,
        -0.11013579368591309,
        -0.11380910873413086,
        -0.11709332466125488,
        -0.12007129192352295,
        -0.12276363372802734,
        -0.12521576881408691,
        -0.12737178802490234,
        -0.12913668155670166,
        -0.13057053089141846,
        -0.13190436363220215,
        -0.1333467960357666,
        -0.13485944271087646,
        -0.1363009214401245,
        -0.13771557807922363,
        -0.13928639888763428,
        -0.14108610153198242,
        -0.14311301708221436,
        -0.14538586139678955,
        -0.14795780181884766,
        -0.15078461170196533,
        -0.15359139442443848,
        -0.1561272144317627,
        -0.1583644151687622,
        -0.16051983833312988,
        -0.1629176139831543,
        -0.16570556163787842,
        -0.1686464548110962,
        -0.17130637168884277,
        -0.17351150512695312,
        -0.17543530464172363,
        -0.17725348472595215,
        -0.17892062664031982,
        -0.1802668571472168,
        -0.18123459815979004,
        -0.18191051483154297,
        -0.1824202537536621,
        -0.1827000379562378,
        -0.18249940872192383,
        -0.18168652057647705,
        -0.18027710914611816,
        -0.17841804027557373,
        -0.17629528045654297,
        -0.1739208698272705,
        -0.17116475105285645,
        -0.16795289516448975,
        -0.16432476043701172,
        -0.16040360927581787,
        -0.15628695487976074,
        -0.1519784927368164,
        -0.14741158485412598,
        -0.1425187587738037,
        -0.13728129863739014,
        -0.13173019886016846,
        -0.12593066692352295,
        -0.12000489234924316,
        -0.11407089233398438,
        -0.10821592807769775,
        -0.10251879692077637,
        -0.09698343276977539,
        -0.09157299995422363,
        -0.08623480796813965,
        -0.08087170124053955,
        -0.07539856433868408,
        -0.06978237628936768,
        -0.06402456760406494,
        -0.05816316604614258,
        -0.05224812030792236,
        -0.046396732330322266,
        -0.04072916507720947,
        -0.03536808490753174,
        -0.03040635585784912,
        -0.02578604221343994,
        -0.021445393562316895,
        -0.017293095588684082,
        -0.013260364532470703,
        -0.009328246116638184,
        -0.005497455596923828,
        -0.0018433332443237305,
        0.0015560388565063477,
        0.004591226577758789,
        0.007177948951721191,
        0.009240865707397461,
        0.010774850845336914,
        0.01189875602722168,
        0.012699604034423828,
        0.013322591781616211,
        0.013897538185119629,
        0.014467835426330566,
        0.015088319778442383,
        0.01575934886932373,
        0.016494154930114746,
        0.01735818386077881,
        0.018445134162902832,
        0.019817829132080078,
        0.021524786949157715,
        0.023568391799926758,
        0.025907158851623535,
        0.028574585914611816,
        0.031600236892700195,
        0.03496861457824707,
        0.038645029067993164,
        0.04259765148162842,
        0.04677104949951172,
        0.05110645294189453,
        0.055520057678222656,
        0.05986583232879639,
        0.06399273872375488,
        0.06779229640960693,
        0.07124590873718262,
        0.07439708709716797,
        0.07726383209228516,
        0.07987368106842041,
        0.08223450183868408,
        0.08435189723968506,
        0.08620059490203857,
        0.08774185180664062,
        0.08901393413543701,
        0.09011638164520264,
        0.09110057353973389,
        0.09195899963378906,
        0.0927431583404541,
        0.0935065746307373,
        0.09423983097076416,
        0.09489059448242188,
        0.09538328647613525,
        0.09575796127319336,
        0.0960608720779419,
        0.09629714488983154,
        0.09649133682250977,
        0.09665107727050781,
        0.09681499004364014,
        0.09700131416320801,
        0.09720909595489502,
        0.09730494022369385,
        0.09711253643035889,
        0.09654784202575684,
        0.095664381980896,
        0.09460067749023438,
        0.0933225154876709,
        0.09169185161590576,
        0.08958876132965088,
        0.0870966911315918,
        0.08436644077301025,
        0.0813138484954834,
        0.07774591445922852,
        0.07350623607635498,
        0.06850874423980713,
        0.06267261505126953,
        0.056018710136413574,
        0.04861283302307129,
        0.04032266139984131,
        0.030764102935791016,
        0.019420623779296875,
        0.005938529968261719,
        -0.009744048118591309,
        -0.02734506130218506,
        -0.04649984836578369,
        -0.0670771598815918,
        -0.08930528163909912,
        -0.11346101760864258,
        -0.13909006118774414,
        -0.16544365882873535,
        -0.19170594215393066,
        -0.21692776679992676,
        -0.24077308177947998,
        -0.26333045959472656,
        -0.28453636169433594,
        -0.30409324169158936,
        -0.32168424129486084,
        -0.33719420433044434,
        -0.3507596254348755,
        -0.3625906705856323,
        -0.3728501796722412,
        -0.38165998458862305,
        -0.38897693157196045,
        -0.39474987983703613,
        -0.3987541198730469,
        -0.400687575340271,
        -0.40056538581848145,
        -0.3984431028366089,
        -0.39425206184387207,
        -0.3880128860473633,
        -0.37991154193878174,
        -0.37013304233551025,
        -0.35886430740356445,
        -0.34626781940460205,
        -0.3325338363647461,
        -0.31802403926849365,
        -0.30312788486480713,
        -0.2883896827697754,
        -0.2740824222564697,
        -0.26011765003204346,
        -0.24661195278167725,
        -0.23375296592712402,
        -0.22170722484588623,
        -0.2106539011001587,
        -0.20056867599487305,
        -0.1913440227508545,
        -0.18298733234405518,
        -0.17551255226135254,
        -0.16887128353118896,
        -0.1630183458328247,
        -0.15789544582366943,
        -0.15324699878692627,
        -0.14869356155395508,
        -0.14390969276428223,
        -0.13878381252288818,
        -0.1335214376449585,
        -0.12838923931121826,
        -0.12361800670623779,
        -0.11918997764587402,
        -0.11469805240631104,
        -0.10970604419708252,
        -0.10406339168548584,
        -0.09801840782165527,
        -0.09185636043548584,
        -0.08572947978973389,
        -0.07960593700408936,
        -0.07327842712402344,
        -0.06659901142120361,
        -0.059532880783081055,
        -0.0522913932800293,
        -0.045038580894470215,
        -0.03775131702423096,
        -0.030428767204284668,
        -0.023017287254333496,
        -0.015425920486450195,
        -0.007490038871765137,
        0.0007032155990600586,
        0.008858084678649902,
        0.016721248626708984,
        0.024128198623657227,
        0.031126022338867188,
        0.03775370121002197,
        0.04400372505187988,
        0.04972696304321289,
        0.05476808547973633,
        0.05914771556854248,
        0.06301701068878174,
        0.06663262844085693,
        0.0701221227645874,
        0.07341301441192627,
        0.07629966735839844,
        0.07857942581176758,
        0.08021628856658936,
        0.08123636245727539,
        0.0817105770111084,
        0.08162355422973633,
        0.08096837997436523,
        0.07982873916625977,
        0.0783456563949585,
        0.0767587423324585,
        0.07512903213500977,
        0.07341992855072021,
        0.07144129276275635,
        0.0688772201538086,
        0.06573045253753662,
        0.062143564224243164,
        0.05831336975097656,
        0.05439746379852295,
        0.050476670265197754,
        0.046645283699035645,
        0.04293406009674072,
        0.03935229778289795,
        0.035895586013793945,
        0.03249561786651611,
        0.02900087833404541,
        0.025295615196228027,
        0.02149820327758789,
        0.017765045166015625,
        0.014096260070800781,
        0.010455012321472168,
        0.00691676139831543,
        0.003584742546081543,
        0.0004889965057373047,
        -0.0024014711380004883,
        -0.00509333610534668,
        -0.0076220035552978516,
        -0.010041117668151855,
        -0.012328267097473145,
        -0.014419794082641602,
        -0.01632869243621826,
        -0.01813364028930664,
        -0.019798636436462402,
        -0.021132349967956543,
        -0.02196824550628662,
        -0.022297024726867676,
        -0.022289276123046875,
        -0.022141098976135254,
        -0.021939754486083984,
        -0.021674275398254395,
        -0.021317243576049805,
        -0.020769119262695312,
        -0.019951701164245605,
        -0.018954873085021973,
        -0.017873287200927734,
        -0.0167006254196167,
        -0.015430450439453125,
        -0.014043331146240234,
        -0.012556910514831543,
        -0.011048316955566406,
        -0.00956106185913086,
        -0.008123636245727539,
        -0.006684064865112305,
        -0.0052078962326049805,
        -0.0036818981170654297,
        -0.0021257400512695312,
        -0.0006213188171386719,
        0.0008932352066040039,
        0.0024793148040771484,
        0.004159331321716309,
        0.005952954292297363,
        0.007770538330078125,
        0.009532570838928223,
        0.011179685592651367,
        0.012689828872680664,
        0.014043450355529785,
        0.015199661254882812,
        0.01617109775543213,
        0.016906261444091797,
        0.017342567443847656,
        0.01751887798309326,
        0.017481327056884766,
        0.01733720302581787,
        0.01712954044342041,
        0.016847729682922363,
        0.016550898551940918,
        0.016298770904541016,
        0.016086339950561523,
        0.015824437141418457,
        0.01554107666015625,
        0.015387296676635742,
        0.015357017517089844,
        0.015309453010559082,
        0.015203595161437988,
        0.015007734298706055,
        0.014736175537109375,
        0.014556527137756348,
        0.014637470245361328,
        0.01506507396697998,
        0.01582503318786621,
        0.016790032386779785,
        0.017794013023376465,
        0.01865100860595703,
        0.019188523292541504,
        0.019452214241027832,
        0.019864320755004883,
        0.02082681655883789,
        0.022294998168945312,
        0.02386188507080078,
        0.02507007122039795,
        0.02574896812438965,
        0.0260162353515625,
        0.026065707206726074,
        0.026061177253723145,
        0.026025772094726562,
        0.025830864906311035,
        0.025335192680358887,
        0.024461984634399414,
        0.02329707145690918,
        0.02192819118499756,
        0.020354032516479492,
        0.018604278564453125,
        0.016683101654052734,
        0.014640569686889648,
        0.012564539909362793,
        0.010662555694580078,
        0.009135007858276367,
        0.007909893989562988,
        0.006774783134460449,
        0.005591034889221191,
        0.004402518272399902,
        0.003325223922729492,
        0.0024132728576660156,
        0.0016082525253295898,
        0.0007477998733520508,
        -0.00031566619873046875,
        -0.0016340017318725586,
        -0.003015279769897461,
        -0.004178881645202637,
        -0.005008339881896973,
        -0.005551934242248535,
        -0.005870699882507324,
        -0.005863308906555176,
        -0.005256175994873047,
        -0.003634214401245117,
        -0.000599980354309082,
        0.003915905952453613,
        0.009735941886901855,
        0.016672492027282715,
        0.024623394012451172,
        0.03354799747467041,
        0.04335486888885498,
        0.053924560546875,
        0.06490087509155273,
        0.07581925392150879,
        0.0864255428314209,
        0.09660124778747559,
        0.10643243789672852,
        0.11615109443664551,
        0.12560772895812988,
        0.1346527338027954,
        0.14354395866394043,
        0.1522684097290039,
        0.16063058376312256,
        0.16849148273468018,
        0.17572474479675293,
        0.18219375610351562,
        0.18720555305480957,
        0.19020390510559082,
        0.1915452480316162,
        0.19181597232818604,
        0.19073224067687988,
        0.18737709522247314,
        0.1817624568939209,
        0.17497622966766357,
        0.16781961917877197,
        0.1598207950592041,
        0.15018057823181152,
        0.13924574851989746,
        0.12769055366516113,
        0.11568856239318848,
        0.10387122631072998,
        0.09306538105010986,
        0.08342099189758301,
        0.07436037063598633,
        0.06500899791717529,
        0.055487632751464844,
        0.0468214750289917,
        0.0401911735534668,
        0.036713361740112305,
        0.03667187690734863,
        0.038565874099731445,
        0.03991973400115967,
        0.040352582931518555,
        0.04173552989959717,
        0.04513895511627197,
        0.04935336112976074,
        0.05249762535095215,
        0.053843140602111816,
        0.0526731014251709,
        0.04808533191680908,
        0.04045248031616211,
        0.031011462211608887,
        0.020429491996765137,
        0.008535027503967285,
        -0.004960894584655762,
        -0.01990675926208496,
        -0.035344839096069336,
        -0.049695491790771484,
        -0.061628103256225586,
        -0.07101333141326904,
        -0.07891547679901123,
        -0.08643090724945068,
        -0.09388256072998047,
        -0.10116171836853027,
        -0.10799872875213623,
        -0.11407816410064697,
        -0.11931049823760986,
        -0.12375044822692871,
        -0.1272817850112915,
        -0.1295398473739624,
        -0.1302356719970703,
        -0.12917637825012207,
        -0.12613582611083984,
        -0.12075316905975342,
        -0.11277186870574951,
        -0.10260820388793945,
        -0.09097909927368164,
        -0.0784151554107666,
        -0.06509935855865479,
        -0.05111098289489746,
        -0.03688502311706543,
        -0.022862792015075684,
        -0.009287118911743164,
        0.0035675764083862305,
        0.015156269073486328,
        0.02495872974395752,
        0.03285324573516846,
        0.0391690731048584,
        0.04441678524017334,
        0.04880642890930176,
        0.052130818367004395,
        0.05400896072387695,
        0.054273247718811035,
        0.05303800106048584,
        0.05058574676513672,
        0.047147393226623535,
        0.04284501075744629,
        0.03791999816894531,
        0.03257548809051514,
        0.026985764503479004,
        0.021387457847595215,
        0.015994906425476074,
        0.01091015338897705,
        0.006133675575256348,
        0.0016078948974609375,
        -0.0027822256088256836,
        -0.007052302360534668,
        -0.011141300201416016,
        -0.01498103141784668,
        -0.018489360809326172,
        -0.021770596504211426,
        -0.024997591972351074,
        -0.028400659561157227,
        -0.03215658664703369,
        -0.03612565994262695,
        -0.04020428657531738,
        -0.04436850547790527,
        -0.04855954647064209,
        -0.05271041393280029,
        -0.05683314800262451,
        -0.06098830699920654,
        -0.06493258476257324,
        -0.06851005554199219,
        -0.07178390026092529,
        -0.0746912956237793,
        -0.07708561420440674,
        -0.0788651704788208,
        -0.08015096187591553,
        -0.08105707168579102,
        -0.08162391185760498,
        -0.08181548118591309,
        -0.08177435398101807,
        -0.08170604705810547,
        -0.08131086826324463,
        -0.08022773265838623,
        -0.07845199108123779,
        -0.07608342170715332,
        -0.07288730144500732,
        -0.06852996349334717,
        -0.06312358379364014,
        -0.05686211585998535,
        -0.04964172840118408,
        -0.041432976722717285,
        -0.03247809410095215,
        -0.02305459976196289,
        -0.013255953788757324,
        -0.003201603889465332,
        0.006862282752990723,
        0.01695072650909424,
        0.027204275131225586,
        0.03755295276641846,
        0.0476452112197876,
        0.05736720561981201,
        0.06701958179473877,
        0.07669937610626221,
        0.08636057376861572,
        0.0958327054977417,
        0.10496008396148682,
        0.11399269104003906,
        0.12320780754089355,
        0.13271832466125488,
        0.14231836795806885,
        0.15145277976989746,
        0.1601485013961792,
        0.16887712478637695,
        0.17782652378082275,
        0.18697762489318848,
        0.19589269161224365,
        0.20403587818145752,
        0.2113720178604126,
        0.21845197677612305,
        0.2258380651473999,
        0.23376309871673584,
        0.24227118492126465,
        0.2508723735809326,
        0.2589191198348999,
        0.2659912109375,
        0.2720867395401001,
        0.27797913551330566,
        0.28444647789001465,
        0.2912524938583374,
        0.29750800132751465,
        0.30279541015625,
        0.30718517303466797,
        0.3109687566757202,
        0.314145565032959,
        0.3162271976470947,
        0.3172640800476074,
        0.3175128698348999,
        0.31693947315216064,
        0.3155653476715088,
        0.3129829168319702,
        0.3088568449020386,
        0.3033618927001953,
        0.29609692096710205,
        0.2867763042449951,
        0.27578282356262207,
        0.2634847164154053,
        0.24985837936401367,
        0.23470842838287354,
        0.21859025955200195,
        0.20202410221099854,
        0.18529069423675537,
        0.16875731945037842,
        0.15273261070251465,
        0.13772964477539062,
        0.12385499477386475,
        0.11090743541717529,
        0.09858739376068115,
        0.08699369430541992,
        0.0764240026473999,
        0.06661784648895264,
        0.057431936264038086,
        0.0489506721496582,
        0.041170358657836914,
        0.03362321853637695,
        0.026155591011047363,
        0.01940751075744629,
        0.013772726058959961,
        0.009118437767028809,
        0.005098819732666016,
        0.0016077756881713867,
        -0.0014090538024902344,
        -0.0038061141967773438,
        -0.004994750022888184,
        -0.004668116569519043,
        -0.003354787826538086,
        -0.0019243955612182617,
        -0.0005826950073242188,
        0.0011818408966064453,
        0.003744959831237793,
        0.006935715675354004,
        0.010675668716430664,
        0.015171408653259277,
        0.020346522331237793,
        0.02570664882659912,
        0.03079807758331299,
        0.035607337951660156,
        0.04013943672180176,
        0.04416489601135254,
        0.047460198402404785,
        0.0499567985534668,
        0.0519556999206543,
        0.05386817455291748,
        0.05550861358642578,
        0.05607140064239502,
        0.055100083351135254,
        0.05296504497528076,
        0.05039238929748535,
        0.04771387577056885,
        0.044585466384887695,
        0.04060542583465576,
        0.03583216667175293,
        0.030585050582885742,
        0.02521991729736328,
        0.019780755043029785,
        0.013889551162719727,
        0.0072106122970581055,
        -0.00024211406707763672,
        -0.007796049118041992,
        -0.014480352401733398,
        -0.019942045211791992,
        -0.02456533908843994,
        -0.029244542121887207,
        -0.03474891185760498,
        -0.04119300842285156,
        -0.048210978507995605,
        -0.05511903762817383,
        -0.0612645149230957,
        -0.0668567419052124,
        -0.07295477390289307,
        -0.0805426836013794,
        -0.08998966217041016,
        -0.10062170028686523,
        -0.11114299297332764,
        -0.12087297439575195,
        -0.13014817237854004,
        -0.1395472288131714,
        -0.1492680311203003,
        -0.1591048240661621,
        -0.1684103012084961,
        -0.17651426792144775,
        -0.1831132173538208,
        -0.1882462501525879,
        -0.1921699047088623,
        -0.1951770782470703,
        -0.1975409984588623,
        -0.19927477836608887,
        -0.20011663436889648,
        -0.19994044303894043,
        -0.19904661178588867,
        -0.19763171672821045,
        -0.1953732967376709,
        -0.19211411476135254,
        -0.1875070333480835,
        -0.18103742599487305,
        -0.17272639274597168,
        -0.16298389434814453,
        -0.15238547325134277,
        -0.14098668098449707,
        -0.12871217727661133,
        -0.1159813404083252,
        -0.10351622104644775,
        -0.09153127670288086,
        -0.07916641235351562,
        -0.06627523899078369,
        -0.05370819568634033,
        -0.042140841484069824,
        -0.031841278076171875,
        -0.022536635398864746,
        -0.013927340507507324,
        -0.0055702924728393555,
        0.0024121999740600586,
        0.008936285972595215,
        0.013425469398498535,
        0.01655292510986328,
        0.019115686416625977,
        0.02050161361694336,
        0.020235061645507812,
        0.019057869911193848,
        0.01734626293182373,
        0.015086889266967773,
        0.012624502182006836,
        0.011332988739013672,
        0.012831568717956543,
        0.01724982261657715,
        0.023668289184570312,
        0.03130149841308594,
        0.039641499519348145,
        0.048101186752319336,
        0.05628335475921631,
        0.06394457817077637,
        0.07026934623718262,
        0.07396078109741211,
        0.07412993907928467,
        0.07102930545806885,
        0.06513524055480957,
        0.0563732385635376,
        0.045096635818481445,
        0.03213369846343994,
        0.018101930618286133,
        0.003534555435180664,
        -0.010791540145874023,
        -0.02428126335144043,
        -0.03712320327758789,
        -0.049796104431152344,
        -0.06230306625366211,
        -0.07432615756988525,
        -0.08598148822784424,
        -0.0977928638458252,
        -0.11024987697601318,
        -0.12340331077575684,
        -0.13693201541900635,
        -0.150293231010437,
        -0.16258537769317627,
        -0.1732640266418457,
        -0.18216514587402344,
        -0.1892409324645996,
        -0.19462382793426514,
        -0.19819748401641846,
        -0.1996469497680664,
        -0.1988915205001831,
        -0.1961582899093628,
        -0.19165074825286865,
        -0.1854163408279419,
        -0.1775808334350586,
        -0.16849219799041748,
        -0.15878045558929443,
        -0.1490393877029419,
        -0.13969504833221436,
        -0.1310495138168335,
        -0.12321364879608154,
        -0.11616349220275879,
        -0.1097787618637085,
        -0.1039731502532959,
        -0.098716139793396,
        -0.09399521350860596,
        -0.09005534648895264,
        -0.08716106414794922,
        -0.08530950546264648,
        -0.08442902565002441,
        -0.08435463905334473,
        -0.08458197116851807,
        -0.08450126647949219,
        -0.08408844470977783,
        -0.0838625431060791,
        -0.08424258232116699,
        -0.08513391017913818,
        -0.0859149694442749,
        -0.08625209331512451,
        -0.08621275424957275,
        -0.08578228950500488,
        -0.0850297212600708,
        -0.08408927917480469,
        -0.08292269706726074,
        -0.08108985424041748,
        -0.07843291759490967,
        -0.0754082202911377,
        -0.07236921787261963,
        -0.06933116912841797,
        -0.06619954109191895,
        -0.06307816505432129,
        -0.059948086738586426,
        -0.056641221046447754,
        -0.05339336395263672,
        -0.05074131488800049,
        -0.048998475074768066,
        -0.0479358434677124,
        -0.04719245433807373,
        -0.04659879207611084,
        -0.04603934288024902,
        -0.045389771461486816,
        -0.04466676712036133,
        -0.044194936752319336,
        -0.04414057731628418,
        -0.04435539245605469,
        -0.044652581214904785,
        -0.04496562480926514,
        -0.04521965980529785,
        -0.045185208320617676,
        -0.04473519325256348,
        -0.04402613639831543,
        -0.043244004249572754,
        -0.04220473766326904,
        -0.0406646728515625,
        -0.03866100311279297,
        -0.03633284568786621,
        -0.03383147716522217,
        -0.030994057655334473,
        -0.02755427360534668,
        -0.023667454719543457,
