{
    "in_shape": [
        null,
        null,
        1
    ],
    "layers": [
        {
            "type": "lstm",
            "activation": "",
            "shape": [
                null,
                null,
                20
            ],
            "weights": [
                [
                    [
                        0.20299780368804932,
                        -0.23217275738716125,
                        0.0393252968788147,
                        0.039298366755247116,
                        -0.11019541323184967,
                        -0.2712578773498535,
                        -0.19280333817005157,
                        -0.39829492568969727,
                        -0.09776391088962555,
                        0.21907758712768555,
                        -0.0005794224562123418,
                        0.025722118094563484,
                        -0.13004307448863983,
                        0.058561619371175766,
                        0.024874569848179817,
                        -0.005909374449402094,
                        0.3129362165927887,
                        0.11168289184570312,
                        -0.13725700974464417,
                        0.2167559266090393,
                        0.35861873626708984,
                        -0.659679651260376,
                        0.29605135321617126,
                        0.15322215855121613,
                        -0.3199029266834259,
                        -0.07474780827760696,
                        -0.29129159450531006,
                        0.11195484548807144,
                        -0.12934918701648712,
                        0.3593541979789734,
                        0.06919270008802414,
                        -0.12332380563020706,
                        -0.304355263710022,
                        0.005282544065266848,
                        0.07313458621501923,
                        -0.038048241287469864,
                        -0.11931292712688446,
                        0.0928628221154213,
                        -0.05772045627236366,
                        -0.16714626550674438,
                        -0.0812196433544159,
                        4.989923477172852,
                        -0.05099556967616081,
                        0.07203363627195358,
                        -1.0185680389404297,
                        0.16169431805610657,
                        -0.18702664971351624,
                        0.15305626392364502,
                        0.16974948346614838,
                        0.12490222603082657,
                        0.4838998019695282,
                        0.9006956219673157,
                        -0.0023591872304677963,
                        -0.0814884677529335,
                        -0.11011209338903427,
                        1.2023214101791382,
                        0.3352241516113281,
                        0.7608926296234131,
                        -0.511978268623352,
                        -0.06524602323770523,
                        0.04354376718401909,
                        0.302528440952301,
                        0.16716381907463074,
                        0.21619072556495667,
                        0.3168879747390747,
                        0.18495206534862518,
                        -0.1658633053302765,
                        0.14927150309085846,
                        -0.054642390459775925,
                        0.0158990528434515,
                        0.7855031490325928,
                        0.05765819549560547,
                        0.08659227937459946,
                        0.2514060437679291,
                        -0.011488063260912895,
                        -0.04992387443780899,
                        0.17581713199615479,
                        0.35904407501220703,
                        -0.4408569931983948,
                        -0.32200518250465393
                    ]
                ],
                [
                    [
                        0.7346542477607727,
                        -0.6100340485572815,
                        0.2250451296567917,
                        0.21717137098312378,
                        0.1328555792570114,
                        0.26450228691101074,
                        0.06305355578660965,
                        -0.23815369606018066,
                        0.01164606399834156,
                        0.1646929532289505,
                        0.31607291102409363,
                        -0.04613334313035011,
                        0.08290576189756393,
                        0.17850518226623535,
                        0.09002909809350967,
                        -0.07003937661647797,
                        0.1757194995880127,
                        0.22248013317584991,
                        0.0983356162905693,
                        -0.08809828013181686,
                        -0.16947998106479645,
                        0.05892065167427063,
                        -0.09111106395721436,
                        0.32401973009109497,
                        -0.21192581951618195,
                        -0.3518819510936737,
                        -0.23589256405830383,
                        0.0641368106007576,
                        -0.24505175650119781,
                        -0.4092073142528534,
                        -0.2906656861305237,
                        0.13042251765727997,
                        -0.23086266219615936,
                        -0.046632442623376846,
                        0.06726910173892975,
                        -0.1620849072933197,
                        -0.4373015761375427,
                        0.15357773005962372,
                        -0.48000824451446533,
                        -0.3247969448566437,
                        0.26512250304222107,
                        -0.13412345945835114,
                        0.5598844289779663,
                        0.21692413091659546,
                        -0.3482915461063385,
                        0.1861523985862732,
                        -0.2630714476108551,
                        0.29552629590034485,
                        -0.2991497814655304,
                        -0.0468553826212883,
                        0.095558762550354,
                        -0.004355959594249725,
                        0.07658399641513824,
                        -0.11360961943864822,
                        0.1912936568260193,
                        0.03421662747859955,
                        -0.16825689375400543,
                        -0.21186724305152893,
                        -0.15036949515342712,
                        -0.3115716874599457,
                        0.03591219708323479,
                        -0.058736588805913925,
                        0.11874813586473465,
                        -0.30572718381881714,
                        0.3357107937335968,
                        0.10747583210468292,
                        -0.05340515822172165,
                        -0.04008302092552185,
                        0.13142462074756622,
                        -0.28297051787376404,
                        0.051741112023591995,
                        -0.03208170458674431,
                        0.19518378376960754,
                        0.3152633607387543,
                        0.273641437292099,
                        -0.2530685365200043,
                        0.037260428071022034,
                        0.3383660912513733,
                        -0.07097630202770233,
                        0.01885087788105011
                    ],
                    [
                        0.0328245609998703,
                        -0.8112286329269409,
                        0.13902868330478668,
                        -0.31227320432662964,
                        -0.15738722681999207,
                        -0.4157201945781708,
                        0.3414405286312103,
                        -0.1080261766910553,
                        -0.2816186845302582,
                        0.2073672115802765,
                        -0.2729588449001312,
                        0.14522606134414673,
                        -0.29643020033836365,
                        -0.2438514530658722,
                        -0.1402556300163269,
                        0.8738905191421509,
                        0.2126876264810562,
                        0.5551645755767822,
                        -0.15029191970825195,
                        0.5750607252120972,
                        -0.02171914465725422,
                        -0.685130774974823,
                        0.0031075882725417614,
                        0.19859780371189117,
                        0.10162024199962616,
                        -0.8465419411659241,
                        0.09232746809720993,
                        -0.6102346181869507,
                        -0.4551812708377838,
                        -0.26811322569847107,
                        -0.6049889326095581,
                        -0.26385119557380676,
                        -0.5538038611412048,
                        -0.1822165697813034,
                        0.16852712631225586,
                        0.11115135997533798,
                        -0.4315233826637268,
                        0.17329886555671692,
                        -0.6253266334533691,
                        0.01272957306355238,
                        0.19941966235637665,
                        0.6279010772705078,
                        0.030976036563515663,
                        0.3140546381473541,
                        -0.12585791945457458,
                        0.20117653906345367,
                        -0.011164775118231773,
                        -0.12780128419399261,
                        -0.07730402052402496,
                        0.4150938391685486,
                        0.8245657086372375,
                        0.775096595287323,
                        -0.048174336552619934,
                        0.41318458318710327,
                        0.30912405252456665,
                        -2.540679454803467,
                        0.09842617064714432,
                        -0.42432698607444763,
                        -0.527412474155426,
                        -0.4272030293941498,
                        0.02891973778605461,
                        0.4227409064769745,
                        -0.19960196316242218,
                        -0.07076428830623627,
                        -0.17223243415355682,
                        -0.8008697032928467,
                        0.19166243076324463,
                        0.26429906487464905,
                        -0.05131802335381508,
                        -0.5195962190628052,
                        -0.27382344007492065,
                        0.12518718838691711,
                        0.6303462386131287,
                        -0.09595249593257904,
                        0.08595927059650421,
                        -0.7378527522087097,
                        -0.7852334976196289,
                        0.32060593366622925,
                        -0.320339173078537,
                        0.05605156719684601
                    ],
                    [
                        0.0017145079327747226,
                        -0.5293742418289185,
                        0.2882929742336273,
                        -0.19215646386146545,
                        0.24634979665279388,
                        -0.016953228041529655,
                        0.2609871029853821,
                        0.28321030735969543,
                        -0.12614935636520386,
                        0.24534669518470764,
                        0.18058620393276215,
                        -0.12734930217266083,
                        0.08912232518196106,
                        0.0017461178358644247,
                        0.020784657448530197,
                        -0.05940096452832222,
                        0.056684739887714386,
                        0.05874856933951378,
                        0.260280042886734,
                        0.3152249753475189,
                        0.012584536336362362,
                        -0.11031914502382278,
                        -0.40375885367393494,
                        -0.20841513574123383,
                        -0.31618794798851013,
                        -0.00860902015119791,
                        0.009125622920691967,
                        -0.04275765269994736,
                        0.08493193238973618,
                        -0.21759271621704102,
                        -0.04777632653713226,
                        -0.058209169656038284,
                        -0.13775180280208588,
                        -0.2948240041732788,
                        0.05488407611846924,
                        -0.05659248307347298,
                        -0.06347933411598206,
                        -0.05363719165325165,
                        -0.2863156199455261,
                        -0.03015897050499916,
                        -0.16259576380252838,
                        -0.34248170256614685,
                        0.23497359454631805,
                        0.016969751566648483,
                        0.1255490928888321,
                        -0.18417870998382568,
                        -0.2009761482477188,
                        -0.04684536159038544,
                        0.052692726254463196,
                        -7.13158879079856e-05,
                        0.12650828063488007,
                        -0.2000119686126709,
                        0.11989713460206985,
                        0.07505989074707031,
                        0.22533079981803894,
                        -0.24187645316123962,
                        0.00394166586920619,
                        -0.04386470839381218,
                        -0.05179606005549431,
                        -0.12556740641593933,
                        0.05136165767908096,
                        0.4990007281303406,
                        -0.03333964943885803,
                        -0.05917441472411156,
                        0.1679084748029709,
                        -0.015144582837820053,
                        0.08939525485038757,
                        0.13647989928722382,
                        0.10804713517427444,
                        -0.3257433772087097,
                        -0.11536465585231781,
                        -0.08001680672168732,
                        -0.016580458730459213,
                        0.05401616916060448,
                        -0.15194493532180786,
                        -0.07658796012401581,
                        -0.155845507979393,
                        0.1183372214436531,
                        -0.11705169081687927,
                        0.06017632782459259
                    ],
                    [
                        -0.5905092358589172,
                        0.15440033376216888,
                        -0.7512996792793274,
                        0.018529536202549934,
                        -0.6217364072799683,
                        -0.6471052765846252,
                        -0.20449893176555634,
                        -0.7477073669433594,
                        -1.0121030807495117,
                        -0.4751640856266022,
                        -0.25575441122055054,
                        0.32463422417640686,
                        -0.5843879580497742,
                        -0.08945809304714203,
                        -0.10805465281009674,
                        0.008404623717069626,
                        -0.7350362539291382,
                        -0.10015999525785446,
                        -0.8160771131515503,
                        -0.6444809436798096,
                        0.9170595407485962,
                        0.02009970135986805,
                        1.1973010301589966,
                        0.057090725749731064,
                        -0.04547896236181259,
                        0.36405307054519653,
                        0.22109027206897736,
                        -0.24252818524837494,
                        -0.2145204395055771,
                        0.9396134614944458,
                        0.4112034738063812,
                        0.1577356904745102,
                        0.4567807912826538,
                        0.380391925573349,
                        -0.06021714583039284,
                        0.40421879291534424,
                        1.03805410861969,
                        -0.33847180008888245,
                        0.7255210280418396,
                        -0.13237735629081726,
                        -0.4372970461845398,
                        -0.052955448627471924,
                        -0.2526211738586426,
                        0.49148187041282654,
                        -0.6111501455307007,
                        0.053320154547691345,
                        -0.03244101256132126,
                        0.8533995151519775,
                        -0.39910048246383667,
                        0.24257825314998627,
                        -0.025660883635282516,
                        -0.0072569395415484905,
                        -0.01127083133906126,
                        0.15846511721611023,
                        0.043375566601753235,
                        0.26766154170036316,
                        -0.09342947602272034,
                        -0.4534068703651428,
                        -0.20042160153388977,
                        -0.20599646866321564,
                        0.20716321468353271,
                        0.38000965118408203,
                        -0.10139241069555283,
                        0.5113985538482666,
                        -0.29883241653442383,
                        0.012674379162490368,
                        0.10664677619934082,
                        -0.7861689329147339,
                        -0.2311350703239441,
                        0.0837595984339714,
                        0.2416054755449295,
                        0.4087590277194977,
                        -0.4188288152217865,
                        -0.3567245602607727,
                        -0.29973432421684265,
                        0.4973398745059967,
                        0.14493516087532043,
                        0.6477216482162476,
                        -0.3498017191886902,
                        -0.6910903453826904
                    ],
                    [
                        0.363194078207016,
                        -0.1088005006313324,
                        0.19387392699718475,
                        0.24438165128231049,
                        -0.2645339369773865,
                        -0.06060270220041275,
                        0.03170296177268028,
                        0.2641637623310089,
                        0.12247730046510696,
                        -0.10577112436294556,
                        -0.09525374323129654,
                        -0.21225722134113312,
                        -0.08379117399454117,
                        -0.16164207458496094,
                        -0.3381202518939972,
                        -0.28806304931640625,
                        0.19646179676055908,
                        0.16247324645519257,
                        -0.233487069606781,
                        -0.12638673186302185,
                        -0.25785326957702637,
                        0.12156220525503159,
                        -0.2747255265712738,
                        0.25260913372039795,
                        -0.11557580530643463,
                        -0.2745366096496582,
                        -0.07843215018510818,
                        -0.1754768043756485,
                        -0.29234910011291504,
                        -0.5185959339141846,
                        -0.12533944845199585,
                        0.015450957231223583,
                        -0.27164629101753235,
                        -0.12715385854244232,
                        -0.21502657234668732,
                        -0.030331112444400787,
                        -0.10827301442623138,
                        0.5924315452575684,
                        -0.6319149732589722,
                        -0.5674967765808105,
                        -0.984579861164093,
                        -0.0015114117413759232,
                        -0.9198606610298157,
                        0.7793669700622559,
                        0.6855843663215637,
                        -0.09318170696496964,
                        0.06274870038032532,
                        1.0811067819595337,
                        -0.4116310775279999,
                        -0.22919926047325134,
                        -0.07010120153427124,
                        0.028790803626179695,
                        0.1763521134853363,
                        0.23166753351688385,
                        0.3523803651332855,
                        0.21782855689525604,
                        -0.15602189302444458,
                        -0.5547223091125488,
                        -0.3685338795185089,
                        -0.7353991270065308,
                        -0.28259944915771484,
                        -0.044160302728414536,
                        -0.04214376211166382,
                        0.31014689803123474,
                        0.49629712104797363,
                        -0.04068656265735626,
                        -0.27495330572128296,
                        0.9473327398300171,
                        -1.829510074458085e-05,
                        -0.0530955009162426,
                        0.0038273946847766638,
                        -0.04054678976535797,
                        0.271770179271698,
                        -0.18797822296619415,
                        -0.17296040058135986,
                        -0.750605046749115,
                        -0.3096773624420166,
                        0.5277794599533081,
                        -0.10256098210811615,
                        -0.1087762638926506
                    ],
                    [
                        0.2891370356082916,
                        1.2348361015319824,
                        0.5715896487236023,
                        -0.21589802205562592,
                        -0.2530941367149353,
                        -0.12309665232896805,
                        0.5103464126586914,
                        0.05135926604270935,
                        0.11719020456075668,
                        0.2382431924343109,
                        -0.2686605751514435,
                        -0.2018708437681198,
                        -0.0013098176568746567,
                        -0.2900240123271942,
                        -0.4335595965385437,
                        0.1770063191652298,
                        0.08629172295331955,
                        -0.23034824430942535,
                        -0.17009973526000977,
                        0.1524048149585724,
                        -0.520493745803833,
                        1.185683012008667,
                        -0.6720487475395203,
                        -0.3218928277492523,
                        -0.03417983651161194,
                        0.21531523764133453,
                        0.14695237576961517,
                        -0.41220372915267944,
                        -0.4281098246574402,
                        -0.2509433925151825,
                        -0.32693684101104736,
                        -0.1725931167602539,
                        -0.3352431654930115,
                        -0.43343955278396606,
                        -0.0303073450922966,
                        -0.04755176603794098,
                        -0.4627193510532379,
                        0.1912992149591446,
                        0.2064923495054245,
                        -0.11527545005083084,
                        -0.42583081126213074,
                        -0.8417967557907104,
                        -0.09186948835849762,
                        -0.31373152136802673,
                        -0.31529903411865234,
                        -0.3210725486278534,
                        -0.6248195767402649,
                        -0.24147595465183258,
                        0.6857203245162964,
                        0.01555295754224062,
                        0.2576718032360077,
                        -0.9035253524780273,
                        0.13404348492622375,
                        -0.392916202545166,
                        0.08230820298194885,
                        0.9795069694519043,
                        -0.16508974134922028,
                        0.12034903466701508,
                        0.12036141753196716,
                        0.1584000289440155,
                        -0.36521363258361816,
                        -0.2919834554195404,
                        -0.22146043181419373,
                        -0.2063588798046112,
                        -0.06834211945533752,
                        -2.4333083629608154,
                        0.04406868666410446,
                        -0.028065256774425507,
                        -0.06656450033187866,
                        0.8403561115264893,
                        -0.7721152901649475,
                        -0.17773990333080292,
                        0.12315817177295685,
                        -0.6485117077827454,
                        -0.4209306538105011,
                        -0.04771515354514122,
                        -0.3526868224143982,
                        -0.025935422629117966,
                        -0.35237792134284973,
                        -0.07923990488052368
                    ],
                    [
                        0.15083011984825134,
                        -0.8110309839248657,
                        0.4904233515262604,
                        0.018078133463859558,
                        -0.042830467224121094,
                        0.16637682914733887,
                        0.22809679806232452,
                        0.28009381890296936,
                        0.027735013514757156,
                        0.2814669609069824,
                        0.441336065530777,
                        -0.21078014373779297,
                        0.22212029993534088,
                        -0.20703135430812836,
                        -0.1923781931400299,
                        0.043720655143260956,
                        0.5019125938415527,
                        0.10610975325107574,
                        -0.05576876550912857,
                        0.040792081505060196,
                        -0.4821496605873108,
                        0.21036547422409058,
                        -0.6257729530334473,
                        -0.026321861892938614,
                        -0.1658726930618286,
                        -0.2455095648765564,
                        0.2514789402484894,
                        -0.3095417022705078,
                        0.08035541325807571,
                        -0.14296889305114746,
                        -0.11667460948228836,
                        -0.019217446446418762,
                        -0.19263780117034912,
                        -0.07259175926446915,
                        -0.3365881145000458,
                        0.10378091037273407,
                        -0.46667248010635376,
                        0.2782002389431,
                        -0.47642672061920166,
                        -0.12995296716690063,
                        0.13878194987773895,
                        -0.05001514032483101,
                        -0.1522972583770752,
                        -0.04722949489951134,
                        -0.051918063312768936,
                        0.11244238168001175,
                        0.16804274916648865,
                        -0.16073481738567352,
                        -0.1829366236925125,
                        0.11333537846803665,
                        0.21548055112361908,
                        -0.022862467914819717,
                        0.13629086315631866,
                        -0.10678509622812271,
                        0.0786459669470787,
                        0.3209923505783081,
                        -0.04932551085948944,
                        0.022507011890411377,
                        0.06687209010124207,
                        -0.12602029740810394,
                        0.18200378119945526,
                        0.2293330729007721,
                        -0.1684875339269638,
                        -0.11400234699249268,
                        0.022247551009058952,
                        0.21554914116859436,
                        0.05042317509651184,
                        0.022481312975287437,
                        0.02759000100195408,
                        -0.6123315691947937,
                        0.15340057015419006,
                        -0.21716921031475067,
                        0.3482482135295868,
                        0.31431517004966736,
                        -0.09177184104919434,
                        0.22087860107421875,
                        0.27527114748954773,
                        -0.2411338984966278,
                        -0.2912062406539917,
                        0.004529052414000034
                    ],
                    [
                        0.3063996434211731,
                        -0.09888417273759842,
                        0.03859758749604225,
                        -0.33406177163124084,
                        1.7542617321014404,
                        0.002795774955302477,
                        -0.21181462705135345,
                        0.8441649675369263,
                        -0.19137628376483917,
                        -0.1548842042684555,
                        0.1619223654270172,
                        0.16739560663700104,
                        -0.06195169687271118,
                        0.36030301451683044,
                        0.2571863830089569,
                        0.4398798942565918,
                        0.12333893775939941,
                        -0.06997313350439072,
                        -0.665915846824646,
                        -0.5834242105484009,
                        -0.5092265605926514,
                        0.0264553502202034,
                        -0.19829654693603516,
                        0.24921655654907227,
                        0.7024785876274109,
                        -0.04022541269659996,
                        0.13334238529205322,
                        0.011131959967315197,
                        0.4169231653213501,
                        0.521088182926178,
                        -0.13585801422595978,
                        0.266161173582077,
                        0.02208436094224453,
                        0.4810296297073364,
                        -0.06359175592660904,
                        0.48124852776527405,
                        -0.19878925383090973,
                        0.7584050297737122,
                        1.0793073177337646,
                        0.40586182475090027,
                        -0.1368570327758789,
                        -0.027955587953329086,
                        -0.08604329824447632,
                        0.17940381169319153,
                        -0.6105881333351135,
                        0.21085458993911743,
                        -0.04998026043176651,
                        0.6877493858337402,
                        0.10436312109231949,
                        -0.22805273532867432,
                        -0.044401366263628006,
                        0.06277327984571457,
                        0.02783820405602455,
                        0.08590958267450333,
                        0.8424144387245178,
                        0.07584305852651596,
                        -0.1722823828458786,
                        -0.6796370148658752,
                        0.01471591368317604,
                        -0.05888590216636658,
                        0.1720467358827591,
                        0.20906078815460205,
                        -0.0237466748803854,
                        -0.13757042586803436,
                        0.06854899972677231,
                        -0.021155986934900284,
                        0.03992128744721413,
                        0.3824945390224457,
                        -0.052416883409023285,
                        -0.013057964853942394,
                        0.12665510177612305,
                        0.04730203375220299,
                        0.16942526400089264,
                        0.4521356523036957,
                        0.31529492139816284,
                        -0.7964903712272644,
                        -0.0616239495575428,
                        2.2172186374664307,
                        0.2868933379650116,
                        -0.33039724826812744
                    ],
                    [
                        -0.6469646096229553,
                        0.8586668968200684,
                        -0.12097842991352081,
                        0.07531378418207169,
                        0.2769940495491028,
                        -0.13833457231521606,
                        -0.15653111040592194,
                        0.5147899389266968,
                        -0.40141919255256653,
                        -0.2252035140991211,
                        0.06279031187295914,
                        0.03902794420719147,
                        0.05654418468475342,
                        0.19303959608078003,
                        0.02057466097176075,
                        0.08513288199901581,
                        0.14719027280807495,
                        0.15510857105255127,
                        -0.5558041334152222,
                        -0.0676741898059845,
                        -0.0461701899766922,
                        0.38674840331077576,
                        -0.021905567497015,
                        0.1916462779045105,
                        -0.1380401849746704,
                        0.20639699697494507,
                        -0.2938043177127838,
                        0.35671037435531616,
                        -0.8328719735145569,
                        -0.027245109900832176,
                        0.22239401936531067,
                        0.1390264332294464,
                        0.04671711474657059,
                        0.29510751366615295,
                        0.14191898703575134,
                        0.008846012875437737,
                        -0.22866052389144897,
                        0.4289773404598236,
                        -0.04389617219567299,
                        -0.06643053889274597,
                        0.3414747416973114,
                        -0.04261677339673042,
                        -0.17210330069065094,
                        0.11715027689933777,
                        0.7053008675575256,
                        -0.05338333174586296,
                        -0.01581309549510479,
                        0.3059597611427307,
                        0.025499138981103897,
                        -0.28205496072769165,
                        -0.2912420630455017,
                        -0.08924850821495056,
                        0.18697361648082733,
                        -0.3138080835342407,
                        -0.11275652050971985,
                        0.2366805076599121,
                        -0.07929389178752899,
                        -0.058190010488033295,
                        0.09544890373945236,
                        0.06612935662269592,
                        -0.3125552535057068,
                        0.3252621591091156,
                        -0.19029606878757477,
                        0.3589065670967102,
                        0.29230624437332153,
                        -0.16270479559898376,
                        -0.3091369867324829,
                        0.6948970556259155,
                        -0.6807586550712585,
                        -0.3048347532749176,
                        -0.3623013198375702,
                        0.010466884821653366,
                        -0.18985038995742798,
                        -0.20944306254386902,
                        0.2305503487586975,
                        0.31676527857780457,
                        -0.14241774380207062,
                        -0.08896349370479584,
                        0.31603848934173584,
                        0.16454695165157318
                    ],
                    [
                        -0.006809345446527004,
                        -0.5408746004104614,
                        -0.07938507944345474,
                        -0.07444241642951965,
                        0.08308497816324234,
                        0.19833025336265564,
                        -0.42029088735580444,
                        -0.4706863462924957,
                        0.07531324028968811,
                        0.4925425946712494,
                        0.3077436089515686,
                        0.2752271890640259,
                        0.00683636637404561,
                        0.16390570998191833,
                        0.10266879945993423,
                        -0.03012765571475029,
                        -0.21635207533836365,
                        -0.1362726241350174,
                        0.5808150768280029,
                        -0.00796967651695013,
                        -0.005313914734870195,
                        -0.9152783751487732,
                        0.1863986700773239,
                        0.08277211338281631,
                        0.3905920684337616,
                        -0.4575116038322449,
                        -0.09603802859783173,
                        -0.07879836857318878,
                        0.295375794172287,
                        0.23461489379405975,
                        0.20174294710159302,
                        -0.032814156264066696,
                        -0.08545724302530289,
                        0.017435604706406593,
                        0.05434023588895798,
                        -0.32546332478523254,
                        -0.034316759556531906,
                        -0.4352937340736389,
                        -0.08336944878101349,
                        -0.14173342287540436,
                        0.4260674715042114,
                        -0.6450456380844116,
                        0.06729189306497574,
                        -0.29808589816093445,
                        0.005059936549514532,
                        0.4955502450466156,
                        -0.2986792325973511,
                        -0.18650570511817932,
                        -0.3746185302734375,
                        0.25759369134902954,
                        0.13735835254192352,
                        -0.6546372175216675,
                        -0.14254628121852875,
                        -0.27617526054382324,
                        0.2630443572998047,
                        0.3959902226924896,
                        0.26586782932281494,
                        0.06670921295881271,
                        0.017736192792654037,
                        -0.2736707329750061,
                        0.08543165773153305,
                        -1.1637632846832275,
                        0.5465615391731262,
                        0.0698065385222435,
                        -0.1185452938079834,
                        0.7579582929611206,
                        -0.07380838692188263,
                        -0.016205722466111183,
                        0.19473455846309662,
                        0.5124322175979614,
                        0.2815745174884796,
                        0.27390390634536743,
                        0.18194074928760529,
                        0.3371332883834839,
                        0.18131543695926666,
                        0.09869977086782455,
                        0.05426749959588051,
                        -0.3520060181617737,
                        0.26420244574546814,
                        -0.2757819592952728
                    ],
                    [
                        0.13692888617515564,
                        0.9594804644584656,
                        0.26148441433906555,
                        -0.06734299659729004,
                        -0.03619051352143288,
                        0.1715928614139557,
                        0.23957395553588867,
                        0.10168100148439407,
                        0.15852932631969452,
                        0.4924907386302948,
                        -0.10664259642362595,
                        -0.10578113794326782,
                        0.07293517142534256,
                        -0.12548327445983887,
                        -0.17458930611610413,
                        0.009160036221146584,
                        -0.0037257159128785133,
                        -0.2431633025407791,
                        -0.2715575397014618,
                        0.31983301043510437,
                        0.25946155190467834,
                        0.11511379480361938,
                        -0.05564066395163536,
                        -0.03219893202185631,
                        0.03863907232880592,
                        -0.9315665364265442,
                        -0.06788261234760284,
                        0.09631454944610596,
                        -0.4654712677001953,
                        -0.29040321707725525,
                        0.34793421626091003,
                        -0.1703341156244278,
                        -0.42333218455314636,
                        -0.2816721200942993,
                        0.086281418800354,
                        -0.09821836650371552,
                        -0.13848067820072174,
                        0.11120534688234329,
                        0.4595242142677307,
                        -0.039955735206604004,
                        -0.11945094168186188,
                        -0.5833677053451538,
                        0.007177282124757767,
                        0.34078410267829895,
                        0.18618129193782806,
                        0.3653334379196167,
                        -0.17802342772483826,
                        -0.17771555483341217,
                        -0.06583549827337265,
                        -0.15277792513370514,
                        0.00600807461887598,
                        -0.5688267350196838,
                        -0.19861239194869995,
                        -0.01960720680654049,
                        -0.1942080408334732,
                        0.3123869299888611,
                        0.10883161425590515,
                        0.09160193055868149,
                        0.0421278178691864,
                        -0.11300601810216904,
                        -0.06548017263412476,
                        -0.5817545056343079,
                        -0.026792239397764206,
                        -0.27279403805732727,
                        0.23851320147514343,
                        -0.17787452042102814,
                        -0.005914212204515934,
                        0.1242402121424675,
                        -0.13800488412380219,
                        0.24881096184253693,
                        -0.21830140054225922,
                        -0.21069005131721497,
                        0.05707235261797905,
                        -0.6997372508049011,
                        -0.09509182721376419,
                        -0.2941471040248871,
                        -0.8924347162246704,
                        -0.016137313097715378,
                        0.39373233914375305,
                        0.0196552611887455
                    ],
                    [
                        0.08920139819383621,
                        -0.10730580240488052,
                        -0.0396370105445385,
                        0.3421620726585388,
                        0.023387517780065536,
                        0.09631936252117157,
                        0.004926595836877823,
                        0.31787240505218506,
                        0.005264706909656525,
                        0.21350447833538055,
                        0.02988431602716446,
                        0.07810661941766739,
                        -0.11997568607330322,
                        0.012109505012631416,
                        -0.14673465490341187,
                        -0.3079216778278351,
                        0.521400511264801,
                        -0.08793681859970093,
                        0.16201555728912354,
                        0.08036711066961288,
                        -0.09454045444726944,
                        -0.19306376576423645,
                        0.06650088727474213,
                        0.05387347191572189,
                        0.08000700175762177,
                        -0.29076504707336426,
                        0.001174650271423161,
                        0.057318396866321564,
                        -0.15094232559204102,
                        0.33095741271972656,
                        0.02150900289416313,
                        0.2193090170621872,
                        -0.25164011120796204,
                        -0.124590665102005,
                        -0.14829087257385254,
                        0.07400640100240707,
                        -0.05325651168823242,
                        -0.0326392762362957,
                        -0.4614201784133911,
                        0.06560114771127701,
                        -0.22814419865608215,
                        0.15658392012119293,
                        -0.28119978308677673,
                        -0.30831027030944824,
                        0.2594757378101349,
                        -0.2275012880563736,
                        -0.20096902549266815,
                        -0.4685017764568329,
                        0.019159825518727303,
                        -0.05279296264052391,
                        0.36127766966819763,
                        -0.44617486000061035,
                        0.5551806688308716,
                        -0.47892966866493225,
                        0.052689339965581894,
                        -1.450539469718933,
                        -0.11725983768701553,
                        -0.10925823450088501,
                        -0.05226678401231766,
                        0.3309539258480072,
                        0.3147889971733093,
                        0.4952417314052582,
                        -0.18003319203853607,
                        0.11244306713342667,
                        0.15592370927333832,
                        -0.2287808358669281,
                        -0.24368669092655182,
                        0.06032154709100723,
                        0.01632489450275898,
                        0.16238629817962646,
                        -0.19926580786705017,
                        0.011409090831875801,
                        0.15617884695529938,
                        0.3629932403564453,
                        -0.25754639506340027,
                        0.9379563927650452,
                        -0.30232125520706177,
                        -0.12339498847723007,
                        -0.014530707150697708,
                        -0.3533417880535126
                    ],
                    [
                        0.3492562472820282,
                        -0.24534262716770172,
                        0.35379087924957275,
                        0.39062151312828064,
                        -0.35942184925079346,
                        -0.05632985755801201,
                        0.020013626664876938,
                        -0.2641936242580414,
                        -0.12943971157073975,
                        -0.19007475674152374,
                        -0.15678413212299347,
                        -0.09349549561738968,
                        -0.18724040687084198,
                        0.336580365896225,
                        -0.19665084779262543,
                        -0.481100857257843,
                        0.2569449841976166,
                        -0.3344390094280243,
                        -0.41061773896217346,
                        -0.06349975615739822,
                        -0.17583338916301727,
                        0.15657219290733337,
                        -0.24921633303165436,
                        0.15269996225833893,
                        0.18564154207706451,
                        -0.29769426584243774,
                        -0.3020190894603729,
                        -0.2873695194721222,
                        -0.14302121102809906,
                        0.0027740614023059607,
                        -0.04213528707623482,
                        0.209193155169487,
                        -0.2521655559539795,
                        0.12622623145580292,
                        -0.12596392631530762,
                        0.18615484237670898,
                        -0.09042461961507797,
                        -0.09547574073076248,
                        -0.16738459467887878,
                        0.005085011478513479,
                        0.19621878862380981,
                        -0.13966061174869537,
                        0.21357056498527527,
                        0.26650261878967285,
                        -0.05348283424973488,
                        0.021307483315467834,
                        0.05460411310195923,
                        0.6132039427757263,
                        0.1779860556125641,
                        -0.13163606822490692,
                        -0.01010699849575758,
                        0.21617545187473297,
                        0.034428659826517105,
                        0.01425121258944273,
                        0.6072266697883606,
                        0.005006423685699701,
                        0.05073045194149017,
                        -1.2824925184249878,
                        -0.3404174745082855,
                        -0.1548614799976349,
                        -0.09273333847522736,
                        -0.21304409205913544,
                        -0.11794469505548477,
                        0.05543560907244682,
                        -0.26597607135772705,
                        -0.2140066921710968,
                        -0.128083735704422,
                        -0.43317657709121704,
                        -0.147115096449852,
                        0.1740734875202179,
                        -0.000748401798773557,
                        -0.17158330976963043,
                        -0.43440791964530945,
                        -0.1444309502840042,
                        -0.12494762986898422,
                        0.5502501130104065,
                        -0.1339246779680252,
                        0.017769351601600647,
                        -0.6056773662567139,
                        -0.24394099414348602
                    ],
                    [
                        -0.036237217485904694,
                        0.14765791594982147,
                        -0.18605957925319672,
                        -0.22973890602588654,
                        0.2121243178844452,
                        0.49603915214538574,
                        -0.090107761323452,
                        -0.05726919323205948,
                        -0.3699643909931183,
                        0.1287684589624405,
                        0.09898189455270767,
                        -0.17119571566581726,
                        0.04354596138000488,
                        0.07407544553279877,
                        0.04109466075897217,
                        0.27432912588119507,
                        -0.12269655615091324,
                        0.5427492260932922,
                        0.14087285101413727,
                        0.036356370896101,
                        -0.10082400590181351,
                        0.14334441721439362,
                        0.041894979774951935,
                        -0.2929714322090149,
                        -0.009461287409067154,
                        -0.15694299340248108,
                        0.1793082058429718,
                        -0.25206851959228516,
                        -0.12858231365680695,
                        -0.013046168722212315,
                        0.02214878238737583,
                        -0.27924418449401855,
                        0.04182641580700874,
                        0.45459720492362976,
                        0.10606130212545395,
                        0.4365781247615814,
                        0.022284921258687973,
                        0.6315777897834778,
                        -0.3937566876411438,
                        0.12069103866815567,
                        0.08665698021650314,
                        0.06276491284370422,
                        0.03995993360877037,
                        -0.20308728516101837,
                        -0.18543507158756256,
                        -0.15205219388008118,
                        0.32420068979263306,
                        -0.5342867970466614,
                        0.4751130938529968,
                        0.02610502764582634,
                        0.017299534752964973,
                        -0.06651082634925842,
                        -0.12032780051231384,
                        0.1745031177997589,
                        -0.11324740201234818,
                        0.1891704648733139,
                        0.18090537190437317,
                        0.4319753050804138,
                        -0.24976816773414612,
                        -0.1688966155052185,
                        0.035865068435668945,
                        0.059185732156038284,
                        -0.022986143827438354,
                        0.17949825525283813,
                        0.04013754427433014,
                        0.2019849270582199,
                        -0.016715049743652344,
                        0.18808814883232117,
                        0.19706866145133972,
                        0.0031586347613483667,
                        0.15697184205055237,
                        -0.03964865580201149,
                        0.12665706872940063,
                        -0.0552891381084919,
                        0.13305088877677917,
                        0.2665821611881256,
                        -0.014824609272181988,
                        0.672831118106842,
                        -0.6381543874740601,
                        0.10407951474189758
                    ],
                    [
                        -0.03438527137041092,
                        -0.3345915675163269,
                        -0.01068249810487032,
                        0.10622648894786835,
                        -0.406878262758255,
                        0.19264201819896698,
                        0.09501539915800095,
                        -0.39744505286216736,
                        0.04633023217320442,
                        0.14971081912517548,
                        0.08898592740297318,
                        -0.27417775988578796,
                        -0.001119254040531814,
                        0.06703860312700272,
                        -0.008736731484532356,
                        -0.03516820818185806,
                        0.14367984235286713,
                        -0.20363201200962067,
                        -0.36308369040489197,
                        -0.052122812718153,
                        -0.21278928220272064,
                        0.06673335283994675,
                        -0.004906045272946358,
                        -0.1556117981672287,
                        0.04554107412695885,
                        -0.22742296755313873,
                        0.043888259679079056,
                        -0.1777215152978897,
                        0.33307766914367676,
                        -0.14462757110595703,
                        -0.1241757944226265,
                        -0.16438622772693634,
                        -0.24622267484664917,
                        -0.16168949007987976,
                        -0.07772756367921829,
                        -0.238846555352211,
                        0.05826464667916298,
                        -0.09753701090812683,
                        -0.3964711129665375,
                        0.01509085949510336,
                        -0.053459666669368744,
                        0.0029503668192774057,
                        -0.009264759719371796,
                        -0.0710202008485794,
                        -0.8748019337654114,
                        0.025081688538193703,
                        -0.008044235408306122,
                        -0.5116358399391174,
                        0.346880704164505,
                        0.23097869753837585,
                        0.01995951309800148,
                        -0.29937615990638733,
                        -0.23169660568237305,
                        0.3089904487133026,
                        0.4191691279411316,
                        -0.34648293256759644,
                        0.5128753185272217,
                        -0.06142277270555496,
                        -0.22503964602947235,
                        0.23610460758209229,
                        0.09966075420379639,
                        0.14719294011592865,
                        0.04185008257627487,
                        -0.13943487405776978,
                        -0.003708550473675132,
                        -0.12861885130405426,
                        -0.22730523347854614,
                        -0.4275364279747009,
                        0.17657196521759033,
                        -0.14210443198680878,
                        0.15012343227863312,
                        -0.27724018692970276,
                        0.006255339365452528,
                        0.00841730460524559,
                        -0.18502512574195862,
                        -0.3866035044193268,
                        0.08016219735145569,
                        0.018313361331820488,
                        0.016569586470723152,
                        -0.5248508453369141
                    ],
                    [
                        -0.13316863775253296,
                        0.7354581952095032,
                        -0.09053316712379456,
                        0.22380755841732025,
                        -0.14334459602832794,
                        0.5248218774795532,
                        0.003342343494296074,
                        0.3326451778411865,
                        0.11805381625890732,
                        -0.2778184115886688,
                        -0.27451610565185547,
                        -0.23281052708625793,
                        -0.06224415823817253,
                        -0.3692920506000519,
                        -0.34081602096557617,
                        -0.9106351137161255,
                        0.14287006855010986,
                        -0.4716673791408539,
                        -0.5295723676681519,
                        -0.3574315309524536,
                        0.07052277028560638,
                        0.11868660897016525,
                        -0.26983582973480225,
                        -0.3031041622161865,
                        0.08620405942201614,
                        -0.16897951066493988,
                        -0.12791451811790466,
                        0.0437048003077507,
                        -0.36205005645751953,
                        -0.036920659244060516,
                        0.035403091460466385,
                        -0.34199270606040955,
                        -0.6057220697402954,
                        -0.3905172646045685,
                        -0.369844526052475,
                        -1.0278977155685425,
                        -0.13220487534999847,
                        0.4048403799533844,
                        -0.01493675634264946,
                        -0.2808576226234436,
                        -0.2695838510990143,
                        -0.03991709649562836,
                        -0.004211122170090675,
                        -0.01463044062256813,
                        -0.8405802845954895,
                        -0.01770058460533619,
                        0.09945619851350784,
                        -1.1435569524765015,
                        -0.09669990837574005,
                        -0.3557734787464142,
                        -0.10427574068307877,
                        0.5251797437667847,
                        -0.3412056863307953,
                        -0.7666388154029846,
                        -0.047504812479019165,
                        0.19838644564151764,
                        0.7253128886222839,
                        2.5255751609802246,
                        1.023220181465149,
                        0.1108689233660698,
                        0.22215253114700317,
                        -1.4366393089294434,
                        0.1573435664176941,
                        -0.2665627598762512,
                        0.05301322415471077,
                        -0.10288899391889572,
                        -0.6132809519767761,
                        0.36425310373306274,
                        -0.2922695279121399,
                        0.007981876842677593,
                        0.24795737862586975,
                        -0.22888068854808807,
                        -0.9591792821884155,
                        0.448025107383728,
                        -0.5390285849571228,
                        -0.5156816840171814,
                        -0.31483030319213867,
                        0.4784049689769745,
                        -0.13857707381248474,
                        -0.9059011340141296
                    ],
                    [
                        0.1379510909318924,
                        -0.008852113038301468,
                        0.17247965931892395,
                        0.03741788864135742,
                        0.10876470804214478,
                        0.6837849020957947,
                        0.04693550243973732,
                        -0.2731771171092987,
                        -0.021922484040260315,
                        0.3340989947319031,
                        0.056869711726903915,
                        -0.09332337230443954,
                        0.08198513835668564,
                        0.20652014017105103,
                        -0.20394423604011536,
                        -0.17449355125427246,
                        0.09161768108606339,
                        -0.3571556806564331,
                        0.534442663192749,
                        0.10055031627416611,
                        -0.3182600438594818,
                        0.30537936091423035,
                        -0.5984206795692444,
                        0.022441348060965538,
                        0.05704740062355995,
                        -1.0918909311294556,
                        -0.15365532040596008,
                        -0.1403469443321228,
                        -0.6774688363075256,
                        -0.04003264382481575,
                        -0.2262972593307495,
                        -0.006990401074290276,
                        -0.5333456993103027,
                        -0.2170373797416687,
                        0.07443287968635559,
                        0.014496682211756706,
                        -0.6436324715614319,
                        -0.20645174384117126,
                        -0.44765204191207886,
                        -0.23132488131523132,
                        -0.13068917393684387,
                        -0.5662835240364075,
                        -0.1523275077342987,
                        -0.04013923928141594,
                        0.003881682176142931,
                        0.46532174944877625,
                        -0.8932348489761353,
                        0.5232193470001221,
                        -0.3404471278190613,
                        -0.10992784798145294,
                        0.4668661952018738,
                        0.3081067204475403,
                        0.527070939540863,
                        -0.234330415725708,
                        -0.055378928780555725,
                        -0.26639220118522644,
                        -0.163211390376091,
                        -0.09811776876449585,
                        0.09509359300136566,
                        0.17937500774860382,
                        -0.27282455563545227,
                        -0.5246288776397705,
                        0.04115134850144386,
                        -0.19706587493419647,
                        0.29355618357658386,
                        0.20504823327064514,
                        -0.19866091012954712,
                        -0.22479748725891113,
                        -0.41871824860572815,
                        0.1940893679857254,
                        -0.18444818258285522,
                        -0.254331111907959,
                        -0.04862641915678978,
                        -0.10633688420057297,
                        -0.08866887539625168,
                        -0.018340155482292175,
                        -1.3324096202850342,
                        -0.26392167806625366,
                        0.0952615737915039,
                        -0.3673960566520691
                    ],
                    [
                        -0.1557455062866211,
                        0.20871533453464508,
                        -0.11020190268754959,
                        -0.32316628098487854,
                        0.4358881413936615,
                        -0.2166990041732788,
                        -0.0530538447201252,
                        1.7025927305221558,
                        -0.044964082539081573,
                        -0.3403199315071106,
                        -0.20295579731464386,
                        0.33063703775405884,
                        0.10133372992277145,
                        -0.3252422511577606,
                        -0.2726992964744568,
                        -0.09908739477396011,
                        -0.38137131929397583,
                        0.6856793165206909,
                        -0.5164274573326111,
                        -0.25317350029945374,
                        0.03012063540518284,
                        0.010029199533164501,
                        0.3085424602031708,
                        -0.5688454508781433,
                        0.526830792427063,
                        0.13103452324867249,
                        0.2060810774564743,
                        0.9269008636474609,
                        0.2803495526313782,
                        0.2857970893383026,
                        0.2040727585554123,
                        0.30954641103744507,
                        0.3386610150337219,
                        0.30914926528930664,
                        -0.26339012384414673,
                        0.22392360866069794,
                        0.05231962725520134,
                        1.1939412355422974,
                        0.6647477746009827,
                        -0.05927475169301033,
                        -0.40026140213012695,
                        -0.0311160646378994,
                        0.0832924023270607,
                        -0.5546802282333374,
                        -0.2905499339103699,
                        -0.105833999812603,
                        -0.10211224108934402,
                        -1.7799434661865234,
                        0.28610461950302124,
                        -0.37490156292915344,
                        0.008352575823664665,
                        0.1247483342885971,
                        -0.14644412696361542,
                        0.1646357923746109,
                        -0.7135542035102844,
                        -0.10321857035160065,
                        0.30422499775886536,
                        0.6665230393409729,
                        0.32318487763404846,
                        0.5350263118743896,
                        0.12080664932727814,
                        -0.07723645120859146,
                        -0.015897314995527267,
                        0.02972455322742462,
                        -0.1554126739501953,
                        0.040401920676231384,
                        -0.08453802019357681,
                        1.2144478559494019,
                        -0.2542737126350403,
                        0.10791729390621185,
                        0.14255820214748383,
                        0.33819395303726196,
                        0.15295684337615967,
                        0.3637625277042389,
                        -0.6472486853599548,
                        0.7687089443206787,
                        -0.07421207427978516,
                        0.5337101221084595,
                        0.1012180894613266,
                        -0.3900119662284851
                    ],
                    [
                        0.140670046210289,
                        -0.022721271961927414,
                        0.5020188093185425,
                        0.47824573516845703,
                        0.03775399923324585,
                        0.6020729541778564,
                        0.14957891404628754,
                        -0.11573784798383713,
                        0.390672504901886,
                        0.26434817910194397,
                        0.08443909138441086,
                        0.03680188208818436,
                        -0.2912164330482483,
                        0.2272421270608902,
                        0.11088789254426956,
                        -0.530102550983429,
                        0.23438292741775513,
                        -0.501680314540863,
                        0.021274808794260025,
                        -0.1248636245727539,
                        -0.444002628326416,
                        0.23409754037857056,
                        -0.3203859031200409,
                        0.4587703347206116,
                        0.16878469288349152,
                        -0.18985502421855927,
                        -0.03514687716960907,
                        0.35414206981658936,
                        0.14698940515518188,
                        0.05975371226668358,
                        0.47452667355537415,
                        0.023117873817682266,
                        -0.4279676079750061,
                        -0.06585031747817993,
                        0.09174752980470657,
                        -0.3282449543476105,
                        0.03435412049293518,
                        -0.4646296799182892,
                        -0.33748772740364075,
                        -0.4034074544906616,
                        -0.10705369710922241,
                        0.12269014865159988,
                        -0.07680371403694153,
                        0.20246298611164093,
                        -0.03290097042918205,
                        -0.0880359411239624,
                        -0.3335346579551697,
                        0.3800344169139862,
                        -0.16809597611427307,
                        0.09635497629642487,
                        -0.40343672037124634,
                        0.6367195248603821,
                        0.7180063128471375,
                        -0.48958852887153625,
                        0.5084925293922424,
                        -0.7271630764007568,
                        -0.15258409082889557,
                        -0.5447094440460205,
                        0.0982309877872467,
                        0.6507543325424194,
                        0.05153115466237068,
                        -0.24127832055091858,
                        0.0824052095413208,
                        0.010083631612360477,
                        0.23575375974178314,
                        0.03127023205161095,
                        -0.07045229524374008,
                        -0.32222455739974976,
                        -0.052846021950244904,
                        -0.1810593456029892,
                        -0.2524964213371277,
                        -0.11064711213111877,
                        -0.42046797275543213,
                        0.3928162753582001,
                        0.18440015614032745,
                        0.11370686441659927,
                        -0.07358027249574661,
                        -0.5205242037773132,
                        -0.15667034685611725,
                        -0.43582022190093994
                    ],
                    [
                        -0.108277328312397,
                        0.07228010892868042,
                        0.07705608755350113,
                        0.710377037525177,
                        -0.043547507375478745,
                        -0.4851715862751007,
                        -0.009799265302717686,
                        0.20888134837150574,
                        -0.3387930989265442,
                        -0.3132539987564087,
                        -0.18597865104675293,
                        -0.009418153204023838,
                        -0.3717055022716522,
                        0.27292993664741516,
                        -0.04743431508541107,
                        -0.6074455976486206,
                        -0.11432044208049774,
                        0.03600512444972992,
                        -0.8707987666130066,
                        -0.270009845495224,
                        -0.34010910987854004,
                        -0.008953644894063473,
                        -0.053373124450445175,
                        0.20581752061843872,
                        -0.12427516281604767,
                        0.29359325766563416,
                        0.022897424176335335,
                        0.2383432686328888,
                        -0.0627753734588623,
                        0.05906803905963898,
                        0.18555018305778503,
                        0.20967432856559753,
                        -0.004482317250221968,
                        0.20287829637527466,
                        0.13511539995670319,
                        0.12454715371131897,
                        -0.12408151477575302,
                        -0.016156628727912903,
                        0.24364160001277924,
                        -0.2408939003944397,
                        0.6821178793907166,
                        -0.050888482481241226,
                        0.16133573651313782,
                        0.3127691149711609,
                        0.9200884699821472,
                        -0.006277948617935181,
                        0.21313923597335815,
                        0.5923542976379395,
                        0.01162033062428236,
                        -0.14203104376792908,
                        0.08617022633552551,
                        0.16760341823101044,
                        0.0940803810954094,
                        0.01532655581831932,
                        -0.40587401390075684,
                        0.31753045320510864,
                        0.07169976830482483,
                        -0.6959765553474426,
                        -0.06517300754785538,
                        -0.17304018139839172,
                        0.18690736591815948,
                        -0.3290189206600189,
                        -0.052017759531736374,
                        0.2599763870239258,
                        0.3169247508049011,
                        -0.1345192939043045,
                        0.17946895956993103,
                        -0.4047169089317322,
                        -0.03224962204694748,
                        -0.08271271735429764,
                        0.24605883657932281,
                        0.00860689114779234,
                        -0.7619518637657166,
                        0.07492336630821228,
                        0.316182017326355,
                        1.4448574781417847,
                        0.1316147893667221,
                        -0.33727365732192993,
                        -0.33526116609573364,
                        -0.01485712081193924
                    ]
                ],
                [
                    -1.8683501482009888,
                    2.437291383743286,
                    -2.5407941341400146,
                    0.7456188201904297,
                    0.032587841153144836,
                    -1.9621946811676025,
                    0.03831115737557411,
                    0.05817743390798569,
                    -0.763709545135498,
                    -1.3339699506759644,
                    -0.4376128911972046,
                    0.624089241027832,
                    -1.0779132843017578,
                    -0.5139869451522827,
                    0.11430470645427704,
                    0.6237714290618896,
                    -1.739607334136963,
                    0.6062430143356323,
                    -1.541068434715271,
                    -0.1927432417869568,
                    1.6921255588531494,
                    0.7436227798461914,
                    2.983250617980957,
                    0.9152495265007019,
                    0.6513855457305908,
                    1.3647964000701904,
                    1.1715397834777832,
                    1.3026423454284668,
                    0.709113359451294,
                    2.1369142532348633,
                    1.6599282026290894,
                    -7.585855200886726e-05,
                    0.6572370529174805,
                    0.6303178071975708,
                    0.17652647197246552,
                    0.11101244390010834,
                    2.303781509399414,
                    0.04110059142112732,
                    2.1483733654022217,
                    1.091896653175354,
                    -0.1318599134683609,
                    -0.8754968643188477,
                    -0.10176515579223633,
                    1.1081924438476562,
                    0.12807747721672058,
                    -0.6726290583610535,
                    -1.1847009658813477,
                    0.29767441749572754,
                    0.14545166492462158,
                    0.22611567378044128,
                    -0.5215648412704468,
                    0.07262132316827774,
                    0.019688434898853302,
                    -0.19391044974327087,
                    -0.3546086549758911,
                    -0.17722512781620026,
                    -0.4326372742652893,
                    0.2242547571659088,
                    0.05797111615538597,
                    0.5129619836807251,
                    0.7182621955871582,
                    0.7532671689987183,
                    0.11930947005748749,
                    1.4495848417282104,
                    0.10712841153144836,
                    -0.19484420120716095,
                    0.7696181535720825,
                    0.27459847927093506,
                    0.47788023948669434,
                    0.012168347835540771,
                    0.10300254821777344,
                    0.8759413957595825,
                    -0.6169059872627258,
                    -0.8896697759628296,
                    0.0397971048951149,
                    0.988857626914978,
                    -0.1043260395526886,
                    0.3131783604621887,
                    -0.06978471577167511,
                    0.2947734594345093
                ]
            ]
        },
        {
            "type": "dense",
            "activation": "",
            "shape": [
                null,
                null,
                1
            ],
            "weights": [
                [
                    [
                        1.3457951545715332
                    ],
                    [
                        0.06881062686443329
                    ],
                    [
                        -0.7321781516075134
                    ],
                    [
                        -0.24780161678791046
                    ],
                    [
                        -1.2770590782165527
                    ],
                    [
                        -0.043144457042217255
                    ],
                    [
                        -0.3497016131877899
                    ],
                    [
                        -0.035891637206077576
                    ],
                    [
                        -0.3564789593219757
                    ],
                    [
                        -0.2453165054321289
                    ],
                    [
                        -5.2751147450180724e-05
                    ],
                    [
                        -0.32249772548675537
                    ],
                    [
                        -0.011124948039650917
                    ],
                    [
                        0.040420468896627426
                    ],
                    [
                        -0.1013360321521759
                    ],
                    [
                        -0.014813544228672981
                    ],
                    [
                        0.027437852695584297
                    ],
                    [
                        -0.01678434945642948
                    ],
                    [
                        0.15393799543380737
                    ],
                    [
                        0.25453031063079834
                    ]
                ],
                [
                    0.022176403552293777
                ]
            ]
        }
    ]
}