{
    "in_shape": [
        null,
        null,
        1
    ],
    "layers": [
        {
            "type": "lstm",
            "activation": "",
            "shape": [
                null,
                null,
                20
            ],
            "weights": [
                [
                    [
                        0.042949557304382324,
                        0.11189787089824677,
                        -0.5332345366477966,
                        0.9511560797691345,
                        -0.03489488735795021,
                        0.09405474364757538,
                        -0.19937561452388763,
                        0.03322776034474373,
                        -0.09600179642438889,
                        -0.01557390671223402,
                        0.2124660313129425,
                        -0.016615018248558044,
                        0.01463157869875431,
                        -0.5224067568778992,
                        -0.0764489620923996,
                        0.27378135919570923,
                        -0.45455124974250793,
                        -0.15060976147651672,
                        0.17715181410312653,
                        0.08980236947536469,
                        -0.07278552651405334,
                        -0.19106425344944,
                        -0.13015201687812805,
                        0.08038321137428284,
                        -0.44564303755760193,
                        0.017335224896669388,
                        -0.19721761345863342,
                        -0.06693727523088455,
                        0.11230622231960297,
                        -0.01641233079135418,
                        0.18888092041015625,
                        0.026033813133835793,
                        -0.07611530274152756,
                        -0.6398410797119141,
                        -0.2655467092990875,
                        0.21597591042518616,
                        0.12899097800254822,
                        0.10856606066226959,
                        0.3510992228984833,
                        -0.05684209614992142,
                        -0.19333359599113464,
                        0.41226184368133545,
                        -1.0692602396011353,
                        1.1501226425170898,
                        -2.202098846435547,
                        -0.13238707184791565,
                        0.10189924389123917,
                        0.1349160075187683,
                        -0.1062411442399025,
                        -0.20001472532749176,
                        0.2189558744430542,
                        -0.154612734913826,
                        0.6626763939857483,
                        -0.040888477116823196,
                        -0.280167818069458,
                        0.04765777662396431,
                        -0.4685705900192261,
                        3.976607084274292,
                        0.8483718633651733,
                        0.000512323051225394,
                        0.006617579609155655,
                        -0.08600929379463196,
                        0.08422084897756577,
                        -0.347504585981369,
                        -0.007165341638028622,
                        -0.06477490067481995,
                        -0.1598891019821167,
                        0.04606439918279648,
                        0.13462254405021667,
                        0.461768239736557,
                        0.3953261375427246,
                        0.13486656546592712,
                        0.026440007612109184,
                        0.11687423288822174,
                        -0.3312053680419922,
                        -0.03361066058278084,
                        -0.043297164142131805,
                        0.19079336524009705,
                        0.08945498615503311,
                        0.12789131700992584
                    ]
                ],
                [
                    [
                        0.012259122915565968,
                        0.1194148138165474,
                        0.2823259234428406,
                        -0.04611726105213165,
                        0.5495138168334961,
                        -0.05148351565003395,
                        -0.18158748745918274,
                        0.07229061424732208,
                        -0.5132356286048889,
                        0.04136879742145538,
                        -0.4018126130104065,
                        -0.015206802636384964,
                        -0.010983400046825409,
                        -0.13597145676612854,
                        -0.4166611135005951,
                        -0.38811826705932617,
                        0.08498073369264603,
                        -0.12675495445728302,
                        -0.695687472820282,
                        -0.495050847530365,
                        0.34143272042274475,
                        0.11833163350820541,
                        -0.07150749862194061,
                        0.27680033445358276,
                        0.07210822403430939,
                        0.27445468306541443,
                        0.13683007657527924,
                        0.7904614806175232,
                        0.6462494134902954,
                        -0.010446508415043354,
                        0.04080429673194885,
                        0.08998013287782669,
                        -0.44611287117004395,
                        0.19488941133022308,
                        0.5423909425735474,
                        1.0432027578353882,
                        0.6120591759681702,
                        -0.06810794770717621,
                        0.15983888506889343,
                        0.16720466315746307,
                        0.532975435256958,
                        -0.18486151099205017,
                        0.0446341298520565,
                        -0.1949697881937027,
                        -0.13903729617595673,
                        0.24100100994110107,
                        0.1881304383277893,
                        -0.23674699664115906,
                        -0.43013378977775574,
                        -0.18955712020397186,
                        0.03341377153992653,
                        0.0492093563079834,
                        0.21749131381511688,
                        -0.19707469642162323,
                        -0.04867885261774063,
                        -0.5558782815933228,
                        0.032992955297231674,
                        0.014252555556595325,
                        0.04870722442865372,
                        -0.04672860726714134,
                        0.3222648501396179,
                        0.15708330273628235,
                        -0.14517192542552948,
                        -0.1258402168750763,
                        0.05997856333851814,
                        0.14076237380504608,
                        -0.19068215787410736,
                        -0.9122587442398071,
                        0.6085978150367737,
                        0.09914521127939224,
                        0.08933043479919434,
                        0.17295163869857788,
                        -0.009281720034778118,
                        0.48030149936676025,
                        0.17199036478996277,
                        -0.9403102397918701,
                        0.29029157757759094,
                        -0.11834733933210373,
                        0.10065168887376785,
                        -0.2506961226463318
                    ],
                    [
                        -0.27451133728027344,
                        -0.14058473706245422,
                        0.604227602481842,
                        0.1322886347770691,
                        -0.29493778944015503,
                        0.6202877759933472,
                        0.25200214982032776,
                        -0.40301239490509033,
                        0.08291424810886383,
                        -0.2232631891965866,
                        0.2640356123447418,
                        0.6661472916603088,
                        -0.24003171920776367,
                        0.1515069603919983,
                        0.793214738368988,
                        -0.14498025178909302,
                        0.13247796893119812,
                        -0.4981136918067932,
                        0.4221095144748688,
                        -0.0017855118494480848,
                        -0.2573004961013794,
                        -0.47543588280677795,
                        -0.8661002516746521,
                        -0.23163093626499176,
                        -0.272231787443161,
                        -0.8300914168357849,
                        -0.3206970989704132,
                        0.1809207946062088,
                        -0.46036970615386963,
                        0.14389346539974213,
                        -0.31500235199928284,
                        -0.7090243697166443,
                        -0.05341014266014099,
                        -0.11751847714185715,
                        -1.0430468320846558,
                        0.0196765698492527,
                        -0.4771153926849365,
                        -0.03657795488834381,
                        -0.3985089957714081,
                        -0.17596441507339478,
                        -0.07410718500614166,
                        0.35434895753860474,
                        -0.18263500928878784,
                        0.030073272064328194,
                        -0.16271139681339264,
                        0.30682358145713806,
                        -0.04442934691905975,
                        -0.6592838168144226,
                        -0.07570387423038483,
                        0.10596229881048203,
                        0.18533897399902344,
                        0.22589385509490967,
                        -0.1436391919851303,
                        -0.3129967451095581,
                        -0.027607562020421028,
                        0.7543611526489258,
                        -0.03868308290839195,
                        -0.08334530144929886,
                        0.062313273549079895,
                        -0.11147148162126541,
                        -0.2557980418205261,
                        -0.7732455134391785,
                        -0.4957008361816406,
                        -0.41914254426956177,
                        -0.3602566421031952,
                        -0.15235121548175812,
                        0.17974364757537842,
                        -0.6706121563911438,
                        0.44045501947402954,
                        -0.16957823932170868,
                        -0.3743511140346527,
                        -0.2550297975540161,
                        -0.12579946219921112,
                        0.21695630252361298,
                        -0.09439673274755478,
                        -0.2703983783721924,
                        -0.18842333555221558,
                        -0.5117658376693726,
                        -0.06394059211015701,
                        -0.06576957553625107
                    ],
                    [
                        -0.07496954500675201,
                        -0.15191905200481415,
                        -0.36597922444343567,
                        -0.020090028643608093,
                        -0.11773882806301117,
                        -0.1561351716518402,
                        0.3191688060760498,
                        -0.022146059200167656,
                        -0.00884933490306139,
                        0.14739596843719482,
                        0.0025307436008006334,
                        -0.14143957197666168,
                        0.06979154050350189,
                        -0.08593358844518661,
                        -0.274827241897583,
                        -0.2578730583190918,
                        -0.08558863401412964,
                        0.17613577842712402,
                        0.4883239269256592,
                        -0.04247003793716431,
                        0.07288949191570282,
                        -0.24078167974948883,
                        0.18798062205314636,
                        0.33161965012550354,
                        0.06412913650274277,
                        -0.007751761004328728,
                        0.22837097942829132,
                        0.2687303423881531,
                        -0.03938307613134384,
                        0.26712533831596375,
                        -0.08740776777267456,
                        0.18027392029762268,
                        0.0946861132979393,
                        0.08512292802333832,
                        0.47092726826667786,
                        -0.06296457350254059,
                        -0.06180763244628906,
                        -0.004590775817632675,
                        -0.15984436869621277,
                        0.029000835493206978,
                        -0.11398385465145111,
                        0.23945897817611694,
                        -0.035545945167541504,
                        1.4988709688186646,
                        -2.0105388164520264,
                        0.05752835050225258,
                        0.4310523569583893,
                        0.08563749492168427,
                        -0.14825186133384705,
                        0.7668501138687134,
                        -0.2094523012638092,
                        -0.08808503299951553,
                        0.3598785698413849,
                        -0.009470113553106785,
                        -0.17465387284755707,
                        -0.15442408621311188,
                        -0.22666066884994507,
                        2.3948540687561035,
                        0.0956130251288414,
                        -0.10335618257522583,
                        -0.12329604476690292,
                        -0.0998220294713974,
                        -0.02448408119380474,
                        -0.10643221437931061,
                        -0.08331787586212158,
                        -0.07360204309225082,
                        0.35206106305122375,
                        0.05224810540676117,
                        -0.12405773997306824,
                        0.255256325006485,
                        -0.23249880969524384,
                        -0.2189822793006897,
                        0.07272114604711533,
                        -0.6003267168998718,
                        0.19425466656684875,
                        0.05956543982028961,
                        0.15183386206626892,
                        -0.7086811661720276,
                        0.33575135469436646,
                        -0.13958491384983063
                    ],
                    [
                        -0.4779294729232788,
                        0.22243334352970123,
                        -0.3153858482837677,
                        -0.34711283445358276,
                        0.3981991410255432,
                        0.1842336803674698,
                        0.2889210283756256,
                        0.07127171754837036,
                        0.2359645664691925,
                        0.3538423776626587,
                        -0.05176868662238121,
                        -0.11335331201553345,
                        0.09511659294366837,
                        -0.6721943020820618,
                        -0.33499279618263245,
                        -0.4237116277217865,
                        -0.9811379313468933,
                        -0.023016609251499176,
                        0.4987989664077759,
                        -0.21793484687805176,
                        -0.23970255255699158,
                        -0.16665907204151154,
                        0.26409298181533813,
                        1.1303834915161133,
                        -0.029447142034769058,
                        0.5840792655944824,
                        0.015818780288100243,
                        -0.08944083750247955,
                        -0.05385451018810272,
                        0.34628498554229736,
                        0.355165958404541,
                        0.26173636317253113,
                        -0.38045746088027954,
                        -0.7476606369018555,
                        0.06862497329711914,
                        0.041373204439878464,
                        -0.3210252523422241,
                        0.17883095145225525,
                        -0.13836903870105743,
                        0.019727783277630806,
                        -0.022295570001006126,
                        0.13417907059192657,
                        -0.2314402163028717,
                        0.8431352972984314,
                        0.7642122507095337,
                        1.0938130617141724,
                        -0.409981369972229,
                        -0.10979408025741577,
                        0.13059885799884796,
                        0.8972154259681702,
                        -0.2651658356189728,
                        -0.01610580086708069,
                        2.226163625717163,
                        -0.4969310462474823,
                        -0.29288241267204285,
                        0.13128860294818878,
                        -1.0802518129348755,
                        0.07959754765033722,
                        0.5096496343612671,
                        0.029699288308620453,
                        -0.25279080867767334,
                        -0.34523266553878784,
                        0.31118762493133545,
                        0.7992218732833862,
                        -0.31776347756385803,
                        -0.2532613277435303,
                        0.24676738679409027,
                        0.026269134134054184,
                        -0.051748037338256836,
                        0.45880597829818726,
                        0.454611212015152,
                        0.21190610527992249,
                        0.3482712209224701,
                        -0.37718191742897034,
                        0.0994180217385292,
                        0.4546869397163391,
                        -0.43307870626449585,
                        -0.30304768681526184,
                        0.08073090761899948,
                        0.07627363502979279
                    ],
                    [
                        -0.05524919554591179,
                        -0.25529998540878296,
                        0.3690415918827057,
                        -0.5067418217658997,
                        -0.23442654311656952,
                        -0.18485794961452484,
                        -0.19483979046344757,
                        -0.014110798016190529,
                        0.3174003064632416,
                        -0.10872560739517212,
                        -0.46665412187576294,
                        0.20842021703720093,
                        -0.06078886240720749,
                        0.280638724565506,
                        0.0018768134759739041,
                        -0.015437213703989983,
                        0.4069230258464813,
                        0.20083194971084595,
                        0.2097572237253189,
                        -0.07644490152597427,
                        -0.05618683248758316,
                        0.047022346407175064,
                        -0.7117723822593689,
                        -0.583837628364563,
                        0.056017350405454636,
                        -0.01349200401455164,
                        -0.09016208350658417,
                        -0.05734221637248993,
                        -0.33052244782447815,
                        0.2532697916030884,
                        -0.6311249136924744,
                        0.10270435363054276,
                        0.4943358302116394,
                        0.3753165900707245,
                        -0.12117427587509155,
                        0.14319661259651184,
                        0.36731722950935364,
                        -0.7096421718597412,
                        -0.3744417428970337,
                        -0.0292847640812397,
                        0.03180091828107834,
                        -0.22378107905387878,
                        0.21002575755119324,
                        -1.105556607246399,
                        -0.41810712218284607,
                        0.3680809438228607,
                        -0.39222681522369385,
                        0.34599292278289795,
                        0.030473515391349792,
                        -1.2981268167495728,
                        0.08648403733968735,
                        0.2201751172542572,
                        0.7415251731872559,
                        0.11292047798633575,
                        -0.02487548440694809,
                        0.21265026926994324,
                        0.12283577769994736,
                        -0.017741316929459572,
                        0.1207842156291008,
                        0.023122042417526245,
                        -0.17762279510498047,
                        0.3001064956188202,
                        -0.187059685587883,
                        0.5353567004203796,
                        -0.056764498353004456,
                        0.014859925955533981,
                        -0.16615939140319824,
                        -0.10228703916072845,
                        0.015292840078473091,
                        -0.904315173625946,
                        -0.14442326128482819,
                        0.07596627622842789,
                        0.12229765951633453,
                        -0.33736005425453186,
                        0.22125791013240814,
                        0.5978451371192932,
                        0.17152410745620728,
                        -0.0172771867364645,
                        -0.023001838475465775,
                        -0.07022323459386826
                    ],
                    [
                        -0.0702972263097763,
                        -0.04071924462914467,
                        0.1642381250858307,
                        -0.520449161529541,
                        -0.5205414295196533,
                        -0.012547398917376995,
                        -0.28768113255500793,
                        0.26597002148628235,
                        0.16350072622299194,
                        0.37743881344795227,
                        -0.3474593460559845,
                        -0.3805910050868988,
                        0.18450725078582764,
                        0.2528187930583954,
                        -0.03781503066420555,
                        -0.011047552339732647,
                        0.16013222932815552,
                        0.09756924957036972,
                        0.10831505805253983,
                        0.095578134059906,
                        -0.0023593867663294077,
                        -0.09738761186599731,
                        0.2259153127670288,
                        -0.34840133786201477,
                        -0.3811909258365631,
                        0.5636810660362244,
                        -0.3973076343536377,
                        0.22818708419799805,
                        0.07485634833574295,
                        -0.08082512766122818,
                        -0.1527673751115799,
                        0.2477884441614151,
                        0.3956434428691864,
                        0.3783254027366638,
                        0.13674142956733704,
                        -0.09166866540908813,
                        -0.13291609287261963,
                        -0.314044713973999,
                        0.05800982937216759,
                        -0.17582903802394867,
                        -0.4839152693748474,
                        -0.015548459254205227,
                        0.026760363951325417,
                        -0.3615168333053589,
                        0.046877775341272354,
                        0.33757010102272034,
                        0.03446235880255699,
                        -0.24064365029335022,
                        -0.08075375854969025,
                        0.4751722514629364,
                        0.13382288813591003,
                        -0.04347885027527809,
                        -0.5444566011428833,
                        0.8190781474113464,
                        -0.42238080501556396,
                        -0.39612385630607605,
                        0.0579475536942482,
                        0.08218443393707275,
                        0.4455082416534424,
                        0.5674958825111389,
                        0.18379434943199158,
                        0.15057647228240967,
                        -0.01566554419696331,
                        -0.20852318406105042,
                        0.20486430823802948,
                        0.8171665072441101,
                        0.04415849223732948,
                        -0.09223822504281998,
                        -0.16239075362682343,
                        0.26249799132347107,
                        -0.13667891919612885,
                        -0.026656199246644974,
                        0.2626769542694092,
                        -0.4466879367828369,
                        0.09234661608934402,
                        0.6100136041641235,
                        0.12482332438230515,
                        -0.520351231098175,
                        0.14333301782608032,
                        0.16154441237449646
                    ],
                    [
                        -0.16493527591228485,
                        -0.12010892480611801,
                        0.01675279065966606,
                        0.14102916419506073,
                        0.03742246329784393,
                        -0.8133142590522766,
                        0.2416800707578659,
                        -0.11553683131933212,
                        -0.12875911593437195,
                        0.014080092310905457,
                        -0.15616025030612946,
                        -0.011800228618085384,
                        0.13086679577827454,
                        -0.3762061297893524,
                        -0.11015228927135468,
                        -0.1355835199356079,
                        0.791412889957428,
                        0.07990170270204544,
                        -0.539481520652771,
                        -0.42289498448371887,
                        -0.2770407795906067,
                        -0.01547018438577652,
                        -0.6116999983787537,
                        0.2150287926197052,
                        0.05504867434501648,
                        -0.1663951724767685,
                        0.09870442748069763,
                        -0.12852677702903748,
                        -0.12280964106321335,
                        -0.07629106938838959,
                        -0.2658219337463379,
                        -0.15233133733272552,
                        -0.1297207772731781,
                        0.36179637908935547,
                        0.005323347635567188,
                        -0.03720667585730553,
                        0.09278243780136108,
                        -0.014489663764834404,
                        0.601489782333374,
                        0.17838191986083984,
                        -0.5010685324668884,
                        0.06685136258602142,
                        -0.028594182804226875,
                        -0.0839797854423523,
                        -0.04945745691657066,
                        -0.37970170378685,
                        0.28876572847366333,
                        -0.12660221755504608,
                        -0.06857264786958694,
                        0.12222111225128174,
                        -0.04871708154678345,
                        0.016361545771360397,
                        -0.3710596561431885,
                        0.22945283353328705,
                        0.06159178912639618,
                        -0.2636258602142334,
                        -0.0663655623793602,
                        0.011911021545529366,
                        -0.04630258306860924,
                        -0.09165587276220322,
                        -0.041872572153806686,
                        -0.06285691261291504,
                        -0.27852943539619446,
                        0.6232964992523193,
                        0.10049685090780258,
                        0.14555421471595764,
                        -0.44127586483955383,
                        -0.012336758896708488,
                        0.2143419235944748,
                        -0.3926983177661896,
                        0.06069900095462799,
                        -0.2718786895275116,
                        -0.14677131175994873,
                        0.18331238627433777,
                        -0.23183166980743408,
                        0.07444370537996292,
                        0.14596906304359436,
                        0.4929771423339844,
                        0.2666963040828705,
                        -0.2387128472328186
                    ],
                    [
                        0.42196932435035706,
                        0.01950065977871418,
                        0.09487214684486389,
                        0.3663281202316284,
                        0.1818002462387085,
                        0.25440388917922974,
                        0.026260042563080788,
                        0.017618633806705475,
                        0.09339988231658936,
                        -0.029533319175243378,
                        -0.017599210143089294,
                        0.17636781930923462,
                        -0.08907482773065567,
                        0.03657655417919159,
                        0.05647663027048111,
                        -0.27667027711868286,
                        -0.10892336815595627,
                        -0.21009461581707,
                        0.26546454429626465,
                        0.1376938670873642,
                        0.2233341932296753,
                        0.030344780534505844,
                        -0.285243421792984,
                        -0.12597471475601196,
                        0.12529776990413666,
                        0.15976165235042572,
                        -0.01740012876689434,
                        -0.05488772317767143,
                        0.021170401945710182,
                        -0.14715644717216492,
                        0.015487944707274437,
                        0.037119682878255844,
                        0.22341684997081757,
                        0.00847138836979866,
                        -0.27625054121017456,
                        -0.23677514493465424,
                        -0.008055130019783974,
                        0.026199933141469955,
                        0.12882255017757416,
                        0.16718421876430511,
                        0.11691602319478989,
                        0.105636827647686,
                        -0.0621461346745491,
                        0.054642148315906525,
                        -0.3681533932685852,
                        0.23897509276866913,
                        -0.2673628032207489,
                        -0.7078171968460083,
                        0.5594251751899719,
                        0.004659750033169985,
                        0.21951909363269806,
                        -0.2027161866426468,
                        -0.1484658122062683,
                        -0.011391722597181797,
                        0.48527991771698,
                        0.32134342193603516,
                        0.059578217566013336,
                        -0.06699508428573608,
                        -0.08580655604600906,
                        0.8901021480560303,
                        0.24836167693138123,
                        -0.2853383421897888,
                        -0.02382521890103817,
                        0.23473624885082245,
                        -0.09414900839328766,
                        -0.11922615766525269,
                        0.0655118077993393,
                        -1.0660161972045898,
                        0.3187173008918762,
                        -0.2831096947193146,
                        -0.012651750817894936,
                        0.20439158380031586,
                        -0.01955895870923996,
                        -0.26452183723449707,
                        -0.1211300864815712,
                        -0.19235368072986603,
                        -0.050327807664871216,
                        0.11506285518407822,
                        -0.12774941325187683,
                        0.23049864172935486
                    ],
                    [
                        -0.14259903132915497,
                        -0.03001193329691887,
                        0.18387702107429504,
                        0.4163634777069092,
                        0.26748254895210266,
                        0.04868360608816147,
                        0.08988583832979202,
                        -0.0545189194381237,
                        0.34334513545036316,
                        0.11872198432683945,
                        -0.032211046665906906,
                        0.004121557343751192,
                        0.23259896039962769,
                        0.18651823699474335,
                        0.03635048493742943,
                        0.14020107686519623,
                        -0.08691871911287308,
                        0.023321213200688362,
                        0.3492708206176758,
                        -0.08742822706699371,
                        -0.33362066745758057,
                        -0.03387260437011719,
                        0.03210654482245445,
                        -0.008316665887832642,
                        0.2966913878917694,
                        0.12762543559074402,
                        0.028416117653250694,
                        -0.03428194671869278,
                        0.2579950988292694,
                        0.3235083222389221,
                        -0.05676401033997536,
                        -0.1866765320301056,
                        0.07464298605918884,
                        0.07579755783081055,
                        0.40776902437210083,
                        0.35021522641181946,
                        0.02620062604546547,
                        -0.011731186881661415,
                        -0.10372195392847061,
                        0.0708487406373024,
                        -0.43975141644477844,
                        0.19001400470733643,
                        0.07978721708059311,
                        0.05468606576323509,
                        -0.028348533436655998,
                        0.11877763271331787,
                        -0.1615716516971588,
                        -0.09129811823368073,
                        0.42688870429992676,
                        0.2676820755004883,
                        -0.11053656041622162,
                        0.2168872058391571,
                        0.13918432593345642,
                        0.022159220650792122,
                        -0.42909833788871765,
                        1.240387201309204,
                        -0.04584188014268875,
                        -0.037612784653902054,
                        0.050108786672353745,
                        -0.3270072937011719,
                        0.09676752239465714,
                        -0.8162490725517273,
                        0.11382848024368286,
                        0.14393286406993866,
                        0.032460059970617294,
                        -0.3303591012954712,
                        -0.07285677641630173,
                        -0.48454147577285767,
                        0.3143724501132965,
                        -0.0033374943304806948,
                        -0.054176799952983856,
                        0.3862886130809784,
                        -0.30752691626548767,
                        0.8157978653907776,
                        0.04925546795129776,
                        0.24512410163879395,
                        0.2798999547958374,
                        0.19763298332691193,
                        0.09236796945333481,
                        0.013673522509634495
                    ],
                    [
                        0.39381036162376404,
                        0.13837426900863647,
                        1.174131155014038,
                        -0.607661783695221,
                        -0.2868120074272156,
                        0.28338366746902466,
                        0.6173670887947083,
                        -0.08136194944381714,
                        0.3070649802684784,
                        -0.16035912930965424,
                        0.05992170795798302,
                        0.0384661965072155,
                        -0.23100607097148895,
                        -0.5326299071311951,
                        0.1513867974281311,
                        -0.19570383429527283,
                        0.2745932638645172,
                        -0.4470352530479431,
                        0.6938002705574036,
                        0.18243563175201416,
                        0.43728578090667725,
                        -0.37854886054992676,
                        -1.7769873142242432,
                        -0.06961551308631897,
                        0.007427223026752472,
                        -0.24304001033306122,
                        -0.23397007584571838,
                        -0.03204484283924103,
                        -0.17051038146018982,
                        -0.3033844828605652,
                        -0.4842384457588196,
                        -0.145627960562706,
                        0.23785769939422607,
                        0.055743295699357986,
                        -0.12731283903121948,
                        0.12564677000045776,
                        -0.22573138773441315,
                        -0.38575902581214905,
                        -0.5831964612007141,
                        -0.1577550321817398,
                        0.19710378348827362,
                        0.042098503559827805,
                        -0.04677625373005867,
                        -0.32197538018226624,
                        0.3066956400871277,
                        -0.4551125168800354,
                        -0.3516674041748047,
                        0.12609535455703735,
                        0.07251482456922531,
                        -0.1586441993713379,
                        0.21597668528556824,
                        0.0023332692217081785,
                        -0.3210552930831909,
                        0.4302869141101837,
                        0.11636722832918167,
                        0.12853938341140747,
                        -0.36662036180496216,
                        0.03799113258719444,
                        0.08664283901453018,
                        -0.07129400223493576,
                        0.03361498937010765,
                        0.2973639667034149,
                        -0.6531437635421753,
                        -0.43574783205986023,
                        -0.36667314171791077,
                        0.09243649244308472,
                        -0.43248915672302246,
                        0.09975770115852356,
                        0.01232838537544012,
                        0.018041269853711128,
                        -0.19427864253520966,
                        -0.26960939168930054,
                        0.0656985342502594,
                        0.1763334572315216,
                        -0.10252732038497925,
                        0.10172516107559204,
                        -0.22600358724594116,
                        -0.7533408999443054,
                        -0.5843940377235413,
                        0.12772943079471588
                    ],
                    [
                        0.11141570657491684,
                        -0.12714621424674988,
                        0.8423200249671936,
                        -0.49532413482666016,
                        -0.9133898019790649,
                        0.3813367187976837,
                        0.09723648428916931,
                        -0.28859150409698486,
                        -0.29072585701942444,
                        -0.2126273661851883,
                        0.1973869353532791,
                        0.277908056974411,
                        -0.26208001375198364,
                        0.00704923365265131,
                        0.49661749601364136,
                        -0.39936885237693787,
                        0.6888262033462524,
                        -0.3148546516895294,
                        -0.32121437788009644,
                        0.10677315294742584,
                        0.44352710247039795,
                        -0.22736234962940216,
                        -0.33863237500190735,
                        0.3212261497974396,
                        -0.6274360418319702,
                        -0.48369544744491577,
                        -0.08535870909690857,
                        -0.030672142282128334,
                        0.25130495429039,
                        -0.06700637936592102,
                        0.006497837137430906,
                        -0.010708251036703587,
                        -0.14436085522174835,
                        0.0016332283848896623,
                        -0.1722615510225296,
                        -0.13013215363025665,
                        -0.022966980934143066,
                        0.10264147818088531,
                        0.007703464012593031,
                        0.2687534987926483,
                        -0.15780848264694214,
                        0.29006752371788025,
                        -0.02500135451555252,
                        -0.6494846940040588,
                        0.35464638471603394,
                        -0.011763909831643105,
                        -0.13783559203147888,
                        -0.29901933670043945,
                        0.22419780492782593,
                        -0.09441310912370682,
                        0.08433054387569427,
                        -0.1074165403842926,
                        -0.726076602935791,
                        0.20118655264377594,
                        -0.05002067610621452,
                        0.4965299665927887,
                        0.13890601694583893,
                        0.21995709836483002,
                        -0.38666394352912903,
                        -0.09644827991724014,
                        0.07730349898338318,
                        0.019239075481891632,
                        -0.3056946098804474,
                        0.051522355526685715,
                        -0.3283199369907379,
                        -0.07206695526838303,
                        -0.03855932503938675,
                        -0.19503876566886902,
                        -0.44482266902923584,
                        -0.3084142804145813,
                        -0.24544760584831238,
                        -0.3868308961391449,
                        -0.17477981746196747,
                        -0.09397310763597488,
                        0.03905683755874634,
                        -0.21183669567108154,
                        -0.137828528881073,
                        -0.34995248913764954,
                        0.18907156586647034,
                        -0.1940733790397644
                    ],
                    [
                        -0.01678040809929371,
                        -0.10613542795181274,
                        0.05479884147644043,
                        -0.07698013633489609,
                        0.25368329882621765,
                        0.3506474792957306,
                        0.36509862542152405,
                        -0.08896986395120621,
                        0.0032577146776020527,
                        -0.15854832530021667,
                        -0.06550951302051544,
                        0.1102614551782608,
                        -0.1421256810426712,
                        0.09947572648525238,
                        0.5937249064445496,
                        -0.09469696134328842,
                        -0.10915698856115341,
                        -0.1742083877325058,
                        0.07386814802885056,
                        -0.08115346729755402,
                        -0.30173158645629883,
                        -0.18996255099773407,
                        -0.10024574398994446,
                        0.1725897341966629,
                        -0.007994693703949451,
                        -0.38680699467658997,
                        0.12669719755649567,
                        -0.028150813654065132,
                        0.19682732224464417,
                        0.027092022821307182,
                        -0.10371271520853043,
                        -0.08359306305646896,
                        -0.39963728189468384,
                        -0.06271528452634811,
                        -0.05836160480976105,
                        -0.02211076393723488,
                        0.11891382932662964,
                        -0.09629203379154205,
                        -0.41628581285476685,
                        0.18359072506427765,
                        0.05843928083777428,
                        0.05567536503076553,
                        -0.2088947594165802,
                        0.06114569306373596,
                        0.1482689380645752,
                        -0.19081638753414154,
                        0.019737202674150467,
                        0.23897941410541534,
                        0.30198749899864197,
                        -0.0029076728969812393,
                        0.1079874262213707,
                        0.38578519225120544,
                        0.10893208533525467,
                        -0.3615199327468872,
                        -1.1650276184082031,
                        0.3359382152557373,
                        0.021987469866871834,
                        -0.0010724770836532116,
                        -0.042595140635967255,
                        1.0157967805862427,
                        -0.26957350969314575,
                        0.14173218607902527,
                        -0.08503644913434982,
                        -0.15831701457500458,
                        -0.2265865057706833,
                        -0.27219194173812866,
                        -0.16081386804580688,
                        0.3704875707626343,
                        0.34025683999061584,
                        0.01889096014201641,
                        0.03706163540482521,
                        -0.3102981448173523,
                        -0.09295208007097244,
                        -0.08431301265954971,
                        0.11618766188621521,
                        -0.28209006786346436,
                        0.08670847117900848,
                        -0.09056759625673294,
                        -0.16944395005702972,
                        -0.14595599472522736
                    ],
                    [
                        -0.8190763592720032,
                        0.13931581377983093,
                        0.11851520836353302,
                        -0.08329499512910843,
                        0.06287257373332977,
                        -0.06829986721277237,
                        0.16645941138267517,
                        0.15143246948719025,
                        -0.4924998879432678,
                        0.16833607852458954,
                        0.16763567924499512,
                        -0.06015786901116371,
                        -0.3962014615535736,
                        -0.30172061920166016,
                        0.174879252910614,
                        -0.08857171982526779,
                        -0.012811865657567978,
                        0.0776810273528099,
                        0.4441501498222351,
                        0.0827641412615776,
                        -0.24271777272224426,
                        0.12549921870231628,
                        0.04080374538898468,
                        -0.035783350467681885,
                        0.056108713150024414,
                        0.08876288682222366,
                        -0.04727829992771149,
                        0.222183495759964,
                        -0.8910617232322693,
                        0.01419715117663145,
                        -0.00915349368005991,
                        0.06075407192111015,
                        -0.44776222109794617,
                        0.21117126941680908,
                        -0.3731003999710083,
                        0.321426659822464,
                        -0.19999361038208008,
                        0.07135633379220963,
                        -0.14993701875209808,
                        0.15812844038009644,
                        0.08812893182039261,
                        -0.2404303401708603,
                        -0.046607982367277145,
                        0.2423480600118637,
                        0.3427882194519043,
                        -0.029234223067760468,
                        -0.05161027982831001,
                        0.3759326636791229,
                        -0.4284490942955017,
                        0.27262943983078003,
                        -0.165558859705925,
                        -0.6732728481292725,
                        0.4500623941421509,
                        0.3167409896850586,
                        -0.030406223610043526,
                        0.9794963002204895,
                        -0.20023620128631592,
                        0.011999298818409443,
                        -0.048444706946611404,
                        -0.13394053280353546,
                        -0.7702773809432983,
                        -0.07430431246757507,
                        -0.016752703115344048,
                        -0.4000244140625,
                        -0.09527371823787689,
                        0.09717041999101639,
                        0.049679793417453766,
                        -0.046749647706747055,
                        0.152323916554451,
                        0.6063858270645142,
                        0.26429831981658936,
                        -0.340894877910614,
                        0.17780685424804688,
                        -0.10547203570604324,
                        -0.15237553417682648,
                        0.12398146092891693,
                        -0.01985900290310383,
                        0.14403676986694336,
                        0.1735159307718277,
                        0.10893324017524719
                    ],
                    [
                        -0.11507386714220047,
                        0.03710596635937691,
                        -1.0018383264541626,
                        0.03193159028887749,
                        0.4229973554611206,
                        -1.0898478031158447,
                        -0.3618523180484772,
                        0.3335426151752472,
                        0.04297098517417908,
                        0.39434677362442017,
                        -0.17827273905277252,
                        -0.721867024898529,
                        0.3707645535469055,
                        0.266632616519928,
                        -0.9680125117301941,
                        0.3568493127822876,
                        -0.41579702496528625,
                        0.5485921502113342,
                        -0.6511017084121704,
                        -0.018469324335455894,
                        0.026488719508051872,
                        0.37670066952705383,
                        1.1900783777236938,
                        -0.08172693103551865,
                        0.1474146693944931,
                        1.0651837587356567,
                        0.3605809211730957,
                        0.06877400726079941,
                        0.4001357853412628,
                        0.10674804449081421,
                        0.4095185399055481,
                        0.9784332513809204,
                        0.14883646368980408,
                        0.6576310396194458,
                        1.1407297849655151,
                        0.03861263021826744,
                        0.41457778215408325,
                        -0.05187998339533806,
                        0.3535374104976654,
                        0.2087157815694809,
                        -0.004103305283933878,
                        -0.4093206822872162,
                        -0.20750992000102997,
                        0.025568241253495216,
                        0.05280476436018944,
                        -0.30589982867240906,
                        -0.07911092042922974,
                        -0.49635493755340576,
                        0.4265320897102356,
                        -0.502243161201477,
                        -0.43176132440567017,
                        -0.05229165032505989,
                        -0.010896561667323112,
                        0.05583370849490166,
                        0.08524658530950546,
                        1.0604541301727295,
                        -0.06920395791530609,
                        -0.04348559305071831,
                        -0.00953488890081644,
                        0.06267494708299637,
                        0.3811977505683899,
                        0.4391576647758484,
                        0.43979164958000183,
                        0.6017177700996399,
                        0.5574498176574707,
                        0.11383102834224701,
                        -0.3024519085884094,
                        0.016747213900089264,
                        0.1256982535123825,
                        0.49790456891059875,
                        0.16209325194358826,
                        0.26076823472976685,
                        0.209819957613945,
                        0.5677571892738342,
                        0.058358389884233475,
                        0.14546239376068115,
                        0.14737620949745178,
                        0.3060349225997925,
                        -0.01776130683720112,
                        0.2382264882326126
                    ],
                    [
                        -0.2985278367996216,
                        0.164097860455513,
                        -0.04915855824947357,
                        0.3845045268535614,
                        0.016951775178313255,
                        0.9037854671478271,
                        0.11655723303556442,
                        -0.17482033371925354,
                        -0.012460379861295223,
                        -0.25090840458869934,
                        0.35182201862335205,
                        -0.30137619376182556,
                        -0.07297173142433167,
                        -0.10376342386007309,
                        -0.001911998842842877,
                        -0.054971083998680115,
                        0.005808115471154451,
                        -0.21246932446956635,
                        0.2097713053226471,
                        0.016979726031422615,
                        -0.20569445192813873,
                        0.19123655557632446,
                        -0.29887038469314575,
                        -0.009351440705358982,
                        0.09539829194545746,
                        -0.04294075816869736,
                        0.1340922862291336,
                        -0.1690361350774765,
                        -0.23123516142368317,
                        -0.10796618461608887,
                        -0.12147766351699829,
                        -0.17248480021953583,
                        -0.08094540983438492,
                        -0.3079315423965454,
                        -0.2706027328968048,
                        -0.18032881617546082,
                        -0.08941704779863358,
                        0.1724964678287506,
                        0.1306108832359314,
                        -0.09244316071271896,
                        -0.0381026417016983,
                        0.009067128412425518,
                        -0.04802491143345833,
                        0.003947861958295107,
                        -0.025458630174398422,
                        0.12239572405815125,
                        -0.06561332941055298,
                        0.2348162829875946,
                        0.3966415226459503,
                        -0.23032452166080475,
                        -0.0826263502240181,
                        0.9263008236885071,
                        0.423617422580719,
                        -0.10945691913366318,
                        0.19687068462371826,
                        0.3477656841278076,
                        -0.004301928915083408,
                        -0.16073735058307648,
                        -0.19644856452941895,
                        0.349038302898407,
                        -0.2020024210214615,
                        0.04558374732732773,
                        -0.2575618624687195,
                        -0.021325090900063515,
                        -0.09720736742019653,
                        -0.053889818489551544,
                        0.08479680866003036,
                        -0.053238458931446075,
                        -0.03599332645535469,
                        -0.19961512088775635,
                        0.16069583594799042,
                        -0.10955730825662613,
                        0.1803918331861496,
                        -0.24747002124786377,
                        -0.5431071519851685,
                        -0.3171897828578949,
                        -0.1322656124830246,
                        -0.004492904990911484,
                        -0.15228648483753204,
                        -0.09578837454319
                    ],
                    [
                        -0.8300081491470337,
                        0.07034149765968323,
                        0.0991581454873085,
                        -0.23811453580856323,
                        0.1633547991514206,
                        -0.13159453868865967,
                        0.2910178601741791,
                        -0.043559104204177856,
                        0.09158273786306381,
                        -0.023281874135136604,
                        -0.1321098804473877,
                        -0.27724048495292664,
                        0.13242433965206146,
                        -0.07778103649616241,
                        -0.14022839069366455,
                        0.23692594468593597,
                        -0.03184010460972786,
                        0.10181131213903427,
                        -0.10362385213375092,
                        0.06063903123140335,
                        -0.29794204235076904,
                        0.11241189390420914,
                        0.10147083550691605,
                        0.08236858248710632,
                        0.30332082509994507,
                        -0.11653058230876923,
                        0.11621133238077164,
                        0.09241699427366257,
                        -0.46312928199768066,
                        0.046462543308734894,
                        -0.06490373611450195,
                        0.13267411291599274,
                        0.18432705104351044,
                        0.075595922768116,
                        0.007103634998202324,
                        -0.004273208323866129,
                        -0.10323498398065567,
                        -0.05436693876981735,
                        -0.40987277030944824,
                        0.0878390222787857,
                        1.6310359239578247,
                        -0.10682842135429382,
                        0.08680884540081024,
                        -0.43098655343055725,
                        -0.48954737186431885,
                        0.44120118021965027,
                        -0.4000612497329712,
                        -1.6958177089691162,
                        -0.5025002956390381,
                        -0.43358299136161804,
                        -0.009819083847105503,
                        0.20584596693515778,
                        0.2753411531448364,
                        -0.050106264650821686,
                        -0.22857892513275146,
                        -0.7959562540054321,
                        -0.266459584236145,
                        0.022169651463627815,
                        0.2102876454591751,
                        0.020142825320363045,
                        -0.44763895869255066,
                        0.28246796131134033,
                        0.013383106328547001,
                        -0.13265348970890045,
                        0.014261046424508095,
                        -0.007981440052390099,
                        0.04780813306570053,
                        0.298285573720932,
                        0.5146446824073792,
                        0.12327247858047485,
                        0.5154346823692322,
                        -0.014493796974420547,
                        -0.1320696324110031,
                        -0.18459533154964447,
                        -0.24309194087982178,
                        -0.09265635162591934,
                        -0.045286379754543304,
                        -0.0017925541615113616,
                        -0.020518125966191292,
                        0.012276583351194859
                    ],
                    [
                        0.29072773456573486,
                        0.0740552768111229,
                        0.2911388576030731,
                        -0.1597403585910797,
                        -0.42906519770622253,
                        -0.2144298255443573,
                        0.3914594054222107,
                        0.05047588050365448,
                        0.151823028922081,
                        -0.24385130405426025,
                        -0.1305186152458191,
                        -0.2714470326900482,
                        -0.055367182940244675,
                        0.20037853717803955,
                        -0.43455103039741516,
                        0.2894792854785919,
                        -0.3834098279476166,
                        0.10943792015314102,
                        0.4856988787651062,
                        0.23508493602275848,
                        0.43072688579559326,
                        -0.020702749490737915,
                        -0.9009567499160767,
                        -0.33054858446121216,
                        -0.5846929550170898,
                        -0.20731039345264435,
                        -0.12088217586278915,
                        0.10768739134073257,
                        0.27179503440856934,
                        -0.4314559996128082,
                        -0.18541556596755981,
                        0.07028774172067642,
                        -0.3976670503616333,
                        -0.48143866658210754,
                        0.15743467211723328,
                        -0.3041735589504242,
                        0.6669450998306274,
                        -0.15202248096466064,
                        -0.45426663756370544,
                        -0.27598515152931213,
                        -0.3411824107170105,
                        0.13454174995422363,
                        -0.15056201815605164,
                        0.3084076941013336,
                        0.22561240196228027,
                        -0.0025134356692433357,
                        -1.0278749465942383,
                        -0.1308308094739914,
                        0.07059845328330994,
                        0.14208045601844788,
                        -0.21626625955104828,
                        -0.0767536535859108,
                        0.43688133358955383,
                        0.15180283784866333,
                        -0.16707533597946167,
                        0.12342561036348343,
                        -0.027279196307063103,
                        0.017467614263296127,
                        -0.3799709379673004,
                        -0.04048078879714012,
                        0.44791680574417114,
                        -0.25783807039260864,
                        -0.11519593000411987,
                        -0.6482158899307251,
                        0.09386912733316422,
                        -0.07692350447177887,
                        -0.455760657787323,
                        0.026126207783818245,
                        -0.18477684259414673,
                        -0.087542325258255,
                        0.09430791437625885,
                        -0.019134925678372383,
                        0.20247220993041992,
                        -0.19442839920520782,
                        -0.16074739396572113,
                        -0.4093702435493469,
                        0.465149849653244,
                        -0.5212792754173279,
                        -0.49359822273254395,
                        0.10010623931884766
                    ],
                    [
                        -0.041213929653167725,
                        0.30952128767967224,
                        0.015772081911563873,
                        -0.48465442657470703,
                        -0.25033965706825256,
                        0.04347284883260727,
                        0.168258935213089,
                        0.06025893986225128,
                        -0.0027088886126875877,
                        0.10665090382099152,
                        -0.5093075633049011,
                        0.1526706963777542,
                        -0.1501130908727646,
                        -0.316194087266922,
                        0.1138623058795929,
                        -0.2950311303138733,
                        0.5251057744026184,
                        -0.3908410668373108,
                        0.27358534932136536,
                        -0.06452536582946777,
                        0.18903839588165283,
                        0.06750070303678513,
                        0.5413240194320679,
                        -0.3576180636882782,
                        -0.18430490791797638,
                        -0.20050862431526184,
                        -0.22350464761257172,
                        0.04477132484316826,
                        0.0033595552667975426,
                        -0.5022838115692139,
                        -0.3354892432689667,
                        -0.19184564054012299,
                        0.0976720005273819,
                        0.10712036490440369,
                        0.11693909019231796,
                        -0.10108436644077301,
                        0.21453770995140076,
                        0.20731930434703827,
                        -0.25923818349838257,
                        -0.003283790312707424,
                        0.14254535734653473,
                        -0.10169285535812378,
                        -0.07281666249036789,
                        1.29135262966156,
                        -1.103151559829712,
                        -0.33985385298728943,
                        -0.04149869084358215,
                        0.1476380079984665,
                        0.09037302434444427,
                        0.4409126043319702,
                        0.12784990668296814,
                        0.15029627084732056,
                        -0.028296830132603645,
                        0.05983547866344452,
                        0.09194593876600266,
                        -0.0764918252825737,
                        0.20646372437477112,
                        0.045161232352256775,
                        -0.05144874379038811,
                        -0.0402185320854187,
                        0.009527480229735374,
                        0.10675472021102905,
                        0.15982790291309357,
                        0.06722216308116913,
                        -0.1812337338924408,
                        0.2883211374282837,
                        0.20176678895950317,
                        -0.11315178871154785,
                        -0.04743754491209984,
                        0.49595850706100464,
                        0.4997566044330597,
                        0.0025993073359131813,
                        0.005975786130875349,
                        0.21361035108566284,
                        0.2403971254825592,
                        0.5619297027587891,
                        -0.4263814687728882,
                        0.006574326194822788,
                        0.3386420011520386,
                        -0.0649268701672554
                    ],
                    [
                        0.029845040291547775,
                        0.10900318622589111,
                        -0.027400488033890724,
                        0.04991111904382706,
                        -0.6833189725875854,
                        -0.09864769130945206,
                        0.16200943291187286,
                        0.1839560866355896,
                        0.26940780878067017,
                        0.19750921428203583,
                        0.08867798000574112,
                        -0.29284772276878357,
                        0.09263876080513,
                        -0.3162558674812317,
                        -0.3221830427646637,
                        -0.22046130895614624,
                        1.1520161628723145,
                        -0.15950584411621094,
                        0.31648772954940796,
                        0.13663728535175323,
                        0.6920987963676453,
                        0.2581486999988556,
                        -0.010912470519542694,
                        0.3408648669719696,
                        -0.3264768421649933,
                        0.10724539309740067,
                        -0.17410261929035187,
                        0.010994506068527699,
                        -0.18381726741790771,
                        -0.15439486503601074,
                        -0.08091912418603897,
                        0.0606931708753109,
                        0.4039843678474426,
                        0.27505022287368774,
                        0.07403052598237991,
                        -0.32001686096191406,
                        -0.06464385241270065,
                        -0.2849467098712921,
                        0.2735496461391449,
                        -0.05620338395237923,
                        0.20021969079971313,
                        -0.36450430750846863,
                        -0.1556435227394104,
                        -1.053623080253601,
                        0.42730146646499634,
                        -0.15884004533290863,
                        0.7066715955734253,
                        -0.3516821563243866,
                        -0.34966838359832764,
                        0.2358502298593521,
                        1.081520438194275,
                        -0.09227842837572098,
                        -0.7370218634605408,
                        0.19626332819461823,
                        -0.10542760789394379,
                        -0.06730479747056961,
                        -0.09262019395828247,
                        0.12191539257764816,
                        -0.0511566586792469,
                        -0.0423106774687767,
                        0.10348891466856003,
                        0.2378983497619629,
                        0.3696304261684418,
                        0.8136072158813477,
                        0.1744314432144165,
                        0.10562793165445328,
                        0.050038937479257584,
                        -0.03060004860162735,
                        0.00846089143306017,
                        0.35795894265174866,
                        0.15854133665561676,
                        0.14872458577156067,
                        0.007262278813868761,
                        0.11068788170814514,
                        -0.014566882513463497,
                        0.3586030602455139,
                        0.11896962672472,
                        0.035200029611587524,
                        0.6643961071968079,
                        0.18416637182235718
                    ],
                    [
                        -0.04648350179195404,
                        0.03913372755050659,
                        -0.11636514961719513,
                        -0.01538449339568615,
                        0.20656226575374603,
                        -0.07753559947013855,
                        0.1113612949848175,
                        0.07704400271177292,
                        -0.05701823905110359,
                        0.11301691830158234,
                        -0.03358294069766998,
                        -0.32187891006469727,
                        0.06267333030700684,
                        0.15745759010314941,
                        0.12583154439926147,
                        0.06264041364192963,
                        -0.09304783493280411,
                        -0.2343553602695465,
                        0.07713957130908966,
                        0.11449513584375381,
                        -0.2585168480873108,
                        0.09564458578824997,
                        0.04471934586763382,
                        -0.25850751996040344,
                        -0.06232617795467377,
                        0.4715597927570343,
                        -0.03763779625296593,
                        0.0427803173661232,
                        0.23963594436645508,
                        0.07883469015359879,
                        0.20612959563732147,
                        0.08439566940069199,
                        0.5917831063270569,
                        0.08094703406095505,
                        -0.060129132121801376,
                        -0.17809966206550598,
                        -0.22055397927761078,
                        0.008549971505999565,
                        -0.21129141747951508,
                        -0.11741888523101807,
                        0.05471789091825485,
                        0.11167830228805542,
                        0.12797509133815765,
                        -0.08616454899311066,
                        -0.04320165514945984,
                        -0.025085877627134323,
                        -0.03872894123196602,
                        0.1958809792995453,
                        -0.12177572399377823,
                        -0.1582503765821457,
                        -0.13545545935630798,
                        -0.18789561092853546,
                        -0.05593464523553848,
                        -0.10996194183826447,
                        -1.0112409591674805,
                        0.04499911889433861,
                        0.04536793753504753,
                        0.0014133119257166982,
                        0.19044330716133118,
                        -0.43196266889572144,
                        0.1340452879667282,
                        -0.042216707020998,
                        0.016342096030712128,
                        0.23787304759025574,
                        0.057470254600048065,
                        0.30727043747901917,
                        -0.06317080557346344,
                        -0.029698876664042473,
                        0.0536118783056736,
                        -0.0736929327249527,
                        -0.05709410458803177,
                        0.23713304102420807,
                        -0.1261833906173706,
                        -0.04073696583509445,
                        0.07207605987787247,
                        -0.04762411490082741,
                        0.07366729527711868,
                        0.18776457011699677,
                        -0.06651392579078674,
                        0.24873973429203033
                    ]
                ],
                [
                    0.14438489079475403,
                    0.08254099637269974,
                    -2.4051365852355957,
                    0.5616041421890259,
                    0.9247698187828064,
                    -3.014312267303467,
                    -0.40358608961105347,
                    1.0329257249832153,
                    -0.022710785269737244,
                    0.8102164268493652,
                    -1.056527853012085,
                    -3.011077880859375,
                    0.8295104503631592,
                    0.059762440621852875,
                    -3.072507381439209,
                    1.0916236639022827,
                    -1.6431503295898438,
                    1.1663484573364258,
                    -2.022533893585205,
                    -0.010307802818715572,
                    0.6918453574180603,
                    0.6985857486724854,
                    2.4355287551879883,
                    0.6702882647514343,
                    0.16540397703647614,
                    3.957322359085083,
                    1.8571140766143799,
                    -0.04670129343867302,
                    0.40042775869369507,
                    -0.024888060986995697,
                    1.542033076286316,
                    3.0818257331848145,
                    0.640069842338562,
                    0.47111648321151733,
                    4.04411506652832,
                    0.12298324704170227,
                    1.4347755908966064,
                    0.2935483455657959,
                    2.5198144912719727,
                    0.928207278251648,
                    0.44960761070251465,
                    0.20399099588394165,
                    -0.08870826661586761,
                    0.18118885159492493,
                    -0.07230591028928757,
                    0.25235599279403687,
                    -0.46604055166244507,
                    0.2051244080066681,
                    0.27211254835128784,
                    -0.8297834992408752,
                    -0.5861896872520447,
                    0.07509254664182663,
                    -0.09125916659832001,
                    0.3239949345588684,
                    -0.14015065133571625,
                    0.386139452457428,
                    -0.2468562126159668,
                    0.1408415138721466,
                    -0.15135718882083893,
                    0.06054164469242096,
                    0.5429326295852661,
                    0.3318929076194763,
                    1.3580658435821533,
                    0.8436402082443237,
                    1.0360734462738037,
                    0.31468555331230164,
                    -0.05231991410255432,
                    -0.09913621842861176,
                    0.45040231943130493,
                    0.12861067056655884,
                    0.4452097415924072,
                    0.6870506405830383,
                    -0.40552014112472534,
                    1.2105484008789062,
                    0.03666427731513977,
                    0.7139233946800232,
                    0.3884512484073639,
                    0.48090946674346924,
                    0.11309246718883514,
                    0.40653151273727417
                ]
            ]
        },
        {
            "type": "dense",
            "activation": "",
            "shape": [
                null,
                null,
                1
            ],
            "weights": [
                [
                    [
                        0.02732495404779911
                    ],
                    [
                        -0.15074729919433594
                    ],
                    [
                        0.08513444662094116
                    ],
                    [
                        -0.0196397565305233
                    ],
                    [
                        0.023376962170004845
                    ],
                    [
                        0.2329252064228058
                    ],
                    [
                        -0.031465593725442886
                    ],
                    [
                        -0.8448308110237122
                    ],
                    [
                        0.3425239622592926
                    ],
                    [
                        0.005271182861179113
                    ],
                    [
                        -0.008271455764770508
                    ],
                    [
                        0.5735268592834473
                    ],
                    [
                        0.061307311058044434
                    ],
                    [
                        -0.19327525794506073
                    ],
                    [
                        0.5263090133666992
                    ],
                    [
                        -0.0833047479391098
                    ],
                    [
                        -0.033212799578905106
                    ],
                    [
                        0.025728672742843628
                    ],
                    [
                        0.03551756590604782
                    ],
                    [
                        0.8353928923606873
                    ]
                ],
                [
                    0.0795980766415596
                ]
            ]
        }
    ],
    "input_batch": [
        0.17664611339569092,
        0.16375184059143066,
        0.15103387832641602,
        0.13851690292358398,
        0.12610185146331787,
        0.11368882656097412,
        0.10126030445098877,
        0.08890712261199951,
        0.07685470581054688,
        0.0653461217880249,
        0.054532408714294434,
        0.04451119899749756,
        0.035308122634887695,
        0.026958346366882324,
        0.019446253776550293,
        0.012525677680969238,
        0.005981564521789551,
        -0.00026929378509521484,
        -0.006249666213989258,
        -0.011995553970336914,
        -0.017508625984191895,
        -0.02271401882171631,
        -0.02761971950531006,
        -0.032241225242614746,
        -0.036610960960388184,
        -0.040699005126953125,
        -0.044444918632507324,
        -0.04790925979614258,
        -0.05123317241668701,
        -0.05459952354431152,
        -0.05816948413848877,
        -0.06197834014892578,
        -0.06591951847076416,
        -0.06988704204559326,
        -0.07376646995544434,
        -0.0775219202041626,
        -0.0812673568725586,
        -0.0852200984954834,
        -0.08966875076293945,
        -0.0947955846786499,
        -0.10053467750549316,
        -0.10666441917419434,
        -0.11304926872253418,
        -0.11953246593475342,
        -0.12591278553009033,
        -0.132002592086792,
        -0.13763344287872314,
        -0.1428072452545166,
        -0.1477440595626831,
        -0.15266728401184082,
        -0.15767443180084229,
        -0.16278719902038574,
        -0.16788256168365479,
        -0.17280030250549316,
        -0.17743873596191406,
        -0.18170714378356934,
        -0.18566298484802246,
        -0.18930482864379883,
        -0.1925739049911499,
        -0.1953953504562378,
        -0.19770467281341553,
        -0.19953620433807373,
        -0.20087742805480957,
        -0.20163464546203613,
        -0.20174288749694824,
        -0.20131254196166992,
        -0.20060443878173828,
        -0.19981276988983154,
        -0.19898736476898193,
        -0.19804656505584717,
        -0.196830153465271,
        -0.19518935680389404,
        -0.19313395023345947,
        -0.19076907634735107,
        -0.18827474117279053,
        -0.18589138984680176,
        -0.1838209629058838,
        -0.1821526288986206,
        -0.18084239959716797,
        -0.17979443073272705,
        -0.17878055572509766,
        -0.17766690254211426,
        -0.17643523216247559,
        -0.17515993118286133,
        -0.1739363670349121,
        -0.17273938655853271,
        -0.17163515090942383,
        -0.17070817947387695,
        -0.17007207870483398,
        -0.16979968547821045,
        -0.16981327533721924,
        -0.16993045806884766,
        -0.16990244388580322,
        -0.16958773136138916,
        -0.1689746379852295,
        -0.16806650161743164,
        -0.16679561138153076,
        -0.1650604009628296,
        -0.16283249855041504,
        -0.16023242473602295,
        -0.15746891498565674,
        -0.15467429161071777,
        -0.1518399715423584,
        -0.14881455898284912,
        -0.14543640613555908,
        -0.1416233777999878,
        -0.13732385635375977,
        -0.13252103328704834,
        -0.12722790241241455,
        -0.12140977382659912,
        -0.1149972677230835,
        -0.10812699794769287,
        -0.10091328620910645,
        -0.09338629245758057,
        -0.08561444282531738,
        -0.07770180702209473,
        -0.0697547197341919,
        -0.06180286407470703,
        -0.05381882190704346,
        -0.04577839374542236,
        -0.037773728370666504,
        -0.02981877326965332,
        -0.0217587947845459,
        -0.013584733009338379,
        -0.005498647689819336,
        0.0022115707397460938,
        0.009361028671264648,
        0.015861988067626953,
        0.02178025245666504,
        0.027471303939819336,
        0.03322553634643555,
        0.0390704870223999,
        0.044942378997802734,
        0.05073356628417969,
        0.056270599365234375,
        0.061307668685913086,
        0.06559419631958008,
        0.06905794143676758,
        0.07182455062866211,
        0.07404875755310059,
        0.07576572895050049,
        0.07687973976135254,
        0.07731044292449951,
        0.07699429988861084,
        0.07598209381103516,
        0.07441914081573486,
        0.07245373725891113,
        0.07016265392303467,
        0.06741988658905029,
        0.06401145458221436,
        0.059793949127197266,
        0.054786086082458496,
        0.049076080322265625,
        0.04292154312133789,
        0.0367201566696167,
        0.030768513679504395,
        0.025237202644348145,
        0.020194053649902344,
        0.015549659729003906,
        0.011062860488891602,
        0.006516814231872559,
        0.0016690492630004883,
        -0.0035783052444458008,
        -0.009043335914611816,
        -0.014560103416442871,
        -0.01997232437133789,
        -0.025107622146606445,
        -0.029849529266357422,
        -0.0341801643371582,
        -0.038176894187927246,
        -0.0419238805770874,
        -0.04551243782043457,
        -0.049030423164367676,
        -0.05255579948425293,
        -0.05611443519592285,
        -0.05966758728027344,
        -0.06308913230895996,
        -0.06624603271484375,
        -0.06903386116027832,
        -0.07132863998413086,
        -0.07318830490112305,
        -0.07477903366088867,
        -0.07623231410980225,
        -0.07766759395599365,
        -0.07912790775299072,
        -0.08060348033905029,
        -0.08206832408905029,
        -0.0835350751876831,
        -0.0849834680557251,
        -0.0863875150680542,
        -0.08768463134765625,
        -0.08876609802246094,
        -0.08961772918701172,
        -0.09028482437133789,
        -0.09077417850494385,
        -0.09109926223754883,
        -0.09132516384124756,
        -0.09154629707336426,
        -0.09190034866333008,
        -0.09250175952911377,
        -0.09336423873901367,
        -0.09438812732696533,
        -0.09540486335754395,
        -0.09629964828491211,
        -0.09695351123809814,
        -0.09727776050567627,
        -0.09731853008270264,
        -0.09716832637786865,
        -0.09688055515289307,
        -0.09645700454711914,
        -0.09585022926330566,
        -0.09491729736328125,
        -0.09349715709686279,
        -0.09149730205535889,
        -0.0888979434967041,
        -0.08565866947174072,
        -0.08183944225311279,
        -0.07756125926971436,
        -0.07288217544555664,
        -0.06781184673309326,
        -0.06223011016845703,
        -0.05610156059265137,
        -0.049604177474975586,
        -0.04303312301635742,
        -0.03657269477844238,
        -0.030182957649230957,
        -0.023830890655517578,
        -0.017480134963989258,
        -0.011202812194824219,
        -0.005202770233154297,
        0.00040411949157714844,
        0.005603194236755371,
        0.010437726974487305,
        0.0148468017578125,
        0.018692374229431152,
        0.02192986011505127,
        0.0246657133102417,
        0.027021288871765137,
        0.029035091400146484,
        0.030586719512939453,
        0.03155243396759033,
        0.031975388526916504,
        0.031960248947143555,
        0.03164219856262207,
        0.03116452693939209,
        0.030570149421691895,
        0.029740571975708008,
        0.028551816940307617,
        0.027022480964660645,
        0.025263190269470215,
        0.023347020149230957,
        0.021306276321411133,
        0.019191265106201172,
        0.017074108123779297,
        0.014982461929321289,
        0.012930631637573242,
        0.011011600494384766,
        0.009290933609008789,
        0.007765769958496094,
        0.006402850151062012,
        0.005133152008056641,
        0.003931283950805664,
        0.0027321577072143555,
        0.0015039443969726562,
        0.0003292560577392578,
        -0.000674128532409668,
        -0.0014024972915649414,
        -0.001804351806640625,
        -0.0017800331115722656,
        -0.001269221305847168,
        -0.00032699108123779297,
        0.000947117805480957,
        0.002516508102416992,
        0.004452705383300781,
        0.006804466247558594,
        0.00959157943725586,
        0.01270139217376709,
        0.0160750150680542,
        0.01967310905456543,
        0.023368358612060547,
        0.027097105979919434,
        0.030758142471313477,
        0.03434407711029053,
        0.03788125514984131,
        0.04126310348510742,
        0.0442659854888916,
        0.046614766120910645,
        0.048201560974121094,
        0.04912543296813965,
        0.04964029788970947,
        0.049962520599365234,
        0.05014371871948242,
        0.05012857913970947,
        0.04983675479888916,
        0.04925990104675293,
        0.048380136489868164,
        0.04710042476654053,
        0.045377135276794434,
        0.04331254959106445,
        0.04109060764312744,
        0.038783907890319824,
        0.03635132312774658,
        0.03364443778991699,
        0.030588626861572266,
        0.027303099632263184,
        0.02396368980407715,
        0.020811080932617188,
        0.017944693565368652,
        0.015338897705078125,
        0.012925505638122559,
        0.010601639747619629,
        0.008323907852172852,
        0.006069660186767578,
        0.0038775205612182617,
        0.001814126968383789,
        -0.00012803077697753906,
        -0.001978278160095215,
        -0.003760099411010742,
        -0.0054596662521362305,
        -0.007068753242492676,
        -0.008604645729064941,
        -0.010076761245727539,
        -0.0114821195602417,
        -0.012848258018493652,
        -0.014246225357055664,
        -0.015692472457885742,
        -0.01719212532043457,
        -0.0187608003616333,
        -0.020316243171691895,
        -0.021687865257263184,
        -0.022744178771972656,
        -0.023395895957946777,
        -0.02367424964904785,
        -0.023686766624450684,
        -0.023559212684631348,
        -0.02353835105895996,
        -0.023810148239135742,
        -0.024420976638793945,
        -0.025281429290771484,
        -0.026275038719177246,
        -0.02729785442352295,
        -0.028254151344299316,
        -0.029113173484802246,
        -0.029862523078918457,
        -0.030559778213500977,
        -0.031292080879211426,
        -0.032172203063964844,
        -0.0333104133605957,
        -0.03469491004943848,
        -0.03616642951965332,
        -0.03746485710144043,
        -0.03835141658782959,
        -0.03867208957672119,
        -0.038384437561035156,
        -0.03746497631072998,
        -0.03588759899139404,
        -0.03366267681121826,
        -0.030804753303527832,
        -0.027373194694519043,
        -0.023534536361694336,
        -0.019438862800598145,
        -0.015193939208984375,
        -0.010837078094482422,
        -0.006299853324890137,
        -0.0014376640319824219,
        0.0038427114486694336,
        0.009543776512145996,
        0.01564168930053711,
        0.022014617919921875,
        0.02853548526763916,
        0.03507280349731445,
        0.041413187980651855,
        0.047380924224853516,
        0.052945852279663086,
        0.05824482440948486,
        0.0635983943939209,
        0.06930017471313477,
        0.07545745372772217,
        0.08200514316558838,
        0.08876204490661621,
        0.0954751968383789,
        0.10194063186645508,
        0.10813772678375244,
        0.11412465572357178,
        0.11989188194274902,
        0.12540817260742188,
        0.13065004348754883,
        0.13551747798919678,
        0.13996493816375732,
        0.14400458335876465,
        0.14764666557312012,
        0.1509488821029663,
        0.153936505317688,
        0.15665125846862793,
        0.15916800498962402,
        0.16149985790252686,
        0.163557767868042,
        0.1652536392211914,
        0.1665053367614746,
        0.16722917556762695,
        0.16746926307678223,
        0.16731905937194824,
        0.16686558723449707,
        0.1661592721939087,
        0.16517388820648193,
        0.16384673118591309,
        0.16212892532348633,
        0.15992379188537598,
        0.1572057008743286,
        0.15409469604492188,
        0.15064311027526855,
        0.14686822891235352,
        0.1427854299545288,
        0.13837194442749023,
        0.13358283042907715,
        0.12836873531341553,
        0.12267875671386719,
        0.11648714542388916,
        0.10981261730194092,
        0.10262274742126465,
        0.09489047527313232,
        0.08663547039031982,
        0.07785844802856445,
        0.06863725185394287,
        0.059093356132507324,
        0.049382805824279785,
        0.03961348533630371,
        0.029848098754882812,
        0.020093560218811035,
        0.010236620903015137,
        0.00021505355834960938,
        -0.009972095489501953,
        -0.020226001739501953,
        -0.030455946922302246,
        -0.04052531719207764,
        -0.050289154052734375,
        -0.05972552299499512,
        -0.06886005401611328,
        -0.07784080505371094,
        -0.0867767333984375,
        -0.09571337699890137,
        -0.1045914888381958,
        -0.11325192451477051,
        -0.12151956558227539,
        -0.12922298908233643,
        -0.1362835168838501,
        -0.14263927936553955,
        -0.1482940912246704,
        -0.1532684564590454,
        -0.15757524967193604,
        -0.16122519969940186,
        -0.1642622947692871,
        -0.16681206226348877,
        -0.16893625259399414,
        -0.17068421840667725,
        -0.17207610607147217,
        -0.17307233810424805,
        -0.17363691329956055,
        -0.1737598180770874,
        -0.17346549034118652,
        -0.17271947860717773,
        -0.17148637771606445,
        -0.16977882385253906,
        -0.16760897636413574,
        -0.16502392292022705,
        -0.16216707229614258,
        -0.1592104434967041,
        -0.15623486042022705,
        -0.15324032306671143,
        -0.1501682996749878,
        -0.14697551727294922,
        -0.14366364479064941,
        -0.14021897315979004,
        -0.13671469688415527,
        -0.13324189186096191,
        -0.12983334064483643,
        -0.12648701667785645,
        -0.12318646907806396,
        -0.11989593505859375,
        -0.11658215522766113,
        -0.11322450637817383,
        -0.10980117321014404,
        -0.10633063316345215,
        -0.10277009010314941,
        -0.09906196594238281,
        -0.09512495994567871,
        -0.09084725379943848,
        -0.08619320392608643,
        -0.08116018772125244,
        -0.07574772834777832,
        -0.06996405124664307,
        -0.0638279914855957,
        -0.05738401412963867,
        -0.05070388317108154,
        -0.043877243995666504,
        -0.03686964511871338,
        -0.029566407203674316,
        -0.021921396255493164,
        -0.013936519622802734,
        -0.005740642547607422,
        0.002494215965270996,
        0.010594964027404785,
        0.018350601196289062,
        0.025620341300964355,
        0.032303452491760254,
        0.03835153579711914,
        0.04381203651428223,
        0.04878711700439453,
        0.05340433120727539,
        0.05774569511413574,
        0.0618366003036499,
        0.06566691398620605,
        0.06917035579681396,
        0.07234203815460205,
        0.07526206970214844,
        0.07799792289733887,
        0.08058881759643555,
        0.08302938938140869,
        0.08532822132110596,
        0.08749306201934814,
        0.08949458599090576,
        0.09129893779754639,
        0.09285402297973633,
        0.09407222270965576,
        0.09488523006439209,
        0.09520912170410156,
        0.09495413303375244,
        0.09404194355010986,
        0.09246575832366943,
        0.0903468132019043,
        0.08780062198638916,
        0.08496463298797607,
        0.08192956447601318,
        0.07872426509857178,
        0.07540559768676758,
        0.0719749927520752,
        0.06843304634094238,
        0.06476032733917236,
        0.06087362766265869,
        0.05673205852508545,
        0.052332520484924316,
        0.047727346420288086,
        0.04300487041473389,
        0.03824615478515625,
        0.03349590301513672,
        0.02874135971069336,
        0.024009108543395996,
        0.019306421279907227,
        0.014646530151367188,
        0.010010123252868652,
        0.005287289619445801,
        0.00045299530029296875,
        -0.004498720169067383,
        -0.009496808052062988,
        -0.014434576034545898,
        -0.019288182258605957,
        -0.02406179904937744,
        -0.028815865516662598,
        -0.03360104560852051,
        -0.038417935371398926,
        -0.0432513952255249,
        -0.04804682731628418,
        -0.05280649662017822,
        -0.05752289295196533,
        -0.06214869022369385,
        -0.06665265560150146,
        -0.07101058959960938,
        -0.07518935203552246,
        -0.07914745807647705,
        -0.0828104019165039,
        -0.08608293533325195,
        -0.08889186382293701,
        -0.09117889404296875,
        -0.09295666217803955,
        -0.09428727626800537,
        -0.09519016742706299,
        -0.09563040733337402,
        -0.09557640552520752,
