{
    "in_shape": [
        null,
        null,
        1
    ],
    "layers": [
        {
            "type": "lstm",
            "activation": "",
            "shape": [
                null,
                null,
                20
            ],
            "weights": [
                [
                    [
                        0.005789755843579769,
                        -0.04011783003807068,
                        0.2523130476474762,
                        0.2926541268825531,
                        0.012654697522521019,
                        -0.028229035437107086,
                        0.6474588513374329,
                        0.25635862350463867,
                        -0.0180780328810215,
                        -0.07176847755908966,
                        -0.04240373522043228,
                        0.057775359600782394,
                        -0.004225687589496374,
                        -0.24594908952713013,
                        -0.3856621980667114,
                        -0.09936781227588654,
                        -0.05715854465961456,
                        0.13223539292812347,
                        0.1927206665277481,
                        -0.9690901041030884,
                        0.04925671964883804,
                        -0.18840059638023376,
                        -0.03694075718522072,
                        0.2430095076560974,
                        0.3272511959075928,
                        -0.0006092325784265995,
                        0.42447584867477417,
                        0.2389717698097229,
                        0.2296135127544403,
                        -0.2568895220756531,
                        -0.06310650706291199,
                        -0.3073095679283142,
                        -0.060489870607852936,
                        -0.41303572058677673,
                        0.05157627910375595,
                        -0.19484397768974304,
                        0.10342063754796982,
                        0.0755067840218544,
                        0.07705087959766388,
                        -0.26422134041786194,
                        -0.33850377798080444,
                        0.30484381318092346,
                        0.19552847743034363,
                        2.2195816040039062,
                        -3.2042500972747803,
                        -0.12067823857069016,
                        0.7026680111885071,
                        -0.01638822816312313,
                        0.06017037481069565,
                        0.1359870731830597,
                        0.003971663769334555,
                        -0.907876193523407,
                        0.36026468873023987,
                        -0.5205720663070679,
                        -0.24066704511642456,
                        0.023945704102516174,
                        0.0869123563170433,
                        -0.22988106310367584,
                        -0.022650443017482758,
                        -0.9479288458824158,
                        -0.14016485214233398,
                        -0.21071963012218475,
                        0.03736209124326706,
                        0.0465792641043663,
                        -0.09675978124141693,
                        -0.0626894012093544,
                        -0.0655214786529541,
                        0.4257935583591461,
                        0.018079940229654312,
                        -0.025746941566467285,
                        0.7587222456932068,
                        -0.038922566920518875,
                        0.18132765591144562,
                        -0.421527624130249,
                        -0.16039589047431946,
                        0.1064925342798233,
                        -0.14151065051555634,
                        0.10386870801448822,
                        0.07404705882072449,
                        0.056885622441768646
                    ]
                ],
                [
                    [
                        -0.027059270069003105,
                        0.08095335215330124,
                        0.18297956883907318,
                        0.10124628245830536,
                        -0.055607013404369354,
                        -0.10294824093580246,
                        0.35397961735725403,
                        -0.24247287213802338,
                        -0.9352982640266418,
                        -0.03832462802529335,
                        0.13594204187393188,
                        0.010679592378437519,
                        -0.09438382834196091,
                        0.27088966965675354,
                        0.1539582908153534,
                        -0.36169713735580444,
                        0.02375306375324726,
                        -0.4640936851501465,
                        0.04211930185556412,
                        -0.16767649352550507,
                        0.06130402162671089,
                        -0.30477818846702576,
                        -0.09321668744087219,
                        -0.45630279183387756,
                        -0.17864638566970825,
                        0.1859009712934494,
                        -0.46718737483024597,
                        -0.2628004550933838,
                        -0.10804423689842224,
                        -0.5751993656158447,
                        -0.720910370349884,
                        0.06786900013685226,
                        -0.20098872482776642,
                        -0.0882357582449913,
                        -0.15440624952316284,
                        -0.4877298176288605,
                        -0.018069889396429062,
                        -0.17542049288749695,
                        0.2861652970314026,
                        0.28152260184288025,
                        0.48004740476608276,
                        -0.1752457320690155,
                        -0.007065188605338335,
                        0.28158968687057495,
                        0.09071890264749527,
                        0.08308916538953781,
                        0.09813607484102249,
                        0.4367770850658417,
                        1.4613003730773926,
                        0.05064334347844124,
                        -0.2818088233470917,
                        0.27434346079826355,
                        -0.21192960441112518,
                        -0.1509680300951004,
                        -0.11168981343507767,
                        -0.43834418058395386,
                        -0.13374048471450806,
                        -1.1926668882369995,
                        -0.019563741981983185,
                        -0.035512447357177734,
                        -0.07307460159063339,
                        -0.1565989851951599,
                        0.028399353846907616,
                        0.09822346270084381,
                        -0.33672627806663513,
                        -0.05110756307840347,
                        -0.10800068825483322,
                        -0.16083800792694092,
                        0.0259943176060915,
                        -0.5225763916969299,
                        -0.3356345295906067,
                        0.13253290951251984,
                        0.12726572155952454,
                        0.31028392910957336,
                        0.28368353843688965,
                        -0.22585372626781464,
                        0.2195284515619278,
                        -0.9462655782699585,
                        -0.24416983127593994,
                        -0.08770973235368729
                    ],
                    [
                        -0.3898507356643677,
                        -0.03624318167567253,
                        0.01110068429261446,
                        -0.15705426037311554,
                        -0.3772083818912506,
                        0.016926582902669907,
                        0.8687252998352051,
                        0.04115618020296097,
                        0.04314495250582695,
                        -0.31460702419281006,
                        0.2709255814552307,
                        -0.30287671089172363,
                        0.3034694194793701,
                        0.06787403672933578,
                        0.10751637816429138,
                        0.37751439213752747,
                        1.0246126651763916,
                        -0.5135089159011841,
                        0.7501980662345886,
                        0.8665741086006165,
                        0.2954985797405243,
                        -0.318765252828598,
                        -0.45132824778556824,
                        -0.10955705493688583,
                        -0.1797301024198532,
                        -0.017252882942557335,
                        -0.7907603979110718,
                        -0.25544142723083496,
                        0.12898826599121094,
                        -0.33007892966270447,
                        -0.6172921061515808,
                        0.0054735890589654446,
                        0.13091400265693665,
                        -0.22927825152873993,
                        -0.0018792458577081561,
                        -1.1320884227752686,
                        -0.8900083899497986,
                        -0.3612493872642517,
                        -0.6509591937065125,
                        -1.0584299564361572,
                        0.012495670467615128,
                        0.12985384464263916,
                        -0.42913445830345154,
                        -0.057276707142591476,
                        -0.09637533128261566,
                        0.004666486289352179,
                        -0.1888105422258377,
                        0.21463456749916077,
                        0.4906952977180481,
                        0.3510363698005676,
                        -0.025841426104307175,
                        0.18414174020290375,
                        -0.23279212415218353,
                        -0.166558176279068,
                        0.5139894485473633,
                        -0.14979660511016846,
                        0.2064826786518097,
                        -0.4306948184967041,
                        0.17783723771572113,
                        -0.41354355216026306,
                        -0.24004700779914856,
                        -0.6940745115280151,
                        -0.40053102374076843,
                        -0.31395965814590454,
                        -0.6127829551696777,
                        -0.014370722696185112,
                        -0.3266681730747223,
                        -0.05491217225790024,
                        -0.04854963347315788,
                        -0.40336790680885315,
                        0.2829962372779846,
                        -0.28560546040534973,
                        0.1971937119960785,
                        -0.22253498435020447,
                        -0.16457752883434296,
                        -0.15617315471172333,
                        -0.2656077742576599,
                        -0.229839488863945,
                        -0.32033771276474,
                        -0.3747243583202362
                    ],
                    [
                        0.011417929083108902,
                        0.3832460939884186,
                        0.4999123811721802,
                        -0.6931816339492798,
                        0.03460375592112541,
                        0.16426947712898254,
                        0.1780572533607483,
                        0.1522093266248703,
                        0.25246527791023254,
                        -0.08686457574367523,
                        0.3024136424064636,
                        0.06089078634977341,
                        0.08967389166355133,
                        0.3733249008655548,
                        0.0389961414039135,
                        0.5600313544273376,
                        0.1547660529613495,
                        0.27085748314857483,
                        -0.047660455107688904,
                        0.2941662073135376,
                        -0.47836583852767944,
                        0.48711103200912476,
                        -0.15890878438949585,
                        0.08322449773550034,
                        0.182683527469635,
                        0.013667562045156956,
                        -0.14372552931308746,
                        0.26062384247779846,
                        -0.07359462976455688,
                        -0.39615464210510254,
                        0.4573265612125397,
                        0.09870558232069016,
                        0.3271004557609558,
                        0.12001095712184906,
                        0.08446194976568222,
                        0.21744880080223083,
                        0.5636433959007263,
                        0.018418481573462486,
                        0.035489194095134735,
                        -0.2604047358036041,
                        -0.06256610155105591,
                        -0.074151411652565,
                        -0.18813712894916534,
                        -0.09923605620861053,
                        0.09518599510192871,
                        -0.20591484010219574,
                        0.24782149493694305,
                        -0.12394304573535919,
                        -0.8760531544685364,
                        -0.34431496262550354,
                        0.27320972084999084,
                        -0.14946886897087097,
                        -0.029356352984905243,
                        0.25007304549217224,
                        -0.017199302092194557,
                        0.517601490020752,
                        0.06560821086168289,
                        1.2779778242111206,
                        0.005503353662788868,
                        0.03186149150133133,
                        -0.3222945034503937,
                        -0.05468049645423889,
                        0.4846898913383484,
                        -0.03222962096333504,
                        -0.5204757452011108,
                        0.047178130596876144,
                        -0.36864927411079407,
                        0.5571183562278748,
                        -0.007411564234644175,
                        -0.08038853108882904,
                        -0.14369037747383118,
                        -0.07438518851995468,
                        -0.184686541557312,
                        0.1160421073436737,
                        -0.6386780142784119,
                        0.2730139195919037,
                        -0.03942020982503891,
                        -0.43247127532958984,
                        -0.11260679364204407,
                        -0.18498818576335907
                    ],
                    [
                        0.04398756101727486,
                        0.3870128095149994,
                        -0.2031724900007248,
                        -0.18533843755722046,
                        0.10674561560153961,
                        0.045580051839351654,
                        -0.12314224988222122,
                        0.008428893983364105,
                        -0.09241075068712234,
                        -0.011714667081832886,
                        0.07575409859418869,
                        0.08311748504638672,
                        -0.06819204986095428,
                        -0.06928343325853348,
                        0.15911605954170227,
                        0.6269201636314392,
                        0.04596707969903946,
                        0.5176906585693359,
                        -0.030872421339154243,
                        -0.23057648539543152,
                        0.16208994388580322,
                        0.7820017337799072,
                        -0.3008471429347992,
                        0.27329903841018677,
                        0.8243745565414429,
                        -0.04291584715247154,
                        0.5387725234031677,
                        0.18832889199256897,
                        0.22814223170280457,
                        -0.07013700902462006,
                        0.5545461773872375,
                        -0.11869840323925018,
                        0.03311784192919731,
                        -0.22676746547222137,
                        0.3680883049964905,
                        0.14674241840839386,
                        -0.148794025182724,
                        -0.34606990218162537,
                        -0.03152596578001976,
                        -0.07353192567825317,
                        -2.5148046016693115,
                        -0.03464007377624512,
                        0.49762722849845886,
                        -0.08008521050214767,
                        -0.3334936499595642,
                        0.08835052698850632,
                        0.13499321043491364,
                        0.01909712143242359,
                        0.03162505477666855,
                        1.1726160049438477,
                        0.14315225183963776,
                        0.5916235446929932,
                        0.04049967974424362,
                        -0.45639070868492126,
                        -0.18423831462860107,
                        -0.055901579558849335,
                        0.04263635352253914,
                        0.9408683776855469,
                        0.0359700582921505,
                        -0.28515058755874634,
                        -0.062465257942676544,
                        0.011130879633128643,
                        0.03275750204920769,
                        -0.013723942451179028,
                        0.05279233679175377,
                        0.28825491666793823,
                        0.4710705280303955,
                        0.24098742008209229,
                        -0.03109692968428135,
                        0.22445231676101685,
                        0.31988945603370667,
                        -0.17121845483779907,
                        -0.10971178859472275,
                        -0.24999842047691345,
                        -0.20476365089416504,
                        0.15138386189937592,
                        -0.016967909410595894,
                        0.039604876190423965,
                        0.10673404484987259,
                        -0.358227401971817
                    ],
                    [
                        -0.1497376561164856,
                        0.09855262190103531,
                        -0.06840212643146515,
                        0.03149772807955742,
                        -0.19241072237491608,
                        -0.020933886989951134,
                        0.6063448786735535,
                        -0.12027467042207718,
                        -0.2421199083328247,
                        -0.07988666743040085,
                        0.5764386057853699,
                        -0.05012986809015274,
                        0.27031993865966797,
                        0.11220966279506683,
                        -0.16916637122631073,
                        0.3200930655002594,
                        0.3577418923377991,
                        -0.5683670043945312,
                        0.37230566143989563,
                        0.42732563614845276,
                        0.09400022029876709,
                        -0.10434789210557938,
                        -0.29916858673095703,
                        -0.5088319778442383,
                        -0.1405647248029709,
                        -0.11272383481264114,
                        -0.5284813046455383,
                        -0.22936765849590302,
                        -0.07888685166835785,
                        -0.07649366557598114,
                        -0.5014755129814148,
                        -0.14651863276958466,
                        0.19112172722816467,
                        0.0668598935008049,
                        -0.2087944746017456,
                        -0.6574722528457642,
                        0.0013888191897422075,
                        -0.1977391242980957,
                        -0.16102907061576843,
                        -0.4247225224971771,
                        1.5313128232955933,
                        0.1829117238521576,
                        -0.3836851119995117,
                        -1.2906033992767334,
                        -0.019391611218452454,
                        -0.104786716401577,
                        -0.16006354987621307,
                        0.20646603405475616,
                        0.3228762447834015,
                        -0.5408084392547607,
                        -0.1663314253091812,
                        -0.8316791653633118,
                        -0.1800505816936493,
                        0.15659938752651215,
                        -0.029568716883659363,
                        0.08198289573192596,
                        0.06038316711783409,
                        -0.37710320949554443,
                        -0.0889349952340126,
                        0.0775882825255394,
                        -0.10728633403778076,
                        -0.09482593089342117,
                        -0.09359101206064224,
                        -0.18753373622894287,
                        -0.44572025537490845,
                        -0.07284817099571228,
                        -0.34560441970825195,
                        -0.2288689762353897,
                        0.027826981619000435,
                        -0.5862180590629578,
                        -0.045184023678302765,
                        0.19923827052116394,
                        0.29107216000556946,
                        0.3412083387374878,
                        -0.06975466758012772,
                        -0.24446558952331543,
                        -0.005921018309891224,
                        -0.3149121105670929,
                        -0.27049434185028076,
                        0.15699918568134308
                    ],
                    [
                        0.1563616394996643,
                        -0.1509735882282257,
                        0.1187928318977356,
                        0.055315062403678894,
                        0.04101981222629547,
                        -0.048756878823041916,
                        -0.310665488243103,
                        0.055990926921367645,
                        0.22814829647541046,
                        0.06699841469526291,
                        -0.08653022348880768,
                        0.20165984332561493,
                        -0.041314590722322464,
                        -0.04516511783003807,
                        0.34808415174484253,
                        -0.4219296872615814,
                        -0.2729874551296234,
                        0.4005342125892639,
                        -0.28070592880249023,
                        -0.2782996594905853,
                        -0.07017091661691666,
                        -0.09778466820716858,
                        0.20664311945438385,
                        0.3667655885219574,
                        0.1903204768896103,
                        -0.17355592548847198,
                        0.37183788418769836,
                        0.11745300143957138,
                        -0.47740715742111206,
                        -0.03223831206560135,
                        0.3619132339954376,
                        -0.06717821210622787,
                        -0.1492718905210495,
                        -0.027010885998606682,
                        0.31829091906547546,
                        0.12830102443695068,
                        0.10599121451377869,
                        -0.5258514881134033,
                        -0.09214095771312714,
                        0.0913667157292366,
                        0.18980492651462555,
                        0.18188630044460297,
                        -0.06496713310480118,
                        -0.08318977057933807,
                        -0.09583194553852081,
                        -0.6927114129066467,
                        0.011388798244297504,
                        -0.09450908750295639,
                        -0.3023321330547333,
                        0.07296284288167953,
                        -0.19173891842365265,
                        0.15338918566703796,
                        -0.028069663792848587,
                        0.09911972284317017,
                        -0.13786841928958893,
                        -0.3127461075782776,
                        0.34045127034187317,
                        0.07892073690891266,
                        -0.7945708632469177,
                        0.03456011787056923,
                        0.048124246299266815,
                        0.018249526619911194,
                        -0.0844312533736229,
                        0.1941654235124588,
                        0.3049980103969574,
                        0.04643034189939499,
                        0.021571680903434753,
                        0.21749751269817352,
                        0.033344950526952744,
                        0.13461893796920776,
                        -0.08630715310573578,
                        0.11274664849042892,
                        -0.012541056610643864,
                        0.0034178760834038258,
                        -0.057127565145492554,
                        0.08365236967802048,
                        0.0660838782787323,
                        -0.006512673571705818,
                        -0.009432492777705193,
                        -0.07545151561498642
                    ],
                    [
                        0.4620206952095032,
                        -0.00742717320099473,
                        -0.08809588104486465,
                        0.5740675926208496,
                        0.49414271116256714,
                        0.0038264431059360504,
                        -0.26669102907180786,
                        -0.17274290323257446,
                        0.12145727872848511,
                        0.3025681674480438,
                        -0.26727357506752014,
                        0.23995377123355865,
                        0.07567249238491058,
                        -0.45279163122177124,
                        0.06625144928693771,
                        -0.9753000140190125,
                        -0.7425899505615234,
                        -0.2618184983730316,
                        -0.5593208074569702,
                        -0.2415626049041748,
                        0.1249651238322258,
                        -0.4306074380874634,
                        0.31978991627693176,
                        0.6043704152107239,
                        -0.3509122133255005,
                        0.09881304204463959,
                        0.43236562609672546,
                        0.1711885929107666,
                        0.07666593044996262,
                        -0.19882084429264069,
                        1.036012887954712,
                        -0.007853294722735882,
                        0.3658141493797302,
                        -0.38322344422340393,
                        -0.3042442798614502,
                        0.9620567560195923,
                        0.7691343426704407,
                        0.39573758840560913,
                        0.5532516241073608,
                        0.6223763227462769,
                        0.045590829104185104,
                        0.09295399487018585,
                        -0.3664352297782898,
                        -0.540248692035675,
                        0.5944008231163025,
                        0.0811915248632431,
                        0.2940574288368225,
                        -0.31986093521118164,
                        0.3369615375995636,
                        -0.6067910194396973,
                        0.6968568563461304,
                        0.6888601183891296,
                        -0.010292727500200272,
                        -0.6687062978744507,
                        -0.1376102715730667,
                        0.2708797752857208,
                        0.14695507287979126,
                        -0.31725066900253296,
                        0.1317867934703827,
                        -0.49730855226516724,
                        0.1906968653202057,
                        0.2056029886007309,
                        0.22055943310260773,
                        0.46410855650901794,
                        0.42264971137046814,
                        -0.22833962738513947,
                        0.48066818714141846,
                        -0.07665514945983887,
                        0.18207833170890808,
                        0.2445836216211319,
                        0.6453313827514648,
                        0.239463672041893,
                        0.3424292206764221,
                        -0.42931869626045227,
                        0.5351431369781494,
                        0.06495675444602966,
                        0.18135319650173187,
                        0.20442672073841095,
                        0.3255608081817627,
                        0.19401231408119202
                    ],
                    [
                        -0.0243863333016634,
                        0.12585993111133575,
                        -0.49935805797576904,
                        0.15007570385932922,
                        0.021149039268493652,
                        0.12135381251573563,
                        -0.26276159286499023,
                        -0.0448295995593071,
                        0.09335397183895111,
                        0.03187383711338043,
                        -0.1510758399963379,
                        0.055956579744815826,
                        -0.3336334228515625,
                        0.03221038356423378,
                        0.4274992048740387,
                        -0.06716390699148178,
                        -0.05585605278611183,
                        -0.08702342957258224,
                        0.0341118648648262,
                        -0.26629483699798584,
                        -0.009230250492691994,
                        -0.015580144710838795,
                        0.1897505670785904,
                        0.18411676585674286,
                        0.2933539152145386,
                        -0.10806925594806671,
                        -0.0875772088766098,
                        -0.18670597672462463,
                        0.5946188569068909,
                        0.42856672406196594,
                        -0.03540407866239548,
                        -0.15690286457538605,
                        -0.47978752851486206,
                        0.12903277575969696,
                        0.07943060249090195,
                        -0.17076855897903442,
                        -0.2575480043888092,
                        0.15868927538394928,
                        0.19765375554561615,
                        0.3545962870121002,
                        -0.02815588377416134,
                        -0.3618449866771698,
                        -0.016661884263157845,
                        -0.27359700202941895,
                        -0.11324543505907059,
                        0.02997676655650139,
                        0.04582902789115906,
                        -0.05903775990009308,
                        -0.4582744836807251,
                        0.166763573884964,
                        -0.2662510871887207,
                        -0.10102185606956482,
                        0.15664900839328766,
                        -0.41499897837638855,
                        -0.12900564074516296,
                        0.091086246073246,
                        0.5048093199729919,
                        -0.11333701759576797,
                        -0.11475379019975662,
                        -0.10686050355434418,
                        0.20558524131774902,
                        0.14510895311832428,
                        -0.15535756945610046,
                        0.00631360150873661,
                        0.29392415285110474,
                        0.17442359030246735,
                        0.13580694794654846,
                        -0.1472136229276657,
                        0.1923818290233612,
                        -0.062178947031497955,
                        -0.18355846405029297,
                        -0.012542295269668102,
                        -0.08277658373117447,
                        0.1788610965013504,
                        0.37736642360687256,
                        -0.3890049159526825,
                        -0.07452745735645294,
                        -0.07009923458099365,
                        -0.02976739965379238,
                        -0.2209864854812622
                    ],
                    [
                        -0.19149360060691833,
                        0.25838443636894226,
                        0.07937932759523392,
                        0.01348184235394001,
                        -0.07127021998167038,
                        -0.010874037630856037,
                        0.1564665287733078,
                        -0.13789725303649902,
                        -1.6411805152893066,
                        0.07478514313697815,
                        0.19683784246444702,
                        0.1693524569272995,
                        0.07175243645906448,
                        0.03729688376188278,
                        -0.1534232646226883,
                        0.5982481241226196,
                        0.40678104758262634,
                        0.2771483063697815,
                        0.19028355181217194,
                        0.27749648690223694,
                        -0.03781036660075188,
                        0.2659339904785156,
                        -0.11411084234714508,
                        0.003949088975787163,
                        -0.0526631660759449,
                        0.26101961731910706,
                        -0.15867000818252563,
                        -0.22952395677566528,
                        -0.839738667011261,
                        -0.043210290372371674,
                        -0.09301628917455673,
                        0.039396725594997406,
                        0.010118708945810795,
                        -0.06586011499166489,
                        -0.43583038449287415,
                        -0.23814724385738373,
                        0.07539071887731552,
                        0.8684099316596985,
                        -0.20110942423343658,
                        -0.18123207986354828,
                        -0.16120314598083496,
                        -0.10213640332221985,
                        0.013854625634849072,
                        0.03915071487426758,
                        0.07184670865535736,
                        1.2131834030151367,
                        -0.1201857179403305,
                        0.21663907170295715,
                        0.80142742395401,
                        -0.059240758419036865,
                        0.04656834900379181,
                        -0.10795103758573532,
                        -0.05116957798600197,
                        -0.05987510830163956,
                        0.9369569420814514,
                        0.08605901896953583,
                        0.6070361137390137,
                        -0.01383594237267971,
                        -0.2574158012866974,
                        -0.053216978907585144,
                        -0.156648188829422,
                        0.15716366469860077,
                        -0.10994293540716171,
                        -0.4063677489757538,
                        -0.11999545991420746,
                        0.10657251626253128,
                        0.04422798380255699,
                        -0.12416698783636093,
                        0.9969267845153809,
                        0.1169748529791832,
                        0.045599453151226044,
                        0.25150197744369507,
                        0.15537020564079285,
                        0.07618742436170578,
                        0.03242044895887375,
                        -0.20190607011318207,
                        0.02255314588546753,
                        -0.04227690026164055,
                        0.30850717425346375,
                        0.06328605860471725
                    ],
                    [
                        -0.21522976458072662,
                        -0.0749325230717659,
                        0.68207848072052,
                        -0.870830237865448,
                        -0.19125790894031525,
                        -0.11227279901504517,
                        0.32179829478263855,
                        0.11599680036306381,
                        -0.4067698121070862,
                        -0.02819221094250679,
                        0.14275744557380676,
                        -0.06865505874156952,
                        0.08290068805217743,
                        0.33223363757133484,
                        -0.22656762599945068,
                        0.42201653122901917,
                        0.07339631766080856,
                        0.18039840459823608,
                        0.2111729383468628,
                        0.618784487247467,
                        0.13285988569259644,
                        0.10562551021575928,
                        -0.3378439247608185,
                        -0.45510488748550415,
                        -0.03883673995733261,
                        -0.027374163269996643,
                        -0.5490286946296692,
                        -0.13038022816181183,
                        0.13908755779266357,
                        -0.05057443305850029,
                        -0.6111640334129333,
                        -0.19207096099853516,
                        0.4144893288612366,
                        0.058572735637426376,
                        -0.15876737236976624,
                        -0.6995368599891663,
                        -0.2526285648345947,
                        0.31918108463287354,
                        -0.07619572430849075,
                        -1.5685762166976929,
                        -1.4470175504684448,
                        0.04613041505217552,
                        0.20616227388381958,
                        -0.5263404846191406,
                        -0.5098387598991394,
                        -0.037103716284036636,
                        0.018600722774863243,
                        -0.36469700932502747,
                        0.5194782614707947,
                        0.07655050605535507,
                        0.07773492485284805,
                        0.11023221909999847,
                        -0.16322769224643707,
                        0.10402705520391464,
                        -0.10274428874254227,
                        -0.16652008891105652,
                        -0.06860679388046265,
                        -0.1262505054473877,
                        0.05972128361463547,
                        -0.12072836607694626,
                        -0.9769579768180847,
                        -0.08659128844738007,
                        -0.2831166684627533,
                        -0.6434894800186157,
                        -0.01936364732682705,
                        -0.21615858376026154,
                        -0.15778227150440216,
                        0.1113448441028595,
                        -0.03433647006750107,
                        0.2832474410533905,
                        -0.44699302315711975,
                        -0.20066674053668976,
                        -0.44543078541755676,
                        0.20711316168308258,
                        0.1176879033446312,
                        0.2112846076488495,
                        -0.04329141601920128,
                        -0.499577134847641,
                        -0.05641627684235573,
                        -0.4363054633140564
                    ],
                    [
                        0.3323492407798767,
                        -0.6076688170433044,
                        -0.17271165549755096,
                        0.5629625916481018,
                        0.3160521984100342,
                        -0.006271101534366608,
                        0.45261645317077637,
                        -0.0744885578751564,
                        -0.19013337790966034,
                        0.08409890532493591,
                        -0.038446180522441864,
                        0.17975936830043793,
                        0.490619033575058,
                        -0.30420535802841187,
                        -0.658329427242279,
                        0.034599024802446365,
                        -0.40958261489868164,
                        -0.0511755645275116,
                        -0.06142288073897362,
                        -0.053656935691833496,
                        0.20396363735198975,
                        -0.7805570960044861,
                        0.06308475881814957,
                        0.376351922750473,
                        -0.2592684328556061,
                        0.1737762838602066,
                        0.21070517599582672,
                        0.3240305185317993,
                        0.11722933501005173,
                        -0.14486807584762573,
                        0.3012838065624237,
                        0.05878286063671112,
                        0.6737257242202759,
                        -0.21551890671253204,
                        -0.4834024906158447,
                        0.39574575424194336,
                        0.4241572618484497,
                        0.2620704174041748,
                        0.2777721583843231,
                        0.1079305037856102,
                        0.06693136692047119,
                        0.36597853899002075,
                        -0.9167956709861755,
                        -0.8609590530395508,
                        0.13801592588424683,
                        -0.22243955731391907,
                        0.5047512054443359,
                        -0.03726525232195854,
                        0.27085044980049133,
                        0.28111547231674194,
                        -0.1242721825838089,
                        0.40638187527656555,
                        -0.6988212466239929,
                        -0.07985033094882965,
                        0.1549728959798813,
                        0.3036250174045563,
                        0.15214411914348602,
                        -0.12202411144971848,
                        -0.006729519926011562,
                        -0.5652288794517517,
                        0.2925835847854614,
                        -0.39479365944862366,
                        0.07901894301176071,
                        0.37860530614852905,
                        -0.27902552485466003,
                        0.1723421812057495,
                        0.6826443076133728,
                        0.13250932097434998,
                        -0.23084193468093872,
                        0.04343251511454582,
                        0.6895896196365356,
                        0.16098956763744354,
                        0.6465895771980286,
                        -0.34813615679740906,
                        0.031116975471377373,
                        0.41413015127182007,
                        0.025691412389278412,
                        0.18483293056488037,
                        0.2511131763458252,
                        0.10012833774089813
                    ],
                    [
                        -0.035968758165836334,
                        -0.12030167877674103,
                        -0.20462316274642944,
                        0.14775119721889496,
                        0.10544253140687943,
                        -0.016471700742840767,
                        0.24507707357406616,
                        -0.19277730584144592,
                        -0.0005124736344441772,
                        0.053847186267375946,
                        -0.1256146878004074,
                        -0.028732866048812866,
                        -0.2956390380859375,
                        0.19309768080711365,
                        -0.09168386459350586,
                        0.23877404630184174,
                        0.33352959156036377,
                        0.653555691242218,
                        0.21656924486160278,
                        0.11138217151165009,
                        -0.2895592153072357,
                        0.41837194561958313,
                        0.06094806268811226,
                        0.5040924549102783,
                        -0.2870858907699585,
                        -0.0032932462636381388,
                        -0.19937041401863098,
                        -0.26495060324668884,
                        -0.3210308849811554,
                        0.14109943807125092,
                        -0.308820903301239,
                        -0.1429435759782791,
                        -0.18488194048404694,
                        0.011254680342972279,
                        0.03765278309583664,
                        0.09554436057806015,
                        -0.2683694362640381,
                        0.15900595486164093,
                        -0.2647358477115631,
                        0.4159497618675232,
                        -0.8279697895050049,
                        0.048626214265823364,
                        -0.6111882328987122,
                        -0.7637084126472473,
                        -0.044174473732709885,
                        0.12054141610860825,
                        -0.013684962876141071,
                        -0.025307675823569298,
                        0.44787248969078064,
                        -0.38216790556907654,
                        0.0934460312128067,
                        -0.30062949657440186,
                        0.015703732147812843,
                        -0.09522154927253723,
                        -0.01454143039882183,
                        -0.27227041125297546,
                        0.1220322996377945,
                        -0.14711126685142517,
                        -0.02258729562163353,
                        -0.06048797816038132,
                        0.5262166857719421,
                        0.06597863137722015,
                        0.06560846418142319,
                        0.13195101916790009,
                        0.8437374830245972,
                        0.1895601451396942,
                        -0.2933468222618103,
                        0.15501999855041504,
                        -0.16430163383483887,
                        0.21698729693889618,
                        0.08956911414861679,
                        -0.23271514475345612,
                        -0.33713796734809875,
                        -0.1982274353504181,
                        0.0028338241390883923,
                        -0.13330744206905365,
                        0.031216345727443695,
                        -0.24535267055034637,
                        -0.17299072444438934,
                        0.3907534182071686
                    ],
                    [
                        -0.014379823580384254,
                        -0.05750265344977379,
                        -0.2197418361902237,
                        0.30824029445648193,
                        0.16729609668254852,
                        -0.05239957571029663,
                        -0.24022327363491058,
                        0.1447518914937973,
                        -0.017114464193582535,
                        0.06490440666675568,
                        -0.4517613649368286,
                        -0.0582963265478611,
                        -0.1612628996372223,
                        0.13432297110557556,
                        0.21218083798885345,
                        0.026847846806049347,
                        0.5366848707199097,
                        -0.01609043776988983,
                        0.47512534260749817,
                        -0.3823774456977844,
                        -0.4654368460178375,
                        0.6013377904891968,
                        0.29599729180336,
                        0.5758193731307983,
                        -0.012029493227601051,
                        -0.1064131036400795,
                        -0.036020345985889435,
                        -0.157470241189003,
                        0.20191891491413116,
                        0.3459479808807373,
                        -0.005326633341610432,
                        -0.29950642585754395,
                        -0.3227281868457794,
                        0.11216702312231064,
                        0.17929384112358093,
                        -0.36216795444488525,
                        -0.4208362400531769,
                        0.06301689893007278,
                        -0.5382360219955444,
                        -0.3385416865348816,
                        -0.059136636555194855,
                        0.037729278206825256,
                        0.2224511355161667,
                        0.05664623901247978,
                        -0.14710859954357147,
                        0.19182409346103668,
                        -0.007879320532083511,
                        0.014779559336602688,
                        -0.21752391755580902,
                        -0.5474173426628113,
                        -0.20881293714046478,
                        0.20381543040275574,
                        -0.07360853254795074,
                        0.35047784447669983,
                        0.2863002419471741,
                        0.042922377586364746,
                        -0.43648016452789307,
                        0.9063916206359863,
                        -0.06156617030501366,
                        -0.3012770116329193,
                        0.47688809037208557,
                        0.022836284711956978,
                        0.13392214477062225,
                        0.3074481189250946,
                        0.48076704144477844,
                        0.05943148583173752,
                        -0.06016191467642784,
                        -0.17846523225307465,
                        -0.14674119651317596,
                        0.2665269076824188,
                        0.1403217315673828,
                        -0.10899064689874649,
                        -0.6336356401443481,
                        -0.04653561860322952,
                        0.053070563822984695,
                        -0.6329924464225769,
                        -0.11758571863174438,
                        0.114506796002388,
                        -0.3102843761444092,
                        0.038618385791778564
                    ],
                    [
                        0.033988937735557556,
                        -0.19678248465061188,
                        0.2984384298324585,
                        -0.29656797647476196,
                        0.0498141348361969,
                        0.16573183238506317,
                        -0.23729394376277924,
                        -0.18507501482963562,
                        0.09404954314231873,
                        0.0670485720038414,
                        -0.10723014920949936,
                        -0.0013220931869000196,
                        0.0160971786826849,
                        0.09016304463148117,
                        -0.2272593230009079,
                        -0.2794884741306305,
                        -0.5631051659584045,
                        -0.08046884834766388,
                        -0.2326497882604599,
                        0.6769553422927856,
                        0.01222437433898449,
                        -0.08261287957429886,
                        -0.03881961852312088,
                        -0.4288167953491211,
                        -0.03141206130385399,
                        0.1015465259552002,
                        0.37260696291923523,
                        0.13157524168491364,
                        0.07021556049585342,
                        0.17239810526371002,
                        0.4192611277103424,
                        -0.06776052713394165,
                        0.10502315312623978,
                        0.043673597276210785,
                        -0.16443777084350586,
                        0.24897919595241547,
                        0.4409050941467285,
                        -0.24953801929950714,
                        0.4537355601787567,
                        0.17983083426952362,
                        -0.06266190856695175,
                        0.03084876574575901,
                        -0.3955863118171692,
                        -0.09525720030069351,
                        -0.48181524872779846,
                        0.09472060203552246,
                        0.026302693411707878,
                        0.23934303224086761,
                        -0.06369984894990921,
                        0.565165102481842,
                        0.11027804762125015,
                        0.583691418170929,
                        -0.27946737408638,
                        -0.029421530663967133,
                        -0.14472179114818573,
                        0.30945682525634766,
                        0.06406399607658386,
                        0.19580334424972534,
                        -0.02302643284201622,
                        0.2953770160675049,
                        0.07805046439170837,
                        0.006532097700983286,
                        0.19877217710018158,
                        -0.10949064791202545,
                        -0.3200882375240326,
                        0.18624672293663025,
                        0.43055927753448486,
                        -0.027290085330605507,
                        -0.07669106125831604,
                        0.20550499856472015,
                        -0.23946687579154968,
                        0.05555811524391174,
                        0.0038724495097994804,
                        0.3425198197364807,
                        0.06934159249067307,
                        0.08382657915353775,
                        -0.034228477627038956,
                        0.045847635716199875,
                        0.17078839242458344,
                        0.5138950347900391
                    ],
                    [
                        -0.39629465341567993,
                        -0.37981438636779785,
                        0.1997695416212082,
                        -0.34834280610084534,
                        -0.4295874536037445,
                        -0.05495377629995346,
                        0.7901852130889893,
                        -0.02554689161479473,
                        -0.6018357276916504,
                        -0.2608625888824463,
                        0.650183916091919,
                        -0.1251097321510315,
                        0.17333310842514038,
                        0.21414144337177277,
                        -0.19665342569351196,
                        0.8711274266242981,
                        0.8365294337272644,
                        0.00992235541343689,
                        0.5421286821365356,
                        0.8017342686653137,
                        0.03868657723069191,
                        -0.35528823733329773,
                        -0.5031254887580872,
                        -0.26107412576675415,
                        0.015153641812503338,
                        -0.1252586394548416,
                        -0.5257177352905273,
                        -0.2860202193260193,
                        -0.29923591017723083,
                        -0.09897982329130173,
                        -0.647183358669281,
                        0.11841356754302979,
                        -0.19665688276290894,
                        -0.07605455070734024,
                        -0.17556694149971008,
                        -1.2092976570129395,
                        -0.8540376424789429,
                        0.36653658747673035,
                        -1.0380189418792725,
                        -0.44573432207107544,
                        0.2295886129140854,
                        0.22822320461273193,
                        -0.10822267830371857,
                        0.009393343701958656,
                        -0.07038115710020065,
                        -0.008155200630426407,
                        -0.09779584407806396,
                        -0.27683112025260925,
                        0.46900397539138794,
                        0.10897990316152573,
                        0.06292488425970078,
                        0.20053671300411224,
                        -0.10411591082811356,
                        -0.13071386516094208,
                        -0.09295240044593811,
                        0.3218931257724762,
                        0.02623584307730198,
                        -0.15119943022727966,
                        -0.37618139386177063,
                        -0.07912208884954453,
                        -0.054836541414260864,
                        -0.7829247713088989,
                        -0.2624127268791199,
                        -0.37426841259002686,
                        -0.657353937625885,
                        -0.03940781205892563,
                        -0.4100450277328491,
                        -0.15819630026817322,
                        -0.26762616634368896,
                        -0.14775647222995758,
                        -0.14243970811367035,
                        -0.13281483948230743,
                        0.06752103567123413,
                        -0.08960087597370148,
                        -0.5086248517036438,
                        -0.017257489264011383,
                        0.014504103921353817,
                        0.20052675902843475,
                        -0.14183472096920013,
                        -0.1254534125328064
                    ],
                    [
                        0.3528597354888916,
                        0.036335233598947525,
                        0.29945167899131775,
                        -0.09128011018037796,
                        0.07780113816261292,
                        -0.0029865452088415623,
                        0.6073142886161804,
                        -0.0013954084133729339,
                        0.4516703188419342,
                        0.19715090095996857,
                        0.19250963628292084,
                        0.2835933566093445,
                        0.398515522480011,
                        0.19278818368911743,
                        0.19675704836845398,
                        -0.28966739773750305,
                        -0.07068194448947906,
                        -0.09012472629547119,
                        0.1719733327627182,
                        -0.1348239630460739,
                        -0.27287593483924866,
                        -0.14090842008590698,
                        -0.20368006825447083,
                        -0.6065871119499207,
                        -0.47215017676353455,
                        0.2189345359802246,
                        -0.2596655786037445,
                        0.3319297134876251,
                        -0.6804952621459961,
                        -0.20211689174175262,
                        0.10280297696590424,
                        0.4570709466934204,
                        0.6820459365844727,
                        0.09479527920484543,
                        0.0038962934631854296,
                        0.6195906400680542,
                        0.17289400100708008,
                        -0.11863186210393906,
                        0.5326628684997559,
                        -0.697111964225769,
                        0.26346778869628906,
                        -0.30158770084381104,
                        -0.20258091390132904,
                        -0.3457932472229004,
                        0.23065891861915588,
                        0.40486079454421997,
                        0.26654139161109924,
                        -0.5788633823394775,
                        0.3559838533401489,
                        0.47127971053123474,
                        0.45450448989868164,
                        -0.2875189185142517,
                        -0.62824547290802,
                        0.0852653980255127,
                        -0.07031430304050446,
                        0.15895375609397888,
                        0.17348623275756836,
                        -0.6314982175827026,
                        0.34895771741867065,
                        -0.01785166561603546,
                        -1.0277130603790283,
                        -0.10387878119945526,
                        0.17204166948795319,
                        0.07616081833839417,
                        -1.204517126083374,
                        -0.008199124597012997,
                        0.08273643255233765,
                        0.18861046433448792,
                        0.5982996821403503,
                        0.2596951723098755,
                        0.3742271065711975,
                        0.2840522825717926,
                        0.6261523365974426,
                        0.06646965444087982,
                        -0.19062182307243347,
                        0.9876567721366882,
                        0.09523701667785645,
                        0.10427775233983994,
                        0.14493407309055328,
                        0.13633115589618683
                    ],
                    [
                        -0.005956834647804499,
                        0.10505534708499908,
                        0.18106570839881897,
                        -0.016184072941541672,
                        -0.03425407409667969,
                        -0.1739410161972046,
                        0.19424980878829956,
                        0.19771330058574677,
                        0.07935711741447449,
                        -0.04880288243293762,
                        0.009168406017124653,
                        -0.0873555839061737,
                        -0.07958380877971649,
                        -0.1460859179496765,
                        0.10069253295660019,
                        0.15364450216293335,
                        -0.11004205048084259,
                        0.023152465000748634,
                        0.8560131192207336,
                        -0.5863247513771057,
                        -0.09304112941026688,
                        0.23898343741893768,
                        -0.00968141108751297,
                        -0.07803846895694733,
                        0.030260974541306496,
                        0.1201045885682106,
                        0.26207247376441956,
                        -0.0615992397069931,
                        0.32305479049682617,
                        0.11398746073246002,
                        -0.04615369439125061,
                        -0.26836276054382324,
                        -0.1382998675107956,
                        -0.17840293049812317,
                        0.40454646944999695,
                        -0.04035256803035736,
                        -0.07687859237194061,
                        0.4501429498195648,
                        0.43182292580604553,
                        0.1458907127380371,
                        -0.2796679139137268,
                        0.34124383330345154,
                        -0.14349956810474396,
                        0.1284181922674179,
                        -0.3157386779785156,
                        -0.2333492785692215,
                        0.031210118904709816,
                        0.16046719253063202,
                        -0.5956611037254333,
                        0.5938966274261475,
                        -0.04960647225379944,
                        0.04020383581519127,
                        0.022681565955281258,
                        -0.07246191799640656,
                        -0.21323251724243164,
                        0.19623427093029022,
                        0.33385056257247925,
                        0.12474143505096436,
                        1.0449604988098145,
                        -0.04024866595864296,
                        0.3725903034210205,
                        0.139364555478096,
                        0.18684695661067963,
                        0.0711916983127594,
                        0.21758098900318146,
                        -0.27928176522254944,
                        0.25078296661376953,
                        -0.10111131519079208,
                        0.5274556875228882,
                        -0.14019908010959625,
                        -0.006959919352084398,
                        -0.06875249743461609,
                        -0.048516541719436646,
                        -0.13374194502830505,
                        0.17647068202495575,
                        -0.18649087846279144,
                        -0.08984516561031342,
                        -0.5334506630897522,
                        -0.09797081351280212,
                        -0.0324796624481678
                    ],
                    [
                        -0.04015135392546654,
                        -0.06661886721849442,
                        0.0700896605849266,
                        -0.4940561056137085,
                        -0.034922029823064804,
                        -0.08207392692565918,
                        0.3701357841491699,
                        0.19027553498744965,
                        1.2040995359420776,
                        -0.09583725780248642,
                        0.42400044202804565,
                        -0.18818344175815582,
                        0.030340416356921196,
                        0.0434802807867527,
                        -0.12212128937244415,
                        0.6257986426353455,
                        0.2520867586135864,
                        -1.0972132682800293,
                        0.07300379127264023,
                        0.42605337500572205,
                        -0.12328861653804779,
                        0.31442102789878845,
                        -0.1715526282787323,
                        0.04705635830760002,
                        0.3475145101547241,
                        -0.27479150891304016,
                        -0.39159733057022095,
                        -0.10314518958330154,
                        1.3400405645370483,
                        -0.04994003102183342,
                        -0.27949991822242737,
                        0.1663626730442047,
                        -0.08024267852306366,
                        0.14339064061641693,
                        0.5682921409606934,
                        -0.16326427459716797,
                        -0.2026865929365158,
                        0.36679109930992126,
                        -0.3616449236869812,
                        -0.6455726027488708,
                        -0.3728996217250824,
                        0.11234717816114426,
                        -0.11992520838975906,
                        -0.17311915755271912,
                        -0.06667787581682205,
                        0.07499098032712936,
                        -0.07983190566301346,
                        0.09062220901250839,
                        -2.559526205062866,
                        -0.11458978801965714,
                        0.012252502143383026,
                        -0.1583714336156845,
                        -0.10202497243881226,
                        0.060959409922361374,
                        0.16141828894615173,
                        0.39643776416778564,
                        -0.08125720918178558,
                        0.16687914729118347,
                        0.14462362229824066,
                        0.004433669149875641,
                        -0.593585193157196,
                        0.014561019837856293,
                        0.5593740940093994,
                        0.33055347204208374,
                        -0.6705865263938904,
                        0.43809980154037476,
                        0.06488967686891556,
                        -0.0324518121778965,
                        0.08274811506271362,
                        0.4449114203453064,
                        -0.06186434254050255,
                        -0.28758618235588074,
                        -0.4685998857021332,
                        -0.1563367247581482,
                        -0.5827382206916809,
                        -0.0830078199505806,
                        0.061657268553972244,
                        0.40415364503860474,
                        0.1552019715309143,
                        -0.14644981920719147
                    ],
                    [
                        0.12871567904949188,
                        0.25055670738220215,
                        0.0034768113400787115,
                        0.06263642758131027,
                        0.018788393586874008,
                        -0.17740046977996826,
                        -0.0749870166182518,
                        0.0003940204915124923,
                        -0.33478665351867676,
                        0.013210942037403584,
                        -0.18443454802036285,
                        0.09821212291717529,
                        -0.13568028807640076,
                        -0.15288767218589783,
                        -0.42667356133461,
                        -0.6899924278259277,
                        0.14437150955200195,
                        0.08977808803319931,
                        0.009193714708089828,
                        -0.17802630364894867,
                        -0.011272525414824486,
                        0.3801133930683136,
                        -0.3585268259048462,
                        0.11829913407564163,
                        -0.11382858455181122,
                        -0.13966096937656403,
                        0.07957413792610168,
                        0.2984672486782074,
                        -0.16161136329174042,
                        -0.02360220067203045,
                        0.2391137033700943,
                        -0.21372444927692413,
                        -0.0856599435210228,
                        -0.19938145577907562,
                        -0.6477634310722351,
                        -0.2103705108165741,
                        0.576922595500946,
                        0.5638243556022644,
                        0.12206930667161942,
                        0.3257765769958496,
                        -0.1765960305929184,
                        -0.1298041045665741,
                        -0.20424917340278625,
                        -0.09237915277481079,
                        0.05295141786336899,
                        -0.26209357380867004,
                        0.13027814030647278,
                        -0.04102781414985657,
                        0.3594817519187927,
                        0.25589507818222046,
                        -0.04313347861170769,
                        -0.09103953838348389,
                        0.11502061784267426,
                        -0.007816767320036888,
                        -0.16440492868423462,
                        -0.26923516392707825,
                        -1.2099988460540771,
                        0.04576532915234566,
                        -0.13467943668365479,
                        0.02263674885034561,
                        0.007798447273671627,
                        0.5858264565467834,
                        0.18872754275798798,
                        -0.005026280879974365,
                        0.22735297679901123,
                        -0.13138064742088318,
                        0.056846749037504196,
                        0.09421693533658981,
                        0.04525277018547058,
                        0.10321139544248581,
                        0.06236725673079491,
                        0.12183801084756851,
                        0.11882217973470688,
                        -0.021459762006998062,
                        0.06519481539726257,
                        0.15623775124549866,
                        0.03132876008749008,
                        0.48014527559280396,
                        0.5865220427513123,
                        0.3829890191555023
                    ],
                    [
                        0.29613837599754333,
                        -0.016899149864912033,
                        -0.16325493156909943,
                        0.037779565900564194,
                        0.2693333923816681,
                        0.08586778491735458,
                        -0.22524511814117432,
                        -0.12940508127212524,
                        0.22678644955158234,
                        0.32554522156715393,
                        0.3898470401763916,
                        0.25633692741394043,
                        0.2250184565782547,
                        0.2314339131116867,
                        0.31096261739730835,
                        -0.07902172952890396,
                        0.009041140787303448,
                        0.27124857902526855,
                        -0.09331823885440826,
                        -0.008534220978617668,
                        -0.15075232088565826,
                        0.19030867516994476,
                        -0.10898472368717194,
                        -0.4012301564216614,
                        0.4960010349750519,
                        0.13607783615589142,
                        -0.0016767147462815046,
                        0.33660486340522766,
                        0.01212298683822155,
                        0.6018499732017517,
                        0.12972372770309448,
                        0.1430259793996811,
                        0.4981229603290558,
                        0.42384517192840576,
                        -0.11123234033584595,
                        0.6493464708328247,
                        0.11395856738090515,
                        0.15634234249591827,
                        0.008186050690710545,
                        0.08371710777282715,
                        -0.3452254831790924,
                        -0.7186666131019592,
                        -0.442034512758255,
                        1.2913892269134521,
                        -1.7480381727218628,
                        -0.18805351853370667,
                        0.09529563784599304,
                        0.0381179116666317,
                        0.07008690387010574,
                        1.0917513370513916,
                        0.01440024096518755,
                        -0.6229074001312256,
                        0.3542344570159912,
                        -0.029661286622285843,
                        0.16781118512153625,
                        0.20385614037513733,
                        0.17139416933059692,
                        0.1545051485300064,
                        0.10864283889532089,
                        -0.02482852339744568,
                        0.05261093005537987,
                        0.28617846965789795,
                        0.03033958002924919,
                        0.15554484724998474,
                        0.3621169924736023,
                        0.12290288507938385,
                        0.12833108007907867,
                        0.10135871917009354,
                        -0.08143934607505798,
                        0.3177209794521332,
                        -0.10426559299230576,
                        0.2902708649635315,
                        -0.04558859020471573,
                        0.46563485264778137,
                        -0.03119301237165928,
                        0.21736526489257812,
                        0.27235108613967896,
                        0.34897759556770325,
                        0.1790226697921753,
                        0.9635823965072632
                    ]
                ],
                [
                    1.045966386795044,
                    0.44185447692871094,
                    -0.2835965156555176,
                    0.45834994316101074,
                    0.9367374181747437,
                    0.09959229826927185,
                    -1.3062270879745483,
                    -0.6416878700256348,
                    -0.06232551485300064,
                    0.7695176601409912,
                    -2.0394015312194824,
                    0.6358919143676758,
                    -0.7806295156478882,
                    -0.1938493549823761,
                    0.35704749822616577,
                    -1.9022459983825684,
                    -3.0552077293395996,
                    0.39937251806259155,
                    -2.541475296020508,
                    -1.7407335042953491,
                    0.13063737750053406,
                    0.5400450825691223,
                    1.222197413444519,
                    -0.054324373602867126,
                    0.21162331104278564,
                    0.5183666944503784,
                    1.8052105903625488,
                    0.11277705430984497,
                    0.6881210803985596,
                    0.11585447192192078,
                    1.3575634956359863,
                    -0.13232162594795227,
                    0.1568637490272522,
                    0.47946152091026306,
                    0.9414294362068176,
                    2.6121065616607666,
                    3.303867816925049,
                    0.5630339980125427,
                    2.466324806213379,
                    2.7980151176452637,
                    0.10851471871137619,
                    -1.0071643590927124,
                    0.826353907585144,
                    -0.09395280480384827,
                    -0.09804265201091766,
                    0.26842278242111206,
                    0.08923178911209106,
                    0.7036405205726624,
                    -0.26842841506004333,
                    -0.8619253635406494,
                    -0.3128858804702759,
                    -0.19009540975093842,
                    0.3014450967311859,
                    0.5384634733200073,
                    -0.8064879179000854,
                    -0.1477089524269104,
                    0.034632742404937744,
                    -0.020648101344704628,
                    -0.1552588939666748,
                    0.7388039827346802,
                    0.107339046895504,
                    1.187188982963562,
                    0.6967921257019043,
                    0.7263888120651245,
                    0.9062941074371338,
                    -0.36053961515426636,
                    0.33397024869918823,
                    -0.45975494384765625,
                    0.028446240350604057,
                    0.5038833618164062,
                    -0.5630895495414734,
                    0.6768231391906738,
                    -0.14912250638008118,
                    0.3180062472820282,
                    1.1930445432662964,
                    0.0775144100189209,
                    0.4836168885231018,
                    0.5317295789718628,
                    0.5941934585571289,
                    0.4097020626068115
                ]
            ]
        },
        {
            "type": "dense",
            "activation": "",
            "shape": [
                null,
                null,
                1
            ],
            "weights": [
                [
                    [
                        0.019977089017629623
                    ],
                    [
                        0.2915036976337433
                    ],
                    [
                        0.01835711859166622
                    ],
                    [
                        0.015196500346064568
                    ],
                    [
                        -0.010704362764954567
                    ],
                    [
                        -0.6763326525688171
                    ],
                    [
                        0.034694358706474304
                    ],
                    [
                        -0.03328193351626396
                    ],
                    [
                        0.6258587837219238
                    ],
                    [
                        -0.035369738936424255
                    ],
                    [
                        0.04711054265499115
                    ],
                    [
                        0.07399909198284149
                    ],
                    [
                        0.03236805275082588
                    ],
                    [
                        0.07863684743642807
                    ],
                    [
                        -0.39438268542289734
                    ],
                    [
                        0.06077834963798523
                    ],
                    [
                        -0.2586475908756256
                    ],
                    [
                        0.063681460916996
                    ],
                    [
                        -0.9012182950973511
                    ],
                    [
                        0.02478085085749626
                    ]
                ],
                [
                    0.2218843549489975
                ]
            ]
        }
    ],
    "input_batch": [
        0.08890712261199951,
        0.07685470581054688,
        0.0653461217880249,
        0.054532408714294434,
        0.04451119899749756,
        0.035308122634887695,
        0.026958346366882324,
        0.019446253776550293,
        0.012525677680969238,
        0.005981564521789551,
        -0.00026929378509521484,
        -0.006249666213989258,
        -0.011995553970336914,
        -0.017508625984191895,
        -0.02271401882171631,
        -0.02761971950531006,
        -0.032241225242614746,
        -0.036610960960388184,
        -0.040699005126953125,
        -0.044444918632507324,
        -0.04790925979614258,
        -0.05123317241668701,
        -0.05459952354431152,
        -0.05816948413848877,
        -0.06197834014892578,
        -0.06591951847076416,
        -0.06988704204559326,
        -0.07376646995544434,
        -0.0775219202041626,
        -0.0812673568725586,
        -0.0852200984954834,
        -0.08966875076293945,
        -0.0947955846786499,
        -0.10053467750549316,
        -0.10666441917419434,
        -0.11304926872253418,
        -0.11953246593475342,
        -0.12591278553009033,
        -0.132002592086792,
        -0.13763344287872314,
        -0.1428072452545166,
        -0.1477440595626831,
        -0.15266728401184082,
        -0.15767443180084229,
        -0.16278719902038574,
        -0.16788256168365479,
        -0.17280030250549316,
        -0.17743873596191406,
        -0.18170714378356934,
        -0.18566298484802246,
        -0.18930482864379883,
        -0.1925739049911499,
        -0.1953953504562378,
        -0.19770467281341553,
        -0.19953620433807373,
        -0.20087742805480957,
        -0.20163464546203613,
        -0.20174288749694824,
        -0.20131254196166992,
        -0.20060443878173828,
        -0.19981276988983154,
        -0.19898736476898193,
        -0.19804656505584717,
        -0.196830153465271,
        -0.19518935680389404,
        -0.19313395023345947,
        -0.19076907634735107,
        -0.18827474117279053,
        -0.18589138984680176,
        -0.1838209629058838,
        -0.1821526288986206,
        -0.18084239959716797,
        -0.17979443073272705,
        -0.17878055572509766,
        -0.17766690254211426,
        -0.17643523216247559,
        -0.17515993118286133,
        -0.1739363670349121,
        -0.17273938655853271,
        -0.17163515090942383,
        -0.17070817947387695,
        -0.17007207870483398,
        -0.16979968547821045,
        -0.16981327533721924,
        -0.16993045806884766,
        -0.16990244388580322,
        -0.16958773136138916,
        -0.1689746379852295,
        -0.16806650161743164,
        -0.16679561138153076,
        -0.1650604009628296,
        -0.16283249855041504,
        -0.16023242473602295,
        -0.15746891498565674,
        -0.15467429161071777,
        -0.1518399715423584,
        -0.14881455898284912,
        -0.14543640613555908,
        -0.1416233777999878,
        -0.13732385635375977,
        -0.13252103328704834,
        -0.12722790241241455,
        -0.12140977382659912,
        -0.1149972677230835,
        -0.10812699794769287,
        -0.10091328620910645,
        -0.09338629245758057,
        -0.08561444282531738,
        -0.07770180702209473,
        -0.0697547197341919,
        -0.06180286407470703,
        -0.05381882190704346,
        -0.04577839374542236,
        -0.037773728370666504,
        -0.02981877326965332,
        -0.0217587947845459,
        -0.013584733009338379,
        -0.005498647689819336,
        0.0022115707397460938,
        0.009361028671264648,
        0.015861988067626953,
        0.02178025245666504,
        0.027471303939819336,
        0.03322553634643555,
        0.0390704870223999,
        0.044942378997802734,
        0.05073356628417969,
        0.056270599365234375,
        0.061307668685913086,
        0.06559419631958008,
        0.06905794143676758,
        0.07182455062866211,
        0.07404875755310059,
        0.07576572895050049,
        0.07687973976135254,
        0.07731044292449951,
        0.07699429988861084,
        0.07598209381103516,
        0.07441914081573486,
        0.07245373725891113,
        0.07016265392303467,
        0.06741988658905029,
        0.06401145458221436,
        0.059793949127197266,
        0.054786086082458496,
        0.049076080322265625,
        0.04292154312133789,
        0.0367201566696167,
        0.030768513679504395,
        0.025237202644348145,
        0.020194053649902344,
        0.015549659729003906,
        0.011062860488891602,
        0.006516814231872559,
        0.0016690492630004883,
        -0.0035783052444458008,
        -0.009043335914611816,
        -0.014560103416442871,
        -0.01997232437133789,
        -0.025107622146606445,
        -0.029849529266357422,
        -0.0341801643371582,
        -0.038176894187927246,
        -0.0419238805770874,
        -0.04551243782043457,
        -0.049030423164367676,
        -0.05255579948425293,
        -0.05611443519592285,
        -0.05966758728027344,
        -0.06308913230895996,
        -0.06624603271484375,
        -0.06903386116027832,
        -0.07132863998413086,
        -0.07318830490112305,
        -0.07477903366088867,
        -0.07623231410980225,
        -0.07766759395599365,
        -0.07912790775299072,
        -0.08060348033905029,
        -0.08206832408905029,
        -0.0835350751876831,
        -0.0849834680557251,
        -0.0863875150680542,
        -0.08768463134765625,
        -0.08876609802246094,
        -0.08961772918701172,
        -0.09028482437133789,
        -0.09077417850494385,
        -0.09109926223754883,
        -0.09132516384124756,
        -0.09154629707336426,
        -0.09190034866333008,
        -0.09250175952911377,
        -0.09336423873901367,
        -0.09438812732696533,
        -0.09540486335754395,
        -0.09629964828491211,
        -0.09695351123809814,
        -0.09727776050567627,
        -0.09731853008270264,
        -0.09716832637786865,
        -0.09688055515289307,
        -0.09645700454711914,
        -0.09585022926330566,
        -0.09491729736328125,
        -0.09349715709686279,
        -0.09149730205535889,
        -0.0888979434967041,
        -0.08565866947174072,
        -0.08183944225311279,
        -0.07756125926971436,
        -0.07288217544555664,
        -0.06781184673309326,
        -0.06223011016845703,
        -0.05610156059265137,
        -0.049604177474975586,
        -0.04303312301635742,
        -0.03657269477844238,
        -0.030182957649230957,
        -0.023830890655517578,
        -0.017480134963989258,
        -0.011202812194824219,
        -0.005202770233154297,
        0.00040411949157714844,
        0.005603194236755371,
        0.010437726974487305,
        0.0148468017578125,
        0.018692374229431152,
        0.02192986011505127,
        0.0246657133102417,
        0.027021288871765137,
        0.029035091400146484,
        0.030586719512939453,
        0.03155243396759033,
        0.031975388526916504,
        0.031960248947143555,
        0.03164219856262207,
        0.03116452693939209,
        0.030570149421691895,
        0.029740571975708008,
        0.028551816940307617,
        0.027022480964660645,
        0.025263190269470215,
        0.023347020149230957,
        0.021306276321411133,
        0.019191265106201172,
        0.017074108123779297,
        0.014982461929321289,
        0.012930631637573242,
        0.011011600494384766,
        0.009290933609008789,
        0.007765769958496094,
        0.006402850151062012,
        0.005133152008056641,
        0.003931283950805664,
        0.0027321577072143555,
        0.0015039443969726562,
        0.0003292560577392578,
        -0.000674128532409668,
        -0.0014024972915649414,
        -0.001804351806640625,
        -0.0017800331115722656,
        -0.001269221305847168,
        -0.00032699108123779297,
        0.000947117805480957,
        0.002516508102416992,
        0.004452705383300781,
        0.006804466247558594,
        0.00959157943725586,
        0.01270139217376709,
        0.0160750150680542,
        0.01967310905456543,
        0.023368358612060547,
        0.027097105979919434,
        0.030758142471313477,
        0.03434407711029053,
        0.03788125514984131,
        0.04126310348510742,
        0.0442659854888916,
        0.046614766120910645,
        0.048201560974121094,
        0.04912543296813965,
        0.04964029788970947,
        0.049962520599365234,
        0.05014371871948242,
        0.05012857913970947,
        0.04983675479888916,
        0.04925990104675293,
        0.048380136489868164,
        0.04710042476654053,
        0.045377135276794434,
        0.04331254959106445,
        0.04109060764312744,
        0.038783907890319824,
        0.03635132312774658,
        0.03364443778991699,
        0.030588626861572266,
        0.027303099632263184,
        0.02396368980407715,
        0.020811080932617188,
        0.017944693565368652,
        0.015338897705078125,
        0.012925505638122559,
        0.010601639747619629,
        0.008323907852172852,
        0.006069660186767578,
        0.0038775205612182617,
        0.001814126968383789,
        -0.00012803077697753906,
        -0.001978278160095215,
        -0.003760099411010742,
        -0.0054596662521362305,
        -0.007068753242492676,
        -0.008604645729064941,
        -0.010076761245727539,
        -0.0114821195602417,
        -0.012848258018493652,
        -0.014246225357055664,
        -0.015692472457885742,
        -0.01719212532043457,
        -0.0187608003616333,
        -0.020316243171691895,
        -0.021687865257263184,
        -0.022744178771972656,
        -0.023395895957946777,
        -0.02367424964904785,
        -0.023686766624450684,
        -0.023559212684631348,
        -0.02353835105895996,
        -0.023810148239135742,
        -0.024420976638793945,
        -0.025281429290771484,
        -0.026275038719177246,
        -0.02729785442352295,
        -0.028254151344299316,
        -0.029113173484802246,
        -0.029862523078918457,
        -0.030559778213500977,
        -0.031292080879211426,
        -0.032172203063964844,
        -0.0333104133605957,
        -0.03469491004943848,
        -0.03616642951965332,
        -0.03746485710144043,
        -0.03835141658782959,
        -0.03867208957672119,
        -0.038384437561035156,
        -0.03746497631072998,
        -0.03588759899139404,
        -0.03366267681121826,
        -0.030804753303527832,
        -0.027373194694519043,
        -0.023534536361694336,
        -0.019438862800598145,
        -0.015193939208984375,
        -0.010837078094482422,
        -0.006299853324890137,
        -0.0014376640319824219,
        0.0038427114486694336,
        0.009543776512145996,
        0.01564168930053711,
        0.022014617919921875,
        0.02853548526763916,
        0.03507280349731445,
        0.041413187980651855,
        0.047380924224853516,
        0.052945852279663086,
        0.05824482440948486,
        0.0635983943939209,
        0.06930017471313477,
        0.07545745372772217,
        0.08200514316558838,
        0.08876204490661621,
        0.0954751968383789,
        0.10194063186645508,
        0.10813772678375244,
        0.11412465572357178,
        0.11989188194274902,
        0.12540817260742188,
        0.13065004348754883,
        0.13551747798919678,
        0.13996493816375732,
        0.14400458335876465,
        0.14764666557312012,
        0.1509488821029663,
        0.153936505317688,
        0.15665125846862793,
        0.15916800498962402,
        0.16149985790252686,
        0.163557767868042,
        0.1652536392211914,
        0.1665053367614746,
        0.16722917556762695,
        0.16746926307678223,
        0.16731905937194824,
        0.16686558723449707,
        0.1661592721939087,
        0.16517388820648193,
        0.16384673118591309,
        0.16212892532348633,
        0.15992379188537598,
        0.1572057008743286,
        0.15409469604492188,
        0.15064311027526855,
        0.14686822891235352,
        0.1427854299545288,
        0.13837194442749023,
        0.13358283042907715,
        0.12836873531341553,
        0.12267875671386719,
        0.11648714542388916,
        0.10981261730194092,
        0.10262274742126465,
        0.09489047527313232,
        0.08663547039031982,
        0.07785844802856445,
        0.06863725185394287,
        0.059093356132507324,
        0.049382805824279785,
        0.03961348533630371,
        0.029848098754882812,
        0.020093560218811035,
        0.010236620903015137,
        0.00021505355834960938,
        -0.009972095489501953,
        -0.020226001739501953,
        -0.030455946922302246,
        -0.04052531719207764,
        -0.050289154052734375,
        -0.05972552299499512,
        -0.06886005401611328,
        -0.07784080505371094,
        -0.0867767333984375,
        -0.09571337699890137,
        -0.1045914888381958,
        -0.11325192451477051,
        -0.12151956558227539,
        -0.12922298908233643,
        -0.1362835168838501,
        -0.14263927936553955,
        -0.1482940912246704,
        -0.1532684564590454,
        -0.15757524967193604,
        -0.16122519969940186,
        -0.1642622947692871,
        -0.16681206226348877,
        -0.16893625259399414,
        -0.17068421840667725,
        -0.17207610607147217,
        -0.17307233810424805,
        -0.17363691329956055,
        -0.1737598180770874,
        -0.17346549034118652,
        -0.17271947860717773,
        -0.17148637771606445,
        -0.16977882385253906,
        -0.16760897636413574,
        -0.16502392292022705,
        -0.16216707229614258,
        -0.1592104434967041,
        -0.15623486042022705,
        -0.15324032306671143,
        -0.1501682996749878,
        -0.14697551727294922,
        -0.14366364479064941,
        -0.14021897315979004,
        -0.13671469688415527,
        -0.13324189186096191,
        -0.12983334064483643,
        -0.12648701667785645,
        -0.12318646907806396,
        -0.11989593505859375,
        -0.11658215522766113,
        -0.11322450637817383,
        -0.10980117321014404,
        -0.10633063316345215,
        -0.10277009010314941,
        -0.09906196594238281,
        -0.09512495994567871,
        -0.09084725379943848,
        -0.08619320392608643,
        -0.08116018772125244,
        -0.07574772834777832,
        -0.06996405124664307,
        -0.0638279914855957,
        -0.05738401412963867,
        -0.05070388317108154,
        -0.043877243995666504,
        -0.03686964511871338,
        -0.029566407203674316,
        -0.021921396255493164,
        -0.013936519622802734,
        -0.005740642547607422,
        0.002494215965270996,
        0.010594964027404785,
        0.018350601196289062,
        0.025620341300964355,
        0.032303452491760254,
        0.03835153579711914,
        0.04381203651428223,
        0.04878711700439453,
        0.05340433120727539,
        0.05774569511413574,
        0.0618366003036499,
        0.06566691398620605,
        0.06917035579681396,
        0.07234203815460205,
        0.07526206970214844,
        0.07799792289733887,
        0.08058881759643555,
        0.08302938938140869,
        0.08532822132110596,
        0.08749306201934814,
        0.08949458599090576,
        0.09129893779754639,
        0.09285402297973633,
        0.09407222270965576,
        0.09488523006439209,
        0.09520912170410156,
        0.09495413303375244,
        0.09404194355010986,
        0.09246575832366943,
        0.0903468132019043,
        0.08780062198638916,
        0.08496463298797607,
        0.08192956447601318,
        0.07872426509857178,
        0.07540559768676758,
        0.0719749927520752,
        0.06843304634094238,
        0.06476032733917236,
        0.06087362766265869,
        0.05673205852508545,
        0.052332520484924316,
        0.047727346420288086,
        0.04300487041473389,
        0.03824615478515625,
        0.03349590301513672,
        0.02874135971069336,
        0.024009108543395996,
        0.019306421279907227,
        0.014646530151367188,
        0.010010123252868652,
        0.005287289619445801,
        0.00045299530029296875,
        -0.004498720169067383,
        -0.009496808052062988,
        -0.014434576034545898,
        -0.019288182258605957,
        -0.02406179904937744,
        -0.028815865516662598,
        -0.03360104560852051,
        -0.038417935371398926,
        -0.0432513952255249,
        -0.04804682731628418,
        -0.05280649662017822,
        -0.05752289295196533,
        -0.06214869022369385,
        -0.06665265560150146,
        -0.07101058959960938,
        -0.07518935203552246,
        -0.07914745807647705,
        -0.0828104019165039,
        -0.08608293533325195,
        -0.08889186382293701,
        -0.09117889404296875,
        -0.09295666217803955,
        -0.09428727626800537,
        -0.09519016742706299,
        -0.09563040733337402,
        -0.09557640552520752,
        -0.09496498107910156,
        -0.09374654293060303,
        -0.09195005893707275,
        -0.08963990211486816,
        -0.08688616752624512,
        -0.08372116088867188,
        -0.08011412620544434,
