{
    "in_shape": [
        null,
        null,
        1
    ],
    "layers": [
        {
            "type": "lstm",
            "activation": "",
            "shape": [
                null,
                null,
                40
            ],
            "weights": [
                [
                    [
                        -0.0022823885083198547,
                        -0.021688908338546753,
                        0.010623707436025143,
                        -0.018508000299334526,
                        0.031068196520209312,
                        -0.1252865493297577,
                        0.12371594458818436,
                        1.2082879038644023e-05,
                        0.0350894033908844,
                        -0.0335310697555542,
                        0.006056320853531361,
                        -1.7455224224249832e-05,
                        0.008363865315914154,
                        -0.007304290775209665,
                        -0.01980011537671089,
                        -0.020762650296092033,
                        -0.1269373744726181,
                        2.0759778635692783e-05,
                        -0.0005972451763227582,
                        0.009664143435657024,
                        -0.08837232738733292,
                        -0.009738919325172901,
                        0.009033707901835442,
                        3.2137147627508966e-06,
                        0.08391942828893661,
                        -0.00352715072222054,
                        0.04027688130736351,
                        -0.09304364770650864,
                        0.06998425722122192,
                        -0.024016547948122025,
                        1.4562511978510884e-06,
                        0.10048872977495193,
                        -0.03407086431980133,
                        -0.005934291519224644,
                        0.0330391526222229,
                        -0.013681042939424515,
                        -0.13057343661785126,
                        -0.02215615101158619,
                        0.028129367157816887,
                        0.03365615755319595,
                        0.0036175712011754513,
                        -0.02288045361638069,
                        0.02169572003185749,
                        -0.008218764327466488,
                        -0.09749167412519455,
                        -0.07525963336229324,
                        0.01656319387257099,
                        1.633383726584725e-05,
                        -0.09962641447782516,
                        -0.03306368365883827,
                        0.010390976443886757,
                        -3.056110654142685e-05,
                        0.03051993064582348,
                        0.03822344169020653,
                        -0.03474947437644005,
                        -0.019780857488512993,
                        -0.027575040236115456,
                        4.273569629731355e-06,
                        -0.07991088926792145,
                        0.11015266925096512,
                        0.08287296444177628,
                        -0.04401367902755737,
                        0.004053013864904642,
                        2.2029782940080622e-06,
                        0.08838177472352982,
                        -0.03814338892698288,
                        0.040595702826976776,
                        -0.12031092494726181,
                        -0.07969598472118378,
                        -0.04255092144012451,
                        5.303398253886371e-08,
                        0.038469746708869934,
                        -0.020093770697712898,
                        -0.18321795761585236,
                        -0.02839686907827854,
                        -0.079737089574337,
                        -0.017313363030552864,
                        -0.11782065033912659,
                        0.027498824521899223,
                        0.04447345435619354,
                        0.4213249683380127,
                        0.030287595465779305,
                        0.1602431982755661,
                        -0.45745304226875305,
                        -0.09338975697755814,
                        0.19927752017974854,
                        0.175706684589386,
                        -0.0005361923831515014,
                        -0.029210595414042473,
                        0.33221375942230225,
                        -0.1609163135290146,
                        0.0015049881767481565,
                        -0.23610630631446838,
                        -0.13235516846179962,
                        -0.0003508915251586586,
                        -0.02025076188147068,
                        0.09948514401912689,
                        0.00740550272166729,
                        0.2195795774459839,
                        0.295404314994812,
                        -4.448478698730469,
                        -0.02198610082268715,
                        -0.062319666147232056,
                        0.0003512552357278764,
                        0.05096513032913208,
                        1.440995454788208,
                        0.1383971869945526,
                        0.05645502358675003,
                        -0.027976790443062782,
                        -0.13390152156352997,
                        -0.0002061194827547297,
                        0.3663709759712219,
                        -0.1393093317747116,
                        0.42455199360847473,
                        -0.06343887001276016,
                        0.012983640655875206,
                        -0.7209392786026001,
                        -0.13413359224796295,
                        0.27405768632888794,
                        0.02204570174217224,
                        0.053585443645715714,
                        -0.019360598176717758,
                        0.0072421240620315075,
                        -0.05754262953996658,
                        0.0066711693070828915,
                        -0.019214367493987083,
                        -0.030427485704421997,
                        1.2541912838059943e-05,
                        0.013662229292094707,
                        -0.06696559488773346,
                        0.0231229979544878,
                        -1.823605634854175e-05,
                        0.012201155535876751,
                        -0.041522130370140076,
                        -0.04630444198846817,
                        -0.016773318871855736,
                        0.1656852513551712,
                        5.870494533155579e-06,
                        -0.0022082768846303225,
                        -0.1229141429066658,
                        0.007295551709830761,
                        -0.06587565690279007,
                        -0.03861597925424576,
                        3.05712615045195e-06,
                        0.10781650245189667,
                        -0.013210177421569824,
                        0.051588673144578934,
                        -0.08934658020734787,
                        0.20196203887462616,
                        -0.013168015517294407,
                        1.7700709804557846e-06,
                        0.12695932388305664,
                        -0.03309495374560356,
                        -0.030060233548283577,
                        -0.04914223775267601,
                        0.048057109117507935,
                        -0.13029365241527557,
                        -0.10110022872686386,
                        0.04028312489390373,
                        0.05240366980433464
                    ]
                ],
                [
                    [
                        -0.01449374109506607,
                        0.10006212443113327,
                        -0.02427292801439762,
                        -0.12455755472183228,
                        -0.212515726685524,
                        -0.013900929130613804,
                        0.3657934069633484,
                        5.9386798966443166e-05,
                        0.029227230697870255,
                        0.3207821547985077,
                        -0.0366288460791111,
                        4.5020417019259185e-05,
                        -0.03701617568731308,
                        -0.21090301871299744,
                        -0.14871647953987122,
                        0.016101118177175522,
                        0.34809377789497375,
                        -0.0005383844836615026,
                        -0.1254696398973465,
                        -0.08108210563659668,
                        0.036233045160770416,
                        0.00866736937314272,
                        -0.023975277319550514,
                        3.8167454476933926e-05,
                        0.3825889229774475,
                        -0.17135778069496155,
                        0.009731486439704895,
                        0.10203634202480316,
                        0.2709834575653076,
                        0.01088063046336174,
                        2.9829712730133906e-05,
                        0.5146316289901733,
                        0.005537808872759342,
                        -0.001464651431888342,
                        0.1834971308708191,
                        0.3617839813232422,
                        0.20349691808223724,
                        0.16289742290973663,
                        -0.06459169089794159,
                        0.017614061012864113,
                        0.022112242877483368,
                        0.15798579156398773,
                        -0.017573483288288116,
                        -0.15410161018371582,
                        -0.19811797142028809,
                        -0.04304378852248192,
                        -0.27712270617485046,
                        6.732690235367045e-05,
                        -0.293448805809021,
                        -0.34187230467796326,
                        -0.025070028379559517,
                        3.486368586891331e-05,
                        -0.044023822993040085,
                        -0.08357177674770355,
                        0.006928039714694023,
                        -0.09028713405132294,
                        -0.5751749873161316,
                        -0.0006719917873851955,
                        -0.07813920825719833,
                        -0.07329981029033661,
                        0.019126344472169876,
                        -0.07392580062150955,
                        -0.11695809662342072,
                        4.2932788346661255e-05,
                        -0.2047884315252304,
                        -0.19268523156642914,
                        0.01412198692560196,
                        0.07180733233690262,
                        -0.33004245162010193,
                        -0.009504113346338272,
                        3.59609148290474e-05,
                        -0.2520710825920105,
                        0.007497709710150957,
                        -0.3082057535648346,
                        -0.15845468640327454,
                        -0.3193781077861786,
                        -0.19389167428016663,
                        -0.3909919857978821,
                        -0.1815919429063797,
                        -0.0696253851056099,
                        0.18352171778678894,
                        -0.45172950625419617,
                        -0.028514603152871132,
                        -0.31584596633911133,
                        -0.1011594831943512,
                        -0.14074544608592987,
                        0.04514231160283089,
                        -0.0010431903647258878,
                        -0.4889147877693176,
                        0.10653210431337357,
                        0.15385079383850098,
                        -0.0020131028722971678,
                        -0.019270597025752068,
                        0.08321259915828705,
                        -0.17174062132835388,
                        0.028994563966989517,
                        0.24161793291568756,
                        0.0024170756805688143,
                        0.10312789678573608,
                        0.01052954699844122,
                        0.05778757855296135,
                        0.026357602328062057,
                        0.053163040429353714,
                        0.0018268882995471358,
                        -0.19721737504005432,
                        -0.07990367710590363,
                        -0.009541434235870838,
                        -0.15660852193832397,
                        -0.11653108149766922,
                        0.02356155402958393,
                        0.0005353593151085079,
                        0.007901190780103207,
                        -0.006346497684717178,
                        0.12681007385253906,
                        0.054244671016931534,
                        -0.15542252361774445,
                        -0.1354016810655594,
                        -0.12776216864585876,
                        -0.026096336543560028,
                        0.013941727578639984,
                        0.12967902421951294,
                        0.1222970113158226,
                        -0.02064814791083336,
                        -0.10879401862621307,
                        -0.08337822556495667,
                        -0.2647135555744171,
                        -0.0970335304737091,
                        6.0384267271729186e-05,
                        -0.3779323995113373,
                        -0.05437856912612915,
                        0.0030206411611288786,
                        4.534834806690924e-05,
                        -0.05059368535876274,
                        -0.05450577661395073,
                        0.11636586487293243,
                        -0.009425966069102287,
                        -0.1456083506345749,
                        -0.0005617050919681787,
                        -0.1462925672531128,
                        -0.15102757513523102,
                        -0.16250216960906982,
                        -0.07916315644979477,
                        -0.0026063835248351097,
                        3.858878699247725e-05,
                        0.007225944194942713,
                        -0.18126390874385834,
                        0.057952556759119034,
                        0.0723712369799614,
                        -0.07131729274988174,
                        0.0034336212556809187,
                        3.0265769964898936e-05,
                        -0.0009596518357284367,
                        0.002276443177834153,
                        -0.36923444271087646,
                        -0.020361600443720818,
                        -0.026855159550905228,
                        -0.04931194335222244,
                        -0.19542956352233887,
                        -0.091606505215168,
                        0.02957693301141262
                    ],
                    [
                        -0.05447518453001976,
                        -0.010477469302713871,
                        0.0105297164991498,
                        0.03217388316988945,
                        -0.00756708113476634,
                        -0.05203961580991745,
                        -0.013861553743481636,
                        1.2151101145718712e-05,
                        -0.11832471936941147,
                        -0.3292195796966553,
                        -0.024491099640727043,
                        7.733226993877906e-06,
                        0.041556864976882935,
                        -0.004181885626167059,
                        -0.0177646204829216,
                        0.003639308037236333,
                        0.27803221344947815,
                        3.921529059880413e-05,
                        -0.012678882107138634,
                        -0.005894251633435488,
                        0.13686981797218323,
                        -0.00982627458870411,
                        0.01150788925588131,
                        -1.1866891327372286e-06,
                        -0.08054719865322113,
                        -0.00432366831228137,
                        -0.016556033864617348,
                        -0.08204212784767151,
                        0.11246839165687561,
                        0.018293211236596107,
                        1.9706258171936497e-06,
                        -0.09035941958427429,
                        0.017478957772254944,
                        -0.08124040067195892,
                        -0.008253201842308044,
                        -0.11872784793376923,
                        -0.020812781527638435,
                        0.2908172309398651,
                        -0.004885279573500156,
                        -0.00916779413819313,
                        -0.10610658675432205,
                        -0.005126136355102062,
                        0.0057301754131913185,
                        0.04994099959731102,
                        0.31472018361091614,
                        -0.13492977619171143,
                        -0.1110139936208725,
                        1.0140679478354286e-05,
                        0.04601578041911125,
                        -0.04896584525704384,
                        -0.028868023306131363,
                        4.935897777613718e-06,
                        0.05535750463604927,
                        -0.05932370573282242,
                        -0.07562242448329926,
                        0.0076478333212435246,
                        -0.07050692290067673,
                        5.377010165830143e-05,
                        -0.034466881304979324,
                        -0.04412668198347092,
                        0.0019045821391046047,
                        0.0023323092609643936,
                        0.0018507804488763213,
                        -1.1930692380701657e-06,
                        0.005884786136448383,
                        0.11763030290603638,
                        -0.023142758756875992,
                        -0.11386094987392426,
                        -0.01454276405274868,
                        0.0005177673883736134,
                        1.570651193105732e-06,
                        -0.05246299132704735,
                        0.013577093370258808,
                        0.15455010533332825,
                        -0.14930491149425507,
                        -0.14403578639030457,
                        -0.025533001869916916,
                        0.024652037769556046,
                        0.02857351116836071,
                        -0.014741591177880764,
                        0.15953761339187622,
                        0.18786323070526123,
                        -0.03944307193160057,
                        0.016576532274484634,
                        0.25071829557418823,
                        -0.017626263201236725,
                        0.05621913820505142,
                        -0.0010923049412667751,
                        0.37239134311676025,
                        -0.08757445961236954,
                        -0.036337729543447495,
                        -0.0006664365064352751,
                        -0.0279737189412117,
                        0.07472783327102661,
                        -0.07475122064352036,
                        0.053348127752542496,
                        -0.19064883887767792,
                        -0.005143262445926666,
                        0.12647868692874908,
                        -0.015331832692027092,
                        0.008219975046813488,
                        0.06169511750340462,
                        -0.06952499598264694,
                        0.001175182405859232,
                        -0.08923408389091492,
                        0.056302789598703384,
                        0.01311783492565155,
                        0.016111018136143684,
                        0.060657303780317307,
                        0.04119366407394409,
                        -0.0009849044727161527,
                        -0.007984735071659088,
                        -0.044258907437324524,
                        0.06007515266537666,
                        0.018182115629315376,
                        0.062211211770772934,
                        -0.08033519238233566,
                        0.08437009155750275,
                        0.0597902350127697,
                        0.022532951086759567,
                        -0.11194784194231033,
                        -0.0221122894436121,
                        0.008130621165037155,
                        0.03315664455294609,
                        0.11395689100027084,
                        -0.051694538444280624,
                        0.006602893583476543,
                        1.245374369318597e-05,
                        0.14595024287700653,
                        -0.058339472860097885,
                        -0.03144930675625801,
                        8.264384632639121e-06,
                        0.05085503309965134,
                        -0.08620104193687439,
                        -0.13048456609249115,
                        0.007994475774466991,
                        -0.022981755435466766,
                        -9.473352292843629e-06,
                        -0.0048952787183225155,
                        -0.08520897477865219,
                        -0.01377038098871708,
                        -0.08153381198644638,
                        -0.046367231756448746,
                        -1.2320177802394028e-06,
                        -0.08908679336309433,
                        -0.010678640566766262,
                        -0.03260725364089012,
                        -0.06901000440120697,
                        0.02780500240623951,
                        -0.015753185376524925,
                        2.3438692551280838e-06,
                        -0.05388413369655609,
                        0.017872843891382217,
                        0.21885862946510315,
                        -0.042495276778936386,
                        -0.03938603028655052,
                        -0.004643293563276529,
                        0.016245340928435326,
                        0.00719423359259963,
                        -0.030067604035139084
                    ],
                    [
                        -0.011521111242473125,
                        -0.01823996938765049,
                        0.05077478662133217,
                        0.05304062366485596,
                        -0.0859312042593956,
                        0.1839311718940735,
                        0.12353348731994629,
                        -1.2749630514008459e-05,
                        0.009494938887655735,
                        0.058266639709472656,
                        0.008410139009356499,
                        1.0375260899309069e-05,
                        -0.02041531540453434,
                        -0.025776369497179985,
                        0.02247161790728569,
                        -0.011081830598413944,
                        0.11001349240541458,
                        6.523088086396456e-05,
                        0.006319795269519091,
                        0.032346680760383606,
                        0.00867884885519743,
                        0.105415478348732,
                        0.008394552394747734,
                        2.761400310191675e-06,
                        0.049697231501340866,
                        -0.04883447661995888,
                        0.02436956949532032,
                        0.040967900305986404,
                        0.29348310828208923,
                        -0.019602488726377487,
                        -1.3700715726372437e-06,
                        0.06777780503034592,
                        -0.007029109634459019,
                        -0.03948211669921875,
                        -0.10193383693695068,
                        0.02605794370174408,
                        -0.048527274280786514,
                        0.10427805036306381,
                        -0.020327704027295113,
                        0.03129526227712631,
                        0.0007472975994460285,
                        -0.020651180297136307,
                        0.06977377086877823,
                        -0.08633671700954437,
                        0.13694365322589874,
                        0.15264542400836945,
                        -0.03551913797855377,
                        -1.3758926797891036e-05,
                        -0.03146324306726456,
                        0.12166960537433624,
                        0.01641051284968853,
                        1.0240592018817551e-05,
                        -0.030921347439289093,
                        0.09127994626760483,
                        0.04249134287238121,
                        0.029133383184671402,
                        0.024408584460616112,
                        0.00016129540745168924,
                        -0.031880877912044525,
                        0.05691053718328476,
                        -0.087742380797863,
                        0.1796901673078537,
                        0.019327936694025993,
                        3.6316287150839344e-06,
                        -0.036627449095249176,
                        0.019081497564911842,
                        0.015674728900194168,
                        0.03542834520339966,
                        -0.00574500160291791,
                        0.0554838702082634,
                        -1.9686390260176267e-06,
                        0.01568036712706089,
                        0.0003987326053902507,
                        -0.27446579933166504,
                        0.015140322968363762,
                        0.030909130349755287,
                        0.11038901656866074,
                        -0.49127885699272156,
                        -0.006088023539632559,
                        0.029221633449196815,
                        -0.005654850509017706,
                        -0.017816927284002304,
                        0.15621796250343323,
                        0.04819415509700775,
                        -0.21525749564170837,
                        -0.12716704607009888,
                        -0.015408951789140701,
                        -0.0006311422912403941,
                        0.04128497838973999,
                        -0.08344452828168869,
                        -0.05380513519048691,
                        -0.00014572769578080624,
                        -0.11531063914299011,
                        -0.1949615776538849,
                        0.06500828266143799,
                        -0.03388112038373947,
                        -0.07109303027391434,
                        -0.013765967451035976,
                        -0.1799974888563156,
                        0.12237240374088287,
                        -0.0092575429007411,
                        0.10817523300647736,
                        0.006934937089681625,
                        -0.0005594959366135299,
                        0.094786137342453,
                        0.10786370187997818,
                        0.04687998443841934,
                        -0.05189363658428192,
                        -0.14672982692718506,
                        0.18184520304203033,
                        -0.0006276952335610986,
                        0.03879047557711601,
                        -0.09177593141794205,
                        -0.13180206716060638,
                        -0.05664868652820587,
                        0.04996701702475548,
                        -0.13424290716648102,
                        0.06076713651418686,
                        0.13709227740764618,
                        0.09446202963590622,
                        -0.07234018296003342,
                        -0.018187733367085457,
                        0.07599622011184692,
                        0.05949237570166588,
                        0.10561297088861465,
                        -0.015915196388959885,
                        0.014385842718183994,
                        -1.0932554687315132e-05,
                        -0.009615186601877213,
                        -0.10687948763370514,
                        0.0282930675894022,
                        1.2513683032011613e-05,
                        -0.01119623240083456,
                        -0.00847935676574707,
                        -0.016303788870573044,
                        0.005559117067605257,
                        -0.026216719299554825,
                        0.00012433837400749326,
                        0.00143449567258358,
                        -0.03287114202976227,
                        -0.007965381257236004,
                        0.012675457634031773,
                        0.0022575664333999157,
                        4.3087470658065286e-06,
                        -0.11135154217481613,
                        -0.0071746534667909145,
                        0.010758301243185997,
                        0.029053842648863792,
                        -0.05392056703567505,
                        -0.017246397212147713,
                        -1.7074980860343203e-06,
                        -0.10037609189748764,
                        -0.004502929747104645,
                        -0.002592683769762516,
                        0.0750197321176529,
                        -0.08714112639427185,
                        0.07584855705499649,
                        -0.1877325177192688,
                        -0.041429098695516586,
                        0.026454780250787735
                    ],
                    [
                        -0.03870768845081329,
                        -0.02767750807106495,
                        0.11596900224685669,
                        0.00359438662417233,
                        -0.28980553150177,
                        0.26147928833961487,
                        0.20523440837860107,
                        2.1458215996972285e-05,
                        -0.19513995945453644,
                        0.3006095588207245,
                        -0.057903390377759933,
                        7.273562914633658e-06,
                        -0.032229021191596985,
                        -0.12774069607257843,
                        -0.04894503578543663,
                        -0.020460020750761032,
                        0.49848684668540955,
                        -0.0004840264155063778,
                        0.005742300301790237,
                        -0.002781426999717951,
                        0.011725588701665401,
                        -0.02678711712360382,
                        0.0037641585804522038,
                        1.5476192857022397e-05,
                        0.08424999564886093,
                        -0.09669718146324158,
                        0.003055234206840396,
                        0.0028429999947547913,
                        0.18522194027900696,
                        -0.05473637208342552,
                        1.553335891912866e-06,
                        0.013967817649245262,
                        -0.014368180185556412,
                        -0.24181783199310303,
                        -0.0631316602230072,
                        0.12380804866552353,
                        -0.038315728306770325,
                        0.5051758289337158,
                        0.041277170181274414,
                        0.014742422848939896,
                        0.031941648572683334,
                        -0.018485521897673607,
                        0.10193776339292526,
                        -0.009772222489118576,
                        0.27816975116729736,
                        0.05881624296307564,
                        -0.03542718663811684,
                        2.916274024755694e-05,
                        -0.15037743747234344,
                        -0.10579264163970947,
                        -0.058642417192459106,
                        1.3396806934906635e-05,
                        -0.04057227820158005,
                        0.041356928646564484,
                        -0.09983734041452408,
                        0.015992801636457443,
                        -0.27223867177963257,
                        -0.00011659946903819218,
                        -0.047048427164554596,
                        -0.15772682428359985,
                        -0.19784297049045563,
                        -0.07185233384370804,
                        0.009606780484318733,
                        1.8033837477560155e-05,
                        -0.0100487619638443,
                        -0.010939414612948895,
                        -0.006785774603486061,
                        -0.05072477087378502,
                        -0.41201335191726685,
                        -0.019970735535025597,
                        1.6918688743317034e-06,
                        0.0028254645876586437,
                        -0.00010650230979081243,
                        -0.29878881573677063,
                        -0.09112466126680374,
                        -0.10444573312997818,
                        0.05590148642659187,
                        -0.6031057834625244,
                        0.08516804873943329,
                        -0.01970656029880047,
                        -0.02158447355031967,
                        0.15578922629356384,
                        0.19851438701152802,
                        -0.041258856654167175,
                        -0.5179620981216431,
                        -0.07324553281068802,
                        -0.015150834806263447,
                        -0.0017585712485015392,
                        0.3832557499408722,
                        0.024174697697162628,
                        -0.027404945343732834,
                        -0.0024013365618884563,
                        0.07960132509469986,
                        -0.4269999861717224,
                        -0.143628790974617,
                        -0.11980872601270676,
                        -0.0787913054227829,
                        0.003907545004040003,
                        0.09141623973846436,
                        -0.20325420796871185,
                        -0.015113869681954384,
                        -0.1408548653125763,
                        0.009821291081607342,
                        0.002196541056036949,
                        0.004938780330121517,
                        -0.11617577075958252,
                        0.1401994526386261,
                        0.10785757005214691,
                        -0.12952741980552673,
                        0.023295024409890175,
                        0.00028782684239558876,
                        -0.05026689171791077,
                        0.0673879086971283,
                        -0.5184929370880127,
                        -0.011898287571966648,
                        -0.07244883477687836,
                        0.007097454275935888,
                        0.5322992205619812,
                        0.11248613893985748,
                        0.030230751261115074,
                        -0.015810983255505562,
                        -0.027906173840165138,
                        0.1569189578294754,
                        0.06541988998651505,
                        0.05811862647533417,
                        -0.026107443496584892,
                        -0.06043100357055664,
                        2.1608320821542293e-05,
                        -0.18848134577274323,
                        -0.1474665105342865,
                        0.030284279957413673,
                        6.573668542841915e-06,
                        -0.008957927115261555,
                        -0.462924599647522,
                        0.06267686188220978,
                        -0.035145942121744156,
                        -0.10032380372285843,
                        -0.0004425532533787191,
                        -0.009446434676647186,
                        -0.047443557530641556,
                        -0.06008584424853325,
                        -0.15231360495090485,
                        -0.03458482027053833,
                        1.5893279851297848e-05,
                        -0.028889287263154984,
                        -0.01799784228205681,
                        -0.011597992852330208,
                        -0.02776060253381729,
                        -0.21041221916675568,
                        -0.034238021820783615,
                        1.915833991006366e-06,
                        -0.026469087228178978,
                        -0.006415400188416243,
                        -0.20290865004062653,
                        -0.06803542375564575,
                        -0.19741326570510864,
                        -0.0002404252882115543,
                        -0.2989691495895386,
                        -0.010666531510651112,
                        -0.015525469556450844
                    ],
                    [
                        -0.0010708807967603207,
                        0.020839719101786613,
                        0.026247521862387657,
                        0.25437620282173157,
                        0.08269226551055908,
                        -0.16222627460956573,
                        0.026454975828528404,
                        3.149292524540215e-06,
                        -0.1503113955259323,
                        0.05942104384303093,
                        0.07482177019119263,
                        -9.0442727014306e-06,
                        0.02383086085319519,
                        0.08502444624900818,
                        0.10448029637336731,
                        -0.1502770185470581,
                        -0.42914891242980957,
                        9.223414963344112e-05,
                        0.022036034613847733,
                        -0.013012334704399109,
                        0.038088638335466385,
                        0.12569981813430786,
                        -0.020754992961883545,
                        -1.6152283706105663e-06,
                        -0.06996983289718628,
                        0.0013990614097565413,
                        0.04311526566743851,
                        0.07567345350980759,
                        -0.016188373789191246,
                        -0.17408806085586548,
                        6.093627234804444e-06,
                        -0.0018220465863123536,
                        0.05742856487631798,
                        0.5712426900863647,
                        0.001872992143034935,
                        0.004374164622277021,
                        0.10623877495527267,
                        -0.23094341158866882,
                        -0.009383664466440678,
                        -0.06354857236146927,
                        -0.008598323911428452,
                        0.03719931095838547,
                        0.025071589276194572,
                        0.05226593837141991,
                        0.9668927788734436,
                        0.03255827724933624,
                        0.11150913685560226,
                        -3.958579327445477e-06,
                        -0.11920738965272903,
                        0.05386380851268768,
                        0.11268305033445358,
                        -2.0718058294733055e-05,
                        0.051586002111434937,
                        -0.39524558186531067,
                        0.022668717429041862,
                        -0.09405747056007385,
                        0.058140624314546585,
                        -0.00028604399994947016,
                        -0.08662763237953186,
                        0.042840179055929184,
                        -0.019680481404066086,
                        0.18491391837596893,
                        -0.052995599806308746,
                        -2.775747589112143e-06,
                        -0.01329426933079958,
                        0.1044052317738533,
                        0.056761279702186584,
                        0.08917009830474854,
                        0.30881360173225403,
                        -0.10662458837032318,
                        1.0834344720933586e-05,
                        -0.04265373945236206,
                        0.02028246782720089,
                        0.5703610777854919,
                        -0.30808281898498535,
                        0.04587888345122337,
                        -0.0467664860188961,
                        0.28234627842903137,
                        0.008590465411543846,
                        -0.04183657094836235,
                        -0.029257960617542267,
                        -0.014444894157350063,
                        0.16752150654792786,
                        0.06657066196203232,
                        -0.4603283703327179,
                        0.13601598143577576,
                        0.35194718837738037,
                        0.0008966621244326234,
                        0.15311363339424133,
                        -0.034034278243780136,
                        0.07596123963594437,
                        0.0018637297907844186,
                        0.013336814008653164,
                        1.2977216243743896,
                        -0.5358579754829407,
                        -0.18528419733047485,
                        -0.2806270122528076,
                        0.02225826121866703,
                        0.06104666739702225,
                        -0.1755831241607666,
                        -0.005713266786187887,
                        -0.05918943136930466,
                        0.10857170075178146,
                        7.10922249709256e-05,
                        0.09905391186475754,
                        0.05049639195203781,
                        0.010105444118380547,
                        -0.006904889829456806,
                        -0.06920962780714035,
                        0.32857072353363037,
                        0.0004065457032993436,
                        -0.049531929194927216,
                        0.13186143338680267,
                        -0.048123762011528015,
                        -0.3164893388748169,
                        0.02097829058766365,
                        0.0912509635090828,
                        0.11721493303775787,
                        -0.05980762466788292,
                        -0.03735480085015297,
                        0.1347823590040207,
                        0.028188496828079224,
                        0.045984234660863876,
                        0.14343532919883728,
                        0.2697226405143738,
                        -0.05743083357810974,
                        0.13527564704418182,
                        7.97220036474755e-06,
                        -0.002852181438356638,
                        0.01257424894720316,
                        0.12507301568984985,
                        -8.094787517620716e-06,
                        -0.04324190318584442,
                        1.6284425258636475,
                        -0.44629761576652527,
                        -0.12079820036888123,
                        0.013463779352605343,
                        -0.0002605081826914102,
                        -0.000598425162024796,
                        0.20844073593616486,
                        0.14103229343891144,
                        0.012020769529044628,
                        -0.10973524302244186,
                        9.446102353649621e-07,
                        0.09489293396472931,
                        0.042112454771995544,
                        0.07496310025453568,
                        0.057214148342609406,
                        0.21421487629413605,
                        -0.13745945692062378,
                        4.236009772284888e-06,
                        -0.020290739834308624,
                        0.04532336816191673,
                        0.6800492405891418,
                        -0.061412569135427475,
                        0.009110258892178535,
                        0.09324663877487183,
                        -0.023997962474822998,
                        0.004429790191352367,
                        -0.11032044142484665
                    ],
                    [
                        0.14342202246189117,
                        0.022679684683680534,
                        0.037346042692661285,
                        0.25211164355278015,
                        0.4759294092655182,
                        0.06399928033351898,
                        -0.4680325984954834,
                        -9.779319952940568e-05,
                        -0.021637804806232452,
                        -0.7400590181350708,
                        -0.015052725560963154,
                        -0.00011457243090262637,
                        0.028825363144278526,
                        0.3827863931655884,
                        0.28382956981658936,
                        -0.062387630343437195,
                        -0.7642014026641846,
                        0.0011048013111576438,
                        0.20398713648319244,
                        0.09383798390626907,
                        0.32537275552749634,
                        -0.11356880515813828,
                        0.07023385167121887,
                        -5.9642734413500875e-05,
                        -0.30877119302749634,
                        0.44505754113197327,
                        0.0026586330495774746,
                        -0.06643474847078323,
                        -0.716265082359314,
                        -0.014331873506307602,
                        -3.87193140340969e-05,
                        -0.40700721740722656,
                        -0.07268168777227402,
                        0.11404263973236084,
                        -0.2862990200519562,
                        -0.6714224219322205,
                        -0.47905927896499634,
                        -0.552035391330719,
                        0.08016855269670486,
                        0.01913185603916645,
                        -0.023465275764465332,
                        0.010167604312300682,
                        0.06658913195133209,
                        0.21335458755493164,
                        0.15857797861099243,
                        0.1052222028374672,
                        0.6540599465370178,
                        -0.00010102138912770897,
                        0.29464659094810486,
                        0.7104828357696533,
                        0.019574632868170738,
                        -8.682293992023915e-05,
                        0.04623556509613991,
                        -0.15393352508544922,
                        0.0252031572163105,
                        0.1707729548215866,
                        0.5157002806663513,
                        0.0010446192463859916,
                        0.11209634691476822,
                        0.12999017536640167,
                        0.1440260410308838,
                        0.06564386188983917,
                        0.2463231086730957,
                        -6.12082367297262e-05,
                        0.8113985061645508,
                        0.2530253231525421,
                        0.007511207368224859,
                        0.09017759561538696,
                        0.47223058342933655,
                        -0.01749047450721264,
                        -3.9275266317417845e-05,
                        0.8027653694152832,
                        -0.06293170154094696,
                        0.10193124413490295,
                        0.3857680559158325,
                        0.6353909373283386,
                        0.40662187337875366,
                        0.6686933040618896,
                        0.21117323637008667,
                        0.2046998143196106,
                        0.10875929147005081,
                        0.17027203738689423,
                        0.008375073783099651,
                        -0.010822173207998276,
                        -0.005721874535083771,
                        0.3266415297985077,
                        0.09560305625200272,
                        0.0005764042725786567,
                        -0.06644976139068604,
                        0.12587429583072662,
                        0.18221834301948547,
                        -0.0012003094889223576,
                        -0.1268894076347351,
                        -0.09323170781135559,
                        -0.012895917519927025,
                        -0.09396098554134369,
                        0.09950504451990128,
                        -0.004830814432352781,
                        0.10075382143259048,
                        -0.06497076898813248,
                        -0.05029718205332756,
                        -0.22042421996593475,
                        -0.11925924569368362,
                        0.0015389879699796438,
                        0.04189498350024223,
                        -0.19156816601753235,
                        0.2161242514848709,
                        0.04594852402806282,
                        -0.4259570240974426,
                        0.013094790279865265,
                        -0.003119681030511856,
                        -0.10548403859138489,
                        0.012371527962386608,
                        -0.010819264687597752,
                        -0.00528899859637022,
                        -0.1475176364183426,
                        -0.040506210178136826,
                        0.043697159737348557,
                        0.09012578427791595,
                        0.13803733885288239,
                        -0.14667044579982758,
                        0.04682217538356781,
                        0.0030216847080737352,
                        0.30395573377609253,
                        0.03155563399195671,
                        0.313987135887146,
                        0.25258755683898926,
                        -9.720985690364614e-05,
                        0.30745193362236023,
                        0.2886720597743988,
                        -0.006634473334997892,
                        -0.00011469600576674566,
                        0.046768203377723694,
                        0.03688785433769226,
                        -0.1919342577457428,
                        -0.022383425384759903,
                        0.13738559186458588,
                        0.0011399779468774796,
                        0.24978628754615784,
                        0.15133503079414368,
                        0.37105971574783325,
                        -0.02375570870935917,
                        0.1252179741859436,
                        -5.978041735943407e-05,
                        0.0204668827354908,
                        0.40329623222351074,
                        -0.024691851809620857,
                        -0.015698783099651337,
                        0.2893155515193939,
                        0.06321360170841217,
                        -3.942881085094996e-05,
                        0.02203270047903061,
                        -0.06367326527833939,
                        0.46120163798332214,
                        -0.1107037290930748,
                        -0.019163919612765312,
                        0.10487186163663864,
                        0.35131603479385376,
                        0.19924655556678772,
                        0.041630156338214874
                    ],
                    [
                        0.024552984163165092,
                        -0.028140725567936897,
                        0.04778696224093437,
                        0.039066825062036514,
                        0.16991320252418518,
                        0.07341192662715912,
                        0.0308232344686985,
                        -4.2553991079330444e-05,
                        -0.10078985244035721,
                        -0.12809845805168152,
                        0.1365993618965149,
                        -3.0606486689066514e-05,
                        0.054293759167194366,
                        0.11926458775997162,
                        0.09738774597644806,
                        -0.04158741980791092,
                        -0.05320912227034569,
                        0.0003562750353012234,
                        0.08696221560239792,
                        0.06453048437833786,
                        0.17441968619823456,
                        0.08422189950942993,
                        0.0217189472168684,
                        -2.7120860977447592e-05,
                        -0.16634567081928253,
                        0.1256144791841507,
                        0.02651512250304222,
                        -0.04877942055463791,
                        -0.17040881514549255,
                        0.08130469173192978,
                        -2.0540890545817092e-05,
                        -0.08444392681121826,
                        -0.03057122603058815,
                        0.07980821281671524,
                        -0.05082060769200325,
                        -0.021817578002810478,
                        -0.11114318668842316,
                        -0.006394967436790466,
                        0.0294552743434906,
                        0.03839549794793129,
                        0.005124913528561592,
                        -0.06016233563423157,
                        0.06263977289199829,
                        0.00481919152662158,
                        -0.09109409153461456,
                        0.17526425421237946,
                        0.16981057822704315,
                        -4.9868409405462444e-05,
                        0.08026579022407532,
                        0.23545704782009125,
                        0.18665629625320435,
                        -2.2287156753009185e-05,
                        0.07234904170036316,
                        -0.011307951994240284,
                        0.11397338658571243,
                        0.01891900785267353,
                        0.1355757862329483,
                        0.0006365465233102441,
                        -0.0301786158233881,
                        0.11603517085313797,
                        0.20506218075752258,
                        0.1563108265399933,
                        0.060329753905534744,
                        -3.0424991564359516e-05,
                        0.08308137208223343,
                        0.07931443303823471,
                        0.0223041120916605,
                        -0.03357565030455589,
                        0.156243234872818,
                        0.051678065210580826,
                        -2.5661121981102042e-05,
                        0.1313624083995819,
                        -0.019213490188121796,
                        0.05952926352620125,
                        0.29583796858787537,
                        0.33075299859046936,
                        0.22634631395339966,
                        -0.0036318833008408546,
                        0.07991324365139008,
                        0.09566961973905563,
                        -0.12169527262449265,
                        0.08672364056110382,
                        0.042015306651592255,
                        0.15451210737228394,
                        -0.2814902067184448,
                        0.03243821859359741,
                        0.24126671254634857,
                        -0.0016574582550674677,
                        0.1554136723279953,
                        0.4651513993740082,
                        0.2384926825761795,
                        0.0003419105487409979,
                        0.11869214475154877,
                        -0.32671353220939636,
                        0.01080190297216177,
                        -0.018132058903574944,
                        0.10096198320388794,
                        0.020207000896334648,
                        0.042666956782341,
                        0.08153804391622543,
                        0.1866246461868286,
                        -0.005980597343295813,
                        -0.07692696899175644,
                        -0.00013487653632182628,
                        0.01692216843366623,
                        -0.48240745067596436,
                        -0.005353892687708139,
                        0.17790475487709045,
                        -0.011041956953704357,
                        0.30684608221054077,
                        0.0018973263213410974,
                        -0.03285650536417961,
                        0.17206653952598572,
                        -0.26201456785202026,
                        0.41097334027290344,
                        0.17414140701293945,
                        0.12145813554525375,
                        0.034211307764053345,
                        -0.19477763772010803,
                        -0.051066525280475616,
                        -0.08388106524944305,
                        -0.020716333761811256,
                        0.050461336970329285,
                        -0.06794160604476929,
                        -0.005591763649135828,
                        0.06617255508899689,
                        0.292137086391449,
                        -4.207516394671984e-05,
                        0.09658504277467728,
                        0.02735990099608898,
                        0.14233076572418213,
                        -3.0405457437154837e-05,
                        0.06709357351064682,
                        -0.2326844334602356,
                        0.013619414530694485,
                        -0.03207869827747345,
                        0.1015879213809967,
                        0.00038141521508805454,
                        0.10379035770893097,
                        -0.06392468512058258,
                        0.21246874332427979,
                        -0.027698341757059097,
                        -0.05257659777998924,
                        -2.722715180425439e-05,
                        -0.09171755611896515,
                        0.140614852309227,
                        0.01843470148742199,
                        -0.03437267988920212,
                        0.2696818709373474,
                        0.08059348911046982,
                        -2.0779561964445747e-05,
                        0.019397536292672157,
                        -0.028492845594882965,
                        0.15161290764808655,
                        0.06371617317199707,
                        -0.06641308218240738,
                        -0.09889572858810425,
                        0.04133111983537674,
                        0.05585818737745285,
                        0.0458824448287487
                    ],
                    [
                        -0.00010108095739269629,
                        -1.0198755262535997e-05,
                        0.00010052897414425388,
                        0.0005077442619949579,
                        1.0104146895173471e-05,
                        4.345810793893179e-06,
                        -9.11236202227883e-05,
                        8.196426648510169e-08,
                        0.00022300427372101694,
                        0.0006884320173412561,
                        -0.00039409915916621685,
                        -8.772775572651881e-08,
                        -0.0006030596559867263,
                        0.00014250651292968541,
                        0.0006156308227218688,
                        -0.0003079684101976454,
                        0.0017307623056694865,
                        4.762660410051467e-06,
                        0.00021388506866060197,
                        0.00023480772506445646,
                        0.0005356335313990712,
                        -0.0004058671183884144,
                        0.00046588509576395154,
                        4.342555648406687e-09,
                        -0.0007405016804113984,
                        0.0002799155190587044,
                        0.0004610498435795307,
                        -0.00012908618373330683,
                        -0.0007566338172182441,
                        -5.240768223302439e-05,
                        7.605743235217233e-08,
                        -0.0008854961488395929,
                        7.296830153791234e-05,
                        -0.00044133354094810784,
                        0.0002620930608827621,
                        0.0001512333983555436,
                        0.00045161115122027695,
                        0.0003050879458896816,
                        0.000737608119379729,
                        0.0005634361295960844,
                        -0.0001843328936956823,
                        -0.00013267087342683226,
                        0.0005160100990906358,
                        0.0007098021451383829,
                        -0.0015387906460091472,
                        0.0003562142956070602,
                        -0.00038859134656377137,
                        7.221373010679599e-08,
                        0.0007797360885888338,
                        0.0008328547119162977,
                        -0.0005179511499591172,
                        -4.0274876766943635e-08,
                        -0.0008208108483813703,
                        0.000573030614759773,
                        0.00038423301884904504,
                        -0.00047693055239506066,
                        -4.2133986426051706e-05,
                        1.0253568234475097e-06,
                        -8.521393465343863e-05,
                        4.835533400182612e-05,
                        0.0004902801592834294,
                        -0.0004650930059142411,
                        0.0005898668896406889,
                        -1.0235343950171227e-07,
                        -0.0003207972040399909,
                        0.0005397170316427946,
                        0.00044150606845505536,
                        0.0001995260827243328,
                        0.0006382207502610981,
                        -0.00011495956277940422,
                        8.403268481060877e-08,
                        -0.0003129295364487916,
                        -7.140859815990552e-05,
                        -0.00010914857557509094,
                        -1.1271540643065237e-05,
                        0.0005346599500626326,
                        -8.432773756794631e-05,
                        -0.00045055142254568636,
                        0.0003497321158647537,
                        0.0003144847578369081,
                        0.0004745284968521446,
                        -0.0005282405763864517,
                        -0.001389065757393837,
                        0.002573455451056361,
                        -0.002296268008649349,
                        0.00046437347191385925,
                        -0.00021112710237503052,
                        -0.00012117771984776482,
                        0.0010948943672701716,
                        0.0008764300146140158,
                        -0.0030670487321913242,
                        -4.9482405302114785e-06,
                        -0.0014928511809557676,
                        -0.0011083970312029123,
                        -0.003470649942755699,
                        0.0007373433327302337,
                        0.0023552514612674713,
                        -5.9457863244460896e-05,
                        0.0004694493254646659,
                        -0.0006484178593382239,
                        -0.00010043181100627407,
                        -0.0012609177501872182,
                        0.00010832984844455495,
                        8.760518539929762e-05,
                        0.0010107725393027067,
                        -0.0005923871649429202,
                        0.0005711534759029746,
                        -0.0015991622349247336,
                        0.0009391657658852637,
                        -0.0006251868908293545,
                        3.384388764970936e-05,
                        0.000925737782381475,
                        0.0003026773047167808,
                        0.001302881632000208,
                        0.0009718452929519117,
                        0.0013263806467875838,
                        0.0013739914866164327,
                        -0.0018021516734734178,
                        -0.00040221938979811966,
                        0.0012947286013513803,
                        -0.00018250510038342327,
                        -7.973910396685824e-05,
                        8.65759575390257e-05,
                        0.0008862444083206356,
                        -0.00040307699237018824,
                        0.0006050075171515346,
                        0.0006010303040966392,
                        9.626793229244868e-08,
                        4.602983153745299e-06,
                        0.000628697860520333,
                        -0.00025235701468773186,
                        -1.2738705379433668e-07,
                        -0.0005167988128960133,
                        0.0015854451339691877,
                        0.000440875330241397,
                        -0.0001852948043961078,
                        -0.0002428160805720836,
                        5.602985311270459e-06,
                        0.00010758212738437578,
                        -0.0002724944497458637,
                        0.0007239293190650642,
                        0.00012942097964696586,
                        -0.0002766875841189176,
                        -1.7116447148524117e-09,
                        8.904046262614429e-05,
                        0.00012856685498263687,
                        0.0003999036562163383,
                        -8.119953417917714e-05,
                        -0.000344985572155565,
                        -0.00039264970109798014,
                        8.064609602342898e-08,
                        0.00036336417542770505,
                        9.842168219620362e-05,
                        -0.0006172709399834275,
                        -0.00024061436124611646,
                        -5.8218345657223836e-05,
                        0.0001887413818622008,
                        0.0008537275134585798,
                        0.0005196796846576035,
                        0.0005660107708536088
                    ],
                    [
                        -0.018071500584483147,
                        -0.19114090502262115,
                        0.12451983243227005,
                        -0.041586924344301224,
                        0.049742184579372406,
                        0.18120554089546204,
                        -0.17237935960292816,
                        -3.364129952387884e-05,
                        0.16082707047462463,
                        -0.22494833171367645,
                        0.1210419312119484,
                        -3.163557994412258e-05,
                        -0.0878911018371582,
                        0.1133757010102272,
                        0.050266724079847336,
                        -0.015868740156292915,
                        -0.6032102108001709,
                        1.758414327923674e-05,
                        0.13290610909461975,
                        0.0430196113884449,
                        0.32301628589630127,
                        -0.050325363874435425,
                        0.027901243418455124,
                        -1.1536319107108284e-05,
                        -0.23160997033119202,
                        0.1499970555305481,
                        0.04084912687540054,
                        -0.06587748974561691,
                        -0.5568936467170715,
                        -0.03251092508435249,
                        -1.9477362002362497e-05,
                        -0.2607613503932953,
                        -0.0958048477768898,
                        0.12173167616128922,
                        -0.09477222710847855,
                        -0.13353265821933746,
                        -0.16864587366580963,
                        -0.4436250925064087,
                        0.005460130982100964,
                        -0.005785862449556589,
                        0.00936159212142229,
                        -0.21640487015247345,
                        0.13298967480659485,
                        -0.07296108454465866,
                        -0.7680004239082336,
                        0.09541911631822586,
                        0.20944559574127197,
                        -3.9322148950304836e-05,
                        0.10530028492212296,
                        0.01138345804065466,
                        0.1633528769016266,
                        -2.7043015506933443e-05,
                        -0.1191268190741539,
                        0.21746188402175903,
                        -0.018349505960941315,
                        0.048019129782915115,
                        0.09437312930822372,
                        0.00040785077726468444,
                        -0.09867297857999802,
                        0.08025630563497543,
                        0.08533386141061783,
                        -0.004051980096846819,
                        0.06289210170507431,
                        -1.1512966921145562e-05,
                        0.17541858553886414,
                        -0.249342679977417,
                        0.043643683195114136,
                        -0.10461445897817612,
                        -0.22380395233631134,
                        -0.03000527247786522,
                        -2.3051805328577757e-05,
                        0.2298135757446289,
                        -0.06717690080404282,
                        -0.6355167627334595,
                        0.03844822198152542,
                        0.13574989140033722,
                        0.16575796902179718,
                        -0.24880099296569824,
                        -0.15438419580459595,
                        -0.02328120917081833,
                        -0.12759742140769958,
                        -0.39106485247612,
                        0.07927040755748749,
                        0.06377015262842178,
                        -0.3861757218837738,
                        0.03730093687772751,
                        -0.04933079704642296,
                        0.00010042278881883249,
                        0.062013816088438034,
                        -0.029834628105163574,
                        0.10057844966650009,
                        0.0015134918503463268,
                        -0.2418650984764099,
                        -0.41950497031211853,
                        -0.3046099841594696,
                        -0.06762592494487762,
                        0.11466668546199799,
                        0.0027094802353531122,
                        0.1860048919916153,
                        0.174836665391922,
                        -0.005641065537929535,
                        0.01641055755317211,
                        0.04798344522714615,
                        -0.0003572370915208012,
                        -0.031431734561920166,
                        -0.013645400293171406,
                        0.033380765467882156,
                        -0.036460623145103455,
                        -0.11260820180177689,
                        -0.07317989319562912,
                        -0.00036822824040427804,
                        0.023983342573046684,
                        -0.229234978556633,
                        -0.1872931271791458,
                        -0.02615221217274666,
                        0.11865904927253723,
                        0.050672389566898346,
                        0.13075385987758636,
                        -0.09319604933261871,
                        0.009370656684041023,
                        -0.3256312906742096,
                        -0.20674359798431396,
                        0.16799281537532806,
                        0.06886977702379227,
                        -0.10523483902215958,
                        0.16888324916362762,
                        0.06706622987985611,
                        -3.0758495995542035e-05,
                        -0.046470340341329575,
                        -0.07092949002981186,
                        0.18552550673484802,
                        -3.242341699660756e-05,
                        -0.0838991180062294,
                        0.13760516047477722,
                        0.17187382280826569,
                        -0.0046964166685938835,
                        0.08776678144931793,
                        4.020334927190561e-06,
                        0.055940382182598114,
                        0.08957000076770782,
                        0.23988567292690277,
                        0.017037518322467804,
                        0.09849292039871216,
                        -1.1151801118103322e-05,
                        0.1211462989449501,
                        0.15029369294643402,
                        0.03451225534081459,
                        -0.09291671216487885,
                        0.09428463131189346,
                        0.01059117540717125,
                        -2.027379559876863e-05,
                        0.16332659125328064,
                        -0.08539747446775436,
                        -0.011015408672392368,
                        -0.020804226398468018,
                        -0.09505277872085571,
                        0.09244434535503387,
                        0.025310656055808067,
                        -0.09212665259838104,
                        -0.04761539399623871
                    ],
                    [
                        0.03025234118103981,
                        -0.09583146870136261,
                        0.0783078521490097,
                        -0.0943218469619751,
                        0.09253603965044022,
                        -0.11300952732563019,
                        -0.16055278480052948,
                        -3.8769729144405574e-05,
                        -0.06515201181173325,
                        -0.07276397198438644,
                        0.12177447229623795,
                        -1.577067087055184e-05,
                        0.0433359332382679,
                        0.06796977669000626,
                        0.04363381117582321,
                        0.040523625910282135,
                        0.20371447503566742,
                        -4.301152512198314e-05,
                        0.014743843115866184,
                        0.04176342114806175,
                        0.12202103435993195,
                        -0.058687061071395874,
                        0.02520180307328701,
                        -2.1286585251800716e-05,
                        0.0005231037503108382,
                        0.02245939150452614,
                        0.027816247195005417,
                        -0.24985696375370026,
                        0.019381150603294373,
                        0.01692875660955906,
                        -2.0969710021745414e-05,
                        0.06489979475736618,
                        -0.04355940595269203,
                        0.05835822969675064,
                        -0.02741844952106476,
                        -0.11611827462911606,
                        -0.18886537849903107,
                        -0.19682113826274872,
                        0.06388773024082184,
                        -0.0032794554717838764,
                        0.07386172562837601,
                        -0.11354018747806549,
                        0.07518132030963898,
                        -0.07705051451921463,
                        -0.004179158713668585,
                        -0.10626766085624695,
                        -0.0548449344933033,
                        -4.8490404878975824e-05,
                        0.18325041234493256,
                        -0.024328311905264854,
                        0.18797780573368073,
                        -9.065626727533527e-06,
                        0.12253399938344955,
                        0.17548590898513794,
                        0.0972016453742981,
                        0.056314729154109955,
                        0.05125557631254196,
                        0.00029849319253116846,
                        -0.11098188161849976,
                        0.0969475731253624,
                        0.2453894168138504,
                        -0.14866645634174347,
                        0.038827069103717804,
                        -2.536113970563747e-05,
                        0.2956152856349945,
                        -0.1174282357096672,
                        0.012736220844089985,
                        -0.33813074231147766,
                        -0.029776567593216896,
                        0.0026186711620539427,
                        -2.701178891584277e-05,
                        0.10861583799123764,
                        -0.026363477110862732,
                        0.07430383563041687,
                        0.10739394277334213,
                        -0.11500314623117447,
                        -0.08943072706460953,
                        -0.11896120011806488,
                        0.16316352784633636,
                        0.01937316171824932,
                        -0.24553178250789642,
                        -0.005520106293261051,
                        -0.08660026639699936,
                        0.19785131514072418,
                        -0.014990651980042458,
                        -0.1725357174873352,
                        0.023478999733924866,
                        0.0008795327157713473,
                        0.1882723867893219,
                        0.05647166073322296,
                        0.34754157066345215,
                        -0.0033715798053890467,
                        0.18208962678909302,
                        0.04691259190440178,
                        0.1987149864435196,
                        0.06610150635242462,
                        -0.18085482716560364,
                        -0.004563033115118742,
                        -0.05247854068875313,
                        0.18709155917167664,
                        0.4637507498264313,
                        -0.3302026391029358,
                        -0.05508089438080788,
                        -0.0003582409699447453,
                        -0.07077263295650482,
                        -0.6363865733146667,
                        0.0768468827009201,
                        -0.30143892765045166,
                        -0.11062600463628769,
                        0.26734083890914917,
                        0.00040746256127022207,
                        -0.08994688093662262,
                        0.02826971933245659,
                        -0.337705135345459,
                        0.1607787162065506,
                        0.08446410298347473,
                        -0.00353238801471889,
                        0.1350872963666916,
                        -0.11902044713497162,
                        -0.335328072309494,
                        -0.027033939957618713,
                        -0.08400613814592361,
                        0.08289666473865509,
                        -0.1141565814614296,
                        0.17464761435985565,
                        0.24588024616241455,
                        0.04890015348792076,
                        -3.7819492717972025e-05,
                        0.10845519602298737,
                        -0.11481155455112457,
                        0.19468285143375397,
                        -1.5312270988943055e-05,
                        0.06582728028297424,
                        0.05898653343319893,
                        0.0011306931264698505,
                        0.036769501864910126,
                        -0.07161997258663177,
                        -1.7794009181670845e-05,
                        0.03389997035264969,
                        0.030863922089338303,
                        0.13307254016399384,
                        0.10995856672525406,
                        0.04961920529603958,
                        -2.0378371118567884e-05,
                        0.3615625500679016,
                        0.03447355702519417,
                        0.02857086807489395,
                        -0.2521876096725464,
                        0.2909771800041199,
                        0.005835322197526693,
                        -2.066085289698094e-05,
                        0.4349434971809387,
                        -0.04462654888629913,
                        0.05295822024345398,
                        -0.032180022448301315,
                        -0.24658608436584473,
                        -0.3673916161060333,
                        0.015821166336536407,
                        0.08428503572940826,
                        0.019591350108385086
                    ],
                    [
                        -0.018051307648420334,
                        -0.02313867211341858,
                        0.00946943461894989,
                        -0.051766522228717804,
                        0.04616108909249306,
                        0.019996045157313347,
                        0.17978549003601074,
                        8.025804731914832e-07,
                        0.0008464743732474744,
                        0.11688966304063797,
                        0.052606936544179916,
                        1.8751769630398485e-06,
                        0.030695080757141113,
                        -0.011208845302462578,
                        -0.0523221455514431,
                        -0.03541893884539604,
                        0.4159679710865021,
                        -0.00021487724734470248,
                        0.0008152656373567879,
                        -0.0383768193423748,
                        0.14428256452083588,
                        0.021981075406074524,
                        -0.015224991366267204,
                        1.3563257198256906e-05,
                        -0.04537424445152283,
                        0.002083337400108576,
                        0.04487026482820511,
                        -0.019180653616786003,
                        0.07653200626373291,
                        -0.00041561308898963034,
                        4.147490471950732e-06,
                        0.058583103120326996,
                        -0.030108820647001266,
                        0.09346820414066315,
                        0.0495358407497406,
                        0.07090102881193161,
                        0.009409867227077484,
                        0.24763399362564087,
                        -0.010170009918510914,
                        0.026231886819005013,
                        -0.005087936297059059,
                        -0.009181009605526924,
                        0.029242809861898422,
                        -0.12532112002372742,
                        -0.35829633474349976,
                        9.050188964465633e-05,
                        -0.1041669100522995,
                        -1.208484263770515e-06,
                        -0.09718108922243118,
                        0.10198484361171722,
                        0.12182591110467911,
                        1.2313751540204976e-05,
                        0.05559009686112404,
                        -0.12618063390254974,
                        -0.09811342507600784,
                        -0.06831366568803787,
                        -0.32900601625442505,
                        4.68745747639332e-05,
                        -0.02478701062500477,
                        -0.014047316275537014,
                        -0.0855938047170639,
                        0.026766199618577957,
                        -0.057374417781829834,
                        1.1615597031777725e-05,
                        -0.0495729073882103,
                        0.024170299991965294,
                        0.04617283493280411,
                        -0.047026071697473526,
                        -0.09437578171491623,
                        -0.059039752930402756,
                        1.1922749081350048e-06,
                        -0.11277540028095245,
                        -0.015835875645279884,
                        -0.14486651122570038,
                        -0.14991863071918488,
                        -0.11972331255674362,
                        -0.06079771742224693,
                        -0.5584598779678345,
                        -0.058770980685949326,
                        0.013470605947077274,
                        -0.19171658158302307,
                        0.052128247916698456,
                        0.165569469332695,
                        -0.18756337463855743,
                        -0.242458313703537,
                        -0.09589754045009613,
                        0.09732748568058014,
                        0.001746451947838068,
                        0.04098384454846382,
                        0.053646259009838104,
                        0.03345194086432457,
                        0.00028167091659270227,
                        -0.18215905129909515,
                        -0.0856219232082367,
                        -0.2788814306259155,
                        -0.07642075419425964,
                        0.27122369408607483,
                        0.006420491728931665,
                        0.2117529660463333,
                        -0.03204672411084175,
                        -0.02992914989590645,
                        -0.03731280565261841,
                        -0.03484925255179405,
                        -0.0002937642566394061,
                        0.12478972226381302,
                        -0.36026954650878906,
                        -0.0019619178492575884,
                        -0.01788056641817093,
                        0.11100034415721893,
                        -0.07769589871168137,
                        0.00039533228846266866,
                        0.06826895475387573,
                        -0.02604294940829277,
                        -0.23271051049232483,
                        0.009814929217100143,
                        0.05033103749155998,
                        0.019003504887223244,
                        0.044798657298088074,
                        0.03256021812558174,
                        0.01033481303602457,
                        -0.17955951392650604,
                        -0.020600594580173492,
                        0.016182901337742805,
                        -0.07072010636329651,
                        0.1582353264093399,
                        -0.12276975810527802,
                        0.0434359610080719,
                        1.3807900813844753e-06,
                        -0.031140774488449097,
                        0.03519093990325928,
                        0.07899578660726547,
                        1.999113237616257e-06,
                        0.027528302744030952,
                        0.05927695706486702,
                        0.03905670344829559,
                        -0.04796801134943962,
                        -0.016889072954654694,
                        -0.00025598984211683273,
                        -0.006441410630941391,
                        -0.1954503208398819,
                        0.058230288326740265,
                        -0.09742026776075363,
                        -0.1297377049922943,
                        1.4413441931537818e-05,
                        -0.007586092222481966,
                        -0.011810083873569965,
                        0.0641336739063263,
                        -0.029136348515748978,
                        0.035262398421764374,
                        -0.012855879962444305,
                        3.409939381526783e-06,
                        0.0460556335747242,
                        -0.032817088067531586,
                        0.07124891877174377,
                        -0.1302829384803772,
                        -0.06181151792407036,
                        -0.07973785698413849,
                        -0.013561283238232136,
                        -9.937395225279033e-05,
                        0.04352950677275658
                    ],
                    [
                        -0.00021050075883977115,
                        2.2099255147622898e-05,
                        -0.00025418505538254976,
                        0.0006684460677206516,
                        -0.00022346171317622066,
                        -0.0005297036259435117,
                        0.0016868036473169923,
                        -1.9088376745912683e-07,
                        -0.00031640168162994087,
                        -0.0025526329409331083,
                        -1.4441476196225267e-05,
                        2.2524724840877752e-07,
                        -0.0008391201845370233,
                        5.8194691519020125e-05,
                        -6.381340062944219e-05,
                        -0.0002683304192032665,
                        0.00028011700487695634,
                        -1.5475783357032924e-06,
                        0.000536844483576715,
                        0.00043618486961349845,
                        0.00014210405061021447,
                        0.00011586664186324924,
                        2.038635648204945e-05,
                        9.738025852357168e-08,
                        -0.0015548492083325982,
                        -0.0007046327227726579,
                        0.0002767692203633487,
                        0.0005214781267568469,
                        -0.0008372304146178067,
                        0.0001626082230359316,
                        5.255482449229021e-08,
                        -0.0006795603549107909,
                        -0.0003161237109452486,
                        -0.0009914685506373644,
                        0.0009040396544151008,
                        0.0002079455298371613,
                        0.0002735146845225245,
                        -0.0016270179767161608,
                        0.0002256102889077738,
                        0.0004977695061825216,
                        -0.0009557277080602944,
                        0.00026572245405986905,
                        -6.996541196713224e-05,
                        0.000703700352460146,
                        9.821441199164838e-05,
                        -0.0008119700942188501,
                        -0.000301925465464592,
                        -6.630934468176974e-09,
                        -0.00019942678045481443,
                        0.0013496839674189687,
                        -2.5386689230799675e-05,
                        2.5477534748574726e-08,
                        -0.0010245522717013955,
                        0.0003840380231849849,
                        -0.0003637643239926547,
                        -0.00017454395128879696,
                        0.001161397434771061,
                        2.981252919198596e-06,
                        -0.00011003894178429618,
                        -1.8576833099359646e-05,
                        -0.0008527447935193777,
                        0.00028068810934200883,
                        -0.00023345886438619345,
                        1.2778238911437256e-08,
                        -0.0010591397294774652,
                        0.0006268529687076807,
                        0.00024065599427558482,
                        0.0008424819679930806,
                        -0.0015433656517416239,
                        0.00033228917163796723,
                        8.230539805254011e-08,
                        -0.0001957498025149107,
                        -0.00028843781910836697,
                        -0.0016090678982436657,
                        0.0011038393713533878,
                        0.000665253319311887,
                        -0.00036917944089509547,
                        0.0011733981082215905,
                        0.00022865757637191564,
                        0.00044894646271131933,
                        0.001007736544124782,
                        -0.0004953737370669842,
                        -0.0014708323869854212,
                        -1.4776108400837984e-05,
                        -0.0016457168385386467,
                        -0.0007998658693395555,
                        -0.0015371674671769142,
                        -4.478712071431801e-05,
                        -0.0005130083882249892,
                        -9.083129407372326e-05,
                        0.0007117960485629737,
                        -9.413159568794072e-05,
                        0.0006482434109784663,
                        -0.0009261143859475851,
                        -0.0037392061203718185,
                        0.0008899912354536355,
                        -0.00046244237455539405,
                        -0.00013010627299081534,
                        -0.0013017606688663363,
                        -0.0014098918763920665,
                        7.901880599092692e-05,
                        -0.00030324060935527086,
                        0.0011182826710864902,
                        4.486085890675895e-05,
                        -0.005936305969953537,
                        0.001042475108988583,
                        0.0007511397125199437,
                        -0.0007563037215732038,
                        0.0006434053066186607,
                        0.001326810335740447,
                        1.5755433196318336e-05,
                        -0.0013447689125314355,
                        0.00047432846622541547,
                        0.0006551084807142615,
                        8.920961408875883e-05,
                        0.003909142687916756,
                        -0.001807520049624145,
                        0.0005886757862754166,
                        0.0009536961442790926,
                        0.0015756568172946572,
                        -0.0007487921975553036,
                        -6.067084177630022e-05,
                        -0.0002682275080587715,
                        0.0009628603002056479,
                        0.001233745482750237,
                        0.00013955468602944165,
                        0.0012286464916542172,
                        -2.05114773166315e-07,
                        -0.00013858974853064865,
                        -0.0005077989189885557,
                        0.00011242448090342805,
                        2.1573106323558022e-07,
                        -0.0008077556267380714,
                        0.002148863859474659,
                        0.0008566304459236562,
                        -0.0001841209304984659,
                        -0.0015294874319806695,
                        1.8317199419470853e-06,
                        0.0003652573795989156,
                        0.0009386004530824721,
                        0.0015337425284087658,
                        0.000360694742994383,
                        0.0002520578564144671,
                        9.403940026686541e-08,
                        -0.0007468598778359592,
                        -0.0006977000739425421,
                        0.00014331919373944402,
                        0.00042763337842188776,
                        0.0008381505613215268,
                        -0.00013360929733607918,
                        4.886861759700878e-08,
                        -0.0006418077391572297,
                        -0.0002953869989141822,
                        -0.0005803076201118529,
                        -0.00020302439224906266,
                        -0.0004610421310644597,
                        -0.00029551703482866287,
                        0.0006216834881342947,
                        0.00011818654456874356,
                        0.0005170418880879879
                    ],
                    [
                        -0.03387752175331116,
                        0.009507027454674244,
                        0.006729824468493462,
                        -0.0652836263179779,
                        -0.03722194582223892,
                        0.026981595903635025,
                        -0.18409548699855804,
                        1.5038581295812037e-05,
                        -0.12164652347564697,
                        0.09094309061765671,
                        0.019055750221014023,
                        4.791589162778109e-06,
                        0.02039102278649807,
                        -0.024126414209604263,
                        -0.01655598171055317,
                        -0.019470231607556343,
                        0.13085795938968658,
                        -0.00037311072810553014,
