{
    "in_shape": [
        null,
        null,
        1
    ],
    "layers": [
        {
            "type": "lstm",
            "activation": "",
            "shape": [
                null,
                null,
                20
            ],
            "weights": [
                [
                    [
                        -0.029345937073230743,
                        -0.1813090741634369,
                        0.16006216406822205,
                        -0.20547984540462494,
                        0.2231903225183487,
                        0.8591083288192749,
                        0.12048796564340591,
                        -0.01463786605745554,
                        -0.040012769401073456,
                        -0.6249223947525024,
                        -0.12337912619113922,
                        0.4312674105167389,
                        0.19007539749145508,
                        0.12659771740436554,
                        0.04893405735492706,
                        -0.14857520163059235,
                        0.047996461391448975,
                        0.22332574427127838,
                        0.049425650388002396,
                        0.3376815915107727,
                        -0.29062315821647644,
                        -0.45593586564064026,
                        -0.04756196215748787,
                        -0.10419397056102753,
                        1.1163222789764404,
                        0.5440206527709961,
                        -0.2819908559322357,
                        0.19793589413166046,
                        0.06385086476802826,
                        -0.6953111886978149,
                        0.3160555064678192,
                        -0.1031917929649353,
                        0.6622692942619324,
                        -0.06292174011468887,
                        0.08880101889371872,
                        -0.3092125654220581,
                        0.7847104072570801,
                        0.24194283783435822,
                        -0.19080118834972382,
                        0.11407138407230377,
                        -0.5475436449050903,
                        -0.2779027819633484,
                        0.4676065146923065,
                        -0.4724925756454468,
                        -6.099702835083008,
                        -0.616811215877533,
                        -0.02693890407681465,
                        -0.19961005449295044,
                        -0.5080629587173462,
                        -0.2791207432746887,
                        0.3038455843925476,
                        0.511254608631134,
                        -0.2147684544324875,
                        -0.4390416443347931,
                        0.08036252111196518,
                        0.18930192291736603,
                        0.04606252536177635,
                        -0.21315327286720276,
                        0.009517978876829147,
                        1.5629711151123047,
                        -0.26076000928878784,
                        0.012290090322494507,
                        -0.05743435025215149,
                        0.12121936678886414,
                        0.4743148386478424,
                        -0.1768573522567749,
                        0.08973799645900726,
                        -0.06737448275089264,
                        0.03489834442734718,
                        -0.4903365671634674,
                        -0.0953134298324585,
                        0.06413634866476059,
                        0.2687070965766907,
                        -0.14363041520118713,
                        0.08367390930652618,
                        -0.04070321097970009,
                        0.4587385356426239,
                        -0.1853276938199997,
                        -0.024023503065109253,
                        0.2831326723098755
                    ]
                ],
                [
                    [
                        -0.19174355268478394,
                        0.6162552833557129,
                        -0.07719775289297104,
                        0.373776912689209,
                        0.02003799006342888,
                        0.01839068904519081,
                        1.3695319890975952,
                        0.26149383187294006,
                        0.3708376884460449,
                        0.4103066623210907,
                        -0.1613890379667282,
                        0.4221755564212799,
                        -0.6444486379623413,
                        -0.04344169795513153,
                        0.05507465824484825,
                        -0.24993577599525452,
                        0.11913455277681351,
                        0.36272454261779785,
                        -0.24286070466041565,
                        -0.10782000422477722,
                        -0.8492827415466309,
                        -0.19163362681865692,
                        0.24190840125083923,
                        0.9616463780403137,
                        0.15843407809734344,
                        -0.014046555384993553,
                        -0.14386321604251862,
                        1.1314525604248047,
                        0.17194966971874237,
                        0.25840866565704346,
                        0.23993007838726044,
                        0.15788039565086365,
                        0.29942038655281067,
                        0.5020129680633545,
                        0.18889643251895905,
                        0.7860149145126343,
                        0.18851864337921143,
                        0.20627014338970184,
                        -0.23216581344604492,
                        -0.03068024292588234,
                        0.43521344661712646,
                        0.055362291634082794,
                        0.13011085987091064,
                        -0.010456115007400513,
                        0.023527074605226517,
                        -0.1955990195274353,
                        0.19000370800495148,
                        -0.07628113776445389,
                        -0.10741305351257324,
                        0.08740077912807465,
                        0.9290796518325806,
                        0.10508601367473602,
                        -0.679183840751648,
                        0.7200062870979309,
                        0.4548164904117584,
                        -0.03690847381949425,
                        0.1257665455341339,
                        -0.029141929000616074,
                        0.04273783415555954,
                        0.003575395792722702,
                        -0.5031025409698486,
                        -0.0056344750337302685,
                        -0.2677995264530182,
                        0.6377308368682861,
                        -0.15518975257873535,
                        0.10691938549280167,
                        0.4114134907722473,
                        0.2593790590763092,
                        0.4111569821834564,
                        0.28112974762916565,
                        -0.4031660258769989,
                        0.0792260617017746,
                        -0.4511760175228119,
                        0.6639744639396667,
                        -0.01585090160369873,
                        0.13712167739868164,
                        0.3667510747909546,
                        0.35612985491752625,
                        -0.4521600306034088,
                        -0.15833328664302826
                    ],
                    [
                        0.2598550319671631,
                        -0.06710156798362732,
                        0.21217003464698792,
                        0.32830408215522766,
                        -0.013294626958668232,
                        -0.23051442205905914,
                        -0.2373877614736557,
                        0.3188870847225189,
                        -0.15758678317070007,
                        -0.0765681341290474,
                        0.2745745778083801,
                        0.04371141269803047,
                        -0.2589516043663025,
                        -0.16066668927669525,
                        -0.30702877044677734,
                        0.13144508004188538,
                        -0.042431119829416275,
                        0.0532192662358284,
                        -0.10227961838245392,
                        -0.3895983397960663,
                        0.3283170163631439,
                        0.5452013611793518,
                        0.1643763929605484,
                        0.21616965532302856,
                        -0.08964795619249344,
                        0.05455998703837395,
                        -0.036049023270606995,
                        -0.8044416904449463,
                        -0.2521764934062958,
                        0.16242580115795135,
                        0.1693454384803772,
                        0.4080800414085388,
                        0.12448596209287643,
                        -0.19939962029457092,
                        -0.2371811866760254,
                        -0.08772730082273483,
                        0.0530562624335289,
                        -0.25870195031166077,
                        0.12126967310905457,
                        -0.12031067907810211,
                        -0.10728169977664948,
                        0.6668679118156433,
                        -0.37418171763420105,
                        -0.08168421685695648,
                        -0.4920407831668854,
                        0.08292435109615326,
                        -0.5279935002326965,
                        -0.18051747977733612,
                        -0.46881425380706787,
                        0.05658876150846481,
                        0.34097927808761597,
                        0.4489835798740387,
                        -0.11779926717281342,
                        -0.2720756530761719,
                        0.14156952500343323,
                        0.15089957416057587,
                        -0.033250030130147934,
                        -0.3178529739379883,
                        0.3375239372253418,
                        -0.15783093869686127,
                        -0.1707080602645874,
                        0.9894053936004639,
                        0.10855723172426224,
                        0.28288325667381287,
                        -0.2805950343608856,
                        0.2389347404241562,
                        0.6522387266159058,
                        0.49835243821144104,
                        -0.14798642694950104,
                        0.15585272014141083,
                        -0.0733305886387825,
                        0.3055000603199005,
                        -0.06300697475671768,
                        -0.05373291298747063,
                        -0.04970109835267067,
                        0.21457451581954956,
                        0.08867483586072922,
                        -0.7237821817398071,
                        -0.08957592397928238,
                        -0.5038913488388062
                    ],
                    [
                        -0.044425372034311295,
                        -0.7649595737457275,
                        0.04815932735800743,
                        -0.3231451213359833,
                        0.010859732516109943,
                        -0.5210491418838501,
                        -0.47061222791671753,
                        0.16684046387672424,
                        -0.24384328722953796,
                        -0.05754723399877548,
                        -0.023036766797304153,
                        0.4422086775302887,
                        0.04443395510315895,
                        0.00831005908548832,
                        -0.15543200075626373,
                        0.08773938566446304,
                        -0.1459423154592514,
                        0.1856030374765396,
                        0.0023422990925610065,
                        0.10274797677993774,
                        -0.22697719931602478,
                        -0.047776855528354645,
                        -0.1196189820766449,
                        -0.2256147265434265,
                        -0.29398369789123535,
                        0.00046654700418002903,
                        0.3333640396595001,
                        0.10360953211784363,
                        -0.15073217451572418,
                        0.08215335756540298,
                        -0.23067913949489594,
                        0.3186083436012268,
                        0.11893229186534882,
                        0.07662966102361679,
                        -0.25533097982406616,
                        0.41047775745391846,
                        0.34900858998298645,
                        0.21858510375022888,
                        -0.08104830235242844,
                        0.22273243963718414,
                        0.4170597791671753,
                        -0.24813392758369446,
                        0.019322998821735382,
                        -0.3312702775001526,
                        -0.2095913589000702,
                        0.08340621739625931,
                        0.4983763098716736,
                        -0.16548368334770203,
                        -0.034265223890542984,
                        0.4381336271762848,
                        -0.034369029104709625,
                        0.6869080066680908,
                        -0.0016011103289201856,
                        -0.08757369965314865,
                        -0.21809744834899902,
                        -0.2111547291278839,
                        0.126924529671669,
                        -0.18664486706256866,
                        -0.09138485789299011,
                        -0.048736780881881714,
                        0.2790890336036682,
                        -0.22533513605594635,
                        0.07052744179964066,
                        -0.08707597851753235,
                        0.1605534851551056,
                        0.004664253443479538,
                        -0.14336168766021729,
                        0.5324459075927734,
                        -0.28133565187454224,
                        0.0927925705909729,
                        -0.12047840654850006,
                        0.38708797097206116,
                        -0.10634082555770874,
                        -0.27796241641044617,
                        -0.29249387979507446,
                        0.34546300768852234,
                        0.2546193599700928,
                        0.2126951515674591,
                        -0.038846757262945175,
                        0.21044757962226868
                    ],
                    [
                        -0.9623123407363892,
                        0.2896629273891449,
                        -0.13153301179409027,
                        -0.6762576699256897,
                        0.20061954855918884,
                        0.0824643075466156,
                        -1.0722196102142334,
                        -0.10681581497192383,
                        -0.3314298987388611,
                        0.2198096364736557,
                        -0.43822363018989563,
                        0.6795971393585205,
                        -0.15912967920303345,
                        -0.4973844885826111,
                        -0.07134468108415604,
                        0.7684499025344849,
                        -0.026204947382211685,
                        -0.008319921791553497,
                        0.06387685239315033,
                        0.2197839319705963,
                        -0.7828572392463684,
                        -0.12774764001369476,
                        0.37154415249824524,
                        0.05399874225258827,
                        -0.139982208609581,
                        -0.3281463086605072,
                        0.28418511152267456,
                        -0.6546921730041504,
                        -0.39351820945739746,
                        0.45211261510849,
                        -0.1693117320537567,
                        0.1890321522951126,
                        0.23356597125530243,
                        -0.6220045685768127,
                        0.19488152861595154,
                        -0.3605359196662903,
                        -0.04036669060587883,
                        -0.3823224604129791,
                        0.14366038143634796,
                        0.10359494388103485,
                        1.1700866222381592,
                        0.11286713182926178,
                        0.28275537490844727,
                        0.16959525644779205,
                        -0.07221881300210953,
                        -0.006113822106271982,
                        0.22923250496387482,
                        -0.21563859283924103,
                        0.4980493485927582,
                        0.3679736256599426,
                        0.28563231229782104,
                        0.9085326194763184,
                        -0.04561973363161087,
                        0.9322478175163269,
                        -0.2790586054325104,
                        0.1370427906513214,
                        -0.018882043659687042,
                        -0.14121827483177185,
                        0.12371136993169785,
                        0.08634041249752045,
                        -1.5466551780700684,
                        -0.06388721615076065,
                        0.1053723692893982,
                        0.04708833247423172,
                        0.23888488113880157,
                        -0.006926827598363161,
                        -0.0069365850649774075,
                        -0.02567214146256447,
                        -0.4800877273082733,
                        0.4482133686542511,
                        -1.0893782377243042,
                        0.7742980718612671,
                        -0.24328674376010895,
                        -0.212704136967659,
                        0.07549532502889633,
                        -0.1977870613336563,
                        -0.34563931822776794,
                        0.00044457483454607427,
                        -0.07990939915180206,
                        -0.1675688922405243
                    ],
                    [
                        -0.49051567912101746,
                        0.7691194415092468,
                        0.015004489570856094,
                        0.31417036056518555,
                        -0.528469979763031,
                        0.06405196338891983,
                        0.41644027829170227,
                        -0.43683210015296936,
                        0.43192294239997864,
                        0.07613378763198853,
                        -0.20734472572803497,
                        0.2446623295545578,
                        0.02981012873351574,
                        -0.3653143346309662,
                        0.22683067619800568,
                        0.08482818305492401,
                        0.024231350049376488,
                        -0.4836314022541046,
                        0.28728172183036804,
                        0.32318687438964844,
                        -0.19858922064304352,
                        -0.7109601497650146,
                        -0.0704805850982666,
                        0.06075087934732437,
                        -0.7570326924324036,
                        -0.5950201749801636,
                        -0.23446393013000488,
                        -0.02029510773718357,
                        0.5678024888038635,
                        0.1981201320886612,
                        -0.5152109861373901,
                        0.18727613985538483,
                        -0.002530926838517189,
                        -0.09692596644163132,
                        -0.18834832310676575,
                        -0.006134594790637493,
                        -0.469581663608551,
                        -0.25840190052986145,
                        0.46470704674720764,
                        0.1002124771475792,
                        0.603276789188385,
                        0.05796423554420471,
                        0.36298683285713196,
                        0.8681991696357727,
                        0.2346205711364746,
                        0.24218221008777618,
                        0.04783186316490173,
                        -1.6915240287780762,
                        -0.28965824842453003,
                        -0.3789728581905365,
                        0.5549160838127136,
                        0.1964227557182312,
                        -0.012995158322155476,
                        0.4836209714412689,
                        -0.016088804230093956,
                        -0.31184443831443787,
                        0.43755578994750977,
                        0.49936068058013916,
                        0.3084700405597687,
                        -0.23655720055103302,
                        -0.06755536049604416,
                        -0.02740277722477913,
                        0.04906301200389862,
                        -0.3640463650226593,
                        -1.368782639503479,
                        0.06521766632795334,
                        0.24086545407772064,
                        -0.9177461266517639,
                        0.29125115275382996,
                        -0.0006182923098094761,
                        -0.052522528916597366,
                        0.453475683927536,
                        0.2666064500808716,
                        0.38495072722435,
                        -0.03515925630927086,
                        -0.12343643605709076,
                        -0.42269429564476013,
                        -0.5351168513298035,
                        0.3921862840652466,
                        0.3198961913585663
                    ],
                    [
                        0.06764478981494904,
                        -0.15112431347370148,
                        -0.13583262264728546,
                        -0.24070648849010468,
                        0.6894317269325256,
                        0.06952259689569473,
                        0.36277028918266296,
                        -0.018979093059897423,
                        -0.004848486743867397,
                        -0.13294561207294464,
                        0.10688973218202591,
                        -0.20198780298233032,
                        0.22402378916740417,
                        -0.15027883648872375,
                        -0.07735195755958557,
                        -0.12877672910690308,
                        0.4735332727432251,
                        0.06708043068647385,
                        -0.03619781881570816,
                        -0.14842168986797333,
                        0.1338690221309662,
                        -0.13558785617351532,
                        -0.03157084435224533,
                        0.06256019324064255,
                        0.9663529992103577,
                        -0.3453545570373535,
                        -0.2798408269882202,
                        0.2151498645544052,
                        0.14407944679260254,
                        -0.1091620922088623,
                        -0.37619665265083313,
                        0.12929318845272064,
                        -0.17942319810390472,
                        -0.04254364222288132,
                        -0.6999528408050537,
                        0.3492523431777954,
                        -0.09605361521244049,
                        0.19749948382377625,
                        -0.23126892745494843,
                        -0.2370786815881729,
                        -0.3381774127483368,
                        -0.1295580416917801,
                        0.4592069685459137,
                        -0.1662510633468628,
                        -0.5735335350036621,
                        0.4462384879589081,
                        -0.12369748204946518,
                        -0.25115254521369934,
                        0.012288043275475502,
                        0.03933262079954147,
                        0.1848602294921875,
                        -0.024398941546678543,
                        0.277699738740921,
                        -0.7118493318557739,
                        -0.2122107744216919,
                        -0.02679617889225483,
                        0.1416311413049698,
                        -0.096255362033844,
                        0.020800694823265076,
                        0.2986210584640503,
                        0.6617055535316467,
                        0.37259113788604736,
                        -0.13633646070957184,
                        -0.4285334348678589,
                        1.213893175125122,
                        -0.9103796482086182,
                        0.003574931528419256,
                        0.6960148215293884,
                        -0.06267810612916946,
                        -0.19451455771923065,
                        0.4237634539604187,
                        -0.04022330418229103,
                        0.04831262677907944,
                        -0.13352905213832855,
                        -0.0007315881084650755,
                        -0.6713518500328064,
                        -0.0807410478591919,
                        0.09646151214838028,
                        -0.16880491375923157,
                        -0.13597244024276733
                    ],
                    [
                        0.2992169260978699,
                        -0.02167343720793724,
                        -0.10558454692363739,
                        -0.04697810113430023,
                        0.3508109748363495,
                        0.06578174233436584,
                        -0.49591416120529175,
                        0.048219602555036545,
                        -0.10453565418720245,
                        0.098978690803051,
                        0.09658516198396683,
                        -0.1287006437778473,
                        -0.14789028465747833,
                        -0.048570312559604645,
                        0.2415742427110672,
                        -0.2147105634212494,
                        -0.1544964760541916,
                        -0.09792738407850266,
                        -0.055585939437150955,
                        0.03835156559944153,
                        0.17624805867671967,
                        1.0429539680480957,
                        -0.29843172430992126,
                        0.3888589143753052,
                        -0.31880897283554077,
                        -0.09315972775220871,
                        -0.07687034457921982,
                        0.020868195220828056,
                        -0.38699716329574585,
                        0.19266818463802338,
                        -0.12933804094791412,
                        0.1535104215145111,
                        -0.05814095586538315,
                        -0.20529218018054962,
                        0.5338039994239807,
                        0.08211527019739151,
                        0.028018899261951447,
                        -0.08332622051239014,
                        -0.08359356224536896,
                        0.1993289440870285,
                        -0.10370287299156189,
                        0.592717170715332,
                        -0.39391979575157166,
                        -0.13310383260250092,
                        -0.16381652653217316,
                        0.03398783877491951,
                        0.30640292167663574,
                        -0.22773966193199158,
                        0.28488174080848694,
                        0.07776003330945969,
                        0.2665907144546509,
                        0.2069990187883377,
                        0.0914229154586792,
                        0.24653767049312592,
                        0.4710114896297455,
                        -0.1794336438179016,
                        -0.043016619980335236,
                        0.05096280202269554,
                        0.21148328483104706,
                        -0.047962259501218796,
                        0.5647817254066467,
                        0.07622238248586655,
                        -0.16930563747882843,
                        0.1699058711528778,
                        0.12943705916404724,
                        -0.05900166183710098,
                        -0.17271688580513,
                        0.3450525403022766,
                        -0.3669896423816681,
                        0.1147787943482399,
                        -0.08206640928983688,
                        -0.09677175432443619,
                        0.0072102355770766735,
                        -0.4598149359226227,
                        0.338625967502594,
                        -0.05171271041035652,
                        -0.013916402123868465,
                        0.14062844216823578,
                        -0.10347174108028412,
                        -0.140997514128685
                    ],
                    [
                        -0.5635532140731812,
                        -0.04244660958647728,
                        -0.1574757993221283,
                        0.9352607727050781,
                        -0.046731945127248764,
                        -0.07338819652795792,
                        -0.0034042515326291323,
                        0.4476340711116791,
                        0.7052614688873291,
                        0.8952138423919678,
                        -0.2177862673997879,
                        0.4281965494155884,
                        -0.26281896233558655,
                        -0.025336742401123047,
                        -0.2622546851634979,
                        -0.18792924284934998,
                        -0.5852107405662537,
                        0.19455774128437042,
                        -0.5221701264381409,
                        0.08193842321634293,
                        0.27420154213905334,
                        0.46632617712020874,
                        0.30903875827789307,
                        -0.6743038892745972,
                        0.1019170880317688,
                        0.14051176607608795,
                        -0.08162939548492432,
                        0.137895867228508,
                        0.10860079526901245,
                        0.13559840619564056,
                        -0.8259211182594299,
                        0.6964499950408936,
                        0.6556899547576904,
                        -0.23885047435760498,
                        0.37601935863494873,
                        1.4033921957015991,
                        0.38917607069015503,
                        -0.10366710275411606,
                        -0.6423041224479675,
                        0.0879211351275444,
                        1.588226556777954,
                        0.48001375794410706,
                        -0.25051212310791016,
                        1.4172744750976562,
                        0.146288201212883,
                        -0.20104551315307617,
                        -0.32327938079833984,
                        0.5602982044219971,
                        0.48143067955970764,
                        -1.3152326345443726,
                        -0.024065030738711357,
                        -0.5147059559822083,
                        1.1612311601638794,
                        1.9395360946655273,
                        0.47022899985313416,
                        0.103847935795784,
                        -0.14892390370368958,
                        -0.543178141117096,
                        -0.3779974579811096,
                        0.3360612094402313,
                        -0.5991286635398865,
                        0.10282823443412781,
                        0.3067525625228882,
                        0.3933413028717041,
                        -0.11754871904850006,
                        0.07183337211608887,
                        0.12951068580150604,
                        0.4817027151584625,
                        0.5482974052429199,
                        0.3553394377231598,
                        -0.1112862303853035,
                        0.27941441535949707,
                        -0.08120159804821014,
                        0.05609290674328804,
                        0.25918281078338623,
                        0.09376299381256104,
                        0.20373013615608215,
                        0.24879485368728638,
                        -0.6673874258995056,
                        -0.06179966777563095
                    ],
                    [
                        -0.1918635368347168,
                        0.8345276713371277,
                        -0.11535031348466873,
                        -0.20991231501102448,
                        -0.02680933102965355,
                        0.8555294275283813,
                        0.20466212928295135,
                        -0.20513969659805298,
                        0.08224394172430038,
                        0.14068947732448578,
                        0.10276217013597488,
                        0.2639913260936737,
                        0.2484300434589386,
                        -0.14958935976028442,
                        0.19380992650985718,
                        0.9307132363319397,
                        0.26836666464805603,
                        -0.1300061196088791,
                        0.03430371358990669,
                        0.1986437290906906,
                        -0.1847354918718338,
                        -0.9719117283821106,
                        -0.2509237229824066,
                        0.050680696964263916,
                        -0.05709245428442955,
                        -0.5350441336631775,
                        -0.14720381796360016,
                        -0.24206627905368805,
                        0.010901862755417824,
                        0.24239756166934967,
                        0.09202217310667038,
                        0.06660802662372589,
                        0.05687185376882553,
                        -0.1141708493232727,
                        -0.12906986474990845,
                        -0.7487330436706543,
                        -0.3396633267402649,
                        -0.20030085742473602,
                        -0.1795426458120346,
                        -0.0709524005651474,
                        0.03606922924518585,
                        -0.05497315526008606,
                        0.13511954247951508,
                        -0.023442840203642845,
                        0.30717721581459045,
                        -0.0514550618827343,
                        0.28422826528549194,
                        0.17078137397766113,
                        -0.07778134942054749,
                        -0.24013113975524902,
                        -0.11122691631317139,
                        0.3067023456096649,
                        -0.09978295117616653,
                        -0.31612077355384827,
                        0.02589370682835579,
                        0.251682847738266,
                        -0.13566379249095917,
                        0.4818262755870819,
                        0.16298969089984894,
                        0.064823217689991,
                        -0.03923217952251434,
                        -0.4020968973636627,
                        0.12449826300144196,
                        0.2030366212129593,
                        0.1765456199645996,
                        -0.0949871763586998,
                        -0.2840269207954407,
                        0.004459201358258724,
                        -0.12349391728639603,
                        0.0275709331035614,
                        -0.04816078022122383,
                        0.08216888457536697,
                        0.11274443566799164,
                        -0.042916130274534225,
                        0.11424035578966141,
                        -0.497551828622818,
                        -0.24750594794750214,
                        -0.17187125980854034,
                        -0.15482281148433685,
                        0.14943400025367737
                    ],
                    [
                        0.18051894009113312,
                        -0.16186228394508362,
                        0.17563201487064362,
                        -0.22350752353668213,
                        0.27507665753364563,
                        -0.8001721501350403,
                        -0.05893692374229431,
                        -0.09481551498174667,
                        0.12467344850301743,
                        -0.10553833842277527,
                        -0.2723504900932312,
                        -0.5900761485099792,
                        0.12986229360103607,
                        0.44640108942985535,
                        -0.06152503564953804,
                        -0.4533349573612213,
                        -0.1331295371055603,
                        0.12759828567504883,
                        0.11021453142166138,
                        -0.18614646792411804,
                        0.07524275034666061,
                        0.2833113372325897,
                        0.12828747928142548,
                        0.0006369533948600292,
                        0.4132598340511322,
                        0.47935110330581665,
                        -0.23599006235599518,
                        0.5581895709037781,
                        0.27024194598197937,
                        -0.6804884672164917,
                        0.026661543175578117,
                        -0.21137253940105438,
                        -0.06954037398099899,
                        0.1439182311296463,
                        0.10102728754281998,
                        0.7283539175987244,
                        -0.06104055047035217,
                        0.6120979189872742,
                        0.20165961980819702,
                        -0.006437954492866993,
                        -0.44704973697662354,
                        -0.1751442551612854,
                        -0.8483838438987732,
                        -0.34882476925849915,
                        0.17947079241275787,
                        0.04954084753990173,
                        0.06303424388170242,
                        0.21175293624401093,
                        -0.43599388003349304,
                        0.17945347726345062,
                        0.3682703673839569,
                        0.11097683757543564,
                        0.10499772429466248,
                        -0.18856167793273926,
                        0.07452338933944702,
                        -0.36550772190093994,
                        0.019768886268138885,
                        -0.29170337319374084,
                        -0.24061676859855652,
                        -0.15233798325061798,
                        0.046154748648405075,
                        -0.20461152493953705,
                        -0.17453071475028992,
                        -0.5129858255386353,
                        0.35335567593574524,
                        0.0010077193146571517,
                        -0.11756134778261185,
                        -0.18204326927661896,
                        0.07946496456861496,
                        -0.2424439787864685,
                        -0.2874392569065094,
                        -0.4624940752983093,
                        0.005269291345030069,
                        0.29598939418792725,
                        -0.002954833908006549,
                        -0.045621659606695175,
                        -0.07024412602186203,
                        0.3703392446041107,
                        0.24250324070453644,
                        0.061251454055309296
                    ],
                    [
                        0.7013588547706604,
                        -0.6149539947509766,
                        0.10269617289304733,
                        0.5251898169517517,
                        0.40271034836769104,
                        -0.626194953918457,
                        0.34344950318336487,
                        0.31254222989082336,
                        -0.021921731531620026,
                        -0.3331453800201416,
                        -0.06362798064947128,
                        0.1716015636920929,
                        0.037520185112953186,
                        0.1763373613357544,
                        -0.08074398338794708,
                        -0.5358494520187378,
                        -0.19840243458747864,
                        0.2030109018087387,
                        0.1606675535440445,
                        -0.028079286217689514,
                        -0.016144273802638054,
                        0.286786288022995,
                        0.38297510147094727,
                        0.6707837581634521,
                        -0.14069467782974243,
                        0.387516587972641,
                        -0.4509366452693939,
                        0.012324383482336998,
                        -0.034000661224126816,
                        -0.04149072989821434,
                        -0.38180115818977356,
                        -0.06922957301139832,
                        0.16091342270374298,
                        0.7721368074417114,
                        0.24298743903636932,
                        0.6654427647590637,
                        0.10865144431591034,
                        -0.19920401275157928,
                        0.09422796964645386,
                        0.31078171730041504,
                        -0.3871822655200958,
                        0.15765397250652313,
                        -0.0388297401368618,
                        -0.4939210116863251,
                        -0.05830090865492821,
                        0.4841476380825043,
                        0.01708073355257511,
                        -0.04450902342796326,
                        -0.33335763216018677,
                        -0.020855901762843132,
                        -0.03207563981413841,
                        -0.1328173577785492,
                        -0.07788662612438202,
                        -0.20126546919345856,
                        0.12356285005807877,
                        -0.03880330175161362,
                        -0.051795732229948044,
                        0.3591560423374176,
                        0.2267024666070938,
                        -0.20345273613929749,
                        1.096054196357727,
                        -0.1616854965686798,
                        0.10766108334064484,
                        1.3392467498779297,
                        0.24624116718769073,
                        -0.12158723920583725,
                        0.2326955944299698,
                        0.5271819233894348,
                        -0.1338798552751541,
                        0.08182515949010849,
                        -0.374043732881546,
                        0.17917287349700928,
                        0.2692108154296875,
                        0.3322775661945343,
                        -0.036801014095544815,
                        0.13715042173862457,
                        -0.04296305030584335,
                        0.1405283510684967,
                        0.019982239231467247,
                        0.060114335268735886
                    ],
                    [
                        0.14947256445884705,
                        -0.1598711460828781,
                        -0.13352325558662415,
                        -1.1020803451538086,
                        -0.1772165298461914,
                        -0.03325587511062622,
                        -0.6987477540969849,
                        0.006770406384021044,
                        -0.08033745735883713,
                        -0.5911770462989807,
                        0.16627971827983856,
                        0.027760908007621765,
                        0.4114427864551544,
                        -0.24347904324531555,
                        0.034333448857069016,
                        -0.03650904446840286,
                        -0.18549464643001556,
                        0.078335702419281,
                        -0.0413271002471447,
                        -0.09129516780376434,
                        -0.27353036403656006,
                        0.3420608639717102,
                        -0.2969924509525299,
                        -0.5229226350784302,
                        -0.020729266107082367,
                        0.12024674564599991,
                        0.5321383476257324,
                        -0.3376888930797577,
                        -0.13365136086940765,
                        0.11509779840707779,
                        0.4874750077724457,
                        0.0896405354142189,
                        0.4683617949485779,
                        -0.48458120226860046,
                        0.4660961925983429,
                        0.14081116020679474,
                        0.3855161964893341,
                        -0.3436877131462097,
                        0.11762720346450806,
                        0.1582106202840805,
                        -0.9007585644721985,
                        0.012701970525085926,
                        -0.7656983137130737,
                        -0.5691978335380554,
                        -0.1005491390824318,
                        0.4449511766433716,
                        0.3055022656917572,
                        -0.008911536075174809,
                        -0.22204340994358063,
                        0.04021233320236206,
                        0.850062370300293,
                        0.3954266309738159,
                        0.3532131612300873,
                        -0.5181770324707031,
                        0.2946350574493408,
                        0.10842841118574142,
                        0.04842648282647133,
                        -0.013756022788584232,
                        0.08543017506599426,
                        -0.03310980647802353,
                        -0.25258564949035645,
                        0.19722925126552582,
                        -0.3000105619430542,
                        -0.3880382180213928,
                        -0.23607493937015533,
                        -0.017156798392534256,
                        -0.1738981306552887,
                        0.066117063164711,
                        -0.2634944021701813,
                        -0.273518830537796,
                        -0.8821995258331299,
                        0.3888489305973053,
                        -0.31780585646629333,
                        -0.2568683922290802,
                        0.23113659024238586,
                        0.18458497524261475,
                        0.045955583453178406,
                        -0.2309415191411972,
                        -0.20003318786621094,
                        -0.056596845388412476
                    ],
                    [
                        0.05637224391102791,
                        -0.7499820590019226,
                        -0.14642831683158875,
                        -0.1391759067773819,
                        0.10676416009664536,
                        -0.6468325257301331,
                        -0.3979268968105316,
                        0.08879106491804123,
                        -0.37023335695266724,
                        0.1709951013326645,
                        -0.14759550988674164,
                        -0.060317594558000565,
                        -0.050085585564374924,
                        0.06746556609869003,
                        -0.09350922703742981,
                        0.19245906174182892,
                        0.03428967297077179,
                        0.12565331161022186,
                        -0.04892526566982269,
                        0.04063403233885765,
                        0.16897113621234894,
                        0.12058522552251816,
                        -0.10711953043937683,
                        -0.1996830552816391,
                        0.03869011253118515,
                        -0.08941098302602768,
                        0.4928220510482788,
                        -0.29980871081352234,
                        -0.19256696105003357,
                        0.2546212375164032,
                        -0.15666724741458893,
                        0.20245018601417542,
                        0.1652471274137497,
                        -0.11446405947208405,
                        0.04123661294579506,
                        0.7158840298652649,
                        0.5349379181861877,
                        0.11111589521169662,
                        -0.06584051251411438,
                        0.17222793400287628,
                        -0.01975964568555355,
                        0.41056302189826965,
                        0.7435148358345032,
                        0.7117612361907959,
                        -0.2360239028930664,
                        0.00886165164411068,
                        0.38467755913734436,
                        -0.5988162159919739,
                        0.026572320610284805,
                        -0.055259644985198975,
                        0.27375659346580505,
                        0.10510342568159103,
                        -0.13230031728744507,
                        -0.027826650068163872,
                        0.0062833381816744804,
                        0.33900514245033264,
                        0.33731022477149963,
                        -0.04736405238509178,
                        -0.05215383321046829,
                        0.03968513756990433,
                        -0.46514496207237244,
                        0.1204449012875557,
                        -0.32132256031036377,
                        -0.23148870468139648,
                        0.05345876142382622,
                        0.18707303702831268,
                        -0.20224390923976898,
                        0.2224458009004593,
                        -0.13546870648860931,
                        0.14673903584480286,
                        -0.3086787164211273,
                        0.07000214606523514,
                        -0.08983239531517029,
                        -0.024630069732666016,
                        0.07132532447576523,
                        0.22411271929740906,
                        0.22492773830890656,
                        -0.09469590336084366,
                        -0.14840959012508392,
                        -0.06903623044490814
                    ],
                    [
                        -0.4237877130508423,
                        0.0429270938038826,
                        -0.23161537945270538,
                        0.24006809294223785,
                        0.13705095648765564,
                        0.15225854516029358,
                        0.21520905196666718,
                        0.14677706360816956,
                        0.2697686553001404,
                        -0.16190482676029205,
                        0.056765176355838776,
                        0.2699821889400482,
                        -0.15127047896385193,
                        -0.2694999873638153,
                        0.014009466394782066,
                        -0.011895919218659401,
                        -0.09976913034915924,
                        0.11372105777263641,
                        -0.10254121571779251,
                        -0.12330173701047897,
                        -0.7112410068511963,
                        -0.03806139901280403,
                        -0.28860923647880554,
                        0.6086652874946594,
                        -0.06929438561201096,
                        -0.24181050062179565,
                        -0.32863837480545044,
                        -0.06992191076278687,
                        -0.02428284101188183,
                        -0.09799094498157501,
                        0.3679526448249817,
                        -0.3877960443496704,
                        0.323533296585083,
                        -0.10583234578371048,
                        0.3291565179824829,
                        0.046586085110902786,
                        -0.017756160348653793,
                        -0.10286876559257507,
                        -0.14346303045749664,
                        -0.029822535812854767,
                        0.6940943002700806,
                        0.22241757810115814,
                        -0.011304046027362347,
                        0.6572259068489075,
                        0.027842914685606956,
                        -0.3806040287017822,
                        0.9693563580513,
                        0.02718418836593628,
                        0.16149775683879852,
                        -0.08747752755880356,
                        0.26006487011909485,
                        0.6273473501205444,
                        0.00040884505142457783,
                        1.0345467329025269,
                        0.10101126879453659,
                        -0.03512708842754364,
                        -0.06716638058423996,
                        -0.14014844596385956,
                        0.02109243907034397,
                        0.07241881638765335,
                        -0.5875335335731506,
                        -0.0521434023976326,
                        -0.21567392349243164,
                        0.671724796295166,
                        0.028302058577537537,
                        0.1072903573513031,
                        0.14709150791168213,
                        0.28560301661491394,
                        0.1764151155948639,
                        -0.060373883694410324,
                        -0.2487555593252182,
                        -0.07431890815496445,
                        0.22974596917629242,
                        -0.061258990317583084,
                        -0.10376381874084473,
                        -0.11398190259933472,
                        -0.05890946090221405,
                        0.10380234569311142,
                        -0.22598738968372345,
                        -0.16490691900253296
                    ],
                    [
                        0.2778494954109192,
                        -0.04881506785750389,
                        0.12127786129713058,
                        0.0522238090634346,
                        0.156553715467453,
                        0.04004649445414543,
                        0.4422258734703064,
                        0.1361093968153,
                        -0.14167363941669464,
                        -0.2505528926849365,
                        0.14947183430194855,
                        -0.08180133998394012,
                        -0.28013816475868225,
                        0.0496768057346344,
                        0.06586795300245285,
                        -0.09567973762750626,
                        -0.14720895886421204,
                        0.09767839312553406,
                        -0.13911986351013184,
                        -0.2862268388271332,
                        0.11269985139369965,
                        0.6931769251823425,
                        0.013416847214102745,
                        0.041291531175374985,
                        0.09633477032184601,
                        0.26099997758865356,
                        0.46492549777030945,
                        0.1762203574180603,
                        -0.12163925170898438,
                        -0.009974164888262749,
                        0.07842499017715454,
                        0.12012138962745667,
                        -0.010131691582500935,
                        0.05047803744673729,
                        0.15598462522029877,
                        0.11552155762910843,
                        0.26147061586380005,
                        -0.16029874980449677,
                        -0.12174414843320847,
                        -0.1274145245552063,
                        0.0005179984727874398,
                        0.19600573182106018,
                        0.6182325482368469,
                        -0.18161502480506897,
                        0.12557463347911835,
                        -0.20159609615802765,
                        0.20423084497451782,
                        0.28249889612197876,
                        -0.0730612650513649,
                        0.08009613305330276,
                        -0.01027839444577694,
                        -0.22669562697410583,
                        -0.14405089616775513,
                        -0.3537757396697998,
                        0.3782343566417694,
                        0.22481347620487213,
                        0.1391325145959854,
                        -0.06321736425161362,
                        0.15309102833271027,
                        0.3009848892688751,
                        0.302165150642395,
                        0.018998712301254272,
                        0.0633193776011467,
                        0.09682903438806534,
                        -0.0037189293652772903,
                        0.09427052736282349,
                        0.5890884399414062,
                        0.16967399418354034,
                        -0.06604423373937607,
                        -0.05828734487295151,
                        0.05367743968963623,
                        -0.09389471262693405,
                        -0.3023110032081604,
                        0.24288631975650787,
                        0.14872220158576965,
                        0.159112811088562,
                        0.20508939027786255,
                        0.17412060499191284,
                        -0.19355764985084534,
                        -0.3460839092731476
                    ],
                    [
                        0.13886494934558868,
                        0.21746937930583954,
                        0.19133159518241882,
                        0.007411818951368332,
                        -0.11258962005376816,
                        -0.8746757507324219,
                        -0.028527172282338142,
                        0.5670188665390015,
                        -0.130645290017128,
                        -0.5038985013961792,
                        0.3651381731033325,
                        0.06213994324207306,
                        0.04107905924320221,
                        0.38600364327430725,
                        -0.10029693692922592,
                        0.12172991782426834,
                        0.5417876243591309,
                        0.316268652677536,
                        -0.2561447024345398,
                        -0.10454856604337692,
                        -0.08023586869239807,
                        -0.14574281871318817,
                        -0.24391327798366547,
                        -0.3224601149559021,
                        -0.3923623561859131,
                        0.3691561818122864,
                        0.2766094207763672,
                        0.498037189245224,
                        -0.025352923199534416,
                        -0.32916298508644104,
                        0.07159127295017242,
                        -0.09285670518875122,
                        0.16220727562904358,
                        0.21113449335098267,
                        0.12010616064071655,
                        0.5410295724868774,
                        1.126967430114746,
                        0.261872798204422,
                        -0.3456026315689087,
                        0.3127952814102173,
                        0.14594657719135284,
                        -0.12255960702896118,
                        0.28552505373954773,
                        -0.21370664238929749,
                        0.4147186875343323,
                        -0.019893363118171692,
                        -0.23805691301822662,
                        -1.3415719270706177,
                        -0.11793909221887589,
                        0.3520311415195465,
                        -0.10051250457763672,
                        0.004113928414881229,
                        0.021895330399274826,
                        -0.2684028744697571,
                        -0.15293921530246735,
                        0.3866034150123596,
                        -0.7077538967132568,
                        0.31490927934646606,
                        -0.2393043488264084,
                        0.2243369072675705,
                        0.135359987616539,
                        -0.20692843198776245,
                        0.19531339406967163,
                        -0.031181389465928078,
                        0.3583831489086151,
                        -0.18581023812294006,
                        0.026224523782730103,
                        0.5210361480712891,
                        0.1096019595861435,
                        -0.26250016689300537,
                        0.18276505172252655,
                        0.17779798805713654,
                        0.15035568177700043,
                        -0.04164326190948486,
                        -0.2934648394584656,
                        0.5598571300506592,
                        1.003387451171875,
                        0.2024821937084198,
                        -0.5527039170265198,
                        0.09693266451358795
                    ],
                    [
                        -0.1287938952445984,
                        -0.10307489335536957,
                        -0.3387106657028198,
                        -0.3241770267486572,
                        0.6237339377403259,
                        -0.17893852293491364,
                        -0.2948220670223236,
                        -0.4838503301143646,
                        0.09073590487241745,
                        0.30723389983177185,
                        -0.4769413471221924,
                        0.2990400195121765,
                        -0.37567082047462463,
                        -0.2328098565340042,
                        0.3290160298347473,
                        -0.5719790458679199,
                        -0.09186392277479172,
                        -0.14357975125312805,
                        -0.20164181292057037,
                        0.41206324100494385,
                        0.01380076538771391,
                        -0.1328355073928833,
                        -0.023025834932923317,
                        -0.12820032238960266,
                        0.6498525142669678,
                        -0.2785760462284088,
                        0.12216468155384064,
                        0.10703036934137344,
                        -0.05412758141756058,
                        0.5276997685432434,
                        -0.4155225157737732,
                        0.47327685356140137,
                        -0.5014321208000183,
                        -0.14987924695014954,
                        0.2160460650920868,
                        -0.6267735958099365,
                        -0.6104782819747925,
                        -0.26483821868896484,
                        -0.11954385787248611,
                        0.2847442328929901,
                        0.40073922276496887,
                        0.031791262328624725,
                        -0.24194331467151642,
                        -0.021418577060103416,
                        -0.25777876377105713,
                        0.5969511866569519,
                        0.07724131643772125,
                        0.7978445887565613,
                        0.17891380190849304,
                        0.3548623025417328,
                        0.0048524667508900166,
                        -0.2107728123664856,
                        -0.0382891483604908,
                        0.15710477530956268,
                        0.36411622166633606,
                        -0.2727072834968567,
                        0.09529203921556473,
                        -0.37797895073890686,
                        -0.19699886441230774,
                        -0.07387737184762955,
                        0.020396193489432335,
                        -0.0891638770699501,
                        -0.19074402749538422,
                        -0.35398659110069275,
                        0.8989192843437195,
                        0.012663917616009712,
                        -0.2883877754211426,
                        -0.6259310841560364,
                        0.04778531193733215,
                        0.1878856122493744,
                        -0.35245251655578613,
                        0.3666873574256897,
                        -0.7330623865127563,
                        -0.023524096235632896,
                        0.16448093950748444,
                        -0.79264235496521,
                        -0.6758967041969299,
                        0.7076385021209717,
                        -0.12038805335760117,
                        0.22145450115203857
                    ],
                    [
                        -0.14062871038913727,
                        1.21713387966156,
                        0.13072504103183746,
                        -0.21763384342193604,
                        -0.641543984413147,
                        0.4878944158554077,
                        0.6715599894523621,
                        -0.4146423637866974,
                        -0.05605989694595337,
                        -0.08110184967517853,
                        -0.03389689326286316,
                        0.013650385662913322,
                        0.5563400387763977,
                        -0.3414037227630615,
                        0.38097649812698364,
                        0.8883347511291504,
                        0.5265416502952576,
                        -0.2469048947095871,
                        0.41830340027809143,
                        0.23573370277881622,
                        -0.02564605325460434,
                        -1.1714037656784058,
                        -0.15473560988903046,
                        -0.09836558252573013,
                        0.057699840515851974,
                        -1.1487038135528564,
                        -0.4493201673030853,
                        -0.4171246588230133,
                        -0.1351282298564911,
                        -0.0510830320417881,
                        -0.05184194818139076,
                        -0.28219592571258545,
                        0.03096492402255535,
                        -0.035859040915966034,
                        -0.5236395597457886,
                        -0.9104347825050354,
                        -0.20414769649505615,
                        -0.2166164368391037,
                        0.22877594828605652,
                        -0.11635023355484009,
                        -0.3078421652317047,
                        -0.16256818175315857,
                        0.00434278417378664,
                        -0.4098963141441345,
                        0.050143349915742874,
                        0.1765829175710678,
                        -0.4415086507797241,
                        -0.5242060422897339,
                        0.29462090134620667,
                        0.03620511665940285,
                        -0.2419465035200119,
                        -0.26456451416015625,
                        -0.06860855221748352,
                        -0.37810438871383667,
                        -0.0051759337075054646,
                        -0.21259795129299164,
                        -0.0888461098074913,
                        0.2249591201543808,
                        0.23750723898410797,
                        -0.09601666778326035,
                        0.3322216272354126,
                        0.3376308083534241,
                        0.08952956646680832,
                        -0.06649179756641388,
                        -0.6020755171775818,
                        -0.33407920598983765,
                        0.1497231274843216,
                        -0.45876941084861755,
                        -0.1435880959033966,
                        -0.2612944543361664,
                        -0.0013314670650288463,
                        -0.0721123069524765,
                        0.5854300260543823,
                        0.027504997327923775,
                        0.14586056768894196,
                        -0.24787300825119019,
                        -0.034383442252874374,
                        -0.6240965723991394,
                        0.28062376379966736,
                        0.09058326482772827
                    ],
                    [
                        0.07238569110631943,
                        -0.6671971678733826,
                        0.16538488864898682,
                        0.026896070688962936,
                        0.01414734311401844,
                        0.07069465517997742,
                        -0.32180941104888916,
                        0.1986042857170105,
                        -0.11042727530002594,
                        -0.04607134684920311,
                        0.11833787709474564,
                        -0.20903633534908295,
                        0.33116427063941956,
                        -0.09547851979732513,
                        -0.12206293642520905,
                        0.5113674998283386,
                        -0.40604493021965027,
                        -0.1756216436624527,
                        0.07790632545948029,
                        -0.20693880319595337,
                        0.3643633723258972,
                        0.9088090658187866,
                        -0.023843269795179367,
                        0.09236527234315872,
                        -0.36915963888168335,
                        0.510444164276123,
                        0.6561431288719177,
                        0.04863421618938446,
                        -0.12224309146404266,
                        0.18078987300395966,
                        0.15462982654571533,
                        -0.005518696270883083,
                        0.2169926017522812,
                        0.0032432435546070337,
                        0.044461727142333984,
                        0.4863998591899872,
                        -0.17042623460292816,
                        -0.1645844578742981,
                        0.4703303575515747,
                        -0.17614008486270905,
                        -0.23739373683929443,
                        0.20255662500858307,
                        0.3231630027294159,
                        -0.02214387059211731,
                        -0.11964906007051468,
                        -0.7649876475334167,
                        -0.13129490613937378,
                        0.5496119260787964,
                        -0.07570546865463257,
                        -0.23694191873073578,
                        -0.641905665397644,
                        -0.0521416999399662,
                        -0.12965837121009827,
                        -0.12074673175811768,
                        -0.20838414132595062,
                        -0.21895283460617065,
                        0.40148285031318665,
                        -0.1085255891084671,
                        0.11112106591463089,
                        -0.2612074315547943,
                        0.25972414016723633,
                        0.16864286363124847,
                        0.20131753385066986,
                        0.062425512820482254,
                        -0.26098787784576416,
                        0.3187532126903534,
                        -0.00707582663744688,
                        0.2504429817199707,
                        -0.07060974836349487,
                        0.05324621871113777,
                        -0.05288752540946007,
                        -0.016712792217731476,
                        0.2434767186641693,
                        -0.14712882041931152,
                        -0.06300186365842819,
                        0.766055703163147,
                        -0.25430426001548767,
                        -0.2735750079154968,
                        0.4875238239765167,
                        -0.23027415573596954
                    ],
                    [
                        -0.09811171144247055,
                        0.9252424240112305,
                        -0.12502168118953705,
                        -0.11504998803138733,
                        -0.2521932125091553,
                        0.476699560880661,
                        0.7065333127975464,
                        0.10499360412359238,
                        -0.005803662817925215,
                        0.005307878367602825,
                        0.06128866598010063,
                        0.037784840911626816,
                        0.0475241057574749,
                        0.020232750102877617,
                        0.003273024456575513,
                        0.743148922920227,
                        0.11066176742315292,
                        0.1708671897649765,
                        0.05291999503970146,
                        0.0021324127446860075,
                        -0.4845215976238251,
                        -0.814316987991333,
                        -0.1459065079689026,
                        0.055608201771974564,
                        -0.06307047605514526,
                        -0.3979315161705017,
                        -0.4343401789665222,
                        0.3077634871006012,
                        0.013715406879782677,
                        0.09969118982553482,
                        -0.11598208546638489,
                        -0.23007997870445251,
                        0.1640826016664505,
                        0.005537372548133135,
                        -0.2133491486310959,
                        -0.194139763712883,
                        -0.01490508671849966,
                        0.14291781187057495,
                        -0.3444618284702301,
                        -0.1827818751335144,
                        0.18644870817661285,
                        0.06697086244821548,
                        0.07704956084489822,
                        0.16201172769069672,
                        -0.03683953359723091,
                        0.26481086015701294,
                        0.15128165483474731,
                        0.1936088651418686,
                        0.29734474420547485,
                        -0.16130614280700684,
                        -0.02903752401471138,
                        0.09122204035520554,
                        -0.08342236280441284,
                        -0.05357291176915169,
                        -0.19461770355701447,
                        0.03944940119981766,
                        -0.4318239986896515,
                        0.3850814700126648,
                        -0.13319914042949677,
                        0.34954044222831726,
                        -0.1378851979970932,
                        -0.2908840775489807,
                        -0.19460612535476685,
                        0.11694463342428207,
                        0.13440780341625214,
                        0.035066377371549606,
                        -0.19008062779903412,
                        0.2873738408088684,
                        -0.06263755261898041,
                        -0.06236151233315468,
                        -0.02415342442691326,
                        -0.17574627697467804,
                        -0.051320429891347885,
                        0.2135671079158783,
                        0.028866363689303398,
                        -0.0075732991099357605,
                        0.3451361060142517,
                        0.001817546202801168,
                        -0.3649037182331085,
                        0.1837420016527176
                    ]
                ],
                [
                    -0.19336548447608948,
                    -2.445457696914673,
                    -0.1432378590106964,
                    -0.06363964080810547,
                    2.1497068405151367,
                    -1.702277421951294,
                    -1.7161686420440674,
                    1.5004315376281738,
                    -0.2755897343158722,
                    -0.115386001765728,
                    -0.112516850233078,
                    -0.5577423572540283,
                    -0.6055761575698853,
                    0.7543348073959351,
                    -1.1675487756729126,
                    -1.3833949565887451,
                    -1.163459062576294,
                    0.47226640582084656,
                    -0.6431673169136047,
                    -0.0873987227678299,
                    0.5544601678848267,
                    3.323488473892212,
                    0.5298734903335571,
                    0.3500250577926636,
                    0.5435312390327454,
                    2.0535175800323486,
                    2.2718286514282227,
                    0.11201287806034088,
                    0.4329834580421448,
                    0.43134844303131104,
                    0.457809180021286,
                    0.5788217782974243,
                    0.8124752044677734,
                    -0.19839391112327576,
                    1.450484275817871,
                    1.9838669300079346,
                    0.02696872502565384,
                    0.6538958549499512,
                    0.5219978094100952,
                    0.8510478138923645,
                    -0.11137771606445312,
                    -0.17962750792503357,
                    0.2510750889778137,
                    -0.1388726532459259,
                    -0.5930415987968445,
                    0.1123449057340622,
                    -0.002040926367044449,
                    0.04913490638136864,
                    -0.31903257966041565,
                    0.11071453988552094,
                    0.38028454780578613,
                    -0.01862911880016327,
                    0.0014873221516609192,
                    -0.34169289469718933,
                    0.08567151427268982,
                    -0.014194510877132416,
                    0.44340330362319946,
                    -0.6376917958259583,
                    0.6727457046508789,
                    -0.2585814893245697,
                    -0.6592224836349487,
                    -0.10045144706964493,
                    -0.04354516789317131,
                    0.2517138421535492,
                    1.2958426475524902,
                    -0.08175325393676758,
                    0.16240639984607697,
                    1.1172866821289062,
                    0.33740541338920593,
                    0.47267886996269226,
                    -0.2648072838783264,
                    -0.08359605073928833,
                    -0.1880798041820526,
                    -0.6301534175872803,
                    -0.5538111329078674,
                    0.1887310892343521,
                    -0.3642195463180542,
                    1.084773302078247,
                    0.190004363656044,
                    -0.01108659990131855
                ]
            ]
        },
        {
            "type": "dense",
            "activation": "",
            "shape": [
                null,
                null,
                1
            ],
            "weights": [
                [
                    [
                        -0.15222036838531494
                    ],
                    [
                        -0.23459593951702118
                    ],
                    [
                        -0.7685111165046692
                    ],
                    [
                        -0.22173844277858734
                    ],
                    [
                        -0.007884984835982323
                    ],
                    [
                        0.1491946280002594
                    ],
                    [
                        1.3793861865997314
                    ],
                    [
                        -0.03927607834339142
                    ],
                    [
                        -0.10790199041366577
                    ],
                    [
                        -0.30854734778404236
                    ],
                    [
                        0.3166664242744446
                    ],
                    [
                        0.2708926200866699
                    ],
                    [
                        0.09054876118898392
                    ],
                    [
                        0.2375318557024002
                    ],
                    [
                        0.254233717918396
                    ],
                    [
                        0.10852417349815369
                    ],
                    [
                        -0.19287683069705963
                    ],
                    [
                        0.09289535880088806
                    ],
                    [
                        0.21876321732997894
                    ],
                    [
                        0.023138808086514473
                    ]
                ],
                [
                    -0.04519566521048546
                ]
            ]
        }
    ]
}