{
    "in_shape": [
        null,
        null,
        1
    ],
    "layers": [
        {
            "type": "lstm",
            "activation": "",
            "shape": [
                null,
                null,
                20
            ],
            "weights": [
                [
                    [
                        -0.03923479840159416,
                        -0.26245224475860596,
                        0.8901845216751099,
                        0.13844937086105347,
                        0.06574375927448273,
                        0.22179213166236877,
                        0.027716727927327156,
                        0.2816719710826874,
                        0.21617674827575684,
                        0.325040340423584,
                        0.1421554982662201,
                        -0.029470421373844147,
                        -0.005046555772423744,
                        0.20600630342960358,
                        0.2240576148033142,
                        0.028741737827658653,
                        0.03795947879552841,
                        0.2627095878124237,
                        -0.006196149624884129,
                        -0.18908998370170593,
                        -0.7470801472663879,
                        0.06439489871263504,
                        1.2795661687850952,
                        0.052733831107616425,
                        0.017206335440278053,
                        0.13259699940681458,
                        -0.08560457825660706,
                        0.06930350512266159,
                        0.03448573499917984,
                        0.2841295599937439,
                        0.2955431342124939,
                        -0.1387544721364975,
                        0.01769951544702053,
                        0.04488607868552208,
                        -0.010209042578935623,
                        0.1406024694442749,
                        0.011885412968695164,
                        0.28066855669021606,
                        -0.07950012385845184,
                        0.06934439390897751,
                        -0.9969531297683716,
                        0.08474445343017578,
                        2.8362953662872314,
                        0.6048719882965088,
                        -0.13348476588726044,
                        -0.15634247660636902,
                        0.13082852959632874,
                        0.07273261994123459,
                        0.3052803575992584,
                        -0.5252074599266052,
                        0.5521819591522217,
                        -0.5702614188194275,
                        -0.08329802006483078,
                        0.06277056038379669,
                        -0.09871174395084381,
                        0.6788812279701233,
                        -0.3772290349006653,
                        0.883518397808075,
                        -0.05285367742180824,
                        0.007542103994637728,
                        -0.39047858119010925,
                        -0.29555121064186096,
                        0.22430050373077393,
                        0.26305148005485535,
                        -0.06954450905323029,
                        0.1866462379693985,
                        -0.14734038710594177,
                        0.06664564460515976,
                        -0.6552075743675232,
                        -0.08020666241645813,
                        -0.023090366274118423,
                        0.21888957917690277,
                        -0.3267717957496643,
                        -0.1627727895975113,
                        0.1680300086736679,
                        0.03200439736247063,
                        -0.016302648931741714,
                        0.1606052666902542,
                        0.24817217886447906,
                        0.049984756857156754
                    ]
                ],
                [
                    [
                        -0.0808921754360199,
                        -0.13363374769687653,
                        -0.09538618475198746,
                        0.1680724173784256,
                        -0.06460844725370407,
                        0.10578311234712601,
                        -0.03803161159157753,
                        0.2801041901111603,
                        0.1917688101530075,
                        0.24538543820381165,
                        0.22111572325229645,
                        -0.03836894780397415,
                        0.020363857969641685,
                        0.7172945141792297,
                        -0.1745598018169403,
                        -0.1641215831041336,
                        -0.06798931956291199,
                        0.14969690144062042,
                        -0.12843666970729828,
                        0.013430098071694374,
                        -0.3846496641635895,
                        0.1627110093832016,
                        0.04720225930213928,
                        0.2769961357116699,
                        -0.09411224722862244,
                        -0.018776318058371544,
                        -0.038988783955574036,
                        0.2409253567457199,
                        -0.1688091903924942,
                        -0.4092467129230499,
                        -0.4768272042274475,
                        0.23670311272144318,
                        -0.02391468919813633,
                        0.08849221467971802,
                        0.04032747820019722,
                        -0.2029653787612915,
                        0.0168712567538023,
                        0.29829689860343933,
                        -0.1598624736070633,
                        0.1764707714319229,
                        1.686261773109436,
                        -0.12190165370702744,
                        -0.05828619748353958,
                        0.14309729635715485,
                        0.08467324823141098,
                        0.7625948190689087,
                        -0.24965189397335052,
                        0.009854333475232124,
                        0.025317449122667313,
                        -0.05346345528960228,
                        0.11221206188201904,
                        -0.5528708696365356,
                        0.02331024594604969,
                        -0.002938668243587017,
                        0.04583269730210304,
                        -0.16045218706130981,
                        -0.03029044345021248,
                        0.1825876235961914,
                        0.3398085832595825,
                        0.01853172667324543,
                        0.40853452682495117,
                        -0.07833468168973923,
                        0.09167959541082382,
                        -0.039943091571331024,
                        0.31742003560066223,
                        0.014600646682083607,
                        0.1192454844713211,
                        0.025819038972258568,
                        0.15339872241020203,
                        -0.10538891702890396,
                        0.029555190354585648,
                        -0.009518669918179512,
                        -0.4392087161540985,
                        0.5784987211227417,
                        0.008304145187139511,
                        -0.4146982431411743,
                        -0.12172606587409973,
                        0.07680152356624603,
                        -0.2703118920326233,
                        -0.12038185447454453
                    ],
                    [
                        -0.1029789075255394,
                        -0.2381862998008728,
                        -0.6222598552703857,
                        0.812873899936676,
                        -0.08094630390405655,
                        0.15930067002773285,
                        0.055711545050144196,
                        0.2528153955936432,
                        0.1065908744931221,
                        0.40391045808792114,
                        -0.3005364239215851,
                        -0.2395656704902649,
                        -0.017146501690149307,
                        0.3044094145298004,
                        -0.03698289766907692,
                        -0.1461799144744873,
                        -0.015441007912158966,
                        -0.2486545741558075,
                        -0.1266888976097107,
                        0.2209056317806244,
                        -0.10499616712331772,
                        0.23251767456531525,
                        -0.05913590267300606,
                        -0.1386190801858902,
                        -0.2996167242527008,
                        0.06136957183480263,
                        -0.20863984525203705,
                        -0.2799519896507263,
                        0.030885841697454453,
                        -1.0362094640731812,
                        -0.18252481520175934,
                        0.06515613943338394,
                        -0.12156359851360321,
                        0.15296146273612976,
                        0.0628533884882927,
                        -0.441890150308609,
                        -0.14035823941230774,
                        -0.3566507399082184,
                        -0.11847928166389465,
                        -0.060972362756729126,
                        0.2793518900871277,
                        0.3631644546985626,
                        0.20007579028606415,
                        0.2688085734844208,
                        -0.5867571830749512,
                        -0.0038647206965833902,
                        0.13268302381038666,
                        0.07859162986278534,
                        -0.09652850031852722,
                        -0.11196489632129669,
                        -0.6863613724708557,
                        0.011443003080785275,
                        -0.3149777054786682,
                        -0.048936162143945694,
                        0.004512250889092684,
                        0.27951163053512573,
                        -0.1789032518863678,
                        -0.8638361096382141,
                        -0.15842819213867188,
                        -0.14087370038032532,
                        -0.22801844775676727,
                        -0.7583407759666443,
                        -0.046889401972293854,
                        0.4941438138484955,
                        -0.10256849229335785,
                        -0.3775603175163269,
                        -0.21683335304260254,
                        0.011302763596177101,
                        0.3481062650680542,
                        0.12959009408950806,
                        -0.23045937716960907,
                        -0.4562690258026123,
                        0.2084677517414093,
                        0.11666736006736755,
                        -0.04603118076920509,
                        -0.17635421454906464,
                        -0.2386520355939865,
                        -0.14268380403518677,
                        -0.21203605830669403,
                        -0.1258731335401535
                    ],
                    [
                        0.324502170085907,
                        -0.117385134100914,
                        1.102081537246704,
                        -0.18639452755451202,
                        -0.014017900452017784,
                        -0.11770172417163849,
                        -0.394528329372406,
                        -0.17290158569812775,
                        -0.165436789393425,
                        -0.379322350025177,
                        0.42506083846092224,
                        0.15906007587909698,
                        0.008164916187524796,
                        -0.30124709010124207,
                        -0.28094276785850525,
                        0.137213334441185,
                        -0.14266900718212128,
                        0.546242892742157,
                        0.1353604793548584,
                        -0.20836730301380157,
                        0.05136372521519661,
                        0.6667755246162415,
                        0.41543975472450256,
                        0.7125341296195984,
                        0.12165225297212601,
                        -0.12734024226665497,
                        0.22834055125713348,
                        0.27002766728401184,
                        0.12782804667949677,
                        0.42913177609443665,
                        1.108554720878601,
                        -0.06920693814754486,
                        0.1974903643131256,
                        -0.037421513348817825,
                        0.5733168721199036,
                        0.28892308473587036,
                        -0.30260810256004333,
                        0.4111146330833435,
                        -0.2188199758529663,
                        0.25803136825561523,
                        0.5034142732620239,
                        -0.02538563497364521,
                        0.25352129340171814,
                        -0.04910878837108612,
                        0.10063152760267258,
                        0.18418918550014496,
                        0.05238093435764313,
                        0.3099204897880554,
                        0.25405314564704895,
                        -0.3617982566356659,
                        -1.7559453248977661,
                        -0.14279626309871674,
                        -0.2381506711244583,
                        -0.27218446135520935,
                        -0.25573447346687317,
                        0.5147324800491333,
                        -0.34509366750717163,
                        0.23575745522975922,
                        0.4650721848011017,
                        0.09186830371618271,
                        0.20196181535720825,
                        0.16852939128875732,
                        1.3156273365020752,
                        0.6875649690628052,
                        0.1836908906698227,
                        -0.19794952869415283,
                        0.05990070104598999,
                        0.1408616602420807,
                        -0.20327766239643097,
                        -0.41407814621925354,
                        0.30086755752563477,
                        0.08373667299747467,
                        -0.7489216327667236,
                        -0.12338002771139145,
                        -0.10251731425523758,
                        0.3708885610103607,
                        -0.18643304705619812,
                        0.4677804708480835,
                        -0.4655202627182007,
                        0.14234420657157898
                    ],
                    [
                        0.19673798978328705,
                        -0.010868922807276249,
                        0.048800017684698105,
                        -0.15624743700027466,
                        -0.0016928912373259664,
                        0.017456453293561935,
                        0.2904622256755829,
                        -0.4048685133457184,
                        0.15966682136058807,
                        0.73076993227005,
                        0.17384111881256104,
                        0.14809106290340424,
                        -0.0014467985602095723,
                        0.05067885294556618,
                        -0.14304402470588684,
                        0.12046776711940765,
                        -0.05819235369563103,
                        0.0680457204580307,
                        0.15700435638427734,
                        -0.05929797142744064,
                        0.08157456666231155,
                        -0.21116290986537933,
                        -0.2467261403799057,
                        -0.5463051199913025,
                        0.07755215466022491,
                        0.15088894963264465,
                        -0.09006849676370621,
                        -0.010174035094678402,
                        0.2321985363960266,
                        0.07489834725856781,
                        0.2318551242351532,
                        0.05155852809548378,
                        0.13650815188884735,
                        0.13377919793128967,
                        0.32083362340927124,
                        -0.07104985415935516,
                        -0.1592368483543396,
                        0.06434175372123718,
                        0.22796808183193207,
                        0.19188500940799713,
                        -0.9373972415924072,
                        0.561211347579956,
                        -0.1386537402868271,
                        0.18903350830078125,
                        -0.09034416824579239,
                        0.02658664807677269,
                        -0.30278533697128296,
                        0.07241012901067734,
                        -0.2863001525402069,
                        -0.1358107179403305,
                        0.7052709460258484,
                        -0.31595608592033386,
                        -0.12994788587093353,
                        0.07531093060970306,
                        0.136700838804245,
                        0.26625707745552063,
                        -0.481186181306839,
                        0.3520296514034271,
                        -0.1946602165699005,
                        -0.16644832491874695,
                        0.17597301304340363,
                        -0.04444897174835205,
                        -0.6378774642944336,
                        -0.6254505515098572,
                        0.0993783175945282,
                        -0.01232941821217537,
                        0.2288304567337036,
                        -0.6515249013900757,
                        0.25875571370124817,
                        0.3801475763320923,
                        0.16672280430793762,
                        0.0807969868183136,
                        0.40860021114349365,
                        0.21720373630523682,
                        -0.06136861816048622,
                        0.17712654173374176,
                        -0.03028562106192112,
                        0.11321231722831726,
                        0.7503160238265991,
                        0.3076377511024475
                    ],
                    [
                        0.27291348576545715,
                        -0.0677047148346901,
                        -0.15708036720752716,
                        -0.6140341758728027,
                        0.07447546720504761,
                        -0.5045695900917053,
                        -0.12652479112148285,
                        -0.16987831890583038,
                        -0.07998763024806976,
                        0.17745962738990784,
                        0.2300289273262024,
                        0.02364109456539154,
                        0.01357442419975996,
                        -0.1160091757774353,
                        -0.553422749042511,
                        -0.007087392266839743,
                        0.009850113652646542,
                        0.22522111237049103,
                        0.11753009259700775,
                        -0.20511381328105927,
                        -0.24551387131214142,
                        0.6824723482131958,
                        -0.1812129020690918,
                        0.0710010975599289,
                        0.5434112548828125,
                        0.36678531765937805,
                        -0.11101356148719788,
                        0.4461553394794464,
                        0.2280895709991455,
                        -0.04712716490030289,
                        -0.4979563355445862,
                        0.022706568241119385,
                        0.2724863886833191,
                        0.131291925907135,
                        0.5716580152511597,
                        0.16681218147277832,
                        0.1604986935853958,
                        0.40472882986068726,
                        -0.08944094926118851,
                        0.1165313720703125,
                        0.12200275808572769,
                        -0.39239221811294556,
                        0.0926671102643013,
                        0.30588024854660034,
                        0.1633671224117279,
                        -0.04858151078224182,
                        -0.172880619764328,
                        0.5764102339744568,
                        0.3212864398956299,
                        0.09201845526695251,
                        -0.06177065148949623,
                        -0.43828707933425903,
                        0.1581338793039322,
                        0.07236659526824951,
                        0.02514214627444744,
                        0.17082270979881287,
                        0.18859709799289703,
                        0.31563782691955566,
                        -0.020848285406827927,
                        0.08843535929918289,
                        0.29543575644493103,
                        -0.2732411026954651,
                        -0.3525170087814331,
                        0.23688820004463196,
                        1.0898934602737427,
                        0.05911051854491234,
                        0.07774187624454498,
                        0.3512663245201111,
                        -0.150022491812706,
                        0.15117302536964417,
                        0.32402724027633667,
                        0.09610184282064438,
                        0.011989119462668896,
                        -0.022594697773456573,
                        0.006959765683859587,
                        -0.06441118568181992,
                        0.2591343820095062,
                        0.23039677739143372,
                        -0.5547799468040466,
                        0.0730704516172409
                    ],
                    [
                        0.031117018312215805,
                        -0.2503119111061096,
                        -0.2329089194536209,
                        -0.2881687581539154,
                        -0.034983959048986435,
                        -0.29211002588272095,
                        -0.08136503398418427,
                        -0.25635677576065063,
                        -0.025878630578517914,
                        -0.01419278047978878,
                        -0.006732052192091942,
                        0.07147414982318878,
                        0.0009594009607098997,
                        -0.5885319709777832,
                        0.04549184814095497,
                        0.180059552192688,
                        0.08035944402217865,
                        -0.0017577022081241012,
                        0.11244969069957733,
                        -0.1329285204410553,
                        -0.1691778600215912,
                        0.2163773477077484,
                        -0.26868048310279846,
                        0.06499232351779938,
                        0.06532717496156693,
                        0.20020164549350739,
                        -0.07163897156715393,
                        0.210086852312088,
                        0.09348658472299576,
                        0.1760101318359375,
                        -0.09453918784856796,
                        0.24102729558944702,
                        0.08407504111528397,
                        -0.46688467264175415,
                        0.4860237240791321,
                        -0.22238576412200928,
                        0.05512065440416336,
                        -0.11890403181314468,
                        -0.03385840728878975,
                        0.24300596117973328,
                        -0.05599791556596756,
                        0.25615009665489197,
                        0.0733857974410057,
                        -0.023317020386457443,
                        -0.04068710282444954,
                        0.07258065044879913,
                        0.05703278258442879,
                        0.13145019114017487,
                        -0.14844003319740295,
                        0.07066374272108078,
                        0.1024308130145073,
                        0.07186351716518402,
                        -0.27560463547706604,
                        -0.4745795428752899,
                        -1.6058754920959473,
                        -0.15708327293395996,
                        0.054167795926332474,
                        0.19250477850437164,
                        -0.2620948553085327,
                        -0.15227185189723969,
                        -0.3114687502384186,
                        0.1433994621038437,
                        0.5165784955024719,
                        -0.15046986937522888,
                        -0.06567233800888062,
                        0.9219443798065186,
                        -0.0529726967215538,
                        0.19015087187290192,
                        -0.003676454536616802,
                        0.05917491763830185,
                        0.06382124871015549,
                        0.3643718659877777,
                        0.14376817643642426,
                        0.14004839956760406,
                        0.12717166543006897,
                        0.20970502495765686,
                        0.022802818566560745,
                        0.0654749944806099,
                        0.05941346287727356,
                        0.11514445394277573
                    ],
                    [
                        -0.2374100685119629,
                        -0.0641624927520752,
                        0.28595131635665894,
                        0.5080795884132385,
                        -0.01856813207268715,
                        0.490934282541275,
                        -0.09616535902023315,
                        0.27177128195762634,
                        0.028288844972848892,
                        0.1731145679950714,
                        -0.249415323138237,
                        -0.052729282528162,
                        -0.03317200019955635,
                        0.055907558649778366,
                        0.25842204689979553,
                        -0.2195884734392166,
                        -0.06281442940235138,
                        0.060307130217552185,
                        -0.20154787600040436,
                        0.038541458547115326,
                        -0.14380969107151031,
                        0.06191029027104378,
                        0.11003834754228592,
                        -0.3111954927444458,
                        -0.37858107686042786,
                        -0.17788469791412354,
                        0.08819342404603958,
                        -0.32750415802001953,
                        -0.23523570597171783,
                        0.042138971388339996,
                        0.06809023767709732,
                        0.05784265324473381,
                        -0.26131728291511536,
                        -0.2870793640613556,
                        -0.3581748902797699,
                        0.15913641452789307,
                        -0.11374641209840775,
                        0.14124265313148499,
                        -0.2146424800157547,
                        -0.2836776375770569,
                        -0.5434707999229431,
                        0.029481831938028336,
                        -0.07555638253688812,
                        -0.23549646139144897,
                        -0.19818203151226044,
                        0.021774914115667343,
                        0.39394575357437134,
                        0.02967775985598564,
                        0.19198036193847656,
                        0.010332158766686916,
                        0.5298411846160889,
                        0.290327787399292,
                        -0.12301377207040787,
                        -0.38613948225975037,
                        0.15946060419082642,
                        -0.024495569989085197,
                        -0.22360971570014954,
                        -0.2797318696975708,
                        -0.32115599513053894,
                        0.3096206784248352,
                        0.10628451406955719,
                        0.21190768480300903,
                        0.07980046421289444,
                        -0.0006084967171773314,
                        -0.24116253852844238,
                        0.11035085469484329,
                        -0.18743346631526947,
                        0.1756400316953659,
                        0.10366292297840118,
                        -0.12454882264137268,
                        -0.2815159559249878,
                        0.30738645792007446,
                        -0.3158053159713745,
                        -0.4736574590206146,
                        0.004123758524656296,
                        -0.24502739310264587,
                        -0.20770134031772614,
                        -0.15794165432453156,
                        -0.1876859813928604,
                        -0.25182539224624634
                    ],
                    [
                        0.24954311549663544,
                        0.4164145290851593,
                        -0.5579635500907898,
                        -0.08521455526351929,
                        0.13852770626544952,
                        -0.39641791582107544,
                        -0.1781725287437439,
                        0.3558662235736847,
                        -0.010692814365029335,
                        0.49843207001686096,
                        0.09455224871635437,
                        -0.0008141266880556941,
                        0.07445117086172104,
                        0.24972139298915863,
                        0.1170041412115097,
                        -0.1253497451543808,
                        0.03610648959875107,
                        -0.029241416603326797,
                        0.09705005586147308,
                        -0.5606004595756531,
                        -0.10158602893352509,
                        -0.37379199266433716,
                        -0.42801839113235474,
                        -0.2709287405014038,
                        0.2977447807788849,
                        0.36177486181259155,
                        -0.667790412902832,
                        0.3408562242984772,
                        0.2916901111602783,
                        -0.28628069162368774,
                        -0.7018378376960754,
                        0.14791592955589294,
                        0.2944529056549072,
                        0.17374154925346375,
                        0.22866006195545197,
                        -0.2986446022987366,
                        0.14775730669498444,
                        0.029038121923804283,
                        -0.1528717577457428,
                        -0.4613874852657318,
                        -0.41773995757102966,
                        0.09404125064611435,
                        0.16053438186645508,
                        0.23072750866413116,
                        0.1780896931886673,
                        0.1531914621591568,
                        0.03170965611934662,
                        0.3200960159301758,
                        0.12826445698738098,
                        -0.21886128187179565,
                        -0.11911290884017944,
                        -0.13940367102622986,
                        -0.024841228500008583,
                        0.16871726512908936,
                        -0.06472862511873245,
                        -0.3862631022930145,
                        -0.031877078115940094,
                        0.3626224100589752,
                        -0.3439822793006897,
                        0.5365950465202332,
                        0.024786626920104027,
                        0.06245260685682297,
                        -1.5498757362365723,
                        -0.6763743162155151,
                        0.28652557730674744,
                        -0.2437014877796173,
                        -0.15292251110076904,
                        -0.07361812144517899,
                        0.12056592851877213,
                        0.4433536231517792,
                        0.30110910534858704,
                        -0.44113895297050476,
                        0.537248432636261,
                        0.41099801659584045,
                        0.056787461042404175,
                        -0.0950145497918129,
                        -0.3761422634124756,
                        0.04949752986431122,
                        -0.015473159030079842,
                        -0.1422436684370041
                    ],
                    [
                        0.10930395126342773,
                        0.2069062441587448,
                        0.306262731552124,
                        -0.6776766777038574,
                        -0.07536399364471436,
                        0.12245791405439377,
                        0.055720485746860504,
                        0.19952960312366486,
                        -0.2055293768644333,
                        -0.5489028692245483,
                        0.05250554904341698,
                        0.00126654130872339,
                        0.011082642711699009,
                        0.00870828703045845,
                        0.2230224907398224,
                        0.08575092256069183,
                        0.0765589252114296,
                        0.06084822490811348,
                        0.09230324625968933,
                        -0.013654005713760853,
                        0.21136273443698883,
                        -0.01176774688065052,
                        -0.06889623403549194,
                        -0.3698233366012573,
                        0.09881989657878876,
                        -0.29448994994163513,
                        0.07314085215330124,
                        0.574921727180481,
                        0.10371749103069305,
                        -0.12829293310642242,
                        -0.06245293840765953,
                        -0.048334576189517975,
                        0.06004585325717926,
                        0.024412106722593307,
                        0.07278237491846085,
                        0.10826899856328964,
                        0.08472277224063873,
                        0.1872091442346573,
                        0.10887695103883743,
                        0.2084094136953354,
                        0.31007149815559387,
                        -0.37737953662872314,
                        -0.3578556478023529,
                        0.19317543506622314,
                        -0.204780712723732,
                        -0.1713869720697403,
                        0.01836634799838066,
                        -0.38529884815216064,
                        0.2640451490879059,
                        -0.24940578639507294,
                        0.5821465849876404,
                        0.09820272028446198,
                        0.08820130676031113,
                        0.12601009011268616,
                        -0.031978800892829895,
                        -0.37084364891052246,
                        0.2818931043148041,
                        -0.13358840346336365,
                        0.04409370198845863,
                        0.153218075633049,
                        0.08791222423315048,
                        0.11269611120223999,
                        -0.05349084734916687,
                        -0.13191351294517517,
                        0.1662338525056839,
                        -0.10092870891094208,
                        0.1412232518196106,
                        0.1609366089105606,
                        -0.3412606716156006,
                        -0.6041750311851501,
                        0.0685851201415062,
                        -0.1704702526330948,
                        0.1200089156627655,
                        -0.016551746055483818,
                        -0.1708136796951294,
                        0.12387064099311829,
                        0.17440234124660492,
                        0.09827478229999542,
                        0.25481119751930237,
                        0.15151581168174744
                    ],
                    [
                        -0.28877925872802734,
                        -0.08751440048217773,
                        -0.8290375471115112,
                        0.07082400470972061,
                        0.0513375960290432,
                        0.33211424946784973,
                        0.0026123616844415665,
                        -0.12116701900959015,
                        -0.24399615824222565,
                        -0.11126013845205307,
                        -0.35539063811302185,
                        -0.2525266408920288,
                        -0.00842005480080843,
                        0.12460040301084518,
                        0.37891340255737305,
                        -0.05509762465953827,
                        0.03068600594997406,
                        -0.26949968934059143,
                        -0.18627776205539703,
                        0.3859700858592987,
                        0.0953129455447197,
                        0.131860613822937,
                        0.07938596606254578,
                        -0.5108643174171448,
                        -0.129556804895401,
                        -0.27069997787475586,
                        -0.054592881351709366,
                        -0.4114116430282593,
                        -0.48452579975128174,
                        -0.6879014372825623,
                        -0.6112849712371826,
                        0.2595764696598053,
                        -0.1499069184064865,
                        -0.020103324204683304,
                        -0.2931222915649414,
                        -0.12910504639148712,
                        0.3175925314426422,
                        0.3313540518283844,
                        0.13201206922531128,
                        0.1255030781030655,
                        -0.2689201831817627,
                        -0.31463444232940674,
                        0.6422330141067505,
                        -0.7741660475730896,
                        0.3344351649284363,
                        0.1766991764307022,
                        0.13197343051433563,
                        0.5560228824615479,
                        -0.09817155450582504,
                        -0.1380014270544052,
                        -1.302075982093811,
                        -0.14878055453300476,
                        -0.09072994440793991,
                        0.0268848929554224,
                        0.055438701063394547,
                        0.02704176865518093,
                        0.7754799723625183,
                        0.1500769406557083,
                        0.12997356057167053,
                        -0.07792796939611435,
                        -0.6717586517333984,
                        -0.09291522204875946,
                        0.3912186026573181,
                        -0.057824742048978806,
                        0.16775020956993103,
                        -0.016264747828245163,
                        -0.04188893735408783,
                        0.39634624123573303,
                        0.22631129622459412,
                        -0.783972442150116,
                        -0.20753595232963562,
                        -0.4101965129375458,
                        0.18518848717212677,
                        -0.019762584939599037,
                        0.4093068838119507,
                        -0.14333894848823547,
                        -0.10337206721305847,
                        -0.17646433413028717,
                        -0.41940078139305115,
                        0.08327877521514893
                    ],
                    [
                        -0.13692303001880646,
                        -0.21756577491760254,
                        -0.28104862570762634,
                        0.6439123153686523,
                        -0.08128901571035385,
                        0.0962744727730751,
                        0.10770974308252335,
                        -0.3662910461425781,
                        0.3215877413749695,
                        -0.34826576709747314,
                        -0.24192190170288086,
                        -0.01081907656043768,
                        -0.03378670662641525,
                        -0.10990359634160995,
                        0.24379204213619232,
                        0.088040292263031,
                        0.051271576434373856,
                        -0.06116853654384613,
                        -0.0405338779091835,
                        0.2485601305961609,
                        -0.33220985531806946,
                        -0.6358664631843567,
                        0.13053466379642487,
                        0.09121984243392944,
                        -0.19992440938949585,
                        -0.1387007087469101,
                        0.18909522891044617,
                        -0.5514655709266663,
                        0.31089121103286743,
                        -0.011722499504685402,
                        -1.141832709312439,
                        0.2148488461971283,
                        -0.269159197807312,
                        -0.08738730102777481,
                        -0.16303439438343048,
                        0.301054447889328,
                        0.02389541082084179,
                        0.23139747977256775,
                        -0.0872863382101059,
                        -0.19240956008434296,
                        -2.1807608604431152,
                        0.9906373620033264,
                        0.028197580948472023,
                        -0.17982445657253265,
                        -0.3172149062156677,
                        0.4440533220767975,
                        0.0860346257686615,
                        -0.6929427981376648,
                        -0.6074232459068298,
                        0.684516191482544,
                        0.5922985076904297,
                        -0.9157025814056396,
                        -0.19625388085842133,
                        0.05474415794014931,
                        0.28055641055107117,
                        0.5999431014060974,
                        -0.16264045238494873,
                        0.9786260724067688,
                        -1.2273099422454834,
                        -0.10404927283525467,
                        -0.6273460984230042,
                        -0.20716336369514465,
                        0.004546745214611292,
                        -0.5098569393157959,
                        -1.0747236013412476,
                        -0.10324543714523315,
                        0.05748094245791435,
                        -0.6852716207504272,
                        0.3710906207561493,
                        0.14851413667201996,
                        -0.49691295623779297,
                        0.24280934035778046,
                        1.3072011470794678,
                        0.32127368450164795,
                        -0.030680762603878975,
                        0.21702393889427185,
                        0.41117170453071594,
                        0.17529357969760895,
                        0.7437898516654968,
                        0.21193204820156097
                    ],
                    [
                        0.15212851762771606,
                        -0.15818065404891968,
                        -0.16363227367401123,
                        0.3592596650123596,
                        0.046033550053834915,
                        -0.600265622138977,
                        0.12652499973773956,
                        0.12741002440452576,
                        -0.03553706780076027,
                        0.26845699548721313,
                        -0.3556203842163086,
                        -0.3429977595806122,
                        0.012935311533510685,
                        0.18109403550624847,
                        -0.14834076166152954,
                        -0.11673169583082199,
                        0.006850211415439844,
                        0.23285722732543945,
                        -0.05992603302001953,
                        0.2617039680480957,
                        -0.014609676785767078,
                        0.06323759257793427,
                        -0.03528674319386482,
                        -0.29142898321151733,
                        0.07743608951568604,
                        -0.13776065409183502,
                        -0.05526736006140709,
                        -0.2929137349128723,
                        0.08062415570020676,
                        -0.44216835498809814,
                        -0.4132575988769531,
                        -0.26049286127090454,
                        0.12597230076789856,
                        0.05590435117483139,
                        0.06559418886899948,
                        -0.1962611824274063,
                        -0.10153838247060776,
                        0.3006346523761749,
                        0.03364142030477524,
                        0.009155277162790298,
                        1.4091225862503052,
                        -0.09862262010574341,
                        -0.04217454791069031,
                        0.19758988916873932,
                        0.22037075459957123,
                        -0.39667224884033203,
                        -0.11775270104408264,
                        0.3147236406803131,
                        0.025105616077780724,
                        -0.13168641924858093,
                        0.2595984935760498,
                        0.46342962980270386,
                        -0.09563463181257248,
                        0.21541453897953033,
                        0.25019535422325134,
                        -0.2985568046569824,
                        -0.004348592832684517,
                        0.36639294028282166,
                        0.3335898220539093,
                        0.02054080180823803,
                        -0.3239603340625763,
                        -0.18133170902729034,
                        0.17370806634426117,
                        0.08780179917812347,
                        0.4010765552520752,
                        -0.5715181231498718,
                        -0.22194166481494904,
                        -0.012695743702352047,
                        0.012263135053217411,
                        -0.17289194464683533,
                        -0.22014735639095306,
                        0.0428726002573967,
                        -0.15423649549484253,
                        0.4011251628398895,
                        0.09457236528396606,
                        -0.04188361391425133,
                        -0.03885405883193016,
                        0.1421947032213211,
                        -0.5143410563468933,
                        0.13676731288433075
                    ],
                    [
                        0.15853315591812134,
                        -0.5735722780227661,
                        -0.26884493231773376,
                        -0.397138774394989,
                        -0.01798199489712715,
                        -0.8798518180847168,
                        -0.08492427319288254,
                        -0.573737382888794,
                        0.032016437500715256,
                        -0.3379024565219879,
                        0.1706058233976364,
                        0.08162309229373932,
                        0.04694124683737755,
                        -0.3752697706222534,
                        -0.5852397084236145,
                        0.17589153349399567,
                        0.010883329436182976,
                        -0.05721202865242958,
                        0.23210172355175018,
                        -0.023211561143398285,
                        0.09924892336130142,
                        0.7791760563850403,
                        -0.304663747549057,
                        0.5391271114349365,
                        0.3351316452026367,
                        0.41471388936042786,
                        0.09505145996809006,
                        0.7112339735031128,
                        0.48570066690444946,
                        0.5453729033470154,
                        -0.055366113781929016,
                        0.0524730309844017,
                        0.1774263083934784,
                        0.09886513650417328,
                        0.8820314407348633,
                        -0.2869025766849518,
                        0.05222334340214729,
                        -0.24328479170799255,
                        0.17165960371494293,
                        0.31232520937919617,
                        -0.6118751764297485,
                        -0.07062866538763046,
                        -0.10309061408042908,
                        -0.3137891888618469,
                        0.15326057374477386,
                        0.24693025648593903,
                        -0.07707692682743073,
                        -0.14459919929504395,
                        -0.18356648087501526,
                        0.29841217398643494,
                        0.03724418208003044,
                        0.34179821610450745,
                        -0.0712425634264946,
                        0.07957322895526886,
                        0.18337303400039673,
                        0.113010473549366,
                        0.21088328957557678,
                        -0.23857395350933075,
                        -0.21489623188972473,
                        -0.16503405570983887,
                        -0.5328391790390015,
                        0.17564426362514496,
                        0.14002221822738647,
                        -0.13708041608333588,
                        -0.29609227180480957,
                        -0.007606486789882183,
                        0.07736237347126007,
                        0.6726908087730408,
                        0.21401695907115936,
                        0.2239515781402588,
                        0.24490880966186523,
                        -0.03880847617983818,
                        0.27109938859939575,
                        0.19992287456989288,
                        -0.05096478387713432,
                        0.37143394351005554,
                        0.3053482472896576,
                        0.2040904015302658,
                        0.11494844406843185,
                        0.177455335855484
                    ],
                    [
                        0.13647879660129547,
                        -0.13546372950077057,
                        -0.7385296821594238,
                        -0.39120060205459595,
                        0.00364974164403975,
                        -0.13847143948078156,
                        -0.2177661508321762,
                        -0.5703266859054565,
                        0.14706921577453613,
                        -0.1613462269306183,
                        0.10020209103822708,
                        0.1678457409143448,
                        0.05884421989321709,
                        0.1183154433965683,
                        -0.44857147336006165,
                        0.05980165675282478,
                        -0.0602639764547348,
                        -0.08252251148223877,
                        0.12058237940073013,
                        -0.013906522653996944,
                        -0.08963770419359207,
                        0.7568530440330505,
                        -0.40223729610443115,
                        0.37986746430397034,
                        0.31707167625427246,
                        0.8150122761726379,
                        0.05038655176758766,
                        0.2615683376789093,
                        0.2604801058769226,
                        0.10594732314348221,
                        -0.4262477159500122,
                        0.3442828953266144,
                        0.25959479808807373,
                        0.40744510293006897,
                        0.6805315017700195,
                        0.02148188091814518,
                        -0.003868215950205922,
                        0.08684168756008148,
                        0.10271433740854263,
                        0.37342917919158936,
                        0.24365268647670746,
                        0.019357314333319664,
                        0.09128621965646744,
                        -0.3099614977836609,
                        0.10611473023891449,
                        0.11490462720394135,
                        -0.13923732936382294,
                        0.11165706813335419,
                        -0.23995432257652283,
                        -0.1138710156083107,
                        0.12943367660045624,
                        0.5418959259986877,
                        0.16217169165611267,
                        0.16439172625541687,
                        0.2745235860347748,
                        -0.1573484241962433,
                        0.11519274115562439,
                        0.41262081265449524,
                        0.14121326804161072,
                        -0.13790753483772278,
                        0.0032080463133752346,
                        -0.19266700744628906,
                        0.2698618173599243,
                        0.032842397689819336,
                        0.2545565366744995,
                        -0.7986695170402527,
                        0.5382696986198425,
                        0.6691409349441528,
                        -0.22629286348819733,
                        0.04412446171045303,
                        0.13502095639705658,
                        -0.2903333604335785,
                        0.12288320809602737,
                        0.5350378751754761,
                        0.22135744988918304,
                        0.14250965416431427,
                        0.22494378685951233,
                        0.22447709739208221,
                        0.07105083018541336,
                        0.5586397051811218
                    ],
                    [
                        -0.01608559489250183,
                        -0.35594066977500916,
                        -0.6509049534797668,
                        -0.20001909136772156,
                        0.04961933195590973,
                        0.03085252456367016,
                        -0.11115604639053345,
                        -0.25201717019081116,
                        0.06314211338758469,
                        -0.07778624445199966,
                        -0.09692492336034775,
                        -0.15169721841812134,
                        0.01065835915505886,
                        -0.15527935326099396,
                        -0.5834800004959106,
                        -0.00971829704940319,
                        0.10141493380069733,
                        0.02292955107986927,
                        -0.07943037897348404,
                        -0.20974883437156677,
                        0.16460812091827393,
                        0.27466416358947754,
                        -0.45280224084854126,
                        -0.41400647163391113,
                        -0.050927579402923584,
                        0.0095223905518651,
                        -0.1724301427602768,
                        -0.23245316743850708,
                        0.3332065939903259,
                        -0.3727063238620758,
                        0.06267133355140686,
                        0.21906910836696625,
                        -0.10640506446361542,
                        -0.04473128169775009,
                        0.04981788620352745,
                        -0.2796848714351654,
                        0.011018390767276287,
                        0.18825837969779968,
                        -0.17261400818824768,
                        -0.03404276818037033,
                        0.4448084831237793,
                        -0.08403920382261276,
                        0.3441205620765686,
                        0.1477537304162979,
                        0.10918860882520676,
                        1.008793592453003,
                        0.029851213097572327,
                        0.26585668325424194,
                        -0.07108155637979507,
                        -0.37822431325912476,
                        -0.35418158769607544,
                        -0.1030237078666687,
                        -0.09706651419401169,
                        -0.004357164725661278,
                        0.2578633427619934,
                        -0.12742213904857635,
                        -0.1142159178853035,
                        0.024480482563376427,
                        0.29939398169517517,
                        -0.12578552961349487,
                        0.032827358692884445,
                        -0.09674979001283646,
                        0.08381011337041855,
                        -0.19535678625106812,
                        -0.005784801673144102,
                        -0.23364712297916412,
                        -0.2412746697664261,
                        0.06875182688236237,
                        0.2985899746417999,
                        0.40514901280403137,
                        -0.05435766652226448,
                        -0.2766098380088806,
                        0.23126497864723206,
                        -0.1778978705406189,
                        -0.25023025274276733,
                        0.013100698590278625,
                        -0.03156246989965439,
                        0.06474215537309647,
                        -0.16622695326805115,
                        -0.18870402872562408
                    ],
                    [
                        0.2705598473548889,
                        -0.37782883644104004,
                        0.0924837589263916,
                        -0.19583559036254883,
                        -0.05299493670463562,
                        0.17887836694717407,
                        -0.023167619481682777,
                        -0.08060483634471893,
                        -0.1109016016125679,
                        -0.12224020808935165,
                        0.2801119089126587,
                        0.21336126327514648,
                        0.02414042130112648,
                        -0.21788224577903748,
                        0.0008318093605339527,
                        0.33812761306762695,
                        0.018878446891903877,
                        0.18170514702796936,
                        0.21503442525863647,
                        0.013253536075353622,
                        0.26971200108528137,
                        -0.00384053704328835,
                        0.08483420312404633,
                        0.4759044349193573,
                        0.24585022032260895,
                        0.14168617129325867,
                        0.11251325905323029,
                        0.5753948092460632,
                        0.3343472182750702,
                        0.39021605253219604,
                        0.19321703910827637,
                        -0.25518476963043213,
                        0.24564801156520844,
                        0.2040613442659378,
                        0.49684348702430725,
                        0.1488199234008789,
                        -0.06225557625293732,
                        -0.1706928163766861,
                        0.041084177792072296,
                        0.39636334776878357,
                        -0.055655233561992645,
                        0.1085432916879654,
                        0.0034743323922157288,
                        -0.0640818402171135,
                        0.003931989427655935,
                        0.09611959755420685,
                        -0.3136555254459381,
                        0.03455083817243576,
                        0.11864583939313889,
                        -0.16811850666999817,
                        -0.6949162483215332,
                        1.2258330583572388,
                        -0.026729071512818336,
                        0.14542104303836823,
                        0.07885298877954483,
                        -0.340973824262619,
                        -0.005093561485409737,
                        0.16374161839485168,
                        -0.18514391779899597,
                        -0.17179004848003387,
                        -0.11318642646074295,
                        -0.14842937886714935,
                        0.12839527428150177,
                        0.22409246861934662,
                        -0.07410895824432373,
                        0.1869070678949356,
                        0.303777813911438,
                        -0.42167967557907104,
                        -0.017298975959420204,
                        0.028433291241526604,
                        0.3340703547000885,
                        0.30147093534469604,
                        0.3312165439128876,
                        0.16040419042110443,
                        0.010734009556472301,
                        0.5078564882278442,
                        0.04040225222706795,
                        0.2923106253147125,
                        0.316217303276062,
                        0.30734890699386597
                    ],
                    [
                        0.09470327198505402,
                        -0.5156167149543762,
                        0.047759752720594406,
                        -0.6097374558448792,
                        -0.026585759595036507,
                        -0.30666106939315796,
                        -0.17791959643363953,
                        -0.4804752767086029,
                        -0.3294842541217804,
                        -0.5516852140426636,
                        0.08101624995470047,
                        0.027540035545825958,
                        0.022037431597709656,
                        -0.32683807611465454,
                        -0.40325722098350525,
                        0.1506550908088684,
                        -0.04952531307935715,
                        0.1534167379140854,
                        0.1304531842470169,
                        -0.07342837750911713,
                        0.16766777634620667,
                        0.915883481502533,
                        0.5465751886367798,
                        0.21118350327014923,
                        0.29158955812454224,
                        0.22046059370040894,
                        0.34505635499954224,
                        0.6258714199066162,
                        0.21399198472499847,
                        0.6585679650306702,
                        -0.2722265124320984,
                        0.13159355521202087,
                        0.12028279900550842,
                        0.19945545494556427,
                        0.7923595309257507,
                        0.23692254722118378,
                        0.014286244288086891,
                        0.0017897856887429953,
                        0.06561432033777237,
                        0.5009433627128601,
                        -0.4625106155872345,
                        0.0446661114692688,
                        0.23916082084178925,
                        0.24915339052677155,
                        -0.08321736007928848,
                        0.07464790344238281,
                        0.0699651911854744,
                        -0.1953141987323761,
                        -0.20301204919815063,
                        -0.047140154987573624,
                        0.1307706981897354,
                        -0.27509310841560364,
                        0.09235887229442596,
                        -0.02632862888276577,
                        0.06971083581447601,
                        0.39630192518234253,
                        0.240689218044281,
                        -0.23795655369758606,
                        -0.04784732311964035,
                        -0.05121743306517601,
                        -0.034645579755306244,
                        0.03915334865450859,
                        1.3619685173034668,
                        -0.3743368685245514,
                        -0.1282305270433426,
                        0.2218465954065323,
                        0.2178509533405304,
                        0.2536332607269287,
                        0.11134438216686249,
                        -0.34594640135765076,
                        0.25327080488204956,
                        -0.07292906194925308,
                        0.013862194493412971,
                        0.16050946712493896,
                        0.014243049547076225,
                        0.35878515243530273,
                        0.44314026832580566,
                        0.23947231471538544,
                        -0.07608989626169205,
                        0.3119831383228302
                    ],
                    [
                        0.2516818642616272,
                        -0.46008050441741943,
                        0.5175532698631287,
                        -0.42694729566574097,
                        0.06043117493391037,
                        -0.4565794765949249,
                        -0.11191292107105255,
                        -0.23532481491565704,
                        0.1470203548669815,
                        -0.20218534767627716,
                        0.445647656917572,
                        0.14222203195095062,
                        0.027066031470894814,
                        -0.3323274552822113,
                        -0.2611420452594757,
                        0.1732661873102188,
                        0.03325984627008438,
                        0.2627224326133728,
                        0.2904680073261261,
                        -0.15869669616222382,
                        -0.020961830392479897,
                        -0.2653164863586426,
                        -0.026665212586522102,
                        0.44821250438690186,
                        0.3440799117088318,
                        0.1415758579969406,
                        0.22215040028095245,
                        0.6543813347816467,
                        0.4032209813594818,
                        0.825197696685791,
                        0.5970869064331055,
                        -0.013814376667141914,
                        0.17725102603435516,
                        -0.07989700883626938,
                        0.49501633644104004,
                        -0.29629769921302795,
                        0.11082378029823303,
                        -0.08539063483476639,
                        0.15858647227287292,
                        0.12796208262443542,
                        -1.1547527313232422,
                        0.11755051463842392,
                        0.07370816916227341,
                        -0.4135623872280121,
                        0.007535699289292097,
                        0.03987206146121025,
                        -0.10383269935846329,
                        -0.0686320886015892,
                        0.20243659615516663,
                        -0.18313126266002655,
                        -0.8635176420211792,
                        -0.2353176325559616,
                        0.10101078450679779,
                        0.023560475558042526,
                        0.5468944311141968,
                        -0.4838756024837494,
                        0.023150073364377022,
                        -0.38550230860710144,
                        0.19305741786956787,
                        0.15307335555553436,
                        -0.42986586689949036,
                        -0.31964224576950073,
                        -0.21584640443325043,
                        -0.1410101354122162,
                        -0.3427634835243225,
                        -0.7387561798095703,
                        0.47337669134140015,
                        0.2303423434495926,
                        -0.46349403262138367,
                        0.11437777429819107,
                        0.28784066438674927,
                        0.1102314218878746,
                        0.31099948287010193,
                        -0.08436610549688339,
                        -0.10916999727487564,
                        0.23208563029766083,
                        0.4490416646003723,
                        0.49561721086502075,
                        0.5526725053787231,
                        0.2874530851840973
                    ],
                    [
                        0.27536603808403015,
                        -0.7421454191207886,
                        0.15076515078544617,
                        -0.18904827535152435,
                        0.08815968781709671,
                        0.10763579607009888,
                        -0.08242730796337128,
                        -0.34731680154800415,
                        0.27744126319885254,
                        -0.8346805572509766,
                        0.35225287079811096,
                        0.24522088468074799,
                        0.037822429090738297,
                        -0.2337615191936493,
                        -0.07810108363628387,
                        0.10357781499624252,
                        0.1436457633972168,
                        0.3333616852760315,
                        0.2253231406211853,
                        -0.029203135520219803,
                        -0.2131042629480362,
                        0.507331371307373,
                        0.4986031949520111,
                        0.2808133065700531,
                        0.06732066720724106,
                        -0.02286103367805481,
                        0.1751323938369751,
                        0.4418407380580902,
                        -0.13098374009132385,
                        0.6056029796600342,
                        0.5145353674888611,
                        0.22061456739902496,
                        0.360601544380188,
                        0.052140362560749054,
                        0.12995539605617523,
                        0.12493670731782913,
                        0.049945492297410965,
                        0.05778621509671211,
                        0.4162313640117645,
                        0.3417615592479706,
                        0.25376182794570923,
                        -0.25049519538879395,
                        -0.18974536657333374,
                        -0.08259272575378418,
                        0.023840978741645813,
                        0.16970273852348328,
                        0.14697487652301788,
                        -0.3615255355834961,
                        -0.005215180106461048,
                        -0.21652193367481232,
                        0.3579372763633728,
                        -0.29944539070129395,
                        0.03865886107087135,
                        0.11799569427967072,
                        -0.041619349271059036,
                        0.08023063093423843,
                        -0.016587063670158386,
                        0.0829111635684967,
                        -0.3140338659286499,
                        -0.10582666844129562,
                        -0.37982529401779175,
                        -0.15532401204109192,
                        0.23794443905353546,
                        0.07427878677845001,
                        -0.1040140837430954,
                        0.018597790971398354,
                        0.4555288553237915,
                        0.39486271142959595,
                        0.06879078596830368,
                        0.11853739619255066,
                        0.36682459712028503,
                        -0.1309940069913864,
                        -0.0035882839001715183,
                        0.3266461193561554,
                        0.08551512658596039,
                        0.15743780136108398,
                        0.1498810201883316,
                        0.32259371876716614,
                        -0.0858769342303276,
                        0.34342798590660095
                    ],
                    [
                        -0.0930437222123146,
                        0.24995529651641846,
                        0.5425700545310974,
                        0.3836430311203003,
                        0.049295779317617416,
                        -0.026532838121056557,
                        0.3089638948440552,
                        0.3971787691116333,
                        0.14433839917182922,
                        -0.0318840891122818,
                        0.019684696570038795,
                        -0.14600443840026855,
                        -0.03344282880425453,
                        0.565176784992218,
                        0.3640340566635132,
                        -0.2393704205751419,
                        0.12673236429691315,
                        0.10179515928030014,
                        -0.061987631022930145,
                        0.20736882090568542,
                        -0.23787981271743774,
                        -0.49118009209632874,
                        0.3932350277900696,
                        -0.057392727583646774,
                        0.07378629595041275,
                        0.30805230140686035,
                        0.11279907822608948,
                        -0.2874496877193451,
                        0.021180791780352592,
                        -0.5051445364952087,
                        -0.3120465576648712,
                        -0.19807375967502594,
                        -0.13573618233203888,
                        0.05418776348233223,
                        -0.289103627204895,
                        -0.0742856115102768,
                        0.05790502578020096,
                        0.23493877053260803,
                        -0.1651400923728943,
                        -0.06322866678237915,
                        -0.5405063629150391,
                        -0.04175328463315964,
                        0.018990451470017433,
                        0.04104610159993172,
                        -0.0003918053989764303,
                        0.2447497844696045,
                        0.6034278273582458,
                        -0.19716444611549377,
                        0.008521121926605701,
                        -0.3028092086315155,
                        0.2710684537887573,
                        0.13198986649513245,
                        -0.03923162445425987,
                        -0.16211895644664764,
                        -0.02884938381612301,
                        -0.02728821150958538,
                        -0.07616427540779114,
                        -0.3139229714870453,
                        -0.4587683081626892,
                        0.31538125872612,
                        -0.10005710273981094,
                        0.267407089471817,
                        -0.8312438726425171,
                        0.07177798449993134,
                        -0.088418148458004,
                        0.024094970896840096,
                        -0.1305614709854126,
                        0.020956814289093018,
                        0.4790854752063751,
                        0.11173973232507706,
                        -0.1750352531671524,
                        -0.2831345200538635,
                        0.04457051679491997,
                        0.027408979833126068,
                        0.49822479486465454,
                        -0.2499743402004242,
                        -0.15749011933803558,
                        -0.1215258538722992,
                        0.055533867329359055,
                        0.14935387670993805
                    ]
                ],
                [
                    0.6468570232391357,
                    -1.6302266120910645,
                    0.7148792743682861,
                    0.12686771154403687,
                    -0.17446362972259521,
                    -1.240619421005249,
                    -0.5122936964035034,
                    -1.107893705368042,
                    -0.3261949419975281,
                    -1.7352092266082764,
                    0.3042653203010559,
                    0.13580548763275146,
                    0.13129115104675293,
                    -0.28319403529167175,
                    -2.5755488872528076,
                    0.5595165491104126,
                    0.2864280939102173,
                    0.4412161409854889,
                    0.6228011250495911,
                    -0.2716222405433655,
                    0.26628392934799194,
                    2.282315731048584,
                    1.1114964485168457,
                    1.973388910293579,
                    0.8637509346008301,
                    1.8266205787658691,
                    1.3115110397338867,
                    1.843858003616333,
                    1.3204582929611206,
                    1.37388277053833,
                    -0.1761385202407837,
                    0.24924486875534058,
                    0.8687596321105957,
                    1.0004513263702393,
                    2.53328800201416,
                    0.3347485065460205,
                    0.44332021474838257,
                    -0.15309473872184753,
                    0.2196386307477951,
                    1.1493513584136963,
                    0.10711111128330231,
                    0.01400305237621069,
                    0.4972584545612335,
                    0.19501841068267822,
                    -0.13937148451805115,
                    0.3105350434780121,
                    -0.1017320305109024,
                    -0.25331300497055054,
                    0.02586561068892479,
                    0.2890050411224365,
                    0.7053091526031494,
                    -0.5583626627922058,
                    0.1479099988937378,
                    0.39697977900505066,
                    0.250108927488327,
                    0.9885359406471252,
                    0.4570753872394562,
                    -0.541225254535675,
                    0.4620792269706726,
                    -0.15164640545845032,
                    0.18813556432724,
                    -0.4641384780406952,
                    1.9617605209350586,
                    0.3695107102394104,
                    -0.21832531690597534,
                    0.7407814860343933,
                    0.7258207201957703,
                    0.7065492868423462,
                    -0.2432284653186798,
                    -0.2790154218673706,
                    0.4300233721733093,
                    0.013339733704924583,
                    -0.06895213574171066,
                    0.4183391332626343,
                    -0.15510505437850952,
                    0.9573016166687012,
                    0.7471015453338623,
                    0.7920840978622437,
                    0.32337480783462524,
                    0.3044509291648865
                ]
            ]
        },
        {
            "type": "dense",
            "activation": "",
            "shape": [
                null,
                null,
                1
            ],
            "weights": [
                [
                    [
                        -0.015378281474113464
                    ],
                    [
                        -6.497725553344935e-05
                    ],
                    [
                        0.01535745058208704
                    ],
                    [
                        0.13455699384212494
                    ],
                    [
                        -0.025658775120973587
                    ],
                    [
                        1.5358706712722778
                    ],
                    [
                        0.09821584075689316
                    ],
                    [
                        0.1174440011382103
                    ],
                    [
                        0.03344899043440819
                    ],
                    [
                        0.025163138285279274
                    ],
                    [
                        0.08323384076356888
                    ],
                    [
                        -0.6290581226348877
                    ],
                    [
                        -0.09916206449270248
                    ],
                    [
                        -0.4846242368221283
                    ],
                    [
                        0.33953726291656494
                    ],
                    [
                        0.2162148803472519
                    ],
                    [
                        -0.14982187747955322
                    ],
                    [
                        -0.36224788427352905
                    ],
                    [
                        0.02681819535791874
                    ],
                    [
                        0.07761438190937042
                    ]
                ],
                [
                    -0.12978537380695343
                ]
            ]
        }
    ]
}